,ES_FRONT_CALENDAR_2D,NQ_FRONT_CALENDAR_2D,RTY_FRONT_CALENDAR_2D,ZT_FRONT_VOLUME,ZF_FRONT_VOLUME,ZN_FRONT_VOLUME,UB_FRONT_VOLUME,SR3_FRONT_CALENDAR,CL_FRONT_VOLUME,GC_FRONT_VOLUME,6E_FRONT_CALENDAR,6B_FRONT_CALENDAR,6J_FRONT_CALENDAR
2020-03-20,0.0928705337503059,0.05412295954085806,0.06659951092850147,-0.4541452857768065,-0.6456321362925789,-0.6672709373316489,-0.1249988349600195,0.042078884353486126,0.001134425398866131,0.006763100979907672,0.27907573471610453,0.1418834612358185,0.280015401368617
2020-03-27,0.05480857377493213,0.02610860877400597,0.07352938474641936,-0.3609219161757951,-0.6234072980278241,-0.6908459271545977,-0.1316847667804117,0.1480655303012086,-0.012727171137701476,-0.003146319451615297,0.25625738356948424,0.1704607428254963,0.380146791647255
2020-04-03,0.05789676141549596,0.040024581176129254,0.045586988910488735,-0.4385225367316715,-0.594965172737892,-0.6216090800462164,-0.11339275081789721,0.035769965025347364,-0.014646753768187424,0.024280085297078056,0.253452945990405,0.19388896769248587,0.4737544117508237
2020-04-10,0.09023211028139017,0.04701263114257916,0.0513811144301067,-0.5544098047840094,-0.5909606813405209,-0.5821270034347381,-0.11720750450612863,0.04787343532812551,0.012169365653034633,-0.038148320260719105,0.17343974324870884,0.1882225519102729,0.3690881396579108
2020-04-17,0.09961825453392181,0.04673021901367981,0.05797296264894483,-0.54015325651146,-0.5712741584598314,-0.5782903448157959,-0.07157810709219882,-0.1312825758234072,0.02690833583985708,-0.12346004029210607,0.1400965657904282,0.22369060839412402,0.40560114590940977
2020-04-24,0.12423127961423414,0.07098631305758138,0.05278843134012076,-0.4147576118905226,-0.5412158035517055,-0.5838793951195872,-0.12234907916986591,-0.15420921211173272,0.031702244499832076,-0.1842832536886897,0.2160941529052468,0.24011426293172478,0.35243381825027287
2020-05-01,0.11396724397678655,0.08178588114507304,0.057574215251540675,-0.34390823529190373,-0.4167279333863698,-0.6754783741211918,-0.1663196751790913,-0.1631476176546636,0.032453146203346356,-0.15689084030076575,0.2366873240932383,0.2412170100921875,0.2679676666442401
2020-05-08,0.11126870473505805,0.08140035764796237,0.06411179799826879,-0.21205827417855755,-0.26933793065046574,-0.7547196918022641,-0.19378715031576713,-0.15306592002807723,0.031880122619978656,-0.16688668679215418,0.25143530952469695,0.18277126911485847,0.27855297038154436
2020-05-15,0.10414853520533522,0.08707065002683065,0.08656047754459763,-0.1263140392781243,-0.27060646314440834,-0.7669354470592245,-0.24789282473041893,-0.21414141389502206,0.04721490310441133,-0.11290088464682105,0.19420719523588847,0.09410660726506338,0.24341516153776663
2020-05-22,0.08777651448602643,0.07367593595872862,0.14004145819793512,-0.1758880609784218,-0.23806037967123822,-0.6301243400994151,-0.3066962611030325,-0.19018903529771503,0.0407089704503371,-0.0912484630599891,0.1623826301519135,0.07960268098457812,0.2028367496870789
2020-05-29,0.0700692954083522,0.059180231136510275,0.18931605536357846,-0.12625421272214715,-0.16841324833405508,-0.5246403555920962,-0.3676803454365214,-0.18370805029818874,0.03384630454709535,-0.07630225001366618,0.12337638273274032,0.05983167843283159,0.15713043310689118
2020-06-05,0.08760625628522091,0.06982232790317139,0.15613124656677396,-0.21860293051844668,-0.31575419881356215,-0.5710502554548975,-0.32485285391642493,-0.12300374690042438,0.04583815501424123,-0.07774665361193638,0.11967541204984272,0.08777004517233603,0.15320125409151236
2020-06-12,0.10577659109815557,0.07018686388192798,0.147775109653056,-0.30393443904339784,-0.43877016917952744,-0.6147151592444763,-0.2932476393160708,-0.07447193229564594,0.05736547190586318,-0.08888215240576446,0.05527673746450702,0.12562076503840042,0.16924862436362523
2020-06-19,0.1337795555761034,0.08219728115584356,0.1517383176834149,-0.23862923724828292,-0.5010465385243882,-0.7223890577751451,-0.30394973546625653,-0.010612241270440387,0.06380245312860466,-0.12102642121381534,0.014314933293994622,0.1597355354356052,0.13670029559039287
2020-06-26,0.09911233160566645,0.057734031046720855,0.17142749932287407,-0.11400802384815294,-0.4508407645607645,-0.7302352073760857,-0.3238459771094023,0.044960496032572204,0.06977483133058934,-0.14424862271592326,-0.005327244757580344,0.21475070124057175,0.0775139907808984
2020-07-03,0.0987400626360144,0.065532349272836,0.15686815462879394,0.015714545647519215,-0.4104298107408314,-0.7140483913963578,-0.315887895443858,0.05277437329752996,0.07981828541687824,-0.1576271703822074,-0.0833522572320199,0.24338269671100382,-0.06758476940597438
2020-07-10,0.11809135268287758,0.0885559863590528,0.16395322769084555,0.027130687039437634,-0.48057678441807045,-0.7702042502109054,-0.3523292125422891,0.04222132525773935,0.10089769455938265,-0.17438116415797073,-0.11385981501988125,0.29912351124855374,-0.209329654945237
2020-07-17,0.13438684138585807,0.09797101157420526,0.17269927139163013,0.0452502774515824,-0.5967030434009454,-0.8384337960215865,-0.3757911559409615,0.10904668788534685,0.11155153893187358,-0.19410481467473142,-0.09705296599514722,0.3489997015578777,-0.28504986187102926
2020-07-24,0.13620092916106732,0.0844815045851551,0.18592515887155048,-0.06403923901519445,-0.6558147389196743,-0.8381203029966647,-0.37004352085531916,0.21157015295055565,0.12414492053122379,-0.20990232187462154,-0.06418621686479759,0.3928063747842244,-0.3744702633096342
2020-07-31,0.1386604288641482,0.06004525121563822,0.20911593475302004,-0.1749048463394588,-0.7134493738569843,-0.8240495599950078,-0.36256251559890834,0.3163250137242166,0.13704100401868521,-0.21820026634724612,-0.08493149508175511,0.43047516672569547,-0.4499687849437493
2020-08-07,0.15943195172264307,0.04398220352257782,0.2207274666964957,-0.28956206187282224,-0.7516235624052786,-0.8092458074978058,-0.34690938253195863,0.41186735456281065,0.14442685319792656,-0.20835366064192298,-0.1053113025771383,0.45179843912649226,-0.5637565171835703
2020-08-14,0.17082734323845097,0.030135573715513744,0.23524166868063343,-0.3789466006003653,-0.7928911710915936,-0.8061021291069675,-0.33806912005389006,0.5561554238178207,0.14514392012441726,-0.18768513595330896,-0.15990943241156433,0.46666265883843794,-0.6462281951773093
2020-08-21,0.18971175692643225,0.025081593635747516,0.2505054958926213,-0.40540413454495855,-0.8001662977145985,-0.7785130133521954,-0.3033284456467459,0.650052995815811,0.1371156399708809,-0.1641568112843592,-0.28305851871492665,0.4344322366151887,-0.7301298381209713
2020-08-28,0.20480548912367902,0.03431983026451267,0.23819399264994695,-0.47154099644939473,-0.7797253639685645,-0.7258716029063027,-0.2678976991578842,0.6661432291780885,0.11931520932192068,-0.08918918638678447,-0.3861464477512519,0.3976241843264526,-0.7700821432331868
2020-09-04,0.23270058103640034,0.0642199621273687,0.22729310467944608,-0.5383991541052165,-0.747872214400684,-0.6674877842991063,-0.24046636613412856,0.7112714759260582,0.10981985879988512,-0.08145810770797017,-0.46241612101407215,0.3199148131568991,-0.8005258522512608
2020-09-11,0.2649682938353194,0.0883620356850914,0.20828295415435533,-0.6659692273039852,-0.7520563305027742,-0.5733866335188188,-0.2209602448324422,0.6516847226275922,0.10192019075303131,-0.0788679982971395,-0.45512312573222785,0.2724528517861983,-0.7461387379245217
2020-09-18,0.333468116398957,0.10412538473772359,0.19040914611711243,-0.7959488266137029,-0.7842081402395134,-0.584776263718213,-0.21627536859421653,0.6787092841583804,0.10144855657742952,-0.12267908297067473,-0.3837256296964565,0.24621074009504632,-0.6954285211689595
2020-09-25,0.3890460653895087,0.10369108245680518,0.19508892593108304,-0.8384094485073643,-0.7189446981658322,-0.5477812120056649,-0.19870550073547563,0.5526685618500675,0.09768113513285738,-0.14072946869783623,-0.32831852682306717,0.18502239788211142,-0.7079935319785164
2020-10-02,0.43183270051395073,0.0721974094231411,0.18518255598342048,-0.8546672283339309,-0.7160049004624066,-0.5539755536186622,-0.23188925870729762,0.41379658088708227,0.10968189494052102,-0.13773920614809668,-0.21795525879651748,0.2582745432962198,-0.7277527599968896
2020-10-09,0.43471543190934847,0.01801071201806513,0.1826253315372455,-0.833568208334317,-0.7346835745426886,-0.6015057108398986,-0.29250023560829663,0.4938583412590053,0.12718579438495206,-0.10753068725184366,-0.17578054153815661,0.35004266751454055,-0.7584902583588209
2020-10-16,0.4360688560675199,-0.024725109593350343,0.15099928301510862,-0.8272443905974295,-0.7551295654266519,-0.6533752622719947,-0.34523185864150735,0.4985596305780274,0.13491763212371854,-0.0420925649512381,-0.10211049328346568,0.46474301136308827,-0.7318181771983352
2020-10-23,0.4238063635608014,-0.04736672495531334,0.12228985862961908,-0.7478207166647495,-0.7416929614560082,-0.6637123520434586,-0.3703594468229288,0.5357310834157686,0.14108215322979437,0.02705900120814625,-0.13160183175187665,0.5448267154613892,-0.8178171064180421
2020-10-30,0.40669028769810395,-0.03771836590513057,0.09027330356730535,-0.8567119888286627,-0.7414072282204698,-0.6463597435820242,-0.3463134435215621,0.40955571508784727,0.14450071447550558,0.11340036672629264,-0.12358129639971951,0.5417782295205253,-0.7541780299402887
2020-11-06,0.3959492614227526,-0.01851414094579918,0.07846846052994548,-0.8771492045422241,-0.6961599246445941,-0.575362588018235,-0.3004758693907739,0.27986017668768715,0.14427534849142204,0.12778385588605937,-0.145982678293449,0.47010202568165926,-0.7168293524729517
2020-11-13,0.3787304744984782,-0.0018330802264685288,0.07680550357746378,-0.8715486065227495,-0.658248170015113,-0.501709203295927,-0.2492268001570788,0.19387881644022786,0.1486020700303884,0.11242873202440669,-0.20492741481864699,0.3898240470131068,-0.665692884515826
2020-11-20,0.3623942715246057,0.018907688402863287,0.07937481945791931,-0.8564868977124995,-0.6244001395194869,-0.4394357775867955,-0.20120369668316251,0.10436525137221499,0.1514648267442635,0.08776414550994512,-0.2616205980239939,0.3174900898656814,-0.6106134891375317
2020-11-27,0.3494476833167477,0.03909042059626516,0.07868684188136532,-0.8323555591799363,-0.5878281935006396,-0.36121422319581103,-0.149932392068167,0.030527984146243664,0.15392686956727755,0.07011693965996357,-0.34228457656219446,0.245238307468744,-0.5814892075068406
2020-12-04,0.34805619434456747,0.06256362458100356,0.06823079619948534,-0.8043239977614375,-0.5487939358067166,-0.28031756984311185,-0.09920045402791478,-0.05569761672848103,0.15519070837975227,0.05179727948356232,-0.43036720566476044,0.19368973593829786,-0.5609446571476252
2020-12-11,0.3426199438898597,0.07887341249467256,0.05910252172821073,-0.7780484625359279,-0.4971573525992114,-0.18049374828578235,-0.052282216361634215,-0.11973628097885111,0.15324753543152556,0.04652466946737174,-0.5119118337649796,0.12033420881634857,-0.5426277500808573
2020-12-18,0.3369036404501487,0.09561878798532912,0.04523625183877253,-0.7297730029715356,-0.425088033569816,-0.08982619481029466,-0.01448244165728111,-0.17593541698212958,0.14792707922483397,0.038670714745072346,-0.5893843279093233,0.06556107601258868,-0.5293869795546646
2020-12-25,0.33321893425828053,0.11042987341479753,0.027666263862542968,-0.6792788299310115,-0.3517063261130098,-0.003297110790634411,0.0203018354496294,-0.26583439318132324,0.14405648143689379,0.03106736547421667,-0.6408351386010099,0.01976100941983123,-0.5092658013185655
2021-01-01,0.3450931861469838,0.14181440362457726,0.014208097134117395,-0.6264149399714876,-0.2995242130101548,0.06276565347517445,0.0490383799581486,-0.3486744234862177,0.13430509624396056,0.012375671357466377,-0.7027366312846423,-0.020966745023368573,-0.4797404187235913
2021-01-08,0.3674850145799278,0.1746836410696867,0.0021696036799916957,-0.5832572229702797,-0.25556214376612957,0.1325781591117809,0.08733303934037057,-0.3814592433474696,0.11694245490585714,-0.005658372240729761,-0.7742106178610594,-0.08386203882814577,-0.4448177144985778
2021-01-15,0.36614918571047633,0.20115459738082325,-0.004031137434905055,-0.5561827634814963,-0.2269690306455276,0.1915932685621765,0.13450574369176044,-0.31035248071925864,0.09530723850549393,-0.01649314359304651,-0.83732445937815,-0.17500880629747861,-0.3985179865725479
2021-01-22,0.3775706431685937,0.24172686234088095,-0.025383491740742094,-0.5184753755465852,-0.20650143383442734,0.2526838520768101,0.1870831434379291,-0.36336319303161596,0.0794619000643329,-0.010771614218066921,-0.886604875200989,-0.26304854168748093,-0.3556047626447128
2021-01-29,0.43663889221965446,0.31950099234443796,-0.03389260972565617,-0.5522810814876183,-0.24400429567051948,0.25221983940595083,0.22225487464862909,-0.4593404252427282,0.05952962669671287,-0.014313421807217888,-0.8932034188251667,-0.3448681711827907,-0.3157700576303001
2021-02-05,0.4208403157491989,0.38503690144098246,-0.02526957873015461,-0.5854788328474825,-0.2631192106733239,0.29051796322722406,0.27130911981745237,-0.5453203950174448,0.04883941431071316,-0.02456738602646859,-0.9047748496013998,-0.44109726438195485,-0.26011727990093114
2021-02-12,0.38950036524020953,0.4480091638711655,-0.0060704589772208675,-0.6147405444669879,-0.2922767298866623,0.26666571380351933,0.3195820242831534,-0.5939065427136853,0.05282536201631964,-0.05545516050674351,-0.9127543125161043,-0.540597964307872,-0.19511303003803054
2021-02-19,0.2854764382757502,0.4223792077632772,0.009444536535057592,-0.6579514126017322,-0.27838598334476916,0.30054469894899205,0.3996386623893014,-0.60674494967207,0.08596388646549255,-0.07476354404539073,-0.9301215143667544,-0.6066886855280168,-0.1600623845679147
2021-02-26,0.19716074193741318,0.3773178009339223,0.020944243366341403,-0.64144161313107,-0.2521263075259344,0.34784008465518446,0.43645425298375595,-0.5865739610825181,0.11931393062039469,-0.06867299936927916,-0.9964526928794607,-0.6653493826635735,-0.11642309922586284
2021-03-05,0.12188568931536307,0.3213709808641432,0.035788211230737714,-0.6319608592111613,-0.2641193399029274,0.3093514903040112,0.43899717306743347,-0.43333509252280294,0.15540550302597922,-0.047737017320830216,-1.062041619773144,-0.6704396855367258,-0.1269063051573005
2021-03-12,0.04164661902598206,0.24661999496052234,0.05067728950748922,-0.6428888683648747,-0.3064297014098437,0.2676160733276433,0.45897252732083393,-0.38072693597250074,0.18075121337577688,0.006714645039635737,-1.0561134350168986,-0.6075941149210832,-0.1408987441646952
2021-03-19,0.03197074814774062,0.21065766190917362,0.05947680900226596,-0.6729655364881469,-0.370985864876997,0.20531539414825511,0.43405218325851763,-0.34549524610660015,0.18876005750917957,0.040018783897852975,-0.9664875595564381,-0.5412383995276212,-0.17208090219675518
2021-03-26,0.045308465712520535,0.19563512604675928,0.06281145083184447,-0.6849029378038841,-0.4346173552208473,0.13513064852725637,0.41715819611782956,-0.2789711832015513,0.19192108878002118,0.05713800995131868,-0.8768056212394837,-0.4950441184533225,-0.25505784289809885
2021-04-02,0.08915254318269815,0.19214703537657987,0.05165788202997264,-0.6558370703850639,-0.48264093165602656,0.10037207770174497,0.4036856042218097,-0.21348452425716846,0.18860112065481868,0.1027676002640372,-0.8234884085304588,-0.5084945563299903,-0.3900476314123429
2021-04-09,0.13649751360626566,0.18946296647050578,0.07822775658479324,-0.637298193434158,-0.49825730284647307,0.026941587529608083,0.37533213856383063,-0.20335953224267,0.16039569587967487,0.17830901629848656,-0.7605595963276053,-0.5482536375523717,-0.4609497873070857
2021-04-16,0.2024945791340373,0.22416820344531035,0.11008728627129563,-0.6234876269409074,-0.5616431452979449,-0.015159373300896492,0.39487485192776983,-0.2421300129642909,0.10343278779582735,0.2551619448035042,-0.7611830774364918,-0.5987744885447357,-0.4658172225671042
2021-04-23,0.15056884268504056,0.21030385941002006,0.11664746429578451,-0.5762319738955404,-0.5101254896429661,0.06075139995393537,0.44180761315214606,-0.2194247792902443,0.07314951593731339,0.26980283800418153,-0.7840261482914088,-0.6589904246622277,-0.4104727299610808
2021-04-30,0.09813070200373925,0.18177958790087462,0.10644621503006674,-0.5189542581742799,-0.44700561517211884,0.14828622404867037,0.47551495549305767,-0.1942556233143214,0.05052550552396191,0.27184196250114473,-0.7791128215542446,-0.695277466834633,-0.33430880784080685
2021-05-07,0.11584413323170785,0.18890954377947905,0.06459578660857804,-0.45758885989263115,-0.4260066386539143,0.2069056961230397,0.5216097173642175,-0.18596850652518607,0.025732098231884805,0.283099672622239,-0.7873558700755227,-0.794044607689133,-0.23942965569233585
2021-05-14,0.09302825698857549,0.15471579037203564,0.028160509682885887,-0.43175534226011225,-0.3780361580470058,0.31393084502510366,0.5596145054714364,-0.16178546036993158,0.003620764471266913,0.28910154594624243,-0.7571268838687969,-0.8142268490057473,-0.15441597828052994
2021-05-21,0.09770136269917043,0.15149469182502173,-0.01886165352876147,-0.5198680428012101,-0.44772141466850274,0.314747987506239,0.5895862741553404,-0.1316187478784901,0.0080068819174246,0.27800652468773696,-0.6704688334444053,-0.726517156825292,-0.11793480787837175
2021-05-28,0.09943554583718606,0.15007595402439342,-0.06084564353897126,-0.5706256334245645,-0.44435785389556076,0.3987463085861535,0.6232218818650462,-0.17957182253582193,-0.006645167820908824,0.3541318472531613,-0.6142152569353586,-0.6961706180324044,-0.17571225448057723
2021-06-04,0.08566718317286517,0.11649751408111966,-0.09889602140662121,-0.6168748313661507,-0.46176704303453886,0.46130511000964813,0.6375919245364658,-0.19064870744098902,-0.006795911261011239,0.4335099383115911,-0.5577664181816949,-0.639952377420111,-0.2464550440601977
2021-06-11,0.05326012288384129,0.08509272439300825,-0.1305553120643404,-0.6725762989314595,-0.4856385539914882,0.4756615401060059,0.6103120561259344,-0.17148154736304294,-0.0011024113385369313,0.48816463294656975,-0.501718684478293,-0.5537000730761484,-0.18495085440696304
2021-06-18,0.0013261268876262888,0.04972466204239191,-0.15217689766278258,-0.7060402635944726,-0.47093822782869943,0.49481494987999086,0.5760640362896796,-0.13724540224267465,0.0012249973864754,0.5445120755420497,-0.45471966486555754,-0.4833573677049148,-0.10569294021310782
2021-06-25,-0.07499236831322904,-0.0009910266740915247,-0.17474979360100412,-0.7085635451159599,-0.43825162200894946,0.5439585111827931,0.5604329950704083,-0.031285933858762036,0.018813755162240143,0.5716995799676444,-0.4340953306426115,-0.41764385247734037,-0.09235808996777137
2021-07-02,-0.14543226140958135,-0.04637492043865145,-0.1938706742126001,-0.7063447055271329,-0.4274014896750728,0.5564472416930236,0.519584716680707,0.028471246825654953,0.041351552928344464,0.6062045333999593,-0.3397694469721637,-0.3554708014788895,-0.06700760481464996
2021-07-09,-0.19230792334169253,-0.07889146262918327,-0.20306468358208304,-0.7329428820682639,-0.4455623619313229,0.522490177289964,0.4678219781420259,0.08581572549999752,0.0647811185315896,0.6482908732965399,-0.26995124897869804,-0.2853335467695336,-0.04888850692288751
2021-07-16,-0.24318215839607055,-0.11669540693170515,-0.20940776789533788,-0.7166713745849851,-0.43221578268244387,0.4954903400215551,0.4067810725208596,0.14266456164977329,0.07927170897334156,0.6904428564714632,-0.1989545423808668,-0.215192649660577,-0.016197613688014076
2021-07-23,-0.2782318500018826,-0.13949674099063097,-0.21483391725116455,-0.7348861282435601,-0.4534166013651806,0.458785894734769,0.3393918233374104,0.2499428173288984,0.10510314935526494,0.7486014902048673,-0.14020196121607265,-0.19270831889494244,-0.036905930131021246
2021-07-30,-0.3024343043748123,-0.16143820555383848,-0.22035989473000134,-0.6569315994625413,-0.3375567854725732,0.5098041074335347,0.2911314890336699,0.2574018533272056,0.11810828498427499,0.7462077406846487,-0.12040172198580906,-0.23301466969658874,0.035366770598426724
2021-08-06,-0.3293681666979159,-0.1878142288806622,-0.20294019182416645,-0.6104908954707077,-0.24757334137199416,0.5038843952910427,0.23129353274915454,0.39607810174119495,0.10730329488264821,0.7423391950571716,-0.10912530434222255,-0.2757548916785828,0.05508894175457078
2021-08-13,-0.3161350943889003,-0.19156075979525353,-0.22358708497157825,-0.6711499404960665,-0.23095067294685648,0.5086152564445411,0.1640687826589481,0.3073985673548821,0.11486620135319114,0.7848613436167564,0.013947513717316548,-0.2902151537157947,0.018250432332982472
2021-08-20,-0.2844626419256312,-0.17314167835326918,-0.2296760674097729,-0.7427974332274377,-0.22103833863978908,0.4733804392372515,0.11750577689600347,0.22402468135643078,0.12541003810167814,0.8255800341399416,0.05807904882802371,-0.314104377491189,-0.05955422915867152
2021-08-27,-0.2604825476714219,-0.16014644817132262,-0.2166266279024069,-0.8532837589779849,-0.301925052435448,0.40686283840522364,0.09997748771186196,0.16660054897884863,0.12477646800868991,0.86436719888073,0.11921932154806944,-0.31803779996987164,-0.07219197324268721
2021-09-03,-0.23079100996037702,-0.14789611368165034,-0.21031251931066403,-0.8840515365447209,-0.34898786087048383,0.35952635049306847,0.0724090504266299,0.08710837988574152,0.12183145351775397,0.89307352220383,0.12824240966654854,-0.21976546572657157,-0.15276155198214578
2021-09-10,-0.1954965112799068,-0.12530734340261104,-0.22597368972753457,-0.923404675009786,-0.4234685498452069,0.37484632983417704,0.02215115549224609,0.1418549439778045,0.11870219724334528,0.8430824040883305,0.15535670420256711,-0.15878645830191454,-0.1016779335164531
2021-09-17,-0.20116551408774497,-0.1285857773664984,-0.20457335969710072,-0.8278597267353216,-0.40157327230347256,0.2937812699592138,-0.023280212117505306,0.1296455092962623,0.11880640796447536,0.9069928942690181,0.14264116854215872,-0.13298274864348186,-0.21265013251117937
2021-09-24,-0.2226619574500328,-0.13906129649301577,-0.20089493834810757,-0.6879394345657242,-0.360287543750978,0.22308610685900135,-0.07932798212382262,0.14061121349949768,0.1242351249199973,0.9315083080689552,0.08948249685178085,-0.09373348704788992,-0.18956723842226375
2021-10-01,-0.22412846573896755,-0.14177846439285388,-0.19716569271433707,-0.5498103023066223,-0.2904768004409307,0.17691535872582168,-0.11095848276099371,0.21775521914491563,0.1306306404849085,0.9209571612384237,0.023796323576019934,-0.1243120927489824,-0.20555774524250647
2021-10-08,-0.2224993112266247,-0.1409708208589136,-0.20128351782567602,-0.4087806341224043,-0.2144074698657893,0.18301988847143347,-0.13699365023160348,0.2803811043003025,0.1370740407707417,0.8694794160865228,-0.025368849424300968,-0.18425932402069276,-0.19101049924086191
2021-10-15,-0.23424860241370152,-0.14990871427161373,-0.2045320496008856,-0.25421229988761485,-0.09646483392317481,0.22249475419846804,-0.14609810733892364,0.29874569637640913,0.13466473627872486,0.802022958817865,-0.022777508158945584,-0.21787851667333846,-0.16047739638238956
2021-10-22,-0.23481411844185948,-0.1559189382491396,-0.2126856332791875,-0.0936202602802638,0.01402376680442323,0.21847450980928906,-0.16013780169046363,0.2802487610711028,0.1403848151566928,0.7354652344867032,0.0127945591543682,-0.2617975687598222,-0.13461315705627683
2021-10-29,-0.23134779583192885,-0.159638362583722,-0.23177891165370912,0.042512686758913704,0.036782312121653254,0.18997802645159262,-0.1996648681923932,0.2880526516188004,0.15849871350449757,0.6663005578487404,0.1269675670985566,-0.27727042865414847,-0.15669075614922884
2021-11-05,-0.2226148588014548,-0.15544874783617751,-0.21418511202325474,0.11434435872608942,-0.01934194885108014,0.0647899325947835,-0.24375157750459223,0.31947368205977855,0.18515056081134684,0.609725081303767,0.16551780007154338,-0.2800783670465222,-0.17293714297367724
2021-11-12,-0.24396958122337256,-0.17315264162332883,-0.18396661495025718,0.2788745361608713,-0.012290789597905897,0.028116059855615765,-0.28461344022047386,0.3484402350048841,0.1957986783785471,0.5484816815438309,0.22454553238494568,-0.26291125344925803,-0.16838424458165768
2021-11-19,-0.2446474695218757,-0.17131465044471753,-0.18826122824857902,0.4543852280231009,0.12854466468324094,0.010844814284156398,-0.31599648129123037,0.34320301439423384,0.19297414574702687,0.4730580986957878,0.2641349427781287,-0.2601687146114813,-0.16601245546385965
2021-11-26,-0.23977128490413194,-0.16955462403687074,-0.18143979263486248,0.5695684762153167,0.2546125978404611,0.07010079208767084,-0.3044412956255369,0.28391654117104664,0.17916945697942752,0.41619054573819997,0.24333412488700135,-0.27783944916181474,-0.1720621966160735
2021-12-03,-0.23457069700104494,-0.16588704294066248,-0.17320167965527553,0.6606542634313852,0.3765313946727654,0.118869273750588,-0.30182251545440353,0.18711810593934003,0.17188396810142875,0.34917709417413306,0.21936650475361713,-0.278902161640199,-0.19443636046922716
2021-12-10,-0.22252385451024106,-0.15672866532868462,-0.1633234995941072,0.7314484332976685,0.4861644253070019,0.20093649950537518,-0.2711585921023318,0.17632736785335143,0.150237685910782,0.2725681096651532,0.17252432448561023,-0.2924585375342796,-0.20075004975019575
2021-12-17,-0.20771237913492552,-0.14584263744889442,-0.1539509526268633,0.7999074529684318,0.5944536020131383,0.2778834263938832,-0.2402687317010539,0.15505131071120543,0.12798246018539217,0.19301947204454967,0.1245055895640353,-0.2989357940354205,-0.20351910395030506
2021-12-24,-0.18804585267326931,-0.13287206160860948,-0.14591107680279847,0.8338985874804639,0.6881200215896697,0.3574761995684407,-0.2077265505253317,0.17986728148656939,0.09744860830176845,0.10813792478644296,0.07128088033246091,-0.28841085809369693,-0.18796960560554637
2021-12-31,-0.1650506844997402,-0.11766337129242875,-0.1342209265073347,0.8373451838537163,0.7889919027326942,0.4390412383859655,-0.18336338546031142,0.20932101559270713,0.060031141866690445,0.05364948565157624,0.0019052475679874337,-0.3048014638994763,-0.1552361740358773
2022-01-07,-0.14137619185984,-0.10329032257746228,-0.11677999421699875,0.8171265463745059,0.8925184277893414,0.5168325153230159,-0.17704390664472772,0.23164048074709828,0.02655454747039429,0.01238600796190812,-0.06799572469123273,-0.33275681124212664,-0.11349642281179743
2022-01-14,-0.1140604004899542,-0.09102696808961362,-0.0886331738830479,0.8397612171638524,0.9646295807605905,0.5709519751841292,-0.16362858776745023,0.16256482281771845,-0.0002147198179451408,-0.020482979996872534,-0.14110663012531094,-0.3756417636233335,-0.08821276249425403
2022-01-21,-0.0898040311336284,-0.08036953636626107,-0.041840393408143876,0.7963899577102406,1.0162983552027638,0.6200869056295762,-0.15401805373054026,0.1648544742163163,-0.02211522585231723,-0.06139002158465689,-0.24870283437897586,-0.43208528541338925,-0.05284176749145351
2022-01-28,-0.06861606963888801,-0.07215927615829736,0.0025780062219468228,0.7918536586014892,1.0544489229173033,0.627519039332725,-0.13741240414833034,0.2972475998323257,-0.04484001288398226,-0.0999099402308466,-0.3407865489876835,-0.4775094276567536,-0.08115480790407292
2022-02-04,-0.02658869757726704,-0.04920804005997985,0.043512489369783254,0.7142293817015872,1.0840304797601792,0.6386513353647367,-0.1592749524498847,0.3114086302116763,-0.06898226430639881,-0.17049283234959794,-0.27348979315745975,-0.5443841660151596,-0.09198337041080579
2022-02-11,-0.014686340137822586,-0.041581290693822166,0.06608885355103869,0.6985498907820854,1.0429786217631158,0.5720955732330572,-0.17465017198050814,0.43268910508192515,-0.07428660809484645,-0.21914451026272713,-0.18680255380435878,-0.5955613512238845,-0.09811464771142854
2022-02-18,-0.018896002734785096,-0.0433779097903153,0.08423124411356146,0.6107744773034296,0.94946197101183,0.5113955947021249,-0.16963190885570908,0.5276897193095315,-0.08071970748730514,-0.2524610732558502,-0.15845766143259019,-0.555236260472641,-0.07269388558927999
2022-02-25,-0.03174484218277692,-0.05124818328442475,0.09619299920755145,0.5447125178516983,0.9169879665152335,0.4810005802924712,-0.16447268561935122,0.6397243324491497,-0.09094374370414642,-0.29556578747793905,-0.10415154624312513,-0.4713907892426883,-0.10240786596088315
2022-03-04,-0.04480170995723279,-0.06460283376158302,0.10542439145558276,0.4324094308513306,0.9199179167753901,0.46539208463464726,-0.18686769236823297,0.5687018807056989,-0.07612341210637101,-0.3262646123501768,-0.02411374653944756,-0.38023954194350384,-0.12579776057768172
2022-03-11,-0.0555072690364881,-0.06859381412614377,0.10674309993573243,0.36685327735504064,0.8225809185878787,0.3994638909802034,-0.20399907429014993,0.6548981395467579,-0.07899083300854676,-0.3297323000113044,0.017634327475370096,-0.2827046191899165,-0.13201542122078647
2022-03-18,-0.047498188149351486,-0.06349641505539451,0.10548170357485567,0.32627605328173787,0.6909938126656113,0.30610100217251873,-0.23229924549971448,0.7222292840388499,-0.0713000798144646,-0.31630266897836035,0.057631152307509155,-0.22085733988057984,-0.1335245220286105
2022-03-25,-0.036496275697284385,-0.06082852977243395,0.10252686552372545,0.268245217913087,0.5817770867578991,0.22855879291328435,-0.2607407471349874,0.7184446381846957,-0.067714184196858,-0.3064485053510015,0.14152429263189872,-0.13632291662093426,-0.15801634538842743
2022-04-01,-0.0323264403679667,-0.06641206862663936,0.10525635976195502,0.1887394002925506,0.45351698958924413,0.14137705624514896,-0.2794489769025774,0.7157054884930679,-0.05900776157078015,-0.28792594797189597,0.22491301554282744,-0.08627349823054697,-0.14756136603322392
2022-04-08,-0.024926371351487522,-0.06710004172144653,0.09144313651250911,0.14703014082783672,0.38659073593069243,0.08605246347524889,-0.2987387546199543,0.632407177133486,-0.06624521274756436,-0.2789097320302776,0.31150718434001634,-0.038769635594161925,-0.0863625249160572
2022-04-15,-0.02083788240695402,-0.06831083673832732,0.09226074375897325,0.0945283832342439,0.34492909582366266,0.0548584465130218,-0.2978739397775011,0.4431239398935175,-0.07471233934391378,-0.2629143372554147,0.37463722565646596,0.007181904081446852,-0.04152898523247776
2022-04-22,-0.016659017114466282,-0.07108355214506415,0.08747432400574028,0.035224059435925235,0.31569079135268174,0.04615426054604765,-0.27741500811785197,0.2469373061825511,-0.08882623444209913,-0.24673675860412442,0.42744169572399965,0.05244940862990978,0.0044771863427032
2022-04-29,-0.01670826367234211,-0.07591458383107795,0.0808835735930067,0.058898642659637714,0.32551140472699197,0.05363234399488001,-0.24073558073255724,0.008553016255943097,-0.10692479241795702,-0.2140920881601826,0.46324566172985654,0.09653354364246089,0.04633783088911436
2022-05-06,-0.02033082135596061,-0.08000209220473108,0.06816645274911796,0.06967242307039054,0.31986125899908024,0.052969934087049385,-0.20201482071195787,-0.22270670908184845,-0.12962453280073644,-0.17647116527579543,0.499226764244967,0.14204879099606804,0.09702680944718363
2022-05-13,-0.03204614999103529,-0.09170295570858653,0.054618231677688624,0.14202367454533998,0.3342633454517005,0.06009812380134033,-0.16028819414454748,-0.3966342857165105,-0.1540579978860625,-0.14634009853331567,0.5309683873691798,0.17101636050899172,0.13525294092794865
2022-05-20,-0.05039465285994897,-0.11438300211698943,0.04160097227817212,0.2054915462967813,0.30568904153337717,0.021758215864837158,-0.13652351504244767,-0.43533570237746966,-0.18895632799516293,-0.11451810718231414,0.5995957930101545,0.20400813986087932,0.22001944642882454
2022-05-27,-0.06836273432807516,-0.1363008138874405,-0.0027874329948472526,0.24387756043249798,0.2993474448293425,-0.013663565585510025,-0.12671332266631558,-0.47792733591356396,-0.21078439023922863,-0.06856297722765253,0.6875314262053878,0.24734782518761253,0.3041354189942092
2022-06-03,-0.0834433746880237,-0.16117056509577235,-0.03598433779261614,0.3233095630485412,0.36238779119853987,0.04860434657948719,-0.08370234366050593,-0.49545417958898524,-0.2367870369265432,-0.01303858816303674,0.6564472378936315,0.23629117727144633,0.3420421668168384
2022-06-10,-0.08062926019930476,-0.1684859613219779,-0.04527584368589027,0.34184475817444687,0.4350933903413487,0.11127791876896406,-0.043502057556766845,-0.6465778976226955,-0.2503623222331702,0.035300944991735396,0.6392262845855533,0.20482951034525954,0.3667853409173352
2022-06-17,-0.07500015042540303,-0.1628430961147448,-0.07080532475472917,0.3934344925950019,0.479530560967529,0.16707597554565437,-0.025764131469855293,-0.7890009434071917,-0.25499573004866344,0.0754072452276503,0.5840174847225541,0.1901430936546951,0.40336302656755624
2022-06-24,-0.02659870750618202,-0.10579639320834994,-0.07411943607446358,0.31238595355397447,0.5072593244266062,0.16286583835987573,0.01432087478243237,-0.9580416833788075,-0.272770768311141,0.061595873116212375,0.5566602474336344,0.19990875687533916,0.40294778050617247
2022-07-01,0.01622852397489013,-0.0397187202384163,-0.069886147407594,0.3044505218205681,0.5414926388071064,0.2007039976878629,0.049369881804576216,-0.9882940431496746,-0.2830494472060745,0.02549830808715882,0.4572924003342683,0.14071307476831396,0.3663340189893311
2022-07-08,0.02361290628099976,-0.0062711613072479674,-0.006084226446042618,0.19120934159314773,0.5769192569611243,0.21454794983922795,0.05196694910237427,-1.0785613593277892,-0.29442694769191524,0.01768493761536656,0.45272767459017205,0.062349594014026344,0.40420494532576906
2022-07-15,0.03412500305208671,0.014585387076832369,0.019182137060293043,0.07933568248838122,0.48722648230466625,0.16839820196883665,0.02742036214651482,-1.168043603473556,-0.298607851672138,0.03411918609400508,0.4945456676591171,0.08089048572473165,0.40355900395902566
2022-07-22,0.04228250411902383,0.03816309646670629,0.05367773748976086,-0.07599078292006539,0.3813823816069335,0.13443488342900586,0.03023806389163101,-1.226988966599922,-0.2980929600209144,0.029666964798279558,0.5376094092550462,0.0992561653297679,0.39308329851071144
2022-07-29,0.07201783306403041,0.08214383155927057,0.04281515661279829,-0.24875532899471753,0.25452524447824426,0.09106967744003228,0.05153768005959529,-1.2386004147509997,-0.2847550142626857,0.014836142413228661,0.5444417383881257,0.09828156929330721,0.3895355902494215
2022-08-05,0.058361465685207135,0.10260231789079167,0.017391408600933297,-0.08674343153353031,0.2439046389163852,0.12244068733406496,0.08613862362953881,-1.3044122299026015,-0.28075258233325484,0.012045088253059505,0.4816786158400771,0.12173411741340334,0.346499620368
2022-08-12,0.035764266715074364,0.10854396596342507,0.009400654873870038,0.12467668509872312,0.2943518824618838,0.16291133914313127,0.0844611111034868,-1.2989053522969303,-0.2788872466587398,0.017728248841724012,0.39398024951928606,0.11029069801445686,0.299241905239288
2022-08-19,0.02110901518492151,0.11789377485559727,-0.021985172622863147,0.2888802269185794,0.33333019349812953,0.2046739303282296,0.08825190989972573,-1.2472823124826946,-0.2735090586460879,0.022031515669192734,0.3181583964257574,0.08892297334474787,0.26186210841337954
2022-08-26,0.04719411767373266,0.15606415202649876,-0.057680777082980535,0.4498965618540896,0.32883096331064393,0.2130738228067081,0.08335488475711035,-1.2814516865039687,-0.2672931142452275,0.039895128113196995,0.23805689555780835,0.06356718567221997,0.20433189468391486
2022-09-02,0.090296408334924,0.2005231658687913,-0.11214833682415026,0.5345354019841507,0.3477725639531947,0.23371615930010012,0.06850193189935955,-1.3393817961447392,-0.23245293477115775,-0.05030092484809122,0.24003094817502546,0.05003680826385028,0.18390726115403835
2022-09-09,0.14145645060192663,0.24237964389018418,-0.177456331937279,0.4990864239986013,0.28709762159103197,0.19524040196386666,0.039405058501795244,-1.357832522435532,-0.21283765473350783,0.01690719014244331,0.24931514040106587,0.060863039807369505,0.1313128727256095
2022-09-16,0.1963847225334911,0.2645488186992061,-0.2181152606909173,0.48952064748357044,0.2680554294781819,0.1965504665938803,0.019780405139683297,-1.4195734001837323,-0.19092394470857968,0.08427047149423073,0.2908752031645876,-0.06476506099246279,0.11681796752811066
2022-09-23,0.2267365349736778,0.2586389578544661,-0.2808567208057023,0.43471786690403524,0.2858904829498461,0.2114735637705451,0.019924554458695995,-1.455480023818349,-0.1648502226875402,0.11038390512577767,0.2898535254556612,0.05077221609578046,0.008178915559071867
2022-09-30,0.22560778283514518,0.2655971667501611,-0.310207580817634,0.42841584863343274,0.30218290763319805,0.22288473118600177,-0.0035257675301011114,-1.244426036975323,-0.18920924567461964,0.12660525885481103,0.28229164062743856,0.15830141907702738,-0.03020187966795248
2022-10-07,0.20937221522147267,0.26253950983960855,-0.25161927560102665,0.4411169575747605,0.32298151542946707,0.2229024770079152,-0.027278291921510378,-1.3673449065508205,-0.20599545698375954,0.16937608028362083,0.21028178017737176,0.24413943881564132,-0.05472658047407255
2022-10-14,0.2466397481502854,0.3020630012356581,-0.21346621155226414,0.39546846114297823,0.2540430533720155,0.15862408415113083,-0.0660934064862192,-1.39835160886981,-0.20941174963473505,0.18188329332778091,0.1513949263354932,0.28787648581346115,-0.07254791733589727
2022-10-21,0.2763885689768766,0.3254814063730788,-0.19350782174621123,0.2788929602698234,0.17638717280002947,0.10534822879070321,-0.09583558930027992,-1.3810039462568091,-0.18970725958010723,0.19866905525652945,0.11256676769525889,0.3166844371742402,-0.1006988573488126
2022-10-28,0.3266868386936213,0.37318160260734845,-0.1909076379910831,0.2705079042727477,0.11610740465350243,0.06509523370909184,-0.13820514927255953,-1.3284622700990396,-0.15879859873562538,0.20218958274543355,0.005171970010416735,0.31623304916579936,-0.15399577826073796
2022-11-04,0.3712022637200385,0.4048770005354502,-0.18959711244329083,0.21451284233504203,0.03545046139054149,0.03802905287418874,-0.1302271884711629,-1.209340005291714,-0.16641902176808807,0.2262711750130152,-0.04968105036918806,0.3161450349337802,-0.19901296820246656
2022-11-11,0.3853599459188953,0.4026569489351186,-0.15844866267730479,0.1139381649423626,-0.04214658854923803,-0.0018427318537459839,-0.12121726359149267,-1.1296525813351128,-0.17019964272890922,0.20448038454188278,0.004557454004757218,0.35055756119586967,-0.23052348167263848
2022-11-18,0.39655261264795494,0.39852302984992766,-0.12186204832488046,0.030099686067305592,-0.094069640033905,-0.013189141298918062,-0.08674435641053749,-1.0920851911188167,-0.17907158822671088,0.13906252738717578,0.08436044436466181,0.3872281815811315,-0.2686986309061412
2022-11-25,0.4045593381780859,0.3898347928105954,-0.09146603795180087,-0.09720071564825608,-0.16536490616988014,-0.05505358842082714,-0.0791024164678863,-0.9913014704220354,-0.16728298709837006,0.10814885416866393,0.125615421445742,0.39289989975513007,-0.2830929127487885
2022-12-02,0.4001754099222227,0.3760047278663252,-0.060006212652556803,-0.19718889333776674,-0.2490265119619734,-0.11734890762865019,-0.08768702603901768,-0.8977877113870358,-0.14534166138053536,0.07880638017528924,0.15195994470613805,0.40734923174734466,-0.272887857507544
2022-12-09,0.4062531383401917,0.3517959646087451,-0.013546408427089977,-0.307906098622282,-0.31304216008933894,-0.1698392724300469,-0.1108707760931768,-0.8427840325482183,-0.11369064248427155,0.03717908549176958,0.18084877134962515,0.421547768049303,-0.271410477040043
2022-12-16,0.4242236382204593,0.31664106926390373,0.04341036537554603,-0.44716789657716366,-0.39588047463356524,-0.21598330283231487,-0.11919791731790041,-0.8475510058959473,-0.075386086144171,0.024394506179587706,0.20633400905352772,0.42649395950747804,-0.2984694857241096
2022-12-23,0.422192771778896,0.2958970924108281,0.10149597628229476,-0.5329646955854852,-0.4553135711110926,-0.2608292312991965,-0.13874487011881886,-0.7827239636648123,-0.03853830448441705,0.01441349972106183,0.16915679224579433,0.37354658707559674,-0.29073313626817565
2022-12-30,0.402322594701655,0.26316142792337804,0.17457466835630692,-0.5628602321765559,-0.49454821510554886,-0.31195785118528346,-0.178554533288872,-0.7505227561758547,0.017029575943998003,0.005883502013113499,0.12108550542558308,0.3052326674317015,-0.2891704256379735
2023-01-06,0.37278120108838936,0.24585588723317553,0.21212053326344854,-0.6000894589680246,-0.5221346719423846,-0.3587602919852173,-0.19684028571937823,-0.6655412486932812,0.07775921067110002,-0.0025465162050224126,0.06794430260191932,0.23241140450985542,-0.29477012339529807
2023-01-13,0.3312443285435168,0.22376996882237238,0.2489382491406127,-0.5960222817682256,-0.562513353238757,-0.40809683332597735,-0.21831092914969827,-0.5568302218221359,0.11874578841327868,-0.01330161945873437,0.011871692337927557,0.1883807095140499,-0.27101968662222237
2023-01-20,0.3103268362096203,0.23212559840870467,0.24125115077057602,-0.6382020170068832,-0.61413486676857,-0.44177487057485193,-0.20388060900791666,-0.42882332520323796,0.15363204621954862,-0.018429086280723272,-0.08985437903092924,0.15575171561036902,-0.25226519959130905
2023-01-27,0.3150549076406549,0.24428871675180203,0.2326443415912068,-0.5015819247544959,-0.5590611925649879,-0.43270936397507537,-0.20902587045114424,-0.44921064872071376,0.18360180537298493,-0.019380231202871738,-0.19051789341248396,0.08765883195590621,-0.3007980405097564
2023-02-03,0.29129773062310516,0.24583196503304594,0.24769987004929067,-0.39450171271022616,-0.519733568285104,-0.43354972483448206,-0.19335081724001504,-0.4976154472305684,0.21671257644582842,-0.006943871037750762,-0.2543710746430494,0.010441459290663924,-0.3624963527145625
2023-02-10,0.26247275372566237,0.24217205015108545,0.2420590891478619,-0.29708124374208644,-0.478291925270894,-0.446083375406513,-0.2175888699228183,-0.4169161142396115,0.25324329095384823,0.0053478136484851006,-0.31953839711314413,-0.0679538170220425,-0.37565253382853286
2023-02-17,0.21752701727350013,0.2341049384957599,0.20614697170228863,-0.21356157982150742,-0.4457510406950797,-0.43964753182076166,-0.22032601489120468,-0.3432213879912984,0.3047837231514529,0.03411050395204877,-0.34388057891637014,-0.1587350637944383,-0.3923727538998376
2023-02-24,0.17111122994377287,0.2167327842922686,0.18946250013147964,-0.13294979052798445,-0.4147351362288314,-0.43909316976886353,-0.2281117391064939,-0.20116200805383055,0.3270423755445643,-0.03097469685464272,-0.3568229563976085,-0.19113075194571866,-0.3675542458006133
2023-03-03,0.13995237950725603,0.21591857217113086,0.1564222714805545,-0.05490901539654282,-0.3970065937780063,-0.45035968359913464,-0.24528145748785712,-0.032975127294940176,0.3266220523723568,-0.0994091524404678,-0.3650520094509403,-0.20416622608926024,-0.31507927351689036
2023-03-10,0.09774796900876356,0.21770863532467244,0.12436482391415846,0.02999289305375706,-0.3644489844149998,-0.45532541160502954,-0.2458878706700984,0.1281454570606377,0.3331690760078197,-0.09291836202377059,-0.4259922606274963,-0.2634240649871372,-0.3216392048148467
2023-03-17,0.03103949049610627,0.1954187241906267,0.11674169748338246,0.1398088607096382,-0.3598240530442125,-0.48897292077395776,-0.28763469135425207,0.22872149577857978,0.34610227569152036,-0.02927284899217661,-0.4425508062594947,-0.28104350602187206,-0.31942868787204604
2023-03-24,-0.030713301057117025,0.16989580485980912,0.08528429134539087,0.23362403902013934,-0.3455634689357581,-0.5056371614681013,-0.30933202090434625,0.3186072414377245,0.3606705882866447,0.053043944225318565,-0.4721448287598158,-0.27903449507810363,-0.33588435327096633
2023-03-31,-0.041341672421365515,0.17434504107582172,0.04445187449788016,0.3448797835986215,-0.29639135399897587,-0.48241845394903227,-0.32444642867692747,0.38298771524170305,0.36005252248843567,0.11148487836022772,-0.4990266698069828,-0.27109384708665085,-0.4229513912605633
2023-04-07,-0.010658897897063944,0.21429778617346645,0.01811424061120224,0.37749052981645526,-0.24946218331025566,-0.43326232800585585,-0.29700404863104596,0.42666976440430887,0.33309802867924926,0.12314556612328822,-0.4997360944041508,-0.28317031022097944,-0.5747566963899778
2023-04-14,0.016639333176708956,0.24914048584466128,-0.02149363569474537,0.4574322316196583,-0.16176754708917784,-0.37236074772574485,-0.2797825451049543,0.40180537346476763,0.3024361114448465,0.11558552629092146,-0.48574187453380363,-0.2844892131520057,-0.6488489967008948
2023-04-21,0.07028411342640395,0.2875963721214514,-0.04074744258860792,0.43587849722028277,-0.13363335237511034,-0.3392212757901544,-0.2574156302333884,0.2962145079419046,0.2734931673110935,0.13326276145029273,-0.45383906143380326,-0.25290275051019884,-0.7165998868021533
2023-04-28,0.0933834487714614,0.29485126929260597,-0.06420322981088096,0.5180543327526701,-0.05084827861999633,-0.28290159880894666,-0.2303916859281711,0.17595079356332055,0.23899106032996573,0.1441006009933178,-0.44984436527520255,-0.235325220148158,-0.7273094490663633
2023-05-05,0.12455858761237146,0.3035331392230871,-0.08234576833219603,0.5849754652732068,0.03330219409430961,-0.22289658009917454,-0.1967256640570834,0.07995009764636848,0.20621824905360944,0.12033797174321237,-0.47163011562640544,-0.23176625411662588,-0.7079324950009208
2023-05-12,0.1311274459696725,0.2963036883022164,-0.08461705512798834,0.6410491182929777,0.11643567655027864,-0.15713850363460607,-0.1611452670882296,-0.03388597171813851,0.1744116052409744,0.09380580654099555,-0.4814123296535829,-0.2395772326140946,-0.6543157708880522
2023-05-19,0.1280344516636274,0.2823105452965479,-0.09158553249754056,0.7165742632945824,0.20647200836949364,-0.08532525767270988,-0.12788871224721682,-0.10820950910427166,0.13902443324681207,0.06684975698950255,-0.4747831872949495,-0.24962823397649142,-0.6023485658458653
2023-05-26,0.12882738878547606,0.2687300155964631,-0.07637607138172639,0.7839044661184458,0.27694308380409133,-0.030290099465843053,-0.09899501371736938,-0.2433737971885076,0.1050240847466925,0.05202577861845121,-0.46439016812706035,-0.25043008781330683,-0.5488451167388997
2023-06-02,0.13111287466246446,0.2422676067375331,-0.05878305246283888,0.8615881072906162,0.36820490972292763,0.03396678525326397,-0.06539193908558133,-0.3016720871029211,0.06705407544601538,0.023992759086210732,-0.49282631881429023,-0.2599536880306935,-0.524252526487555
2023-06-09,0.1456351411288211,0.23331784461954644,-0.04982262011827407,0.936515666027471,0.469134949558296,0.10475272950567144,-0.03868487070832538,-0.3959704195423548,0.030712837480550523,-0.008484496466955014,-0.5058532134353544,-0.26202873329609555,-0.5082543644628803
2023-06-16,0.18554363890473385,0.24612009691599243,-0.02537714112249068,1.0108737851416516,0.5421146432700876,0.16515370165052518,-0.020712609476459278,-0.4711572070808727,-0.010081479057825804,-0.04754281964841631,-0.5227746500642045,-0.2763244290213031,-0.5191305295796329
2023-06-23,0.27430329665055564,0.2817673813276981,0.03286124656619628,1.0046951003965525,0.56011524205618,0.1907340183360272,-0.014993586550000174,-0.543559042912033,-0.04617474310504439,-0.10832885285447649,-0.5806125885809199,-0.29860519064930136,-0.5316067433611134
2023-06-30,0.34014329822676354,0.3045627623608541,0.10018268577698958,0.9067197891972382,0.5274678537915702,0.18893139234275597,-0.002629945310566652,-0.521940547749135,-0.07504247916695445,-0.14934747121616992,-0.6258540752034765,-0.3523741355481315,-0.5228678129857878
2023-07-07,0.39981889965126094,0.3318142714193961,0.12180091925366662,0.7991847194341131,0.4650816286391649,0.16115488300728725,0.0014482279618203697,-0.4382025726365626,-0.08134768261858598,-0.18507432706454785,-0.6816516856276358,-0.35406029478065687,-0.516442938538157
2023-07-14,0.4612611861073325,0.3476596891511938,0.1621359137745607,0.6721322797486433,0.38964001069111037,0.1271096660716614,0.0016849527467346194,-0.431566722504047,-0.06562170104772219,-0.21951321080788389,-0.7372225400105161,-0.3843679485346881,-0.5193650168917024
2023-07-21,0.4757996898818688,0.346083770671204,0.18190003924148893,0.5587596922855677,0.2987975385777444,0.07734537405359049,-0.00018563232443179287,-0.30029234575230385,-0.059612988859738425,-0.22808740244063458,-0.738616040866665,-0.35200822294577494,-0.5480260254870296
2023-07-28,0.49473448662996,0.3468006128632522,0.19068215093468072,0.5397585688314626,0.2314698161270533,0.03746771085290329,0.007616257314942324,-0.1590281488915561,-0.06369782722142624,-0.19475978200568436,-0.7863258696598514,-0.33456581567292104,-0.6417549843854147
2023-08-04,0.4988717423044751,0.3201663346627274,0.21420213642832092,0.5513156061203826,0.18743554257155381,0.0027626282584129053,0.010348550449835882,-0.081579488372586,-0.06750402946754068,-0.13225221175615617,-0.8767480986679171,-0.2916279306584069,-0.7173122314057385
2023-08-11,0.49506787116359235,0.28210676245794136,0.2552548054999166,0.5024103371162829,0.09883377319811774,-0.05499638798531844,0.0025868757719853513,-0.08219348837823205,-0.059580476327371096,-0.046147609814332066,-0.925332221595928,-0.2582453910712855,-0.7547595720865844
2023-08-18,0.4986239720787646,0.2804919893771262,0.2799613387719092,0.3930663328984523,-0.00777162117698206,-0.11571307774609813,-0.0010116439176198829,-0.07317030593664198,-0.022817440114989915,0.00010988526939906956,-0.9475627478135966,-0.3081204366336236,-0.7804682712575799
2023-08-25,0.4229412818833967,0.23392162623155396,0.3414191576171826,0.42392840344013166,-0.03782192566584752,-0.14912022049959875,0.02875564583925669,-0.13101479377651284,-0.02976419104919887,-0.019744452744249935,-0.8943236657563263,-0.3153228924868025,-0.7333530656828936
2023-09-01,0.3984004617557628,0.19945291523120345,0.3374916720114268,0.32375574091403947,-0.10226703275323624,-0.1585059554110235,0.018178891528742337,-0.11292429266906895,0.01808661560296508,0.06514899991012148,-0.8929928588242336,-0.37445216161550515,-0.774540953638959
2023-09-08,0.36372055363192163,0.166051245821973,0.32804600207163953,0.28040269712900723,-0.13061270760790292,-0.17571462022353435,0.009439317928691102,-0.004820029965080949,0.05801530795368947,0.12608880065161027,-0.9070849028489836,-0.43871952532712166,-0.8120345855812716
2023-09-15,0.32591321376086574,0.11230273796431348,0.32038855367186664,0.22216972589575223,-0.16845829036589433,-0.19948357957499704,0.0034498674135110124,0.10768941576411949,0.08781811109384324,0.19868161662671652,-0.8965282642169835,-0.4814880561447379,-0.8187540913008174
2023-09-22,0.29324008250261213,0.07371326664814251,0.31711238441697703,0.1575825837998009,-0.22326559822494702,-0.2361790238123513,-0.014399482908986884,0.1858936212971034,0.11695751689119735,0.2579162304564433,-0.8775472224685402,-0.515689328816057,-0.7869926472248151
2023-09-29,0.26164947487611223,0.0016077683711805124,0.3207093009237872,0.13949507243615808,-0.2570423119495532,-0.26444276001849465,-0.024692623306977787,0.18021559404849333,0.14005650803801267,0.34311143822999796,-0.8864778004768483,-0.5921343536954962,-0.6840546003841976
2023-10-06,0.2324072426136104,-0.04803862288639745,0.3203349912273602,0.12559989092066096,-0.2719389889808344,-0.27955116175366806,-0.05578319406687558,0.3453947829943208,0.1444702973991796,0.4063835328794233,-0.8949287674162193,-0.6511575087965393,-0.6386475596393878
2023-10-13,0.24675019770868656,-0.09786068982742796,0.3133526771654595,0.11493845022580255,-0.2941896737082414,-0.30469252427123855,-0.09377569680988614,0.388065914576823,0.13476332661260051,0.5330528393861523,-0.8325137478488631,-0.7353770843858051,-0.6315228904526736
2023-10-20,0.2679694593806006,-0.09299238407901816,0.3128494617309436,0.0015029518214726145,-0.3239831385530084,-0.3114106158180983,-0.0823479345187865,0.4620095763656993,0.11230615013537301,0.5693337266208545,-0.7699654511263962,-0.698158613560044,-0.7111087974617437
2023-10-27,0.2771451753176995,-0.10935848770904112,0.3271117449646678,0.036198873814307246,-0.3372360356139226,-0.3278930842895012,-0.0749924815617591,0.5163309930131428,0.030777502956858688,0.6044044926269725,-0.6823387924602407,-0.6020598101788389,-0.7448716622992819
2023-11-03,0.2876577966503189,-0.09325230258571095,0.32536208374694403,0.11460305896258097,-0.2689445375066243,-0.2605460795664521,-0.039425588531733065,0.5350665891548607,-0.042036822096891635,0.584967507814141,-0.7189727297934936,-0.5563895115377924,-0.7736024716343621
2023-11-10,0.27533653422761495,-0.08519842258997522,0.30961329314386316,0.19408316697487532,-0.18575913296542684,-0.17181431337704112,-0.006755244144102578,0.4932196216252224,-0.06653215257817281,0.5644854679136774,-0.7777591118558171,-0.5461707560929964,-0.7975814400638057
2023-11-17,0.27971960861766965,-0.0651568730975493,0.2964920013436053,0.24498730986724288,-0.119652336362792,-0.08299404542991469,0.027600965169258557,0.4029116074333932,-0.07806307244292753,0.532783599520361,-0.8467209293847773,-0.5513008897897101,-0.8122153539500031
2023-11-24,0.3024800401184232,-0.03619974209502171,0.2706480416449711,0.30889843456334304,-0.036690340333964094,-0.019047783125462472,0.05055226606868155,0.3212019941418163,-0.09672473664494668,0.4944928057742759,-0.8837317389494789,-0.5580497975208719,-0.8184613592837399
2023-12-01,0.3407298142452784,0.020361201041215207,0.23315390803619168,0.3420976710808831,0.025971073291322422,0.04228650581533,0.062064235524085146,0.24367313586206188,-0.10024911624362054,0.45624837068899526,-0.8893146790697457,-0.5657510504748244,-0.8848677338349175
2023-12-08,0.36742970395803365,0.04847334860429524,0.2140707334119925,0.39679769481135796,0.09890851680536158,0.1024203646774215,0.07238704585628614,0.10421008162566761,-0.11782181635670005,0.4206135399528899,-0.8746620154016986,-0.5521050219774878,-0.8919091082451136
2023-12-15,0.3597023760491459,0.030985575624376527,0.2129647620810378,0.43065184683817026,0.1523122112901183,0.15127287953084853,0.08692243680125077,0.0019350144050068463,-0.1447484726678902,0.3919431610971837,-0.7897695462643696,-0.4957029947137504,-0.8680425315634591
2023-12-22,0.32960552730657533,-0.0007219392223882827,0.21397580229758312,0.4720535248840724,0.209696394215389,0.19593270914548327,0.0862166954418578,-0.06146161984263927,-0.16423841740145365,0.36314211045770695,-0.7236083183699614,-0.44958411334688403,-0.7989771061965011
2023-12-29,0.26974758269182986,-0.03649931389683912,0.2056173243926034,0.48722599444770487,0.26162256954891483,0.24221787300545905,0.10061644705665104,-0.08472264922308809,-0.1753170961235635,0.3324252283642977,-0.6467355856430926,-0.42494682053384203,-0.6973210794984831
2024-01-05,0.21394026716825804,-0.06489966670740092,0.18384672335645239,0.4958149159225149,0.3054802803631118,0.2863001101105405,0.11443414006711708,-0.1241954971333494,-0.17859087442869737,0.3039610607835618,-0.5628082835474404,-0.4097062079388868,-0.5840246197600608
2024-01-12,0.16706961627165912,-0.08790981802903727,0.1613587424198224,0.4924427242867869,0.3345918597011726,0.32129637585399506,0.1312390771027189,-0.17451086014651718,-0.18476876117089366,0.2755995796543403,-0.460122976266127,-0.37839785287614836,-0.4795267698964087
2024-01-19,0.1248892588960137,-0.11220281907627479,0.1435199215182166,0.47561788711832775,0.35149139331515866,0.3491405325734277,0.1455348405850509,-0.247076615183611,-0.1897255884011495,0.2558928848279441,-0.3534974640996392,-0.341494916311175,-0.38046096603031415
2024-01-26,0.08168626538331925,-0.13763526062424114,0.12351596237507674,0.47944581073291903,0.3882426977156463,0.38250889866794857,0.15520330734029705,-0.3138359860202844,-0.193757947928643,0.23269722503458098,-0.2651811440330339,-0.29193545790533704,-0.28457958972893416
2024-02-02,0.01804534164766579,-0.16329198366067074,0.10399213195033288,0.4750875516535054,0.41657756999564655,0.41078585401515544,0.16903770274765995,-0.33385781431096156,-0.19586292590817406,0.20426330174375287,-0.1760840369252567,-0.21133445719757876,-0.18846438641631635
2024-02-09,-0.024378282536997024,-0.1821452189255447,0.07750230078285825,0.4792105734897017,0.44536503673702404,0.4471420438789262,0.18420516607034634,-0.39192829547627334,-0.2013139779582305,0.1813567240406059,-0.1092352191639399,-0.13586488121288137,-0.08941172346188812
2024-02-16,-0.06437716957895995,-0.2082748602637863,0.04045818583306159,0.4792629064678165,0.4515906072947918,0.4586693854272582,0.17743115593973205,-0.3137741708577391,-0.20792579237138853,0.16598728044067526,-0.016849320116782376,-0.03191353065024237,-0.013636254248137678
2024-02-23,-0.11048843712807677,-0.23363365432386857,0.01718278755622029,0.5264062622273066,0.469168545984812,0.46442330720018626,0.1613314092859201,-0.23105722131862005,-0.22773085809217564,0.17089703455696417,0.044265733794421606,0.047749864921727975,0.05683310413020236
2024-03-01,-0.14182028773444155,-0.26984018624497463,0.013366024849903957,0.5234603470207843,0.43486951435491555,0.4224043580748943,0.1372593818925514,-0.09282288684491616,-0.24139294433803796,0.2367914420438887,0.0254273508703075,0.08478141331508754,0.1084812760173713
2024-03-08,-0.1492312458470553,-0.2845437117707396,0.013927423914075133,0.5073430638021139,0.3848344251909722,0.35132045685281815,0.09010384693039952,0.028095434369367955,-0.2420251293016177,0.29929849357449034,-0.0254399107622175,0.1061381057622008,0.1451320729598759
2024-03-15,-0.12107573802880317,-0.27752946881470425,0.025225623815377504,0.4771943107357561,0.33396008667994703,0.29882351344094504,0.04850787262152533,-0.02217882243321659,-0.250047189261163,0.38648831786589477,-0.11377050681409412,0.12421335166266087,0.17165612998028484
2024-03-22,-0.09172389256676056,-0.25780823945836523,0.030206160313802896,0.43881107169617206,0.27558312555982695,0.21866193009424773,0.006388313326308036,-0.03061834682480703,-0.24631954360315678,0.46644397319133696,-0.20606972242327898,0.10161874978234695,0.19154453299732144
2024-03-29,-0.0858268540134594,-0.24246319540757544,0.04293467993767046,0.3771010376472509,0.19659573485334253,0.13383085982395265,-0.02700850155859267,0.07879049986844289,-0.23669436548318257,0.49694191838920765,-0.2265773899502824,0.07055120740386488,0.19754144094218118
2024-04-05,-0.06694419240100882,-0.2177633775135064,0.050812973770217776,0.3135675911362907,0.12558534125281923,0.06596293944312116,-0.044704797599553314,0.18617388328895507,-0.2294881561268503,0.5058918614620409,-0.2799009173711168,0.028499068018775726,0.20705740841423748
2024-04-12,-0.04622850091048511,-0.19390455646477328,0.07227605008466334,0.27024650408962836,0.06644151551059935,0.0015440230745520922,-0.06407526341059283,0.28794980582884144,-0.22285828383755835,0.4875003678052116,-0.33623578337785165,-0.02602180582953667,0.2171124962509893
2024-04-19,-0.003806951682040108,-0.15886134175359795,0.08109013891262963,0.2101973086375493,0.00677175382631634,-0.04857830403709092,-0.08227335539347164,0.3791314691940584,-0.2107914023059618,0.4727178213406679,-0.3819905868776946,-0.08264250687757387,0.2118373211586971
2024-04-26,0.043720060431827495,-0.1298926824934366,0.09808257281113433,0.15909011198612186,-0.041713623624966445,-0.08927845970566983,-0.08692189442583237,0.47157804320783725,-0.20744691211937932,0.44300987155574395,-0.44053865209827636,-0.15346631659593493,0.21853705815828556
2024-05-03,0.09361721002620187,-0.09473919518031856,0.12766551555856295,0.12714530065970275,-0.06857966309515467,-0.09618173314250358,-0.08191352693815185,0.5562621475604239,-0.21333818412947284,0.3961913174543585,-0.5228037148439054,-0.23889101071479085,0.22809729945369228
2024-05-10,0.11843738624406125,-0.059078790110523645,0.15502619431915252,0.09400365894283248,-0.11090531682806393,-0.13373575443722116,-0.10054259607355465,0.6503574823372332,-0.2021266893920357,0.35634787981782495,-0.5739340138491698,-0.3084554460617661,0.21343394688485554
2024-05-17,0.09817402776155232,-0.041834648770237584,0.21302010971154972,0.06504091254013523,-0.1555274947224503,-0.18029861265410135,-0.12181921419568482,0.754424683770298,-0.18783524701924068,0.3056703946896115,-0.5992494892987529,-0.3667793015131463,0.20303522257117831
2024-05-24,0.10911947659508835,0.0027287241476544044,0.23554866060977303,0.06669329852169636,-0.20393110846994994,-0.2590952029003246,-0.16172948389662686,0.8478756446960776,-0.16419533110254675,0.254278953475217,-0.6173277357392073,-0.41427815573212173,0.18389487361335347
2024-05-31,0.10578225039359546,0.05184165487517368,0.23650011206262048,0.10365099209319713,-0.24696392444922644,-0.32388105913618936,-0.21547550744807817,0.8978306436417477,-0.11807881688948067,0.2119185984334098,-0.6403955097609454,-0.4969064547894809,0.17994681261294718
2024-06-07,0.06383801237079584,0.07710650591524407,0.21909487008193754,0.13862439686655237,-0.28406282954604667,-0.39658519244180673,-0.2654246040324942,0.9368385978953834,-0.042590526383351285,0.19982661620932585,-0.6764198424018805,-0.5539026314175542,0.1788954196695662
2024-06-14,0.005959857337847568,0.06718935874002473,0.21601134311357384,0.09098037507256698,-0.3237346850435059,-0.42054874641203677,-0.3070021002129023,1.0574127760026573,0.03015820930102249,0.186171788686075,-0.6723952956610013,-0.6118001435345354,0.18625986287819335
2024-06-21,0.01869412128953305,0.09626956295930113,0.22593087029699535,0.06192880272411977,-0.37746444695963083,-0.5110284054229743,-0.3699285292419248,1.137339592407345,0.05213862935301486,0.20846387730434246,-0.6413292146125827,-0.6536753659894852,0.1713219091154249
2024-06-28,0.0036190089818646867,0.10442294092982114,0.2323516309707533,0.1163306308057395,-0.36071856110870326,-0.5116172739458167,-0.4054843986019843,1.0790425251271847,0.07023228353143138,0.2799851240385726,-0.7102216625584723,-0.773472518028138,0.19777863817068028
2024-07-05,0.0032210602520355964,0.12733029978222568,0.1828836040536876,0.0328860569460923,-0.4015685260246945,-0.5329215188077024,-0.3963492563939997,1.1515777474923306,0.07014463467875805,0.37307355257174096,-0.7529140769286673,-0.8074580832562092,0.22788209847661833
2024-07-12,-0.012733741888336899,0.1956971511706184,0.18609611449230373,0.004712030956576022,-0.42135506115586,-0.5276180171688595,-0.3956707871749228,1.0991204053961292,0.011442110686638002,0.4341793653735535,-0.7833880134079545,-0.8728454375318696,0.31827843288555374
2024-07-19,-0.02921909062683295,0.21280416956976267,0.14417148680609415,0.03127220082487156,-0.4127584632414565,-0.5210355872926359,-0.40637159843334353,1.1991125114332988,-0.05166295337483527,0.48713434071651607,-0.8028713814895375,-0.8887309216527933,0.4389004315002483
2024-07-26,-0.08205575400477991,0.18340823996540623,0.13414436492864099,0.12983803989705642,-0.3165288532744682,-0.43377899119058366,-0.3678603124656164,1.1891956958592924,-0.07149476870101314,0.465892748766881,-0.8024194599667808,-0.8705582755107196,0.45646259501688957
2024-08-02,-0.1268927416117993,0.1417649471082776,0.11371298381513527,0.1731377982632709,-0.26354321837300587,-0.3833471668199063,-0.34122174765634544,1.146617677321039,-0.08526254090701,0.46197305883346534,-0.723008643152198,-0.8023364877715471,0.46829706576018965
2024-08-09,-0.1648225279306744,0.10470604733146441,0.08275873171706481,0.20565610928067368,-0.2120512384323217,-0.33201688427757675,-0.31524573356050517,1.094577029475159,-0.09458605123797996,0.4602952297109454,-0.6377681900146349,-0.7218597123634258,0.47227832412511966
2024-08-16,-0.20023740284536395,0.06755044974683583,0.053571383422046065,0.23218615568080456,-0.1601123276008153,-0.27693206746646665,-0.2865273670897511,1.0415849268800834,-0.10017175137078109,0.4519410153091851,-0.5535294339837559,-0.6371839685104824,0.47215480244641744
2024-08-23,-0.2278246987467862,0.03419809059450173,0.016281735926090446,0.2692684729747793,-0.10746149885558808,-0.22729450927897107,-0.2667428332064202,0.9843924223403802,-0.10393534015728803,0.45340012529374946,-0.4677681665322174,-0.5467763727976533,0.46812340958129983
2024-08-30,-0.23777848061185208,0.009172324110662305,-0.008891400475040872,0.30689797610036207,-0.051409485772821666,-0.16825173010050856,-0.23575417763248493,0.929210136899452,-0.10470179617620805,0.4188052286325144,-0.3938199408907846,-0.4698351182316112,0.4534221636206417
2024-09-06,-0.2444411086516104,-0.018943162836451206,-0.03834041912952788,0.31266532259527563,-0.01159464983661087,-0.12683281400135377,-0.20899700397887175,0.8673236886892226,-0.10173179424342982,0.39767594366946146,-0.27152665894459005,-0.36080520374821445,0.4581278262597385
2024-09-13,-0.2462435280675598,-0.04296309771818227,-0.06074427459717288,0.34459245784080766,0.05410490203218694,-0.07161597472570566,-0.1882080707378837,0.8098256924990848,-0.08581718765632368,0.3681375626007811,-0.20746167379855976,-0.28155879873097495,0.42624886966522413
2024-09-20,-0.25115356890050894,-0.07048760267647818,-0.09013622159695253,0.3350966024047435,0.09863235744553442,-0.028568452914262583,-0.16255879589226666,0.7563845618031942,-0.08433904148542014,0.34121983519601035,-0.09629723041460009,-0.1658078804188604,0.4329499034000885
2024-09-27,-0.24167773889579403,-0.08152151106915657,-0.10771050005791644,0.3274217236044798,0.13713536978034832,0.022663284901681943,-0.14723832493041442,0.6774881173697113,-0.09884274572975049,0.29807886290428376,0.005356984703388107,-0.06098300818230852,0.4391155783047768
2024-10-04,-0.24283641658284227,-0.10082443362793408,-0.13494379894362246,0.2879181519069279,0.16317195768513865,0.023432836809100424,-0.13698511194490542,0.6149797689008171,-0.10665748986604279,0.28202520078595866,0.15253590303573195,0.06336250590089963,0.4569565675389116
2024-10-11,-0.23739998527833828,-0.10282781511852582,-0.15720821398067805,0.18915970011557146,0.1510781495146683,0.017923893690330938,-0.14807704776822891,0.6273811119586495,-0.10251800285908258,0.24328201747736802,0.26044832610956065,0.21533308705619658,0.4846321832003316
2024-10-18,-0.2192617572608952,-0.0961818083797188,-0.16357983214941943,0.09114201661713449,0.11281822734049032,-0.0234779748064903,-0.17104441091916667,0.6608869964673896,-0.11057283818645977,0.21689704036851432,0.33305089366133667,0.3157091214817103,0.5119051940327054
2024-10-25,-0.203191363207164,-0.08798360967028329,-0.16749971837444935,0.016802773252259304,0.07397997869630926,-0.06047763764874918,-0.20147168099782245,0.6935500942213637,-0.12074175082995665,0.18151287765537144,0.4182424469579645,0.4255246684832839,0.5298890167057226
2024-11-01,-0.18821474606706676,-0.07807882167654236,-0.16699337040709097,-0.0782568706363057,0.005651383816092093,-0.11990993726529603,-0.22424329485825972,0.7239485215582719,-0.10411186296434916,0.14661662618531587,0.47004085714140975,0.5073355423052183,0.5164027727306364
2024-11-08,-0.18226983447081807,-0.07418185074739221,-0.17304728075294998,-0.18779516815942376,-0.07017051170035583,-0.17882991615609187,-0.25334423704559067,0.7242570302292165,-0.06479468932342788,0.14054210677827927,0.5287292905478395,0.5766341234857879,0.4793668960254889
2024-11-15,-0.17212537335175393,-0.06452761226926651,-0.17015041521624114,-0.27155799660247465,-0.12824557928911554,-0.20783587946605492,-0.2749538806186624,0.5949129003004539,-0.022038615257566993,0.1267421105520728,0.5853504225921617,0.5824403452618113,0.44284351811540856
2024-11-22,-0.16573908892529482,-0.056721319966886875,-0.18452981909089083,-0.2830280012214256,-0.1296272344608584,-0.20897256537991105,-0.31035608922155955,0.7427568911101652,-0.0010848168166140426,0.06241122840272212,0.699945574066223,0.5886771517931166,0.37476668243172584
2024-11-29,-0.16843923164334368,-0.048975174451241166,-0.19266072642951554,-0.20048801588036222,-0.01938516820330012,-0.18062465334753497,-0.36464060428302514,0.6910412246474467,0.032818730272169104,0.039146418538170046,0.6557914301062224,0.5556673672233466,0.3548063086423328
2024-12-06,-0.14972343216344472,-0.030666948597398325,-0.17642068439848116,-0.22277651652067576,-0.016618381374262484,-0.23133032319511185,-0.4041093499476019,0.6168994631015685,0.0725296678679852,0.05115058115609151,0.5716763952576547,0.4815667933355171,0.3073725494846268
2024-12-13,-0.12276829493400114,0.003349362057077511,-0.1501681848156649,-0.2657668800900803,-0.02316656615152865,-0.23980709964253027,-0.5030195838671514,0.66458587123816,0.09152493176019935,0.05480224757984474,0.4904340208790944,0.4172103010958792,0.26745426073575823
2024-12-20,-0.10414540204797612,0.014018915024894215,-0.13387168849244918,-0.24731039929032894,0.022693568464979434,-0.29364726421112786,-0.5221574041425016,0.7748253615208638,0.09577597674408003,0.03866511454050908,0.41511952243679895,0.34960488407402285,0.22388538694309457
2024-12-27,-0.09550072545627288,0.021999491399056763,-0.11736175327643317,-0.33951812777902823,0.003641466915990217,-0.22515636119672536,-0.5516606899893324,0.8635327221043511,0.10680205040286517,0.046614902279519616,0.35456961328910247,0.29525607583467006,0.1888565333922303
2025-01-03,-0.06629648255776516,0.06397358026258328,-0.11644748813127888,-0.40264241903144893,0.030527516053018258,-0.1814032816715162,-0.5758166376416419,0.7382421535029615,0.10759477559316476,0.059425528078133866,0.30314629820076294,0.24700992510316605,0.15743188327653293
2025-01-10,-0.0275858790922478,0.10487804383171402,-0.10690044463921247,-0.47643983043327803,0.016912169038423644,-0.1340764915129668,-0.564787454465706,0.6179115801850356,0.09909563536916083,0.051536719342769884,0.2530928454430771,0.19966006375343226,0.12648456193886998
2025-01-17,0.0064145113430373185,0.13521293064335538,-0.09588581356139707,-0.5490456250031372,-0.028077983343871772,-0.010858485019576314,-0.5716686889070589,0.6208276591609583,0.08934354312620449,0.04718496841201897,0.19209724721878652,0.14001591445756395,0.08718932782029859
2025-01-24,0.02277073432024297,0.1491701570315837,-0.08762775994766567,-0.5948529081463736,-0.04317901213004821,0.13950982013680086,-0.5643481622920145,0.5908274913366924,0.06758604854779345,0.09015773491155474,0.13703402468145312,0.08414639716334976,0.050021143234058436
2025-01-31,0.04348027143953784,0.1661257456545386,-0.0759139779560751,-0.6076457517592024,-0.03226850594456087,0.2786943910984946,-0.5657996231170582,0.4806608106671254,0.04675445130307755,0.12056155958785736,0.09001395468098224,0.037425041797900606,0.018882960509458056
2025-02-07,0.06699152125248173,0.18537995189341827,-0.06702763726951558,-0.5343798152668418,0.007138618882033376,0.4060222471988503,-0.5626427292524071,0.340338809177204,0.022950757807855916,0.1438476256603445,0.07907694351147919,0.03287776797115431,0.016588614585682518
2025-02-14,0.08135882685598306,0.1936043995277502,-0.05464491037795501,-0.43507053471785545,0.08364686888535049,0.4561217065621125,-0.5196329084905762,0.20271578735589801,-0.0008137366150771201,0.16443236721937576,0.0703866704903329,0.029264618963267406,0.01476558522477628
2025-02-21,0.09000577012531315,0.19418594361638494,-0.042281164603123825,-0.35312397145399155,0.14883431620834237,0.4510354643250117,-0.4520228932153041,0.03400027671303599,-0.014760871244655893,0.22601798009245294,0.061571646125223235,0.025599602172449283,0.012916385758246853
2025-02-28,0.10825104313419569,0.19671466695698142,-0.02257463355624322,-0.2958411999324774,0.15801416627477385,0.48668715067191337,-0.3590088568352502,-0.10533250181925949,-0.056937683805543676,0.2927640108284214,0.05164544791750155,0.021472593375481977,0.010834086303348416
2025-03-07,0.12083326299771117,0.19708935220320659,0.001334202180263394,-0.26218712881454465,0.14040830239364976,0.5066300530537863,-0.2531720468801328,-0.2554708183824813,-0.09944885256975738,0.37030261688342925,0.041860116726873065,0.017404152764095928,0.008781337670100725
2025-03-14,0.12248117213641511,0.18743497437680687,0.02537438016347707,-0.16301396684059755,0.20842674382699006,0.4886711322079747,-0.13905506219320235,-0.3537825581436774,-0.13969402348636853,0.3845128241057236,0.03409478942341613,0.014175567819281198,0.007152341706820671
2025-03-21,0.12292900995855036,0.17911031954525383,0.038454299561606786,-0.048102672045459885,0.29743170889044623,0.4754061697641895,-0.01491488015662222,-0.3887075712924072,-0.1568349243983844,0.31028221206256107,0.02761718255567046,0.01148237753967483,0.005793481348857993
2025-03-28,0.13958033014766225,0.18076718759706123,0.05779306893263621,0.02678505956732158,0.3592281729463947,0.4574729140066044,0.10486249218372817,-0.4425903350392264,-0.17352874255610873,0.20365539098516316,0.021001063502202544,0.008731598141153001,0.004405564161403248
