,ES_FRONT_CALENDAR_2D,NQ_FRONT_CALENDAR_2D,RTY_FRONT_CALENDAR_2D,ZT_FRONT_VOLUME,ZF_FRONT_VOLUME,ZN_FRONT_VOLUME,UB_FRONT_VOLUME,SR3_FRONT_CALENDAR,CL_FRONT_VOLUME,GC_FRONT_VOLUME,6E_FRONT_CALENDAR,6B_FRONT_CALENDAR,6J_FRONT_CALENDAR
2021-01-01,-0.01778377720503022,-0.01463140440211797,0.3968220865055396,0.10285364557172778,0.13055966772502783,-0.07088244324852168,-0.6472380878868436,-0.07088244324852168,-0.006308645852449061,-0.020334378854549365,-0.05739059526603537,-0.03665833670379919,-0.05281693095318253
2021-01-08,0.0010962854246312666,-0.0005630559088108614,0.35325324421500104,0.03349230631078125,0.027374705853300846,-0.1557236891702959,-0.5913733452884932,-0.05560887718218671,0.0034795665765462655,-0.02977206775903838,-0.03377935461211495,-0.012277863376375583,-0.02507765540065118
2021-01-15,0.02173812458590205,0.010459527756263087,0.31608122017149354,-0.04098189690717731,-0.07910200898787142,-0.2442622766535269,-0.5359468401464621,-0.03957851493844482,0.014036871120898312,-0.04325895427036078,-0.03366532033968827,0.018324548487787515,0.010378887609097723
2021-01-22,0.04791384279751522,0.026036148865045017,0.2790688789404173,-0.07600714576237502,-0.1800329515159072,-0.3627907876997441,-0.4880525607001593,-0.014736559292504805,0.02419608652706373,-0.06523493765159295,-0.028610486141131954,0.05173884879435787,0.03378893624340869
2021-01-29,0.03918841145002947,0.018041352232473017,0.25985083207645526,-0.009890380773465796,-0.22383747898569017,-0.4666201702855294,-0.45807329504829314,0.05003382452850112,0.03759533392218599,-0.10175324178373198,-0.035864481554686994,0.1252910828722022,0.008951316623438586
2021-02-05,0.052438704359996535,0.03208796271599655,0.22486680862323638,0.06221810886126243,-0.2534095295458976,-0.5240571353275583,-0.4200778778004173,0.06911192433025418,0.05130844209932884,-0.12436766091522311,-0.08742274112344073,0.16772701559485592,-0.08225501464321705
2021-02-12,0.0763487320114166,0.05547029843779356,0.21151472459350623,0.06423610634160547,-0.34810753993425775,-0.6180324507504512,-0.42574084809284257,0.076670551096547,0.07191601303531912,-0.148264003787258,-0.11224981135179474,0.227210791916384,-0.18888288653204832
2021-02-19,0.09550840093949366,0.06727320791903786,0.2083871628164132,0.07668703007444792,-0.4705453403196974,-0.7055036206685824,-0.43482687687088273,0.14238672475487563,0.08391815237785664,-0.17175533562773407,-0.1008661146211431,0.2801912512793261,-0.25777302259624446
2021-02-26,0.10103805008615556,0.05854751882158979,0.21314432048461834,-0.0193482312784104,-0.5406164786730712,-0.7263303534409454,-0.42364600484639575,0.23920696432888466,0.09685626790371499,-0.19013103391710376,-0.07393695579054535,0.3261088476014107,-0.339665713638928
2021-03-05,0.10717264847512194,0.03963388964351598,0.227210325879214,-0.12267810135337374,-0.6119506484517357,-0.7347703739486088,-0.41048044530985944,0.34313053637856994,0.11062844530604786,-0.20255553517453367,-0.09227989840433655,0.36854077873267455,-0.41338673632496153
2021-03-12,0.12960841980344384,0.02741755607477001,0.23128670598960097,-0.23350599263780553,-0.6671417527973748,-0.7407066749204337,-0.3883572658270589,0.4406270346880184,0.12006486172304533,-0.19876457239883089,-0.11064634002474306,0.39742542398982444,-0.5226048108531052
2021-03-19,0.14229877650610873,0.015668307880992313,0.23998387873653063,-0.3192826313071028,-0.7185049131701856,-0.7501917437896811,-0.3752614523640023,0.5801170239856441,0.12219188385066848,-0.18368377297934207,-0.1599885189147726,0.41729617604674485,-0.6038366100436331
2021-03-26,0.16359206094652853,0.011595214282003937,0.24985353709466018,-0.3542261816690998,-0.7432381411192911,-0.7382630325216705,-0.33587876856182797,0.6818719752508795,0.11697008029927444,-0.16466015022259983,-0.27693753734726184,0.39567892599996557,-0.6930457542121677
2021-04-02,0.18183603703180393,0.02142575887352132,0.23508542120275885,-0.42806152142936876,-0.7369202620195099,-0.6966380953800282,-0.29491742479568905,0.7067600564986285,0.10150404301312155,-0.0927287776397265,-0.38099126076993417,0.36601146205162477,-0.741456939387854
2021-04-09,0.2118163209303461,0.05117893087938773,0.2220319044419303,-0.5012829619499817,-0.7171446412428653,-0.6475760981778318,-0.2626598988897285,0.7592936339457197,0.09368255191865923,-0.0862391535922054,-0.4586730493378638,0.29524107452069354,-0.779056513629267
2021-04-16,0.2467372839253223,0.0763118004032819,0.20162807313172448,-0.6357885046426768,-0.7297529960586653,-0.5589983960407121,-0.23898931280564384,0.7044253358463176,0.08727853013665221,-0.08431593759608694,-0.4538593384814927,0.25145904415666137,-0.7306676402859735
2021-04-23,0.3134952901581042,0.09141036105101162,0.18263965730897178,-0.7647719451743707,-0.7668218914398188,-0.5743397185009882,-0.23168609910359556,0.7381418455866964,0.08721050892822255,-0.12743924530037332,-0.3874386980887214,0.22863530057178846,-0.6863617176951488
2021-04-30,0.37245682652924333,0.09181059739609163,0.18553623679141032,-0.8153994504613472,-0.708908512724274,-0.54244248094023,-0.20986458412934964,0.6156922831352175,0.08450343537582841,-0.14713286256321828,-0.3325510128343299,0.17034684527192243,-0.7038173351379902
2021-05-07,0.4158704667772289,0.06042812134655704,0.17490640394344342,-0.8338816016423533,-0.7096508602802313,-0.551331955713928,-0.24200672313013089,0.48171073624745175,0.09684694505278284,-0.14500059980376906,-0.22322551811588728,0.24504311076612456,-0.7256561939442463
2021-05-14,0.41961689816029785,0.0078028478127437,0.17188870810708837,-0.8149215595707053,-0.7317286022334527,-0.6005559100093131,-0.30103639707133195,0.5664132293464469,0.11366336015310616,-0.11721852325370322,-0.184006076279281,0.3346351597921545,-0.7588629053175329
2021-05-21,0.4225670554054209,-0.03443410234866532,0.1411836221936692,-0.8106478671557444,-0.7563833808269311,-0.6552205355176928,-0.35359120426132884,0.5773770974786994,0.12179654380180226,-0.05457958144278943,-0.11343503817400928,0.4487255765688155,-0.7373004508180951
2021-05-28,0.4112707069710475,-0.05733673970258889,0.11278154396647884,-0.7330000173259958,-0.7458354442668169,-0.6679438525988719,-0.3793533409326683,0.6180363961605317,0.12806983233971764,0.013018584292788973,-0.14267425239263584,0.5291543777153088,-0.8238193783397803
2021-06-04,0.39495972595666434,-0.04738063001690936,0.08146526482312608,-0.8427228621436376,-0.745431626130936,-0.6509023676499784,-0.35489816405358626,0.4917060854262978,0.13238447778156098,0.09953279346899094,-0.13378163817562605,0.5276245527873171,-0.7606076774619743
2021-06-11,0.38499105090016267,-0.027876900901917964,0.07019670738726771,-0.8644784046269883,-0.700574003625672,-0.5806501314452048,-0.3090257551627975,0.35960271424885426,0.13297771319157564,0.11491715274549522,-0.15514525768662044,0.45793864615528457,-0.7232169411604924
2021-06-18,0.3679582633754635,-0.011168392706026702,0.0685848011214342,-0.8585835742465792,-0.6625547802135333,-0.5071302258659053,-0.25776811313967196,0.27160396718116925,0.1372719539338112,0.10025806125294781,-0.2134971775057419,0.3785278829955197,-0.6719765068232436
2021-06-25,0.3518453542048032,0.009603283321465737,0.07122314319797456,-0.8435026267743869,-0.6285657881561337,-0.44494503050338297,-0.2096456986091375,0.17995786407275866,0.14019246156113863,0.07635660224612692,-0.26953948682578616,0.30707842173517336,-0.6168368238435348
2021-07-02,0.33893104759987164,0.029719475474311287,0.07059531537711404,-0.8193542428409312,-0.5918344065300615,-0.3667969647582793,-0.15834144531691266,0.10464823910461535,0.14261068180021014,0.05924830213109282,-0.3496685212558171,0.23544062946361194,-0.5874302070428702
2021-07-09,0.33733891707699787,0.05302648621759246,0.060132440938120396,-0.791089647413604,-0.5526829998342727,-0.2858875438268956,-0.10762732463477728,0.018329084155774,0.14368706195354214,0.04114085949688211,-0.4375975360541208,0.18403529161733073,-0.5666690968656226
2021-07-16,0.33196537811915816,0.0692041462093638,0.05106252954545249,-0.7654018256023706,-0.5012870862465407,-0.1857212881725435,-0.0606548934570237,-0.045375339902964384,0.14167538435251806,0.0358868003374331,-0.5203100643699159,0.11039412240773128,-0.5488364877835787
2021-07-23,0.32630082523684506,0.08583346838924927,0.03710510411790887,-0.7174457927772734,-0.42925101918313585,-0.09480934282275198,-0.022826472924625058,-0.10132687384906054,0.13640330580898752,0.02811492667534472,-0.598583595396886,0.05551297627827968,-0.53597041735215
2021-07-30,0.3227820875976451,0.10058712989146408,0.019421468553778815,-0.6674093263756372,-0.3559434188227402,-0.008007259936422498,0.011995821023725615,-0.19121426403651726,0.13264679915158015,0.020583022875158744,-0.6509372919160606,0.009579276150312926,-0.5163580929465982
2021-08-06,0.3349337269810975,0.13184408050689686,0.005927554025671732,-0.6153294413266542,-0.30409260853191167,0.05829001562892619,0.04071118049375563,-0.2743190368733882,0.12306738563149353,0.0020589593755845834,-0.714189061964561,-0.03126060599531005,-0.48750382989943575
2021-08-13,0.35773555798939316,0.1647475067015492,-0.006179582776046327,-0.5729010546729073,-0.26047128106920053,0.1282204219712198,0.0790490080836311,-0.3071090115479485,0.1059012160706001,-0.015791477310599992,-0.7867454729673037,-0.09432436227855782,-0.4530609201603577
2021-08-20,0.3561481629616292,0.19077192288050057,-0.012159412948396321,-0.5462055864920324,-0.23199836833682377,0.18731584705775606,0.12622483890042183,-0.2354552623520412,0.08454317335792505,-0.026319532024621832,-0.8503593656017169,-0.18569206688502451,-0.40661364221948576
2021-08-27,0.36784177072326485,0.23134988681503327,-0.033505112891949594,-0.5092713380334923,-0.21203534405867278,0.24855050844873733,0.1789585882907579,-0.28793752555137286,0.06881307956669708,-0.02051171184037847,-0.9008651802261108,-0.2742416292916604,-0.3641721515830486
2021-09-03,0.4273697331855608,0.30900614441687074,-0.04208065439983445,-0.5469981432051886,-0.2501579814298498,0.24803183847666355,0.2141128150986263,-0.38083514135988306,0.04974370010176707,-0.02387209760987813,-0.9089623075560846,-0.35529532758936566,-0.3259324591485013
2021-09-10,0.4127340933476663,0.374980255961636,-0.033696869202551216,-0.5831131800286888,-0.2700583096531742,0.2859180482318321,0.26321101275928593,-0.4652011149220788,0.039443768358512925,-0.03395000922491976,-0.9213167736387431,-0.4513876803879079,-0.2711164039927892
2021-09-17,0.38026728115613523,0.4379725475926507,-0.014272950682932883,-0.6130390251802629,-0.29892261363843764,0.26083853279282443,0.31143132725118844,-0.5132572088878197,0.043631269515685196,-0.06456814961755247,-0.925561262467965,-0.5504621705925952,-0.20427011995215605
2021-09-24,0.2749936727052523,0.4113654795433771,0.0012996169534717876,-0.6563134648454575,-0.2840574384621205,0.29440933442649825,0.3912338343022176,-0.5265486014286664,0.07684167160078015,-0.08321125887268535,-0.9399555266140073,-0.6154282357991098,-0.16774152084856342
2021-10-01,0.18653138693255797,0.3660583045013999,0.012282119713149731,-0.6399591361543333,-0.2579318623166825,0.34126300552696565,0.427606889150785,-0.5033832868080176,0.10942246360839866,-0.07733751488164337,-1.0056478405597622,-0.6740510016081748,-0.1241350455826391
2021-10-08,0.11017928771614965,0.30904139774356415,0.026380328079159285,-0.6297589461876413,-0.2692172779956003,0.3027742822200684,0.4299362088137728,-0.347946317412862,0.14427795384812317,-0.05638078856505263,-1.0701365261812374,-0.678848739925617,-0.1338285727365023
2021-10-15,0.0301263773969825,0.2344347261936197,0.04127824079633056,-0.640559969225356,-0.3112824023882403,0.2608691477638413,0.44976306911801667,-0.2962459669514599,0.16951893544250762,-0.0017106951685470634,-1.0630529044179537,-0.6153567958601702,-0.147485944678371
2021-10-22,0.02103904915092218,0.1989008724534579,0.05051276520731821,-0.670907977062908,-0.3759731933416597,0.19832487880037206,0.4249102887394427,-0.26414802422715344,0.17800690558948742,0.03210576878113847,-0.9721505787573256,-0.548055188604959,-0.17858808041133548
2021-10-29,0.03529340714033769,0.18463675614699107,0.05437156083083425,-0.6830535100323721,-0.4395361099334509,0.1280144667930655,0.40823474448352887,-0.20172613882497523,0.18177513820521854,0.049732249156988054,-0.8811425217132607,-0.5009940321797659,-0.26163059280444434
2021-11-05,0.0806393562412426,0.18203417095340751,0.04357522903242939,-0.6539394921753017,-0.4877127525858681,0.09314235704605628,0.394891860458918,-0.13954893718443157,0.17901095442982148,0.09634794243872713,-0.8263619841058274,-0.514070931215746,-0.39796555708935
2021-11-12,0.12915497834847273,0.18009028292780543,0.07099034311177062,-0.6356509438646355,-0.5028511273842727,0.019042110787214808,0.3664585234976865,-0.1330414352448026,0.1508631972070313,0.1730039949689427,-0.7621506488306432,-0.5539788509936249,-0.46869985980233503
2021-11-19,0.19533125904268245,0.21523646936511537,0.10296808893552609,-0.622126006952665,-0.5664142032552636,-0.022824522399550504,0.38627794453019826,-0.17210604998325826,0.0934771997948876,0.24966084132897148,-0.7630097684618945,-0.604540763382641,-0.47209708931392586
2021-11-26,0.14310372951414074,0.20273254820399794,0.11175076312297802,-0.5726202337103212,-0.5111421781860566,0.05829847302422206,0.43726722039960736,-0.17047480298772422,0.0645753064636422,0.2667444161894476,-0.7850701671159385,-0.6650026727675452,-0.41264030702197313
2021-12-03,0.09044160091151182,0.17492242247522297,0.10274956729470205,-0.5131454466676074,-0.4448344663813154,0.1503070139736643,0.4737485019421377,-0.16107366640141524,0.04325786608599665,0.27028519193029604,-0.7790542970256897,-0.7010160290692161,-0.3326746576178031
2021-12-10,0.1070092649280896,0.18091964921008277,0.060185652015619526,-0.45381782688461364,-0.4253436605390301,0.2073740935727783,0.5185183722814587,-0.14320972941351257,0.01812687955924271,0.28023841906885455,-0.7886015927277544,-0.799891536978337,-0.23982979347643799
2021-12-17,0.08431106449480953,0.14676469195597291,0.024154772948030624,-0.4259517864325044,-0.37381631685725636,0.32001118704673176,0.5591788515520073,-0.13833465818184976,-0.002523594919675312,0.28766201987894735,-0.7551282801149969,-0.8180761271233857,-0.15001183638828178
2021-12-24,0.08790256601699106,0.14259968072324636,-0.023133516465587152,-0.5127306394469455,-0.44395149235866854,0.32013377158167333,0.5884002341245261,-0.10117953988312353,0.00130565791394212,0.2758353576797295,-0.6704492007411307,-0.7320851629873089,-0.11479571102162595
2021-12-31,0.0880730332499792,0.13976566277600594,-0.06669030428197208,-0.5666161190885677,-0.4421403403811082,0.4053968687442796,0.6221274496941865,-0.14025647087549203,-0.014668778395749258,0.35228305611185196,-0.6141931283593338,-0.7017442890742972,-0.17545148164457244
2022-01-07,0.07686481277449704,0.10929615584350295,-0.10153294298181595,-0.6105306609529786,-0.4576825648058581,0.46636616313221396,0.6369647538377432,-0.16802304080229885,-0.012817652857107582,0.43031774784873433,-0.5577403957751771,-0.6449034897393224,-0.24272183159462918
2022-01-14,0.04499054319178544,0.07847199850994391,-0.13249264650895573,-0.6670778953207905,-0.4811609040391227,0.48176330730526473,0.6098686008620089,-0.16068500935269006,-0.005797894594279355,0.4872846155569108,-0.49901828495126516,-0.5548807141868405,-0.1789683765849085
2022-01-21,-0.006327629377559624,0.04403099065883526,-0.1533172370435433,-0.701430556913357,-0.46564389890738644,0.5019174427387151,0.5759568681257663,-0.1378390694285894,-0.0019190253132452097,0.5463231294006728,-0.4501375108979436,-0.48167604363831296,-0.09733645008469136
2022-01-28,-0.08288612596486881,-0.006198096607985308,-0.1751755835406317,-0.704513148481279,-0.4318998870630195,0.553692708224725,0.5618295459486621,-0.042110232533168215,0.017763056254713278,0.5761363123391571,-0.4286867439833552,-0.41348070981112994,-0.08358177365494804
2022-02-04,-0.15348917892167735,-0.05104959399885424,-0.19337113595287533,-0.7020663246918585,-0.4203644174214308,0.5673198668910879,0.5213217923034937,0.007145422438955239,0.042017183345498074,0.612755525119321,-0.33112376809875604,-0.3491084784301077,-0.05741328426610316
2022-02-11,-0.20064089863528373,-0.08310971888220954,-0.20140973343643226,-0.7296804554622223,-0.43870748857997344,0.5333805528916743,0.4695259490825905,0.056392972525489804,0.06581155194752743,0.656863752624886,-0.25858875489070043,-0.27670086255659243,-0.0384488607715449
2022-02-18,-0.2513560894619527,-0.12032432398401313,-0.20653981009359784,-0.7128021816190399,-0.42444910773309813,0.5063756125940191,0.40811031562483024,0.10519476154872803,0.08087602870023969,0.700943208693084,-0.18512677154162743,-0.2045297463661765,-0.0046447831862936675
2022-02-25,-0.2859872124450023,-0.1422381233167781,-0.21077777584879645,-0.7320937546936862,-0.4462463353078232,0.46986940877559424,0.34044370642104976,0.20637463018103513,0.10737581090605586,0.7621719094826971,-0.1244876785312386,-0.18231351164907414,-0.026836602088476217
2022-03-04,-0.3109928747498812,-0.1647423397815886,-0.21685952283125243,-0.6585913381805957,-0.3387358096182037,0.5176225971699556,0.29397785778547325,0.24279209377188068,0.1107082548888585,0.7537489945401145,-0.10884316907869832,-0.2251564544112796,0.03767951819575403
2022-03-11,-0.33563887939813264,-0.1896372700938105,-0.19714136058173437,-0.6083190009235031,-0.24087651342277333,0.5133696669136673,0.23304639494912915,0.36966855547810296,0.10277571439658774,0.7508032222633615,-0.09777157787146848,-0.2710742276567375,0.06036025551267349
2022-03-18,-0.3245658885499999,-0.19243565583115713,-0.21074305015501382,-0.6737886945396533,-0.2224627171331697,0.5276088587504881,0.1745784559353485,0.266922287531399,0.10439418810940583,0.7925401279313683,0.021613652361110958,-0.2877325262661461,0.026569118597304563
2022-03-25,-0.29626556696180956,-0.17642511011397402,-0.2172357108432046,-0.749232233903816,-0.20979680657003544,0.4989635456193703,0.13072117441069034,0.17733053346969146,0.11099336228883358,0.834565876719955,0.06796359332470606,-0.3153926951786609,-0.04978852192022632
2022-04-01,-0.27298058765294825,-0.16405750690712265,-0.20533536461781723,-0.8573400338257227,-0.2895000547117579,0.43370712135706546,0.11335439520377362,0.11252862348744434,0.10949683437006649,0.8725496796153572,0.13068538347118505,-0.32075606973576376,-0.0594339361462773
2022-04-08,-0.2435667937267464,-0.15188656700112146,-0.19948102311647428,-0.8892991750565074,-0.33592754784147144,0.3875438135833739,0.08743303159141011,0.027659297433484803,0.10691802474872056,0.9008378021957735,0.14008174396723416,-0.2228247952788377,-0.13845966185748107
2022-04-15,-0.2076881802311299,-0.12855087711957794,-0.21553613473066788,-0.9290523465926519,-0.40979015916706507,0.4033003817159616,0.038547776943995346,0.07923527038853141,0.1036727825548138,0.8492444216560125,0.16714883142411607,-0.16250263275762988,-0.08579052815737934
2022-04-22,-0.2111567724264427,-0.12981701307942473,-0.1954035073963791,-0.8364604408918621,-0.38863302770446506,0.32180016972427816,-0.0055541274035464105,0.05938173930738892,0.10566175279965073,0.9143239193540129,0.15501497347747864,-0.13595960709211785,-0.19597313652918666
2022-04-29,-0.2296188659748526,-0.13773130006228057,-0.19191144528639378,-0.6975046295404528,-0.3483341884998057,0.24715972814623127,-0.06235367312523474,0.0638173206152722,0.1144385961524173,0.9408390237849847,0.10174272223492903,-0.09396527682348291,-0.1715303276290479
2022-05-06,-0.22982992844270372,-0.13950944714586938,-0.18877420837076586,-0.5591637190908773,-0.2781664187819993,0.19941331520025302,-0.09389453453357999,0.14017543594835818,0.122358709361228,0.9321076757082464,0.0346432866556142,-0.12429087698647878,-0.18817331427932887
2022-05-13,-0.22674302917837086,-0.13767441653073825,-0.1928699063491084,-0.41907818013701886,-0.2025182259022963,0.20469186889117733,-0.11998573392000988,0.20168425831582557,0.13058090782547457,0.8815576384557166,-0.015016338912115408,-0.18412298007698757,-0.1740672137905332
2022-05-20,-0.23711986363171475,-0.14573213535893753,-0.19607717271637173,-0.262425438005086,-0.08267582472901111,0.24381315671490617,-0.1295206384417925,0.2199592446319639,0.13025365680080148,0.8133901965665509,-0.012932082912214465,-0.21794919037344984,-0.14354051461640957
2022-05-27,-0.2373449530430648,-0.15131726149155572,-0.204344245986465,-0.10173355391448707,0.02876205597339515,0.2398668197754217,-0.14324398506729114,0.2004838327418628,0.13546356988512231,0.748170436595871,0.02300791188066077,-0.262326580006859,-0.11763972115984542
2022-06-03,-0.23180387638864355,-0.15399546768129083,-0.22304505959750529,0.03645948980596289,0.050743607898276866,0.20979929417448914,-0.183498596433897,0.20308542808782587,0.15577152199244867,0.678915718357667,0.13686148048434735,-0.27598927535548273,-0.14054236244797497
2022-06-10,-0.22127620514392732,-0.14898745148074827,-0.2055486126902738,0.10979319314320943,-0.005331862680282046,0.08469352146645828,-0.22797345834776897,0.23010069667106717,0.1842002522709675,0.6227497778634697,0.17493735571402436,-0.2772302678485189,-0.15759361247910575
2022-06-17,-0.24175302830681944,-0.16455261410422323,-0.17760395940936619,0.2715154204232603,-0.0016993357082131853,0.045387485247921425,-0.2704787766120634,0.26784530622798713,0.19545068974703458,0.5659549626353153,0.23819979398828867,-0.26162511204712846,-0.15340381661812774
2022-06-24,-0.23977470581665972,-0.16059510635517193,-0.18016654615974514,0.4467994040452165,0.13567915701391903,0.026402080974985368,-0.29894415138169117,0.264196887869678,0.1908959468909745,0.4894868038524116,0.27552791996899484,-0.2564861650050018,-0.14915388201447558
2022-07-01,-0.2330587796692557,-0.1572643217762202,-0.17246788487105605,0.5634929876797942,0.25998614539267173,0.08363650106311322,-0.2872058665039361,0.20774719937703365,0.17644344503812284,0.43091121824733936,0.2544511291111867,-0.2724402711866561,-0.1549265600301868
2022-07-08,-0.227504349533641,-0.15350518536884847,-0.16414982206720144,0.6549332791551723,0.3810607628884694,0.13229475526865164,-0.2839180700439668,0.11012648056520835,0.1690828491171439,0.3636800643981791,0.23116715243147612,-0.2725776526775867,-0.17720014429405662
2022-07-15,-0.21442136994926195,-0.1438494774216579,-0.1534597670065775,0.7225363306565489,0.49183703262196055,0.21445852750662908,-0.2529782865774885,0.10252986310867766,0.14752286403949522,0.284685587078577,0.1830026281174517,-0.28548424799016614,-0.1830663252821544
2022-07-22,-0.1991523999759198,-0.1331696949122328,-0.14363656412075265,0.7889254857931185,0.6024975486551416,0.29184864667955823,-0.22204926719465667,0.08418747002719992,0.1246779197965084,0.20199787852322218,0.13425324627169188,-0.290299585455727,-0.1844857949969107
2022-07-29,-0.18013473994839363,-0.12142178428850217,-0.13651498035191503,0.8184449376532007,0.6954060944475372,0.3703254886971826,-0.18892288870695123,0.11460953116321553,0.09613227935586036,0.11501883030001783,0.0807854841791327,-0.2783355917757408,-0.1677826731472262
2022-08-05,-0.15853261593007328,-0.1084990086008729,-0.12580003594344066,0.8173742030307612,0.7974041429514542,0.4523593546317091,-0.16337921943276332,0.14717396676540578,0.060632902630157866,0.05861565239346635,0.010985348058966934,-0.2937170679516692,-0.1333174381272594
2022-08-12,-0.13593421541561684,-0.09545289169513531,-0.11046379741663466,0.7923989503275579,0.9008313086257795,0.5295061289453411,-0.15610071983318968,0.17138047322996652,0.02908946139739852,0.015395114572256216,-0.057438826576250754,-0.3197214004409794,-0.09052487900805178
2022-08-19,-0.10883264684715169,-0.08326329931377384,-0.08370269338142283,0.8148021739123597,0.9761441701640514,0.5850160580878556,-0.1430758250034424,0.10248134181525798,0.004394736003534697,-0.01723084421322587,-0.13083261182316047,-0.3632887734603399,-0.06600902694875019
2022-08-26,-0.08481751775676222,-0.07227601954403437,-0.03756776146686271,0.7688401124523782,1.0288151646255985,0.6340224617666492,-0.13454632571875824,0.10802072431864916,-0.016104187902504997,-0.05689562065484844,-0.2369891555639194,-0.41992389402643193,-0.03181007376635005
2022-09-02,-0.06323303083400843,-0.06371882981153984,0.0074832795612599645,0.7673153083501381,1.0701911747489716,0.6427826555267334,-0.11992323290729802,0.23796158832797193,-0.03760969746944391,-0.09389188809839351,-0.330472286715097,-0.46631266457642245,-0.062018712564846645
2022-09-09,-0.0210849557017651,-0.040658952493508566,0.04962906681645346,0.6904164571977873,1.1026535638593031,0.6553118258412747,-0.1423309942227585,0.2481205076625944,-0.06033721277928944,-0.1637000072613773,-0.26403497353811833,-0.5342058535022958,-0.07334174505639103
2022-09-16,-0.008625999708953027,-0.032595244213319115,0.07333497080613909,0.6756966796920444,1.0638170004609346,0.5896092564982585,-0.15813185899293544,0.36838665593425335,-0.06517620897233799,-0.2127743629228217,-0.1772760255183816,-0.5872734036029356,-0.08004740352987078
2022-09-23,-0.012484255762219872,-0.03418711624953869,0.09186292607840703,0.5875065087221891,0.9715933141121221,0.5295823659198271,-0.15349201126876832,0.46567177568344714,-0.07134689309869277,-0.24719305594124893,-0.14921635383577406,-0.5473253603885674,-0.05498829430384264
2022-09-30,-0.02387973893017428,-0.040876146977897355,0.10367011247092711,0.5203508445722587,0.9371564585246652,0.498539323989606,-0.14811698262913758,0.5820119970542617,-0.08014397368477576,-0.2889045653241478,-0.09627374847270659,-0.46450778232801565,-0.08447700894435474
2022-10-07,-0.03602938722909131,-0.053340079922854444,0.1130818362638424,0.40751918091254297,0.9391395704964208,0.4830538758255358,-0.1691251079950486,0.5062923190078192,-0.06527712178725173,-0.319341020960287,-0.016834265297485884,-0.373142990074818,-0.10731609373758888
2022-10-14,-0.046412997421763066,-0.0570446080795131,0.11485418737475911,0.3420039186537022,0.8436235658245907,0.4181866586094126,-0.18645016959446947,0.5945829905522255,-0.06822082796817773,-0.3237305485174398,0.025005514545205193,-0.2762722394133437,-0.11389762274447654
2022-10-21,-0.03841367934755684,-0.05202748512532669,0.11354823889230459,0.30140016073576953,0.7116796277292136,0.32464243353359756,-0.21460682278615997,0.6615508010531227,-0.06076396992624642,-0.3106612410844411,0.06496043279435157,-0.21450733008244682,-0.11611285539694337
2022-10-28,-0.027437321311639805,-0.04920947167804329,0.11026297327497243,0.24350831405702553,0.6023270145460289,0.24722511279330522,-0.24248688320612333,0.656129547682054,-0.057474929917045336,-0.30073668386791597,0.14821466003132866,-0.13053240656343928,-0.1406273759214468
2022-11-04,-0.02319974010988253,-0.05463888341325297,0.11281162920576077,0.16515230192100047,0.4735111286671998,0.15961785060544692,-0.2613101534449789,0.6520211207318622,-0.048950006867439846,-0.2824320719925401,0.23154277692891512,-0.08022129438897645,-0.1310226461779925
2022-11-11,-0.01654742766425506,-0.055737166603229325,0.09877365480840769,0.12462007873149689,0.40619290649449363,0.10413519911489191,-0.2790819238020614,0.565865897155449,-0.05601874295776657,-0.2745167263404096,0.31856496441836724,-0.03177175125353131,-0.07052711936456446
2022-11-18,-0.013145089433299926,-0.056916542691033516,0.09783186603176415,0.07241593873205612,0.3643630996362421,0.07300089238295378,-0.276125436196891,0.37588011013638456,-0.0632383263458673,-0.25978751820971385,0.38180294830310846,0.01571122238651914,-0.026830899717420684
2022-11-25,-0.009708230681840522,-0.059712283799327893,0.09142751689942653,0.012120952667904854,0.33504825292969265,0.06447659505818601,-0.2540535627745655,0.1817341152799732,-0.07518193235364178,-0.24477910686881227,0.43575257493021424,0.06253395453879446,0.018455776788225436
2022-12-02,-0.012898843419656247,-0.06559043478343991,0.07902138833735664,0.04556307418281831,0.3478980494509019,0.0729779393563213,-0.21632567266635772,-0.04548976559553705,-0.09145458098922882,-0.21843346336872557,0.4701270821423087,0.10724000592277985,0.05553700045449826
2022-12-09,-0.019045797775307877,-0.07013815321060622,0.06464436653620981,0.06359567315132533,0.34568022139552906,0.07289362354794558,-0.17708687281339613,-0.2761820484385868,-0.110506425245419,-0.18696268271041983,0.5065778988924732,0.15373475108515539,0.10673129351523064
2022-12-16,-0.029265177715466127,-0.08017423556273524,0.05294009528320721,0.13419042031980913,0.35920153520535286,0.07924697597626035,-0.13649536706662074,-0.46006078461225286,-0.13266939441633452,-0.15710541440563866,0.5388950989741006,0.18465952433048605,0.1445696938402221
2022-12-23,-0.04861704878709965,-0.10209479837786181,0.04003446932801198,0.20167334228431832,0.3351884521855418,0.042778834569334456,-0.11189307206376797,-0.506494096198947,-0.16478671812464046,-0.1291723810915108,0.6072037817732641,0.22004538407049837,0.22764698145586412
2022-12-30,-0.06576409239981254,-0.12105412566749595,-0.001983548890858472,0.2406670560539598,0.3295612470323092,0.0084262153933332,-0.0979134256655344,-0.5551860611330602,-0.18842489215401426,-0.08392794920376168,0.6925810157684895,0.2649353267993232,0.30872766026225146
2023-01-06,-0.0787815940728365,-0.14338327144441315,-0.03449166811264554,0.32496870623452345,0.3957484243751696,0.06945965528114903,-0.05845133825223301,-0.5832898603929484,-0.2134828633136315,-0.028756403320826573,0.669018381023765,0.25916950802470395,0.35222676894419763
2023-01-13,-0.07475413997753257,-0.1506044482839917,-0.046401661621273,0.3594517772131458,0.47471769550157417,0.13419960046974055,-0.022667554187738276,-0.723885057005921,-0.23026326839609787,0.008794784050646792,0.6477325902192874,0.2284360494788967,0.3681460347253773
2023-01-20,-0.07032140086293344,-0.15074710186110354,-0.06733800685044575,0.42843026031972287,0.5231628425365804,0.1893564146311189,-0.011801255769595906,-0.8560450259156687,-0.23643623843452238,0.04292108041443322,0.5881104927032991,0.20819855977492469,0.40686873155147074
2023-01-27,-0.024214067743990736,-0.09808428817365736,-0.08081129635092198,0.3520883153903564,0.5515189178730303,0.1814367745781664,0.02562639100474952,-1.0025664510764438,-0.2601643617826085,0.022470936374246665,0.552753923508571,0.21136488018585062,0.398380057106152
2023-02-03,0.017180874919888033,-0.03392980816694188,-0.07923311951419523,0.34573877631904915,0.5859928743709469,0.22169976588478701,0.057663442298511454,-1.0077239396439248,-0.2765915235257734,-0.010342104268060363,0.44112799582612094,0.14329050779220914,0.35272918581212376
2023-02-10,0.018898075725231347,-0.005438133990908568,-0.011321079739624706,0.2050985834292303,0.6136750765043216,0.2345973454303346,0.05853272981797131,-1.068709898518355,-0.3002494437944465,-0.01549140285936584,0.4363616740409726,0.05047479586518484,0.38514379752139416
2023-02-17,0.027543935461784554,0.012336327005632166,0.012441786374089298,0.09476304271942078,0.5249927067985634,0.19136139737117053,0.039606399649172744,-1.1674542980809899,-0.3007260616163182,0.002407859213001219,0.4803293727449979,0.07628102431450326,0.38340137962194987
2023-02-24,0.03336652674896538,0.03332801946429663,0.04203394843498436,-0.056394114045388674,0.41764154868930337,0.15853020108173646,0.045492836049244534,-1.2312525897160311,-0.3027212602616187,-0.00047375630984002005,0.5252887004278209,0.09651795759847567,0.37090513976224404
2023-03-03,0.06118317614575548,0.0751026494597691,0.029486464922132576,-0.22766031263919012,0.2900693964349452,0.11492179781660367,0.06652897936678256,-1.2480810137007095,-0.29210078963085845,-0.014978592986678987,0.5365806961805017,0.09653571442147875,0.36979028396615043
2023-03-10,0.0479053294839825,0.09351243085128601,0.001623324261291588,-0.05811975651354487,0.2753743396155386,0.14344573709450842,0.0971382538345846,-1.311533873654834,-0.2864307812583407,-0.016654519565488662,0.4762302312240511,0.12133952288188017,0.32866294769334403
2023-03-17,0.02573014389844129,0.0985731419929074,-0.005173179237205914,0.1546415918585962,0.3232529126666993,0.18134836920142539,0.09245463782009661,-1.302137225662045,-0.2827875175772142,-0.009298548307145724,0.3904101206040659,0.11002575612159492,0.28345127777624013
2023-03-24,0.011903609220527462,0.10670510357379784,-0.03415333693129221,0.3223411365791368,0.360443242354203,0.22173490730558923,0.09402293296317579,-1.246562418400438,-0.27595773881753466,-0.002985492426502202,0.3150798245345967,0.08917586672450395,0.2461324667529081
2023-03-31,0.03805809430031264,0.14268560446538758,-0.06461656928268258,0.4872056309200786,0.35356638839051185,0.22803830741076195,0.08683322796654809,-1.2832440075902267,-0.26990234017140274,0.01702275580359323,0.23526914312586394,0.06425723768301346,0.191439684998346
2023-04-07,0.08155023747850285,0.18701718059218747,-0.11782248634235619,0.5732910257681278,0.3710679681118177,0.24740719827522145,0.06951133702757238,-1.3394259721607824,-0.23687893331573867,-0.07496625668882305,0.23898946014447212,0.049769173482752886,0.17214984287330465
2023-04-14,0.13341597692681578,0.2288480052598201,-0.18370892600860478,0.5369200643648278,0.3080553367383413,0.20731904633977508,0.03975740494784915,-1.354448061234745,-0.22076717170721816,-0.0069653593237715,0.24911039440909635,0.06099035581533124,0.1214353880921821
2023-04-21,0.19122463583949317,0.2540711499533308,-0.2199459417530939,0.5231958847967987,0.28548857544361617,0.20620541111605262,0.02121417716164587,-1.4139776691027388,-0.2002775785637099,0.058351454453603444,0.28764819409249376,-0.06715791735465682,0.10867409895780177
2023-04-28,0.22526835856937577,0.25031004565601794,-0.28233240569230583,0.4665945539803813,0.30097469027456963,0.21976671191021022,0.019532724626637778,-1.4507832988137608,-0.17267365052234013,0.08628980111648643,0.28628922686926817,0.045448234423343295,0.002508612317245973
2023-05-05,0.22459606649908642,0.25760311077088754,-0.314920052252212,0.4547723565910912,0.31309043857299323,0.2284026119272722,-0.004138760509148583,-1.239735941095458,-0.1966132799917884,0.10710644848162594,0.28017951506759464,0.14816411424395914,-0.036063826921946825
2023-05-12,0.20931235798647777,0.2546998766944954,-0.26083743674805643,0.4654933391736211,0.3334005270676003,0.2280742651602309,-0.029056466388598517,-1.3584161258355136,-0.2130270167967476,0.15295266521614237,0.2097821527092369,0.24063846600776834,-0.06370529270346414
2023-05-19,0.2462287383385991,0.29195186805495954,-0.22515843380992778,0.42227323236168945,0.26701528266554897,0.16578886388357364,-0.06734192086765686,-1.3932469826965148,-0.2171315211270014,0.16875181031757158,0.1507260771198493,0.2882390060347659,-0.08229058917398209
2023-05-26,0.27639385753949663,0.31373947693785653,-0.2074401434783626,0.30479100561222483,0.188807820066709,0.11233482820524507,-0.0978698653837993,-1.384045513047673,-0.19904829311619787,0.18921011373912597,0.11066585994477286,0.3227042967575071,-0.11067939223682932
2023-06-02,0.3274120945355107,0.36051063525574994,-0.20761527748824904,0.29817408167487697,0.12781626964380227,0.07170252406904729,-0.1412862699340881,-1.3365492270614083,-0.17115674398721362,0.1975901974745955,5.0788677057087006e-05,0.32575524020207286,-0.16362374630329435
2023-06-09,0.37591680110882914,0.3907129158880911,-0.21162747551111208,0.24560657463586316,0.045320053212322964,0.04758867667240089,-0.13039711198286297,-1.2352915574134096,-0.17481516758107174,0.22958371481033565,-0.06428592034070166,0.3254518702398291,-0.2092881426988074
2023-06-16,0.39030529813075465,0.389011761370564,-0.18179367335770955,0.14278578279114312,-0.033812874670495374,0.007164327085998047,-0.1214549092712541,-1.158465574969532,-0.1775147166405447,0.20968481619158927,-0.009517229915136892,0.36156025796433106,-0.2417429087082386
2023-06-23,0.4017002044157197,0.38408909665234586,-0.14592750685632802,0.05695440014974397,-0.0867780702495396,-0.0043143426947373446,-0.08620602434341681,-1.1242287476228567,-0.18463125914148468,0.14507803022976462,0.07123190709072727,0.39935830144648815,-0.2795277019771968
2023-06-30,0.40898008011065123,0.376307378525276,-0.11538066522307591,-0.07005290614809724,-0.15779213977660123,-0.04631342159927767,-0.07927833675733877,-1.0194506465838502,-0.1738098310587989,0.11384442575137996,0.11294750445875698,0.4041142955777666,-0.29366639910703696
2023-07-07,0.40384463719062724,0.36305811549695444,-0.08303476211492977,-0.17042198240019174,-0.24026966500728272,-0.10760687771307419,-0.08729192186303997,-0.9219205573921553,-0.15277370412315372,0.08412679814799678,0.13949151088504685,0.4166255310153404,-0.28388973646038934
2023-07-14,0.4082165249729828,0.3416802098525267,-0.036694007432555416,-0.2802307279873826,-0.303846932273225,-0.16013790534764635,-0.11020110285005648,-0.8548790333285757,-0.1236907176780388,0.04271377882984332,0.16844350345793255,0.42800116179341025,-0.28267165922207227
2023-07-21,0.42320910365084113,0.31023352830818174,0.019682899991573674,-0.41789655479396415,-0.38601510724519206,-0.20792868521790597,-0.12039699094056963,-0.84157982177779,-0.08831462097550033,0.027156141438463913,0.1948451562333234,0.4317690922880683,-0.307632292921666
2023-07-28,0.4202548739555061,0.29001284141084,0.0772598073497617,-0.5054043311475513,-0.44580937427596085,-0.253183217348077,-0.13969826587522274,-0.7710102805942122,-0.05307074849481952,0.015600020271193546,0.1621209867873696,0.38132641085362246,-0.30077835303363964
2023-08-04,0.40106292599886517,0.25961649720313945,0.14780986741836305,-0.5421391634900572,-0.4866626698096836,-0.3036767593610249,-0.17692841231450157,-0.7277048320781868,-0.001210814138549808,0.005260813524478894,0.1193813550159322,0.31668526916302137,-0.299113884676086
2023-08-11,0.37309424466550223,0.24265798519931062,0.1881726636988547,-0.5830026843906254,-0.5174181961839979,-0.3509419584940632,-0.19594550769313823,-0.6410265402345074,0.055570218261624775,-0.004603548790755477,0.07048590615662642,0.24674434972957754,-0.3037624984200074
2023-08-18,0.33302152628216336,0.2203797788602174,0.22668838708271916,-0.5848747403365049,-0.5589557485046347,-0.400846445013395,-0.21676189080428848,-0.533087475134636,0.09693497884209809,-0.016090322202436023,0.014876237370637847,0.19930755334238087,-0.282596688688513
2023-08-25,0.3102702067076851,0.22479168149158413,0.22634134216741536,-0.6283595652089466,-0.6123048716511608,-0.4380274570509789,-0.20532152411154567,-0.40560637921048376,0.13356429641535417,-0.02391836090256394,-0.08462604001745355,0.16219579710554285,-0.26411476838142206
2023-09-01,0.31249524271641616,0.23591357773993057,0.22041451260633432,-0.491296552198298,-0.5598915933194107,-0.43312552729199905,-0.21182998676727172,-0.4142812537919919,0.167978867933562,-0.026341247420287033,-0.1943711362274359,0.08723964740537261,-0.31374074427856735
2023-09-08,0.28676634323635264,0.23603622672896182,0.23647409570853783,-0.38652633524888774,-0.5233997162414207,-0.4370097867145973,-0.1964365467686181,-0.454895881199057,0.20288860156727895,-0.014472167419943205,-0.2615865943033878,0.0066334678462210694,-0.37607474058238755
2023-09-15,0.25757462851688656,0.23178847490597235,0.23222023735572006,-0.29355862324989807,-0.48532852926831926,-0.4520953736116816,-0.22087843455649958,-0.3681721690033987,0.23902164755941982,-0.0031915420704272477,-0.327936562092604,-0.07193271629246775,-0.38876150656483716
2023-09-22,0.2125864279250017,0.2230686197874771,0.1938665437854603,-0.21006697801159366,-0.4557840196086768,-0.4488420784824655,-0.22147420582536165,-0.2981613217707539,0.2900041220867326,0.02371091109905995,-0.35850814718682184,-0.16578758347604133,-0.407492308780936
2023-09-29,0.164396927629902,0.2077507759889111,0.1791642860144137,-0.1242807502541874,-0.4218079491433774,-0.4476437715610746,-0.22627835322717682,-0.17420022217806408,0.3173440758073076,-0.04343499009689338,-0.37149007938977335,-0.1997945740755303,-0.3769025405032188
2023-10-06,0.13406058415654534,0.21049052763492854,0.14763113960512098,-0.042982599487209616,-0.40099047412656497,-0.4571079919652681,-0.24238328113954347,-0.016707481718492984,0.32139917451291816,-0.11279955460685268,-0.3768789703818567,-0.21094804668920394,-0.3166513234131339
2023-10-13,0.09235448650911258,0.21607107207241236,0.11734700986023261,0.04426643195096998,-0.3648471152244762,-0.4602379149614648,-0.24046328964734381,0.12796159297631213,0.33246249098492087,-0.1009005156216607,-0.43927880185859997,-0.2718400648910516,-0.3197149669240734
2023-10-20,0.023888310542665964,0.19458254129861532,0.11272358496723887,0.15875729274210892,-0.35945928003737054,-0.4942540158483282,-0.282787567853836,0.21429540462945723,0.3488287555948894,-0.03101279709899571,-0.45510922200478887,-0.2884323206829721,-0.315522644352799
2023-10-27,-0.03780785140121822,0.17000518139784304,0.08177158222316827,0.25447426782071425,-0.34421974671876293,-0.5101458505843315,-0.30393770159702577,0.29328585479573543,0.36594665616219396,0.05673827965008625,-0.4845393067326869,-0.2831940331066013,-0.33177084310073224
2023-11-03,-0.04776972017496412,0.17454739373349562,0.041157133910062906,0.3676210414030807,-0.2936907271245778,-0.4852801375813665,-0.31791779933901443,0.35016531287482966,0.3663054607325908,0.11617811010567344,-0.5119538556951774,-0.27252857573053635,-0.4193726103130896
2023-11-10,-0.014124423930452844,0.21632044847785303,0.01519619115865719,0.3976016232927773,-0.24526728230207118,-0.43336012091669346,-0.28908841542627306,0.38463017918286724,0.3399350115521917,0.12882342381892303,-0.5099380679683477,-0.28294032309104084,-0.5729317249941771
2023-11-17,0.012252786651743817,0.24877732028657096,-0.02529911075653383,0.4764651514009863,-0.15683788189036285,-0.37067569675812734,-0.26940564525188254,0.35547393416870743,0.3108937415997586,0.11991371758553729,-0.49712702326782027,-0.2830120268757664,-0.6439522481499659
2023-11-24,0.06713500125637302,0.28678447241994515,-0.048440881236916214,0.4529221810090588,-0.12796965810868027,-0.33630012529258796,-0.24656088054913103,0.2631822582034767,0.2796960215660939,0.1353680657112258,-0.46579708473538656,-0.25199631002995654,-0.7170001810868517
2023-12-01,0.09045471177757614,0.2935503360510276,-0.07332174564419265,0.5368359337893821,-0.04336135113179014,-0.2791204549274059,-0.22025915843616267,0.14983196464559806,0.24317178253774324,0.14528357001736233,-0.46192697545375455,-0.23482127834218305,-0.7291951124301546
2023-12-08,0.12205542854801252,0.3017651353272796,-0.09248345734819659,0.6044189176775749,0.042528339918821725,-0.21813543151742765,-0.1871136969351474,0.061067458031578745,0.20862384326624506,0.11963635589582894,-0.4845294162055115,-0.23199287286060208,-0.710166006271034
2023-12-15,0.12838097430793452,0.2939675084440698,-0.09479158571382006,0.6604176602080869,0.1266175374924603,-0.15178088071503237,-0.15219891235413222,-0.047031651550065404,0.1752974710234739,0.09179572228199931,-0.49457403469635464,-0.24085544944602102,-0.6561278932818573
2023-12-22,0.12474290464812268,0.27916230785377305,-0.10183900665707377,0.7359986783471396,0.2175556704757569,-0.07930488020900307,-0.11972949387865099,-0.11427877390855214,0.1383014316816638,0.0635543001400047,-0.4875287056218177,-0.25190218558846794,-0.6036598036383547
2023-12-29,0.1251614694905877,0.2651130734922987,-0.08638431760687347,0.8029511543786009,0.2877186224218991,-0.02477352639267528,-0.09212093579813727,-0.2494133506731953,0.10322945730104671,0.04803668400371617,-0.477130663690616,-0.25360101095170096,-0.5506586663429229
2024-01-05,0.126944481189633,0.23714904859384672,-0.0681144553187939,0.8810106938354989,0.3803087500331868,0.040250430440683584,-0.059094122704208954,-0.29875954350962963,0.06319651822625821,0.01845315499165187,-0.5063565771882947,-0.2641923601978411,-0.5261559258910787
2024-01-12,0.14163573259252743,0.2277640811083504,-0.058939915691678266,0.9552978505001173,0.4834777683181259,0.11209187908861076,-0.03330730838004168,-0.38611464491198105,0.024973413879293575,-0.015681129420020472,-0.520312866450446,-0.2674146115260491,-0.5113821530795848
2024-01-19,0.1823085542961504,0.2408563159999728,-0.03395572495920643,1.0305730709984922,0.556698192207895,0.1723990759700076,-0.016934323527919348,-0.45183410165749166,-0.01754293057329149,-0.056347249268304055,-0.5382575713451997,-0.2833552839904357,-0.5246697812246851
2024-01-26,0.27352717214501954,0.2772786311339858,0.026273684073284106,1.0202109313078414,0.5716914058342197,0.19613245123515313,-0.013499081140174639,-0.5121416751255295,-0.05547137180624029,-0.119771522999543,-0.5979061532672935,-0.3073284483620256,-0.5389934335135372
2024-02-02,0.33602161391267105,0.29857809456311596,0.09111724064454804,0.9213635638987374,0.5366756476488678,0.19196441849132095,-0.003379847520000633,-0.47962451470751455,-0.08344088506335753,-0.15932486639712617,-0.640631729577058,-0.35978623089008754,-0.5310046631505869
2024-02-09,0.3936450484081557,0.3247609720121569,0.11230786586480311,0.8129185060826765,0.47309166118580925,0.1631272116503687,-0.0005365290957376405,-0.39071809004186664,-0.08955286792215811,-0.1940191519369394,-0.6941672892731741,-0.3615455185593757,-0.5247187102893682
2024-02-16,0.4527021450595949,0.33981026504143713,0.15147229111158006,0.6861177452425731,0.3971192415998715,0.1282905897281887,-0.0015062140429591975,-0.37657468227749313,-0.07433977151484916,-0.22722290529433786,-0.7472860916657251,-0.39111574349491185,-0.527619123209261
2024-02-23,0.46666299404032846,0.3379400625807522,0.17100480810792668,0.5720300739931385,0.3059863775908328,0.07835626462010575,-0.003871154755247635,-0.24403387144145638,-0.06830639453134661,-0.23553334256543226,-0.7479188164315552,-0.3592204623538974,-0.5553231226951728
2024-03-01,0.4847372756304433,0.33814487684032984,0.17971097227242763,0.5497448066328225,0.23746626675422638,0.03784242933116487,0.003030258197148075,-0.10017195131612949,-0.07224611960556988,-0.20292009483159631,-0.7937577329490608,-0.34197387845234173,-0.646616842890273
2024-03-08,0.4882622747652374,0.31122668055580155,0.20286394338812888,0.5583247948879726,0.1917711645589789,0.002258574124116869,0.005094357157893546,-0.01778459682090751,-0.07609394745841992,-0.14112900875285175,-0.883032270724263,-0.29940337221359836,-0.7212263192962962
2024-03-15,0.4840875424066708,0.27342105658773863,0.24299212262210607,0.5082416188778551,0.10322208718091132,-0.055407865115394916,-0.0030769597121460632,-0.013186914105925507,-0.06849876950381327,-0.05679641862452718,-0.9304281591861985,-0.26671407135930425,-0.7580371341238102
2024-03-22,0.4876024802790184,0.2716216190707075,0.26757616373777177,0.3988573802046077,-0.0031347177168051243,-0.11603553732292556,-0.007069395421333105,-0.0007249531926278065,-0.032490264026103235,-0.011222291672596613,-0.9521320588828717,-0.31522605995446995,-0.783517084496307
2024-03-29,0.4110381174448483,0.22428952589860277,0.32941259598273576,0.4282351513075866,-0.03488850341874754,-0.15064506978146214,0.022416266524071367,-0.05451358835273351,-0.03963909593904389,-0.03123267508075137,-0.8986099136065931,-0.32266128015276446,-0.7363819399121823
2024-04-05,0.3870355233455297,0.19031157514491842,0.32582385136415276,0.3273730086458656,-0.10009280066722474,-0.16081036075733945,0.011670355811893926,-0.03466581189537334,0.0076881848548089535,0.05280211303446955,-0.8971664117712547,-0.38072407800122887,-0.7771188637921066
2024-04-12,0.35252533790748497,0.1570280852902726,0.3163758327387695,0.2825068306117425,-0.1294312392643223,-0.17842605608239398,0.0027185786315425675,0.07436158134601717,0.0472125767589904,0.1131978130761152,-0.9103676434236024,-0.44389210936366585,-0.813788332535404
2024-04-19,0.31476662912804715,0.1036590889470367,0.30848200082001126,0.2233677646733978,-0.1677329543689877,-0.20227992607077347,-0.0034785529053719347,0.18784444263101577,0.07654290062724764,0.18471306788481928,-0.8991103351724141,-0.4857618839025088,-0.8198194901736766
2024-04-26,0.2821792655923276,0.06525816687881515,0.30504695508789753,0.1582268287858822,-0.2227051870447318,-0.2388867281473079,-0.0213099559415997,0.2668599052542545,0.10535079641278243,0.24329133851241205,-0.8798515151245275,-0.5193786255033436,-0.788071385870841
2024-05-03,0.2500371723043981,-0.007387579839795377,0.3082773570688687,0.1386563573238865,-0.25749385502788136,-0.26769971011292953,-0.031972955288857394,0.26494506441279914,0.1283660984182378,0.32840585913405484,-0.8884528906619357,-0.595863475521724,-0.685055637640719
2024-05-10,0.2203771867086558,-0.05690244088450721,0.3072484458110554,0.12337992089640133,-0.2728145379633067,-0.2827683827642651,-0.06301471691659419,0.43098027658875393,0.1326010230221738,0.3906740500918493,-0.8953736850891739,-0.6535375302788,-0.6391001261029687
2024-05-17,0.23366713573190218,-0.10639594133248065,0.2995815370385832,0.11157334892444236,-0.2954738793665954,-0.3078764819742238,-0.10074635835704522,0.4779836391005019,0.12264056375985521,0.5144090140913906,-0.8334136128374009,-0.7360110784041399,-0.631988544523039
2024-05-24,0.25431842391223125,-0.10211820618753753,0.2987037830899708,-0.0016748137284959552,-0.3255432652693256,-0.3148196902001523,-0.0895625402102776,0.5543712393806784,0.10009410939795875,0.5502888154070524,-0.7713715175231356,-0.6993335127466761,-0.711203675391326
2024-05-31,0.26289901242933056,-0.11903971675394544,0.31249671307371085,0.0322046096994019,-0.3393251785897872,-0.3315889970633925,-0.08246728843129288,0.6119538257663205,0.01896320423470367,0.5847888585158374,-0.6843184492615952,-0.6039908695512903,-0.744773504818886
2024-06-07,0.27345456133914114,-0.10324520272987547,0.3108886017463846,0.11036553668066729,-0.271473633334537,-0.2644924974659847,-0.047004766170846625,0.632045849048292,-0.0537211107281175,0.5658297401243036,-0.7216195366544452,-0.5588722868793655,-0.7740887097622083
2024-06-14,0.2614030991256426,-0.0951452921832063,0.2953977511678378,0.189923345201772,-0.18837131059338827,-0.17570982378310468,-0.01432367484949345,0.5899180799151394,-0.07806693378196328,0.5460067831003327,-0.7811019970637024,-0.5490667632123464,-0.7987380568697617
2024-06-21,0.26624496763379046,-0.07507863047795459,0.282727018378938,0.24077320076623088,-0.12261618406892864,-0.08706598073523969,0.02001842621794247,0.4991000945266154,-0.08936575989567004,0.5152186275227663,-0.8497841710661128,-0.5548435959875903,-0.8142038938057912
2024-06-28,0.2894565683439912,-0.04612376324276699,0.25744270074839354,0.3045198369370553,-0.040182477713611595,-0.023552602036527412,0.042892183135427926,0.41695870870096663,-0.10777207375242508,0.47797261059084106,-0.8875564132446189,-0.5622224169755581,-0.8212408503067162
2024-07-05,0.3282504741178096,0.010452609782337113,0.22054794278337703,0.33750888534640683,0.021890889475751872,0.03729168149132785,0.05429028781209631,0.33930155604572765,-0.11106212838022063,0.44082516505095487,-0.8940559971200484,-0.570681768286565,-0.8886174217301813
2024-07-12,0.3557505557064038,0.03878517136501891,0.20198108615018584,0.3925657151173252,0.09479743589266834,0.09741703830587171,0.06463768679408721,0.19901082701663447,-0.12858695624961472,0.406144201198128,-0.8805843900657154,-0.5578946845274002,-0.8970265783765329
2024-07-19,0.3484963569302334,0.02122417351860077,0.20129860930766805,0.4268948157625334,0.1484820602651911,0.14656349081853629,0.07931649846383182,0.09551527991603871,-0.15568384191869314,0.3780489972906873,-0.7958696601881184,-0.5016799781601997,-0.8739803139636918
2024-07-26,0.3185965946524163,-0.010565289136225123,0.20258965641863247,0.4685494776600173,0.20596173658746575,0.19129528507501742,0.0785999648317607,0.03155468497403338,-0.17516379855413797,0.34967374206964263,-0.7299389232936364,-0.45576848603013,-0.8052012879386566
2024-08-02,0.25900733026145095,-0.04617758580999108,0.19460044510120358,0.48363491681643866,0.25779171515831606,0.23753157672073594,0.0930995406509262,0.006492001379079265,-0.18590852137211922,0.31952753822326524,-0.6530136368508774,-0.43118658925541453,-0.7035041389897597
2024-08-09,0.20361853737570515,-0.07432752991194355,0.17332244622596774,0.492246555454453,0.3015962900653786,0.28162329736454866,0.10707290012252876,-0.035359769037015994,-0.18880998403540414,0.2917588808937476,-0.5691520483077583,-0.41606690085889525,-0.5903053358617221
2024-08-16,0.15714872667619084,-0.09714970008730694,0.15131186001438388,0.48900899549271176,0.33074476848006085,0.3167195881029611,0.12407413510845478,-0.08792340363818638,-0.1947303472005972,0.26408449932408407,-0.46656620792398507,-0.38494341090129724,-0.4859591767263439
2024-08-23,0.11531751763519238,-0.12134586096796707,0.1339121504177921,0.4723849919844787,0.34775164622130217,0.34475149013832374,0.13857846727695247,-0.16250074301297862,-0.19950206724920724,0.24506390582592,-0.3600571017372745,-0.34830495954132845,-0.3870705821661747
2024-08-30,0.07251058211988723,-0.14661146082794962,0.11435393166925734,0.4763659231013774,0.3845741623438723,0.37824556464875786,0.14844131201673305,-0.23132075520755108,-0.20327324384530354,0.22255729270320937,-0.2719289193226771,-0.29897475135678686,-0.29141789529219914
2024-09-06,0.009308420502342277,-0.17195810399423606,0.09527240320380266,0.4719335668933811,0.4128034871638393,0.4064821317134262,0.16242375813032553,-0.25371464576654834,-0.20494062799468082,0.19479278192293775,-0.18286467399176487,-0.2184119716389572,-0.19538173328509728
2024-09-13,-0.03267979815543427,-0.1905811944071676,0.06926541826964336,0.47613852524247674,0.4415947490721127,0.44288997565104593,0.1777590020502415,-0.31412869278208694,-0.2100611554045858,0.17261202719885602,-0.11612855819499159,-0.14307568661103393,-0.09652706537909138
2024-09-20,-0.07274423975544617,-0.21661432037228975,0.032069689255461845,0.4770606477400382,0.4478994739892099,0.4543168661082056,0.17073407950814534,-0.23744592003564358,-0.21586999064030632,0.1570999010761035,-0.023174391808941902,-0.038776094017904716,-0.020756515456416685
2024-09-27,-0.11903392165929247,-0.24207771583618365,0.008474853822136402,0.5252550824044924,0.4656717307611268,0.46003776299283133,0.15447536316969154,-0.15533577627223075,-0.23502131572430981,0.16167482947821052,0.038006246631234177,0.040781930112233605,0.0493742072632294
2024-10-04,-0.15046845955801452,-0.2780265178291195,0.003997884662789649,0.5220781516987273,0.4310103966263553,0.4175424292121309,0.129956580090735,-0.015132943926326858,-0.2484008779936159,0.22560571542342361,0.019277305660694143,0.07709664930358011,0.1001045757897216
2024-10-11,-0.1585174491709726,-0.2930968594465661,0.00396059743677467,0.5052596588194348,0.37993544236165455,0.34526598542689013,0.08214947046092089,0.10280539884719453,-0.24903082515861188,0.28713285292591373,-0.03203803618323063,0.09812137049712005,0.13653546629578162
2024-10-18,-0.1319275643602798,-0.28829891861524315,0.01439354910998045,0.4771463817348414,0.3289244547240684,0.2922104114156455,0.03941556188171628,0.05578514893924041,-0.25813470794014304,0.375813713853023,-0.12347369326035405,0.11681130230273287,0.16487035916860054
2024-10-25,-0.10370659629812135,-0.270118631825689,0.017731664293796266,0.44057306929447326,0.2704800412516283,0.21069291144519664,-0.003702027674790394,0.050412827702678825,-0.25483795457880337,0.457167022459558,-0.21895316001136955,0.09333145580849148,0.18649647724361526
2024-11-01,-0.0989890011457856,-0.2552335857327387,0.02896811916000433,0.377900716327669,0.18978514209778816,0.12399212494513184,-0.03715451345713126,0.15648092236914063,-0.24490511162849793,0.48662018719308686,-0.23940983034926583,0.06091944935855113,0.19381407759093838
2024-11-08,-0.08146590966725129,-0.23115499636291276,0.035673007325599186,0.31364488975634647,0.11765809534189765,0.05495989835460929,-0.05461760469160376,0.2609463474539528,-0.23716294029350862,0.4941761326306005,-0.2940987697352353,0.017429963304976974,0.20468735012791647
2024-11-15,-0.06243207936422186,-0.2082805273100847,0.05546691814817867,0.27099422928628797,0.05822779864395313,-0.010257609580158047,-0.07308164525747157,0.35906095486820666,-0.22961096118101512,0.47415698235344456,-0.35239754282305547,-0.039057305125772074,0.216750855958369
2024-11-22,-0.019985753560934287,-0.17348982536146787,0.06365151331589577,0.21217492490663004,-0.0014312199592586283,-0.06045675635030292,-0.09111279626003004,0.4492017575550974,-0.218033784646837,0.45811605322607674,-0.3993796147215254,-0.09728757041730354,0.2118523451720014
2024-11-29,0.027364931751542712,-0.14502878839652372,0.07944828129727279,0.1619476811226781,-0.04974798570561156,-0.10098151570360513,-0.09490584371072215,0.5377835125611201,-0.21406798010231737,0.4261911553463761,-0.4595216285598676,-0.17086759485170405,0.2191875428759183
2024-12-06,0.0764922157139287,-0.11128754812086751,0.10714985926942122,0.1323722042068525,-0.07498978287213685,-0.1059423955910511,-0.08921977427125315,0.6262137123552851,-0.21947276193882168,0.37717424171939934,-0.5432652446496463,-0.25791310200903445,0.22951219875170664
2024-12-13,0.1001518769576404,-0.07666946047945389,0.1347969142195828,0.1000320020152908,-0.11724441166720595,-0.14330469320711176,-0.10742725610764081,0.7165910048642209,-0.20807959719275057,0.3344027279942098,-0.5957450570168654,-0.33007442856659563,0.2147847229310493
2024-12-20,0.07771120643930896,-0.06002363615094369,0.19551343270593277,0.06896360982905136,-0.1612821353797611,-0.18883310829051825,-0.12624569163716454,0.8161924490160758,-0.19070127230872067,0.280918648338778,-0.618841625973582,-0.38918960754947063,0.2067162994068742
2024-12-27,0.08865462022269872,-0.014910785015139441,0.22012478397800517,0.07195633926790614,-0.20913165053401378,-0.26885027562570885,-0.16519756401457897,0.9060354045500214,-0.16612845830482248,0.22960170598839535,-0.6371371813129315,-0.4380955827230523,0.19012944230501058
2025-01-03,0.08471884173204851,0.035772435519380405,0.2229885009299934,0.11147717979892946,-0.2527222648120915,-0.3352223785736158,-0.21969854483506646,0.9481327737368384,-0.11818340000809566,0.18856250797023602,-0.6589706152645162,-0.5233474802297975,0.1897636538196973
2025-01-10,0.04056256929279074,0.06355693519134924,0.2062984867499955,0.1484285889749161,-0.2901511039200024,-0.4102985641698541,-0.26962056589089234,0.9767469326836279,-0.039489048965729495,0.1792021058291007,-0.6957112927531677,-0.5804434698018451,0.19124883340152096
2025-01-17,-0.02238362000715456,0.04924667739480582,0.20214849368287946,0.09857345520442555,-0.3287834503399738,-0.430827520453283,-0.30782078658820367,1.0900920997110664,0.032752531734784665,0.16619195128593695,-0.6858195978220362,-0.6332927059128112,0.2012879027535001
2025-01-24,-0.010115173239383728,0.07599341007672408,0.21006343698721827,0.07644980918488127,-0.3813531402867534,-0.5223618277001113,-0.3715602789434018,1.1855786890296456,0.050237447148257286,0.1871029372650292,-0.654852240944564,-0.6744334393470266,0.18417574209871
2025-01-31,-0.028794699621462416,0.08053065303407635,0.21644926336724393,0.13767237162576385,-0.3619763058110409,-0.5209289604540043,-0.4059899186752984,1.1326649817840346,0.0647974764720595,0.2561576821024807,-0.7244295248157802,-0.7947657023465576,0.21167321420704285
2025-02-07,-0.031060009775700795,0.10138997742585214,0.16350216484664765,0.05361413916461423,-0.40208040073990337,-0.5402088698511835,-0.394566928094783,1.199053391168069,0.06282425024545277,0.35028658520159073,-0.7679123049758473,-0.828180493007758,0.2413481442417072
2025-02-14,-0.051301567534387554,0.16718959464356004,0.16753207560019737,0.031650741439240855,-0.4187686138420832,-0.531422414081617,-0.3915218490269621,1.1497627696168438,0.0018965284975438826,0.40742664910706783,-0.79963583437189,-0.8945504316104649,0.3353420376434614
2025-02-21,-0.07103848916376235,0.17978951331746118,0.1255266104799622,0.06802810320860728,-0.4039526304737178,-0.5188075340435169,-0.39949276248822924,1.2413256622726252,-0.06655363835591266,0.45510072789165,-0.8150062101837636,-0.904420233609358,0.45629327747826437
2025-02-28,-0.12195349800533128,0.15083387638567664,0.11785935968069272,0.16213369931254518,-0.30969083430727373,-0.4322873954126937,-0.36107595843483664,1.228839375579537,-0.08310435950906284,0.4297031231882219,-0.8081323761266828,-0.879962487526364,0.4696848532613023
2025-03-07,-0.16598024244855175,0.11000403540234084,0.0996745863906843,0.20573908181063713,-0.25521055525668296,-0.38020094907371993,-0.33363282348828993,1.1866269406441274,-0.09327024985247492,0.42388942319091966,-0.7271281811622836,-0.8097893996958356,0.4796589436394829
2025-03-14,-0.20183196591275987,0.07452982588689497,0.07164329288806563,0.2377763640512538,-0.20241288041113245,-0.3272162989990003,-0.3066612358768985,1.1327151103530726,-0.1002257983426883,0.42032143380955983,-0.6409215606487247,-0.7273312970296744,0.4824104310425837
2025-03-21,-0.23606286098180684,0.03838977000160875,0.044371217696342856,0.26358864400562887,-0.14991330926889712,-0.2713353244418655,-0.2782003546083767,1.0816857518301883,-0.10396675428899978,0.41101651166920133,-0.5548015833840645,-0.6398921298804152,0.48034154513438027
2025-03-28,-0.26215984623664057,0.005713248449252743,0.007203588883642302,0.2998956510025173,-0.097210425968246,-0.22153296969552286,-0.2591441447322337,1.0272691662547369,-0.10716899691558575,0.4130098445434307,-0.4671335895250405,-0.5471646243603682,0.4741587961296336
2025-04-04,-0.2675085434149933,-0.015584018717932111,-0.01607118267997454,0.33441291919186167,-0.04128274803459331,-0.16189288351103326,-0.22772341716431263,0.9601608445028106,-0.10629156853394496,0.3819521907936121,-0.3915849209843305,-0.4684592386422173,0.4588827500564422
2025-04-11,-0.26777186869190006,-0.0383596105617135,-0.04130109005516938,0.33656088299722764,-0.0014371228091601268,-0.11934747896853455,-0.19909824705584697,0.8827810946123947,-0.0994388711548092,0.3619568616167848,-0.2697614652060988,-0.35889201086131706,0.46183130187328475
2025-04-18,-0.2635800225580887,-0.05754849555151364,-0.05989516994109172,0.3652034382837953,0.06375121475981886,-0.06366250602550236,-0.1769688696353595,0.8215644978037259,-0.07953505150805067,0.33106798072238885,-0.20840944816172952,-0.28145617780282833,0.4262485035545663
2025-04-25,-0.2615713002490146,-0.07886540228161312,-0.08486978309419538,0.35164558512963145,0.1065937402447781,-0.021096766593750406,-0.14989359675629543,0.754626792018587,-0.07412043854756707,0.30597028536646903,-0.09975259962466461,-0.16790382810788557,0.4322476580787998
2025-05-02,-0.24871677276549412,-0.08658256928201861,-0.10073274847804849,0.3414000408209081,0.14368115486801267,0.029013343073417193,-0.13483095489388472,0.665126579584918,-0.08730280739961357,0.2686056559200467,0.0007473899017324259,-0.0640623192509971,0.4389185786340612
2025-05-09,-0.2470532724817108,-0.1026674998997858,-0.12662952827108492,0.30220233799115553,0.16972761854216992,0.030345733987447453,-0.12524768603709693,0.5902577588543454,-0.09492182034923967,0.25960867005484406,0.14642323800417614,0.05905195959174554,0.4588385951741587
2025-05-16,-0.2423956101805667,-0.10578738960790804,-0.15020602720863963,0.2046843809496291,0.15565173212458772,0.02269685577036245,-0.1384570830523721,0.6220130657719088,-0.0939112844450857,0.22371259745756003,0.2475054145388677,0.20198386454038425,0.48235642863353717
2025-05-23,-0.22538425612895785,-0.10023618316756583,-0.15823717855678987,0.10798577404758657,0.11727661726656696,-0.018539479676988234,-0.16245034356118043,0.667307619639149,-0.10373578654971272,0.19917278357925244,0.31676918200559856,0.29788893989523146,0.5066316864054607
2025-05-30,-0.2104491034340103,-0.09332586555928885,-0.16409339115777627,0.03357579246655956,0.07828777030467637,-0.055655041772920785,-0.19356810572972566,0.7127513377100126,-0.11555244740701634,0.1665261719069644,0.39764343027928606,0.40237172309173797,0.522033828623205
2025-06-06,-0.19591636305553262,-0.084108667101522,-0.16496449776222993,-0.06123753293459046,0.010727892138155351,-0.11454963083416156,-0.2173329251366109,0.7505076633894661,-0.10109274169824317,0.1333790136625554,0.4485902163325059,0.48261716053713777,0.5082428992309554
2025-06-13,-0.1901624589862052,-0.08076004542620216,-0.17232225457876602,-0.16952247668954257,-0.06365741418345289,-0.17276614022164585,-0.2472856209427274,0.7608044982571307,-0.06549372490318359,0.12807133406916943,0.5059999618467196,0.550699515487285,0.47223826878277103
2025-06-20,-0.18035219127523255,-0.0715447051968099,-0.1708665555033104,-0.25629340089133246,-0.1233845044865153,-0.20365664004136994,-0.2709008737240122,0.6401831937428752,-0.024131989844538466,0.11482547430994844,0.5645915365496555,0.5592440754163102,0.4360883768685355
2025-06-27,-0.17382359300820727,-0.06442124099075297,-0.1857496011704267,-0.27047821441166536,-0.12673617016206432,-0.20642240885770569,-0.3063592746847152,0.7905753416944588,-0.005262925660172755,0.05271479743867104,0.6747355086239001,0.5655795308203593,0.36823545046717476
2025-07-04,-0.17694544254875705,-0.057065544863321896,-0.19496382422501007,-0.18799407343860966,-0.015552547588854326,-0.17862304802266213,-0.36276123971585383,0.7451109098644094,0.028511609300796655,0.028579646606441057,0.6301261595088753,0.5322928644374676,0.34706644172335205
2025-07-11,-0.15817582605687328,-0.03880160913820552,-0.17945064887257872,-0.2128699767884484,-0.01417137487069307,-0.2314244085197686,-0.4041440957432213,0.6757935103552224,0.06817741137089882,0.04073772372026755,0.5464223759581941,0.45856517938148766,0.2986272091850343
2025-07-18,-0.13157222516392858,-0.005572905089693131,-0.15440685640607654,-0.25752666068468094,-0.022283079528967457,-0.24075675553562445,-0.5024395641916304,0.7283840351028471,0.08596104609376172,0.044288875772158884,0.46772140283746644,0.39644054415490354,0.2586504304814562
2025-07-25,-0.11214412590346723,0.005293093010542066,-0.13786505006397778,-0.23960577586625215,0.02341450372301447,-0.2954569152195913,-0.5211655774880576,0.8346088218810584,0.0896789184169658,0.02797765522671208,0.391374413763686,0.32801501647565845,0.21355737163494407
2025-08-01,-0.10321707539525929,0.01327006880418216,-0.12144186479827437,-0.333759946802593,0.0031089762000605925,-0.22618365731268508,-0.550662529819448,0.9187761368574335,0.10023277017308907,0.03606376569351123,0.33081458773350636,0.2737212949151371,0.17777531669008537
2025-08-08,-0.07387311613007186,0.055955373534983116,-0.1213614654728184,-0.4002382002908292,0.02974355473524782,-0.18277465298313497,-0.5774806119603659,0.7976640697077662,0.10090892063064842,0.04920258087017637,0.2802933957134729,0.22619606884548388,0.14619834937899973
2025-08-15,-0.03462630942883191,0.09773190602949139,-0.11231366241035667,-0.47748741335181144,0.015156763877671646,-0.13545690603367957,-0.5680941574710079,0.6797993431795681,0.09222441447547114,0.041337485852751155,0.23105064013776522,0.17951766657518,0.11514518254139357
2025-08-22,-0.0009317980922888824,0.1277532817088275,-0.10180492507649617,-0.5505583516707666,-0.030467040663610792,-0.013170764361281673,-0.5755111826367275,0.686376872992699,0.08229607974711255,0.0370690805807015,0.17157159915600992,0.1213125263719303,0.07622616758803263
2025-08-29,0.015329246173422541,0.14166364366648898,-0.09393198404943304,-0.5978315967812695,-0.04631231857946473,0.13881506499233587,-0.5689156164670758,0.6597709121458597,0.06010857507052937,0.08064289915570308,0.11678132078511996,0.06564885845412671,0.03879166377521247
2025-09-05,0.036038085803327735,0.15886234393140708,-0.08269899085478807,-0.6125612006231844,-0.03591562322571021,0.2791661475153322,-0.5721920820286902,0.5525677119781245,0.03899326831983183,0.1115058889916929,0.07068840712938051,0.019660516647275174,0.007948796361974503
2025-09-12,0.05998301163478034,0.17881358066260902,-0.0744556978488606,-0.539343831162616,0.004060094679084338,0.41109264717268285,-0.5716235929308944,0.41153235858343795,0.014012739296261192,0.13564180664883269,0.06204403685303348,0.017256264060110944,0.006976750989974197
2025-09-19,0.07434383771089753,0.1871789909233972,-0.06256045544918458,-0.43913519344195157,0.08229092112179295,0.4626354891294682,-0.5295703142256748,0.2730288406319368,-0.010422113310001993,0.1566201464532673,0.0552653963555434,0.015370925575925391,0.006214503895808356
2025-09-26,0.08287692168398429,0.18783528798153387,-0.050746621702267694,-0.35685883687843584,0.14926553796850023,0.4578057006594807,-0.46260888596914723,0.10279793472444684,-0.025148040044745416,0.22008784328449785,0.048412082189390915,0.013464818157122836,0.005443859869105719
2025-10-03,0.10118238988840006,0.19034770755924557,-0.03162251185393523,-0.2999259567037687,0.15840048851665575,0.49512578079636205,-0.36926461427326945,-0.036644574049083584,-0.06919328100249927,0.28911495762237005,0.040637647135673464,0.011302520037757769,0.0045696372973863
2025-10-10,0.11369343349954379,0.19071053068345276,-0.00808516708496057,-0.26760947626933707,0.1397883140432316,0.5161664879551153,-0.26280439045183024,-0.18700048912703723,-0.11342227840684799,0.36905670833422033,0.03299151583355559,0.009175906950021927,0.0037098422737664697
2025-10-17,0.1145369703894946,0.180212311712261,0.01519494450389856,-0.1660518306785975,0.20970585987130572,0.49765427034928267,-0.14770349626584028,-0.28454950409247937,-0.15449843116544473,0.3822828842937532,0.02692318475984721,0.007488126323172393,0.0030274683185341194
2025-10-24,0.1143006250911472,0.1711941635900779,0.027547938049036602,-0.04976555509547309,0.2989913511987031,0.48286950994760214,-0.023945403835206963,-0.31942987558977304,-0.17127179430915104,0.30666874756063195,0.021882098531373018,0.0060860525781258334,0.0024606063746802354
2025-10-31,0.13040897532732607,0.17230538031811043,0.04629039572752454,0.026807136746591256,0.3617705158793929,0.4641168582414111,0.09588840957626908,-0.374129611454121,-0.18779368970150487,0.19893283811557982,0.01674602221276433,0.0046575593065365795,0.001883062949752619
2025-11-07,0.10264566811462451,0.1409969514075279,0.0676262830989914,0.0819199038260929,0.4243759502473644,0.3652001390266517,0.1774821184794767,-0.31486729922264073,-0.2029407459442057,0.15508199991743857,0.014514186950856772,0.004036820544657311,0.001632096706052898
2025-11-10,0.08480911998001164,0.11993054336157595,0.05511868060039283,0.05098610148536625,0.3540370344289397,0.30167035851377955,0.14785377946788514,-0.10603742858616949,-0.1832762216409062,0.1317401841802119,0.012844094716212817,0.0035723189733939354,0.0014442975517360921
