,ES_FRONT_CALENDAR_2D,NQ_FRONT_CALENDAR_2D,RTY_FRONT_CALENDAR_2D,ZT_FRONT_VOLUME,ZF_FRONT_VOLUME,ZN_FRONT_VOLUME,UB_FRONT_VOLUME,SR3_FRONT_CALENDAR,CL_FRONT_VOLUME,GC_FRONT_VOLUME,6E_FRONT_CALENDAR,6B_FRONT_CALENDAR,6J_FRONT_CALENDAR
2020-03-20,0.09294979741592205,0.05426649724568774,0.06671023810873176,-0.45371351583187247,-0.6445879091616096,-0.6661600974444478,-0.12463129957653703,0.04030981203051864,0.001324026323513345,0.006956492922864289,0.2788831710568576,0.14185488156744136,0.27981897902341596
2020-03-27,0.05491223379815066,0.02622307213950545,0.07340911489939884,-0.36087235988531685,-0.6228186757928201,-0.690034870966582,-0.1315275473844621,0.1474269847984777,-0.012720142556181372,-0.003092613709551863,0.2560965080324729,0.17010513726974894,0.3793527838028791
2020-04-03,0.05806258445176086,0.04017866574570317,0.045749359967112595,-0.43836005834832786,-0.5946367250196455,-0.6213114026473502,-0.1132233683350672,0.03452271039126301,-0.014505537284724644,0.024394149887603432,0.2535240256316263,0.19384602367069123,0.47341499439732804
2020-04-10,0.0904822560693648,0.04722574488510352,0.05156104314018646,-0.5545905528043437,-0.5905861934312813,-0.5816991135100502,-0.11700143617585525,0.04622286314379129,0.012360407696142318,-0.038038357274756664,0.17348217274758831,0.1882709581633201,0.36897432443519634
2020-04-17,0.09323139040754345,0.04384875426746554,0.054337408313336714,-0.504674005618978,-0.5332936628526962,-0.5398036926372015,-0.0666377621899038,-0.12428374141033782,0.025332433412895858,-0.1150781392049294,0.1310148524396969,0.20906601694964194,0.3789272384691099
2020-04-24,0.10723794292190308,0.06130807264796426,0.045777522377118525,-0.3588726248564316,-0.4669467655529524,-0.5035002587375189,-0.10504823978890204,-0.1345901576029111,0.027527064930761517,-0.1584202316553735,0.18617072517433084,0.2072406916219703,0.30455704131100697
2020-05-01,0.09522538316792248,0.06961449575771508,0.04891569248218272,-0.284665439763196,-0.3417026688641057,-0.57381373763474,-0.14250460011020036,-0.13930409696941326,0.02750155355096615,-0.129690728002019,0.20035988944772526,0.20295963790412527,0.2197606831409206
2020-05-08,0.09828975984676244,0.07274558420795389,0.05748102893606999,-0.18034409080316272,-0.22798089275744032,-0.675628412718516,-0.1743716181923423,-0.13736179406025117,0.02845471245078571,-0.1469739545219803,0.22439089740006302,0.15997840513314646,0.24421836503831393
2020-05-15,0.10331675318023588,0.08579442988716021,0.0842952747665308,-0.12922017003036562,-0.265757919509136,-0.7560686022788227,-0.24130563449604392,-0.20944251747406542,0.04587249067118863,-0.11428227282752133,0.19526195769703056,0.09809930253142457,0.2421178410931018
2020-05-22,0.08700642236236877,0.07256808943979501,0.138462413265693,-0.1785200317464345,-0.2336627104742366,-0.6198787796736737,-0.301334551953861,-0.18665123321095192,0.03960943005832616,-0.09212630488530124,0.16301840227913283,0.08281453545032838,0.20145511562619545
2020-05-29,0.06942190434273797,0.05827641730902286,0.1883214131739924,-0.1282124948920837,-0.16440889682450308,-0.5156285699014452,-0.36348316185088275,-0.18142507229303567,0.032990292009175345,-0.07685492046318425,0.123752424706197,0.062410053125867324,0.1558254892969846
2020-06-05,0.08726022815029208,0.06931282667282761,0.1555416320916523,-0.21993424352075241,-0.31307011298126575,-0.5650567963720554,-0.32199591626231494,-0.12220810760458438,0.045364672146643505,-0.07800934828995773,0.119975017233881,0.0895031041987208,0.15240634921170454
2020-06-12,0.10565254350154103,0.06999945641153513,0.14754074589884428,-0.3046478165975402,-0.43694347669432854,-0.6110684081360699,-0.29151094727438154,-0.07501367720787916,0.05719128551958673,-0.08889068574378654,0.055613583794608824,0.12662766060061625,0.16884974161613328
2020-06-19,0.13372027428063774,0.08223804267633622,0.15179934775896056,-0.23948774082563914,-0.4998044265379345,-0.7201892327185898,-0.303062378474897,-0.012731839717382032,0.06388692607371355,-0.12060910825438063,0.014852955249938344,0.15997161934613255,0.13690956750436456
2020-06-26,0.0991996760512207,0.057885254480590835,0.17155321746434685,-0.11487119769201273,-0.4499536606326224,-0.7286065894928009,-0.32311279659764314,0.04264600659670178,0.06993235473141683,-0.1438393867966224,-0.004843910791652142,0.21494802860175982,0.07779883587320521
2020-07-03,0.09518292609829966,0.06327472464158208,0.15114002310508717,0.014562005377676684,-0.3943392661088379,-0.6860869675868961,-0.3034543337764435,0.04855320147740782,0.07703516136015515,-0.15136398463817421,-0.07990720051085146,0.23448281945265023,-0.06493594442648087
2020-07-10,0.09976384061737864,0.07467828239871198,0.13895021024116377,0.02214581395054724,-0.40491512004412417,-0.6503572638424023,-0.2971394399797474,0.03382625899750312,0.08519803783297704,-0.14700444517248618,-0.09539447503048555,0.25226047327931794,-0.17355591426653025
2020-07-17,0.09984591501559013,0.07278149224837226,0.1289136048583132,0.03258742943736598,-0.4410811172309327,-0.6230301384391801,-0.27913018040238474,0.07771237667301714,0.08294360444812726,-0.1439103049165145,-0.07215856724551656,0.25867149041203724,-0.20821390430061887
2020-07-24,0.09020668269286236,0.055493564881503865,0.12391633217318934,-0.04671645402125519,-0.4340189375563094,-0.554403322665792,-0.2444829600021863,0.1403701373477083,0.08263487879492475,-0.13908089407942978,-0.04137720321902633,0.2608414382198356,-0.2479259485832787
2020-07-31,0.07075023571167059,0.029874177893436812,0.10754611135081583,-0.09400854691106844,-0.3644353681559379,-0.4191458009011059,-0.18418191013252755,0.16299201108328262,0.07039265890543077,-0.11134247279361038,-0.042941767615599376,0.22056226585737648,-0.23068046270449077
2020-08-07,0.06013707136536587,0.016140414632362165,0.08369252680704602,-0.11202594184871827,-0.2834113882725845,-0.304032528147212,-0.13015554718116565,0.15590329589471205,0.05472751444805206,-0.0784367067900602,-0.03945192923495961,0.17079147883216667,-0.2131761076884313
2020-08-14,0.06192697083248532,0.009351535520376203,0.08549162441614715,-0.14455383682451367,-0.28618893090298253,-0.2865032728484497,-0.11939250470031475,0.21017595856867868,0.05208939748872864,-0.06516565889204302,-0.0612310154045713,0.16805421173466922,-0.2376256475870629
2020-08-21,0.07147069445139137,0.007959373215413132,0.09405119816135568,-0.15732117219421424,-0.2967597975512581,-0.2836989419384419,-0.10865401374428159,0.25210703488920777,0.050227396979668035,-0.0576897491324828,-0.11355880592381586,0.1590932366440413,-0.27786929625913515
2020-08-28,0.08199177124031543,0.013383804601849437,0.0920250196008522,-0.19532491944313782,-0.3004306901992123,-0.2723671719447295,-0.09731997789220481,0.26802105531091525,0.043989938365394624,-0.024157879946898143,-0.16725369569342452,0.1489353709373215,-0.3083891073826337
2020-09-04,0.11255774857785024,0.03254586167539923,0.10419190232671456,-0.2659615158625181,-0.34225056303362544,-0.29665910864057043,-0.10354884089405994,0.3413650321331775,0.048243050226282794,-0.028352271870639392,-0.23565451744101354,0.1371103120424894,-0.3819135749969226
2020-09-11,0.16607874853273633,0.060290826820093006,0.11382183539053148,-0.4344375452919215,-0.4317252061376512,-0.29341674562913334,-0.1155836583761734,0.36712873905601534,0.05452033521883762,-0.03735412192362875,-0.2770493194162893,0.13472178603573967,-0.4230904689731731
2020-09-18,0.2278091951977107,0.07542115437583259,0.11765300914871685,-0.5586533312859684,-0.5057639182577021,-0.3471231524351033,-0.12981639724748228,0.43132687491514654,0.06211429266148201,-0.07315842527682032,-0.2590081176896312,0.14014876595553696,-0.44270815680302544
2020-09-25,0.30690664189216477,0.08455927926479798,0.14525507335021032,-0.6700697842062961,-0.5440904726897147,-0.3948211418317128,-0.14381311088907617,0.40990787631109443,0.07205948835552073,-0.10363037767882893,-0.25512474614041303,0.12578297398954702,-0.5350124789001319
2020-10-02,0.35546975237698236,0.06493134180786309,0.14792648735358002,-0.7160521948563062,-0.5768693845963357,-0.4300414722653762,-0.17956084783838366,0.33395048389511817,0.08626441823234879,-0.10874170068834904,-0.18717123443810602,0.19250743960434918,-0.584393670286545
2020-10-09,0.3708415035588523,0.02288843482631646,0.15230653049947807,-0.7228320959296358,-0.6153861510035937,-0.4890656989771559,-0.23688493201464422,0.410878440066038,0.10435015173051318,-0.08939533711691489,-0.15855976515516945,0.27720335289604087,-0.6332685829235924
2020-10-16,0.38468657040023396,-0.013557613265690984,0.1320633180321574,-0.7395869991171223,-0.6558996075927354,-0.5543914204962979,-0.29169836533792537,0.43041503776428525,0.11540065403189144,-0.03838328172861185,-0.10052021363921278,0.3871805777273636,-0.6357074435719368
2020-10-23,0.3384118714762921,-0.03222619201141062,0.09627748062751684,-0.6029998289130428,-0.584699999530812,-0.5143144890916139,-0.2869825135170811,0.42139293095975655,0.11028846401022745,0.022393692706128992,-0.11342766884218711,0.4204835455819184,-0.6480980081589169
2020-10-30,0.2950970007021053,-0.02276335929550725,0.06111818010265409,-0.6435776127335963,-0.5369777720004008,-0.4602851125735143,-0.24447867695875042,0.278495282761953,0.10464043621438564,0.09442647340116674,-0.09441101435248792,0.3865148646357603,-0.5398713520912043
2020-11-06,0.2720923657622662,-0.0003039070138535712,0.04619542846700683,-0.6394749067507285,-0.46459997152192606,-0.3620220577103133,-0.18317795060706185,0.11888523301760828,0.10085210534969297,0.1049611135759394,-0.11646651022003389,0.2895139122784644,-0.47858616862202746
2020-11-13,0.2626845926964948,0.01878588164980263,0.04794475168571185,-0.6548200123337197,-0.44030650626242357,-0.29049248900682023,-0.1301285580844558,0.028015410190824024,0.11099476597029434,0.08630537027218932,-0.19527886582951084,0.20600795498110128,-0.4377691983023592
2020-11-20,0.23733960879023983,0.04123937083905116,0.052091098749175606,-0.6132311723224357,-0.39312427452683696,-0.21775184002428521,-0.07491041724752853,-0.06559554251200046,0.11137836161719666,0.050199980271894006,-0.2548779395004142,0.122816217652529,-0.3642199506475037
2020-11-27,0.20795463442938386,0.05841097974185451,0.048483697697130984,-0.5362856558771115,-0.32840818896511265,-0.12110725704288874,-0.017847555362290872,-0.12592319916181013,0.10579095168531817,0.026250186107376408,-0.326507344650177,0.04287304170180527,-0.3158130278414565
2020-12-04,0.21656958928822684,0.08367279948501588,0.036939044705153974,-0.5169284174155067,-0.2989530766078637,-0.043862459207701106,0.030568384148091713,-0.21097231207634207,0.10943887081933869,0.007397832734485421,-0.4285088937284697,0.002203096673866463,-0.31188053265943433
2020-12-11,0.22222153943797993,0.1024321835049831,0.02798609708653172,-0.5096782945279474,-0.25544706680989615,0.06324539127550256,0.07845726733023316,-0.2776975218144237,0.11110069460452178,0.00529233015458459,-0.5337984369036615,-0.07422729596602867,-0.31255975422667065
2020-12-18,0.2272285506118887,0.12195278904301511,0.012977274357609868,-0.4737932888499869,-0.18558034312268062,0.15700547441102677,0.114396346256605,-0.33506904332655274,0.10845083842792021,-0.0006564004324538462,-0.6330065585869686,-0.12571504012039375,-0.31909474566553125
2020-12-25,0.2339735497675685,0.1390017346986809,-0.00708310970243817,-0.43335987573252766,-0.11274694777774871,0.24656815374118649,0.14725404025988695,-0.4387800734105875,0.1074933762993476,-0.006604623737424199,-0.6970334303797674,-0.16658487334599056,-0.31443615485821425
2021-01-01,0.2638951999881553,0.17925572444022164,-0.021272737472256175,-0.3920332731790699,-0.07140255132828376,0.3058748427576774,0.17065427896833993,-0.5322454585162313,0.09874337521340519,-0.02774314911391943,-0.7761749976478456,-0.19876765515088995,-0.29893144513927167
2021-01-08,0.31496080497506657,0.22407138467389723,-0.03339998452733425,-0.3689684016695723,-0.045767924902510415,0.36944378658379634,0.2078309755527896,-0.5493094999486704,0.07822160046047294,-0.048453631717131976,-0.8748287160188004,-0.26385502444439224,-0.2784396915181307
2021-01-15,0.3227392607191597,0.25318509039086523,-0.03575383620018012,-0.36931902034271336,-0.043015639305727014,0.41095476054572555,0.25365071938706374,-0.41696107592883197,0.054273069831931135,-0.05613814896529818,-0.9470109339975642,-0.36184548593302046,-0.24227674272155172
2021-01-22,0.3504051235011933,0.30451402967093893,-0.061657606086808814,-0.3531617009926293,-0.0528637966439093,0.45613858389673323,0.3083784859333662,-0.4758683179293202,0.039054666088224096,-0.03816916670630165,-0.9984895359656966,-0.4561160008357664,-0.2109368538467473
2021-01-29,0.37076804085637727,0.3295385417672423,-0.055183886992462135,-0.3772401526502252,-0.11240807708268744,0.36280351712953335,0.28158743505317996,-0.4889139472862418,0.024191647539721858,-0.03153630260903534,-0.8678049019117512,-0.441311581889467,-0.17859206752845883
2021-02-05,0.3145982320545566,0.3413971231648766,-0.03536571397046732,-0.38509866694325556,-0.13746010829803312,0.3265855929627476,0.2762039380768253,-0.49397405262986294,0.017144397019471767,-0.03340036323879573,-0.7582778491380258,-0.4500868680773992,-0.1255813675195404
2021-02-12,0.2664136544231056,0.3433133707899574,-0.01460480959006076,-0.38708674174114877,-0.16173581409380158,0.25431210793210274,0.2680995281612121,-0.46514916964527764,0.023593888378996803,-0.048338482316344675,-0.6793149210079824,-0.45113521759122244,-0.08723961180258362
2021-02-19,0.20055379506697552,0.325139066259517,-0.0006818865310567852,-0.44113976539817595,-0.1686906997644926,0.26526069514792494,0.31954423834013435,-0.47252944318288015,0.052095224242705365,-0.06059404207581561,-0.6975208288432556,-0.48876745004026684,-0.07895428331195302
2021-02-26,0.12110127817948359,0.2892385253784358,0.012243998147349748,-0.4482184174548572,-0.15491191167193427,0.3143510180838592,0.3634454244818329,-0.4652695300528583,0.08945669099702099,-0.05562482962329242,-0.7867396099958233,-0.5575195975224841,-0.04500349222310015
2021-03-05,0.06288912265655605,0.24989270727263105,0.026969440121420753,-0.4650049166491961,-0.17870837222852973,0.2833340915031803,0.3750117693469837,-0.3421215347225195,0.12623851533499794,-0.038212307695634384,-0.8732670466290876,-0.5756491777457744,-0.0641337249272876
2021-03-12,-0.0013818877342726523,0.19290017850834904,0.042483292713106496,-0.504758260117896,-0.2332696017536985,0.24899837131540983,0.4049643593561716,-0.30977101590881406,0.1551060462127325,0.010940594551983757,-0.9010016467888365,-0.5336672963450647,-0.08829003208516141
2021-03-19,-0.004890823648034571,0.1632986729088901,0.05307751007106057,-0.5578391756605857,-0.31267138589279736,0.18615854483646013,0.38704528807547756,-0.2839483459153139,0.16756759701326585,0.04547062125266848,-0.8303465609790023,-0.4750206649359739,-0.1292945913820931
2021-03-26,0.01725417954679911,0.1580974947088701,0.05803704348551539,-0.5957200825235821,-0.3920622262114424,0.11701578699829059,0.3798051141281895,-0.22848461659953187,0.17561919223207717,0.062230865768834624,-0.7665285198414225,-0.44125851814070477,-0.22548480299323465
2021-04-02,0.07579499080895508,0.16755575193292643,0.04746211942211293,-0.5949015131004672,-0.4601766638808088,0.08497244435685768,0.37813559544185277,-0.17464559926132087,0.1777969757718119,0.1110768025567838,-0.7462235886004073,-0.4750127871223225,-0.3853433521598928
2021-04-09,0.13219105289484254,0.1735557256512636,0.07797098500710511,-0.5965518692792063,-0.48516362012242753,0.01068822600314264,0.35655223321691604,-0.17847313580260654,0.1511017354441102,0.19038166441899337,-0.7053943839442914,-0.5301897758871843,-0.46409915295442683
2021-04-16,0.19579089134995378,0.21214064965239146,0.10805253806249511,-0.598751296411805,-0.5493935127334743,-0.022643011607054755,0.3819832633688186,-0.22515876575812976,0.101298174713164,0.2580604948710578,-0.7264382289752425,-0.5841887236625302,-0.46743016742896465
2021-04-23,0.14471187277382333,0.1998470575377055,0.11484597590582277,-0.5547990669583978,-0.49953400038648443,0.05424095854370379,0.43060568495862694,-0.20421232387002775,0.07124161718880419,0.2722742283171694,-0.7539733913235824,-0.6464181135891109,-0.41189563674129404
2021-04-30,0.08158119485915159,0.15244728581847364,0.09269120126818368,-0.4421838913018472,-0.3867773398628747,0.12752387795128764,0.4129011460338792,-0.15951574741868252,0.04290160765769856,0.24264605024665414,-0.6666795126488739,-0.606563523297545,-0.29608014168458785
2021-05-07,0.08682667249229425,0.14063680866905964,0.047036018402142984,-0.3391664582755284,-0.3224883151895006,0.16028500413718183,0.40033977046618135,-0.13525288050015183,0.0175323141484921,0.22121865942945734,-0.5935717309843025,-0.6130045572903325,-0.1810629140125708
2021-05-14,0.06300762606576477,0.10499562607224361,0.010187595484519805,-0.3104605920039182,-0.2703007215537877,0.26491269682261964,0.4322791071661423,-0.10983599350635581,-0.00454133883581476,0.2230020784472925,-0.5562632545279991,-0.6231429895813555,-0.09349671051239192
2021-05-21,0.06966658683780225,0.10480078773227007,-0.03625678803338911,-0.40699948067933217,-0.3472960454025727,0.26694068826777184,0.46873989104550795,-0.08265690373691624,0.000704812410406428,0.21483069988736056,-0.47869387068401975,-0.5429319277861461,-0.06040580821865805
2021-05-28,0.07502304128998598,0.10954192605497566,-0.07391257312320722,-0.4696076096083194,-0.35669192834708585,0.352955584332195,0.516007847934471,-0.13533084710634066,-0.012241252820014259,0.29554343368606706,-0.449456721991767,-0.5372072257724769,-0.12304637348995957
2021-06-04,0.06427573087137817,0.08123891309727789,-0.10967695008541956,-0.5262607776489074,-0.38365885937950905,0.419204317089864,0.5420747676161557,-0.15063596508090635,-0.011791836530686302,0.37973384104860713,-0.4129362175591153,-0.5002193634280782,-0.1982680807514864
2021-06-11,0.03230166778774177,0.05174226286373097,-0.14197865168724855,-0.5943297773792883,-0.4169086007616965,0.4385990667794072,0.5231028324451338,-0.13412206912089863,-0.005299713329982098,0.4428329039341399,-0.36882604195656,-0.4237360566745602,-0.13844675602252463
2021-06-18,-0.022274197508109425,0.016959196456197003,-0.16439022089125963,-0.6410390969609443,-0.4094170379510066,0.4642893933795322,0.49632278401799,-0.1006445855311736,-0.002251090380780557,0.5105124477264091,-0.33385988149174883,-0.3626995785590838,-0.057097061374127914
2021-06-25,-0.10399405805929056,-0.03493212535090679,-0.18785435149333307,-0.6531344440261192,-0.3818110864207178,0.523313290744755,0.4902007985005623,0.012808154203828326,0.017792929792012104,0.5455679456885337,-0.3281708796335195,-0.3067343810041319,-0.04922704677352502
2021-07-02,-0.17912935471965932,-0.0811681131644917,-0.20754831911274488,-0.6586645304485443,-0.37779665109027577,0.5402533657417359,0.45427977056471713,0.07432393599417848,0.04326531638705,0.5880960304677598,-0.23734283181375215,-0.25280278585789545,-0.02697417945173671
2021-07-09,-0.22572283861238318,-0.1120183822053421,-0.21581931781172675,-0.6939089919690772,-0.4041513574046763,0.5053161793040126,0.4064570198380556,0.13124979919044794,0.06852852328023584,0.6362235320331313,-0.17490500441669238,-0.1900171786412819,-0.012588117339372555
2021-07-16,-0.27982742904969243,-0.15072335702571243,-0.22105028168283902,-0.6818877128446789,-0.3960832650019836,0.47638297454178774,0.34541536606188433,0.19087623751778596,0.08498913427439042,0.6883043410394082,-0.10849151211178203,-0.12462753929490529,0.01933613903117396
2021-07-23,-0.31157636821841067,-0.16940457334038114,-0.22486774068208884,-0.7090323606264274,-0.4268746810763274,0.43917616000882614,0.2824808162896141,0.3014131213929186,0.11258924936976504,0.7532849388078724,-0.0611229395923126,-0.1175568375956446,-0.010781943165958948
2021-07-30,-0.32928381884052277,-0.18560261167135234,-0.22830249760429336,-0.6295099070276093,-0.305471338086613,0.500891930455163,0.24422977519914574,0.2949346114394897,0.12541202987111294,0.7495012912699902,-0.06037061715171856,-0.1822649798993251,0.062439800332784526
2021-08-06,-0.3508930229295755,-0.20745886296489502,-0.206595883454964,-0.5865040586695209,-0.21565348185331068,0.4968998273439725,0.19224111196426452,0.4382579983468554,0.11108936263025561,0.7440318827953867,-0.06662138877592017,-0.24555250180683139,0.07580950378222612
2021-08-13,-0.330119248989441,-0.2042815891166979,-0.22604441696626967,-0.6545241924014796,-0.21060632710057844,0.5034643828713812,0.1392391106088332,0.33699998004867343,0.11753046721855218,0.7852588578947258,0.039836021974360744,-0.2703535425749862,0.03202747996866367
2021-08-20,-0.2959214724394982,-0.18354670245631055,-0.23168880795880298,-0.7284222359734989,-0.2047605315908518,0.46910571731380746,0.09756737397317508,0.24940805967205856,0.12771004306480904,0.8253935096317775,0.07856486997460603,-0.2975938498860743,-0.047745921280574186
2021-08-27,-0.23968446426478196,-0.149893249526733,-0.1936065410072149,-0.7429923764287718,-0.25379437788057807,0.35799140011796965,0.0736274536285211,0.16824430547419167,0.11235967693878085,0.7646717762417834,0.12000613253696966,-0.2690008566951603,-0.05492015183083804
2021-09-03,-0.18198071150384199,-0.11890656649064996,-0.16246893209165256,-0.6715325319604601,-0.2611357006623287,0.2707582365190567,0.041992799458703496,0.07738660505121767,0.0948405534988149,0.6874967813418087,0.11024089673480017,-0.15179965279572347,-0.11643269312682925
2021-09-10,-0.117036133308586,-0.07667567357457498,-0.14126788958847505,-0.5651242731762598,-0.26591877039897827,0.22755176807790853,-0.004423978792649624,0.1032765814530759,0.07294820065517024,0.5080357360133466,0.10764623739359419,-0.07495228349963919,-0.053260524398352466
2021-09-17,-0.08206230584445527,-0.053185774595485937,-0.07909213992203619,-0.31189682737374586,-0.16091459696271782,0.09751204751047865,-0.02984762363094733,0.05786508727317222,0.04851523730468276,0.38165935180239585,0.06060003359838554,-0.036904309520622285,-0.11108179272564564
2021-09-24,-0.07545958381271173,-0.046644926004029114,-0.05981047649233924,-0.16419165368127775,-0.09949670976423985,0.040277443675228904,-0.04903464146345887,0.0495387677799009,0.04026227370492771,0.3019439686245698,0.013841778001848295,-0.01101026693471505,-0.06279430767032715
2021-10-01,-0.0540352782906005,-0.03447687651193224,-0.04223590098789496,-0.06023802631477666,-0.03929713915679702,0.012662103919625509,-0.04592516919955678,0.07487803549685998,0.03217555011108926,0.21081533443833164,-0.020513457720393244,-0.028521647204923152,-0.053020607059217656
2021-10-08,-0.04028619189768021,-0.025769630054956166,-0.035982607384764276,0.012566452068585381,0.0038509106501174914,0.02137841188652474,-0.044201776893876776,0.08595818406664632,0.027901681882809275,0.13503457229425764,-0.03572699160938784,-0.055553813538953827,-0.03136651418425336
2021-10-15,-0.06152778442922143,-0.04037582294648447,-0.04945154244670755,0.08868506928875593,0.07395799797439731,0.066062682119523,-0.05306579061906312,0.10544670457806268,0.03230697108480827,0.1339355189863014,-0.02579666289082082,-0.085629040637244,-0.018140598286441934
2021-10-22,-0.0827538226599399,-0.05970095069243438,-0.07668673388183798,0.20741250600961678,0.16368017862470793,0.08011506778380985,-0.07819202329997293,0.10855727558020181,0.050664491397584825,0.14804271817084716,0.012348419419994611,-0.14572411115076261,-0.009478812455765873
2021-10-29,-0.1023971013029432,-0.07786293746929984,-0.11582219670905122,0.2920580159755223,0.161682880056585,0.07318837909527647,-0.1288583226286101,0.1426827887946931,0.0817427521678891,0.17040067699697017,0.12327912855613961,-0.1778532056477739,-0.05025097840300719
2021-11-05,-0.10322726794021189,-0.07805598685711589,-0.10564301163955316,0.2800824653710853,0.07647511383258246,-0.022494442374426438,-0.16204104563753957,0.17576710691872327,0.10650603532836919,0.17974899564986146,0.14194571329189734,-0.1751017524098587,-0.07461955649809243
2021-11-12,-0.12720512952393287,-0.09540963453076481,-0.08298025479251428,0.35315237034379526,0.055182996490850136,-0.03593074921045829,-0.1879089234661996,0.20026088367522366,0.1137793617944644,0.17447414119549393,0.17614149006657667,-0.1530541070107001,-0.07686591274604586
2021-11-19,-0.08981415423179116,-0.06511495057426375,-0.0631020092155384,0.31965034554941063,0.113831531675111,-0.027262930449202024,-0.1444933798606016,0.1346049016315798,0.0762811131144318,0.09541909142181879,0.1378177220128781,-0.10321585980974118,-0.05446891860634841
2021-11-26,-0.05789325178212851,-0.042660844456320825,-0.03972541219449709,0.25765514019174013,0.14045209015548837,0.022606150707753705,-0.0857665393427926,0.05419606522851077,0.042387805496854745,0.04456954430787821,0.0734286616677975,-0.07905269486649359,-0.04167545994807237
2021-12-03,-0.038586272593644215,-0.028166525723220395,-0.024907136064814216,0.2059088136683494,0.1471796136754128,0.040389667584447626,-0.05724234465599209,-0.008745197474077267,0.026610020956915163,0.008574097179181804,0.03668160552047026,-0.054422088733009875,-0.04142761535652464
2021-12-10,-0.027028144878912783,-0.019221175990642943,-0.01769875989529476,0.1787355479375495,0.15283077136087442,0.07023424019915622,-0.03050676166021072,0.0017202621151574849,0.012220104084995988,-0.014579588595252203,0.006801401972022108,-0.05096914887589074,-0.03561893326337705
2021-12-17,-0.019726127475875103,-0.013761685828784528,-0.014208535751666189,0.1679424216415984,0.1599080534917216,0.08582635415148514,-0.016359210618027333,0.001315955997481973,0.0041709586931847785,-0.03018228114773067,-0.010148727497543855,-0.04660587428129665,-0.03148763613372801
2021-12-24,-0.019071117147737036,-0.01377994696919209,-0.017277890215450904,0.18321079588232334,0.19160736622899516,0.11442562031590504,-0.013336335159256174,0.02702313531515459,-0.0024030421474149945,-0.04465204030174927,-0.022676532057031237,-0.04716838892759055,-0.027694414842113345
2021-12-31,-0.022692530139742508,-0.016988564939681736,-0.02386642801362537,0.25369329200400875,0.3092626906963507,0.19275473581294236,-0.019575078002043594,0.06433308314712134,-0.015790294145114483,-0.06069447247887321,-0.05741376104567883,-0.08488882535209272,-0.02322873647016501
2022-01-07,-0.022912038333764186,-0.01895662940991433,-0.02464659829452781,0.3120112022361024,0.44793484925111665,0.28243697088718855,-0.036064321627010947,0.09997452135570924,-0.03143081945413129,-0.07669095251678061,-0.10271018492286897,-0.13426143747614588,-0.008396452301964489
2022-01-14,-0.01419218162838906,-0.01770524013277461,-0.012006155380605135,0.35148394657025966,0.5003710835345077,0.316422590394757,-0.03866450675436987,0.05361342974949174,-0.04060185956496729,-0.08135924633843489,-0.14010939957087662,-0.17322199739988525,-0.0013505951046741313
2022-01-21,-0.00851394189367365,-0.01738514733242607,0.011685248779425042,0.3343576197733951,0.523058317304328,0.3369283307975243,-0.042704788469729686,0.061678633454244715,-0.044519021116582645,-0.08968661181874084,-0.193327081059092,-0.21274790041010158,0.0116476329024389
2022-01-28,-0.005313125907743906,-0.017677029915121472,0.027385809057941142,0.33500321526069493,0.5216468985667266,0.32295507347758845,-0.04029003274375261,0.13491068528732197,-0.04745208587164824,-0.09360763970689223,-0.21978914485640716,-0.23028304226878865,-0.012547893841556463
2022-02-04,0.016104311910392643,-0.0061833214573464084,0.04775902758226563,0.287541352618491,0.5271224793838435,0.3184685632264697,-0.06066427284880904,0.14408329472973957,-0.05632791149111683,-0.1278232745207283,-0.15617378649111774,-0.2704020484756038,-0.026252514994783555
2022-02-11,0.02157619283817557,-0.003258503497025381,0.0649089694044649,0.2986788389044071,0.512965202673895,0.2700142953873103,-0.08104006481088775,0.2634248589946708,-0.058968357707914504,-0.16866079255357377,-0.07895295757477153,-0.32813998333540323,-0.036980494292521295
2022-02-18,0.011542688579013315,-0.010098910952596176,0.08801566003722223,0.2271830907649804,0.44643427085538145,0.222635061530573,-0.08453727110751703,0.40478097873416186,-0.06857084214554812,-0.21624494023881494,-0.05356637150151327,-0.3028729257848179,-0.010478618535753161
2022-02-25,-0.008003213605736912,-0.023395411469131478,0.09787655337458416,0.1930776963010974,0.45841395724210937,0.21714894751854755,-0.08670057202727646,0.5353655459112452,-0.07947388150310582,-0.2626620765723666,-0.002460810783366372,-0.22739010943859012,-0.052977968601716593
2022-03-04,-0.015642931593006643,-0.02628976569696855,0.07137159258157519,0.06772343633467287,0.3295893481130303,0.1465823834959554,-0.07717917720870661,0.3117908587183589,-0.04308992705976632,-0.19760791807913855,0.04903647567080967,-0.09983678234986063,-0.05402362591923248
2022-03-11,-0.024632593024487903,-0.027401952924272804,0.05929634342625077,0.022841845102562906,0.21491275424598852,0.07930077722968444,-0.08515784882139502,0.3436942048942179,-0.038869085032479156,-0.16708408638977812,0.07046742106709084,-0.0104887715412056,-0.05380617128359721
2022-03-18,-0.010579164795196248,-0.015262563490226772,0.03748128841473895,0.0073533687762101325,0.06885573409912076,-0.0025612261730976276,-0.08125127453076249,0.2786802228239824,-0.01990816483116407,-0.10010902936716996,0.06890672269575057,0.021970462604102705,-0.03875280794564849
2022-03-25,-0.0011688882741403897,-0.010432089557372631,0.0240843212019116,-0.011280059313142788,0.010911087539347473,-0.03123316848739646,-0.07670573976068597,0.1872073956661538,-0.01261344739704199,-0.06570931794457369,0.09554442862724047,0.051913492802002664,-0.045923904729986184
2022-04-01,-0.00046956311361433126,-0.013048252750866936,0.020655523606678237,-0.03823279629202141,-0.0371660162480428,-0.05575221258904431,-0.0677428985372501,0.1396175107556233,-0.005219410821490408,-0.041324679911970995,0.11052762012636977,0.04789481435269264,-0.02651574039540182
2022-04-08,0.0031871860533510712,-0.013082455658963422,0.008154853155622548,-0.038645309027326796,-0.036640299592419406,-0.06333833093920177,-0.07548247722839699,0.06438073298272175,-0.013887658584549385,-0.03858991205405399,0.14936829886994,0.05730527946340217,0.024880868138028287
2022-04-15,0.0028325978869227476,-0.011729504327967613,0.010601212387344771,-0.046503932181486414,-0.022354114854917968,-0.047769973484775165,-0.05631285308581662,-0.06006338173363118,-0.017220297742184264,-0.025964639993521922,0.13868543602077196,0.058160335892330994,0.038282839738986156
2022-04-22,0.002741940310069774,-0.012460963044295266,0.008430029437387201,-0.05627040565981611,-0.006213219720219362,-0.025056105869883053,-0.034392610770642394,-0.13169672709018823,-0.023418674210092954,-0.02013285335308926,0.12968054663838596,0.059514242263870636,0.04703675464896963
2022-04-29,0.00011501538280814745,-0.02092916682312601,0.010620766277563382,-0.0169425228973322,0.03906391000995184,-0.006657187124380711,-0.025718174110198735,-0.2632976564001931,-0.04182545167833038,-0.015056394253470336,0.17049666558460697,0.08480938727803386,0.06880326200756702
2022-05-06,-0.00520250581765039,-0.028708710631911355,0.00787093067339603,0.004968228351249501,0.06712572677597102,0.0019149345370074362,-0.018461527054637286,-0.3807754913696059,-0.06368532806971204,-0.007825289261286004,0.21460344150130783,0.11179668911182158,0.0979928976475718
2022-05-13,-0.018043486969746975,-0.04680588905025886,0.005257728784107337,0.08008191719033024,0.11892929105494249,0.016398409593618213,-0.010480234833593841,-0.49951414997226584,-0.09465613377781697,-0.007893794294379582,0.28308596512622547,0.13937337866981794,0.1292705146368736
2022-05-20,-0.03874970992499408,-0.07892163865666872,0.004435779090890714,0.1547604792077313,0.1413574319932116,-0.010232562614273771,-0.02324916799498366,-0.5089223695468912,-0.14177734422554183,-0.009823052073236617,0.4054810202776765,0.17741214303480252,0.21093141309605554
2022-05-27,-0.05326661957638662,-0.0994747425062593,-0.02316350516761659,0.1867465441909502,0.1636789837950753,-0.030984324966941326,-0.039751551634913014,-0.49181788506181084,-0.160674806026739,0.004236885886805106,0.4929341385125063,0.20621331087515735,0.26650402392144995
2022-06-03,-0.06252775364148395,-0.11665605583825812,-0.04065654940591368,0.24090028403873165,0.2295568993089976,0.026789983241637113,-0.025158144418658546,-0.43655435715687474,-0.1745164690181514,0.027294811480194168,0.4583133465903902,0.18178245443746008,0.2719752349598279
2022-06-10,-0.056867336680736506,-0.1155800197299946,-0.03952976132513914,0.23777180090223105,0.2753693219079774,0.06841377321985574,-0.01018870373086553,-0.4844525069564507,-0.17342009283092158,0.04492963458511226,0.4295247038001902,0.14832073107198426,0.2658179648314119
2022-06-17,-0.05149611882829239,-0.10895937968165868,-0.048940276780058814,0.256309486321824,0.2988204206789639,0.09906342263919495,-0.007745982306460798,-0.530016143744878,-0.16999459449372809,0.05772783910647697,0.389656973070334,0.1327028821421974,0.27176448026343153
2022-06-24,-0.027660009086830604,-0.08129273808626254,-0.049399468294033494,0.21884049439841435,0.3192481515866989,0.10181249086644253,0.007083666784514329,-0.605757707331024,-0.1777823258850953,0.04815013407561288,0.3749024859572451,0.13406630968871827,0.2692163689549355
2022-07-01,0.0030127598964386744,-0.035249311516554444,-0.04591056549146011,0.20583750329834669,0.3423792665190592,0.12587443484141747,0.02938055986627569,-0.6281700789831993,-0.1829361630305235,0.022773037735761517,0.30695512320445417,0.09546411079202306,0.24259086894901657
2022-07-08,0.01039487292748032,-0.01924000002637852,-0.020338613497743605,0.17318231090660932,0.40702303721106053,0.1504200254772906,0.03550579628889278,-0.75860193662669,-0.21208293944300036,0.019504561225603845,0.3396704954247384,0.06778379192535158,0.2902035059167003
2022-07-15,0.021857656454369153,0.001045084905488284,0.003914602019995734,0.08124585545150043,0.36174713636754274,0.12283796099346708,0.01754900951730038,-0.891386269231802,-0.23051737580158682,0.033135492132062384,0.39514416099753763,0.08191309084082313,0.31038316787577985
2022-07-22,0.027899033996103138,0.021571703457317286,0.032932174404524873,-0.04841313423356943,0.26028687534924233,0.09030581720442113,0.019250987131406157,-0.8825165960504922,-0.21541594467583647,0.026233120243587482,0.4002885435239908,0.08642108145929528,0.2831017073777781
2022-07-29,0.0553768158872943,0.061810643801162655,0.026257889464788495,-0.20108673977722066,0.16418804508569915,0.057784526774863176,0.03888450502579545,-0.9281979118499788,-0.21230978432773237,0.013600115277067492,0.41940903779205396,0.0857987910744454,0.2915122378218131
2022-08-05,0.046388164511771135,0.08570002491185778,0.006454846797577083,-0.060223472472291074,0.17476773556951994,0.09471355083987297,0.07416710431832299,-1.0597483504432352,-0.22486887207355372,0.0114637213199366,0.38853332563602344,0.11037804145099078,0.2733518187525531
2022-08-12,0.02720512843828852,0.09477074985312715,0.0010588996377995225,0.13627067962773826,0.23638552791350637,0.13873777454444558,0.07491505704325473,-1.1023150425809911,-0.2340249712053639,0.017160776165096196,0.32290373890768226,0.10161905969249013,0.24256478545531124
2022-08-19,0.008349000877170644,0.07088235530501727,-0.021027478134592142,0.20737465879019717,0.19194473053401004,0.12492177458777112,0.05308057823040622,-0.7112188509483744,-0.15563561092995568,0.014537795849569,0.1658254906548435,0.051695379031814634,0.13965983960085157
2022-08-26,0.012513267539490542,0.04608460276513026,-0.019513028898723552,0.14330852236717684,0.09429310756544133,0.06347103549753809,0.024636401138455798,-0.36578814931900594,-0.07607886631213782,0.0122392904777212,0.062202837736163856,0.018241353740833615,0.05471213221697499
2022-09-02,0.020897306755800357,0.044452107505323135,-0.027917162137728466,0.12079282424099327,0.07185176404845232,0.04992822996865238,0.013215742617456505,-0.27514213020586975,-0.04445520272211591,-0.016066639639131904,0.04608273578928553,0.009223750441117066,0.0341541253177827
2022-09-09,0.04544166858177443,0.07209912232303405,-0.05832931247118145,0.13694810627993861,0.07026794856218946,0.04919840328386417,0.006669142894086268,-0.36665401118002766,-0.05262162428986452,0.008606191533276655,0.06585548406556195,0.016882241004514412,0.026836365693796424
2022-09-16,0.07518683770734062,0.10051108445793601,-0.0861200942155645,0.17923609873755655,0.0917688133671002,0.06825674995551262,0.004579032982524226,-0.5121796173186766,-0.06588332563916921,0.031725075923210846,0.10282873968777329,-0.018886707956865544,0.03583341135292081
2022-09-23,0.10668018907808008,0.12535838817165287,-0.13168342031864047,0.20948259533149316,0.12767585570256532,0.09512965095378391,0.007198643925615156,-0.6758742090990737,-0.07664892002326298,0.050463075934251936,0.13358500831228778,0.017435696288835522,0.008037329913797773
2022-09-30,0.13445383913869816,0.16025450951423628,-0.18111130254655428,0.25934102304907736,0.1729113518253685,0.12813426231108038,-0.0012266935199399876,-0.7568695577038771,-0.10927730833829058,0.07264662620545775,0.16676836119459484,0.07793413862370777,-0.010609542140612115
2022-10-07,0.13560870883058465,0.1685407321339615,-0.1669036916140303,0.2803321179374162,0.19638162863439163,0.1381624628165244,-0.012642683910609557,-0.8573718118819226,-0.12540371167204015,0.09839067731355913,0.14465026810893347,0.12898788954794319,-0.025354979404868055
2022-10-14,0.1565404886903994,0.1913488118406264,-0.1427328747127996,0.25487587227214337,0.16083302722803097,0.10302983738227262,-0.036818332873786615,-0.8829529717437405,-0.1299101281635554,0.10964661985576718,0.10707071261822117,0.1647765543145974,-0.039269076430163606
2022-10-21,0.18453991529353156,0.21578154604346567,-0.1293152690759976,0.1710354125169459,0.10566831879236813,0.06414145788243603,-0.06262296678023213,-0.8984633363493517,-0.11952930565314385,0.12791280785394737,0.07692517450026497,0.19772603226150848,-0.06438098638839654
2022-10-28,0.2396773330845911,0.27420039118650036,-0.14420402738590665,0.19428197032627093,0.08710672827009935,0.050107256752600325,-0.09758514952905901,-0.9925204267488238,-0.11877615401842569,0.1487352756239155,0.019592575782298446,0.22890496606744468,-0.10694530282544866
2022-11-04,0.2888396768545912,0.31812342478132005,-0.15287722622963507,0.17650431473435307,0.04108392599084965,0.03533255095857633,-0.10297008790405388,-0.9892617658292907,-0.13243434432715973,0.17667055158404052,-0.023036679177535928,0.25002849291264445,-0.14852147712733335
2022-11-11,0.28523906713132585,0.2970100526693867,-0.11357907283445054,0.0710560318895986,-0.03687175660156483,-0.00516689670705054,-0.08829914537041603,-0.8427507082890666,-0.12724823835359245,0.14640617941732728,0.02236772757260979,0.2655919657753833,-0.1709041095213889
2022-11-18,0.27459835393000565,0.2745253884166104,-0.07929768487265111,0.006946787278307515,-0.07189079225323376,-0.012282487653480114,-0.056841765035792496,-0.7557270147685873,-0.12504791216092878,0.08870832180585259,0.07532241548975813,0.27351932850845356,-0.1881460860131153
2022-11-25,0.2614720893749958,0.2467620228793739,-0.04709200483181215,-0.1052049292374852,-0.12929369828728368,-0.04842586513554293,-0.04650338516388789,-0.6088682105274646,-0.10481649989985566,0.05607827846674513,0.1028861151265807,0.2570075282470136,-0.18662128228901953
2022-12-02,0.24104701058190264,0.21978355461537877,-0.017642349096527354,-0.1816382203495128,-0.19385818092391652,-0.10046618541084515,-0.052775307624186994,-0.49139526454847876,-0.07852692046515801,0.028582648490555827,0.11575540797967353,0.25368521158505436,-0.16444930335874205
2022-12-09,0.27295670112500225,0.22659700836341423,0.012561434004745584,-0.27180374061984214,-0.2532199589700167,-0.14477726516192685,-0.0778432203625904,-0.5180759643771854,-0.06409372055028303,0.0038712910305927673,0.14421768790910983,0.29081934236466,-0.1814213034970464
2022-12-16,0.303372634992254,0.22290953287146112,0.04291732763373801,-0.35831992346056135,-0.30946681267818854,-0.1740549548482467,-0.08737262119504187,-0.5735544181429826,-0.04788205604690522,0.0031022033891647664,0.1629232217779953,0.31143364208873325,-0.21157863994280474
2022-12-23,0.29097550942932576,0.19728557696541563,0.09110689823004917,-0.41198473984898387,-0.34455034166757537,-0.20269947212317682,-0.10158787779318194,-0.505183655085652,-0.014155007095620122,-0.001318046137870724,0.11779637680440305,0.2495468575414699,-0.19758749527388672
2022-12-30,0.26737645859806924,0.16961352147297123,0.13434940029305287,-0.4045792957631833,-0.3512490076182829,-0.22548258156252232,-0.1254926907827704,-0.4791468398758275,0.02270207466638117,-0.003299367643007938,0.07832966364388051,0.19443920311338372,-0.1912476687524612
2023-01-06,0.2568484102212244,0.16640368959774726,0.1584899184181665,-0.4336324042255367,-0.37472906405229517,-0.25979719597782364,-0.1404694436059026,-0.4466503675391778,0.06224597094072511,-0.006143102099015159,0.04428719800357838,0.15366165898806908,-0.203190697587329
2023-01-13,0.2528324249580949,0.17017775100801225,0.21087226045452317,-0.48093344197074883,-0.4597853977081542,-0.3385233596737138,-0.17897704383341398,-0.41070715609314506,0.10692743876439312,-0.015167258653960288,-0.002899324358901124,0.1358916021772398,-0.20867071345140192
2023-01-20,0.2649031245098069,0.19975633614912522,0.21875879029594458,-0.5663008356408423,-0.5487775282178502,-0.3974831446392522,-0.18104964560065484,-0.350661789693855,0.1442663499931693,-0.018963777619830296,-0.09180879820462735,0.12669098389953776,-0.21601950311807908
2023-01-27,0.28387680617340233,0.2220076722841941,0.21733739182255943,-0.45410276557827095,-0.5147198997302974,-0.402194687448693,-0.19316436061066813,-0.39604923591120145,0.17678023423612244,-0.019591990316978225,-0.19012177459561172,0.06884012899980717,-0.2750272544299996
2023-02-03,0.2693617804945841,0.2302422920744975,0.2369863719337679,-0.3609139768291926,-0.4882368455129334,-0.4118416806818678,-0.18208188494875827,-0.4608183184493247,0.21200936010760743,-0.0069777854291373925,-0.25392153016336216,-0.0027457195476786414,-0.3441344047868495
2023-02-10,0.2466487824812522,0.23227928079269233,0.23501451240053894,-0.2687146666588904,-0.45523513289626555,-0.4331958065685529,-0.21223844647399007,-0.3887582661513184,0.25320267732225543,0.006392060284554673,-0.32389094346880565,-0.08195001320948586,-0.36489765813940317
2023-02-17,0.20344117224906075,0.22760874350650465,0.19838209979328805,-0.18790714172809883,-0.42842728106366723,-0.43113201193602047,-0.2175145031010041,-0.319313555246543,0.310581667117408,0.03805394666069518,-0.3486554458441155,-0.17657890629089662,-0.38755472707656163
2023-02-24,0.15791191553271472,0.2108809199253222,0.18273753105291804,-0.10918005622774322,-0.4000295430173351,-0.43272630131188494,-0.22664610548330172,-0.17427242574156124,0.33267958946737985,-0.03204246472741168,-0.361006282815854,-0.2061817200912748,-0.36249620149361295
2023-03-03,0.1284222751896309,0.21135593322289165,0.149752807065293,-0.033257742941748145,-0.3849884501193088,-0.4460232002795172,-0.24503962077834462,-0.004267587831863427,0.330819632948984,-0.10332610998831801,-0.3686085049495009,-0.2162691500376902,-0.30893751952072046
2023-03-10,0.08776120863494681,0.21464226826017432,0.11819069036668285,0.04890537936453475,-0.35468033144835215,-0.4526448591773184,-0.2458947006637948,0.15658968407483964,0.3362417886046575,-0.09525609015778577,-0.4314375051603412,-0.27461157886209364,-0.3179591084900023
2023-03-17,0.02040922375348926,0.19200658153921737,0.11178367555165292,0.15898736890596554,-0.3524603552002906,-0.48868148827760544,-0.28983298527187595,0.2553135616594546,0.3488885355092521,-0.027856634097195077,-0.44727650560821947,-0.2900919595211959,-0.3167201405505844
2023-03-24,-0.04090799387712329,0.1663949553343242,0.08043298268711332,0.25133395454460694,-0.33938955965178763,-0.5059107567326079,-0.31179418675927567,0.34280862006504614,0.36318050379635614,0.05651789917991595,-0.4766648948463957,-0.28612532271084534,-0.3343161655524281
2023-03-31,-0.04508119710821229,0.15384166556485285,0.035560021223294803,0.32462406334156757,-0.2605690741108086,-0.4328456932081031,-0.2933661571854379,0.3636829134288359,0.32498759825751417,0.10354985659104708,-0.45165022051762904,-0.2486992385947266,-0.3796955139269429
2023-04-07,-0.01206888568883352,0.16925361170332795,0.009557577868304908,0.30958328773199717,-0.1895681065096289,-0.3377688517465684,-0.23355825671422611,0.35296943608252396,0.26160298566194473,0.10001144251343,-0.395900157764126,-0.22739148047633856,-0.46192221999499145
2023-04-14,0.014249289630362,0.179442288858327,-0.026353850899227746,0.34115442177759453,-0.08878039897054152,-0.2421847678075093,-0.18950172303895715,0.28550836477321834,0.20193003769871276,0.08058429719229769,-0.3341439026112825,-0.20000421463224477,-0.4699645459824092
2023-04-21,0.07479757577782477,0.22668892598103185,-0.04632815061201075,0.32139828373375984,-0.06434847927289337,-0.2148942556975723,-0.1705484518678574,0.17227466030135785,0.17653201947410324,0.10285911908717843,-0.3079288485705031,-0.16930927706900337,-0.5555894385224524
2023-04-28,0.09761552484554249,0.23779325722585024,-0.06951490463699983,0.41296732332888253,0.014993024926979334,-0.16625465021716546,-0.14903878659284428,0.058151097352436204,0.14821953449618522,0.11587855946268454,-0.3140127356504551,-0.15719055575420995,-0.576420511408655
2023-05-05,0.13037380677445823,0.2520399170685419,-0.08822990088558536,0.4934307717475941,0.0986288305842975,-0.11278399113226255,-0.12041754151654603,-0.033765832870017554,0.12145905926286682,0.09305562728570092,-0.34926382718619464,-0.1603431057942537,-0.5688959749940363
2023-05-12,0.12121982438164616,0.22033634561613463,-0.07977853227317583,0.49705011757674394,0.1609276170012757,-0.04616703139915706,-0.07885046764601342,-0.12904520585877602,0.08404927554930826,0.05943200740058337,-0.3279608573336956,-0.15487540139864808,-0.46372549528853735
2023-05-19,0.11199011837899636,0.20049824549182274,-0.08281867935126586,0.5605999868145879,0.24064334664833748,0.020181167401267342,-0.04778714081253626,-0.189687977745734,0.05132043707372667,0.03142411580329808,-0.3170014155289782,-0.16454204774749326,-0.401517053689612
2023-05-26,0.0993188020023288,0.16831137020346565,-0.05789434811681727,0.5650755262386338,0.27313981725418246,0.06062198687019147,-0.02104504228991908,-0.28688911567943687,0.01996301142418874,0.016300759033820177,-0.27934416683059743,-0.15124332962024334,-0.315095531132058
2023-06-02,0.0965568867215021,0.14006474715350892,-0.038438098399916715,0.615619385596003,0.3379636283114478,0.10726680387354798,0.004490487960428646,-0.31490911380748676,-0.008816055582144907,-0.00784073376059717,-0.3027380821142718,-0.15823113081371948,-0.29041724882293685
2023-06-09,0.10031673530643555,0.12559375280794388,-0.028247916164646142,0.627239936905512,0.3838802491216851,0.1460353826757116,0.019392202985149584,-0.35421211031859556,-0.030558571342150398,-0.03078683310857656,-0.29528771520157454,-0.1506095136419445,-0.26456992632095605
2023-06-16,0.1326638353191636,0.14317252373369793,-0.0109812142833564,0.6981784653793901,0.4371065460230169,0.1833131122077582,0.026320536814985997,-0.4057538861561337,-0.05415983274447011,-0.05724778246109894,-0.3218019321982803,-0.16887484372421513,-0.2909718374322446
2023-06-23,0.2036124057715749,0.18199994707109246,0.029642809406254637,0.731197234180719,0.4617378809308223,0.1985885280369898,0.02418112989891003,-0.4654526619179183,-0.07427306806712973,-0.09986459490419206,-0.3886489653166933,-0.19831409452537807,-0.328545918712252
2023-06-30,0.28028900392447037,0.22191386542183897,0.09590327442832344,0.6837745824645699,0.44705470005047065,0.1952976907362485,0.029293511164827236,-0.4585659205430711,-0.09727132864403472,-0.14120080925891795,-0.46654770011506846,-0.2683644348141483,-0.355849055943415
2023-07-07,0.347825911099822,0.2613576680998424,0.11770454413626963,0.6133610917526785,0.3986235883229252,0.16721790285092525,0.028365100169333607,-0.387168203193547,-0.099904804299048,-0.17725222851233507,-0.5455957893018931,-0.2829514432760434,-0.3753909331170734
2023-07-14,0.4129114167970303,0.2891756391933944,0.1546781073298257,0.535402110333567,0.34390689324126245,0.1356156969435659,0.02345356848105557,-0.39172022989957633,-0.08217932052056179,-0.20952394382807069,-0.6214689004784629,-0.32370779714102377,-0.40509405526762454
2023-07-21,0.43277406495901316,0.29441317217734964,0.1749474474454366,0.4400980165542016,0.26020155123685307,0.08591279661622625,0.019151834464498245,-0.2680920266028114,-0.07434842697910325,-0.2190409846689799,-0.6361370444005249,-0.2989533443005852,-0.44630760048765494
2023-07-28,0.4413016184905205,0.29207653532425776,0.17789880981096856,0.42378528100412666,0.192215088926447,0.043386295475149925,0.022954717362309994,-0.128826175431478,-0.07313608923604328,-0.18037741776690697,-0.6735299632111662,-0.2792248388596812,-0.5345977410097135
2023-08-04,0.42271527045828383,0.25573420704163513,0.18897226545109577,0.4200266628869165,0.14498795433162798,0.008954890066031191,0.02222894050282486,-0.05523803125875494,-0.0707187412341397,-0.11449570325587372,-0.7237347430264172,-0.22911515572457,-0.5798265554402094
2023-08-11,0.4224816812370261,0.22269513573457622,0.22967634694765351,0.3817610176259573,0.06148187713726826,-0.04816049175269545,0.013156177999190985,-0.058566181568982516,-0.061778402872952026,-0.031005991450157606,-0.7794424841787513,-0.20064085013026337,-0.6246244377022694
2023-08-18,0.4367134844084072,0.2305171406757974,0.2557423649286377,0.30194767877156115,-0.02876216368300542,-0.10394076877193736,0.00821739563503048,-0.054754058248875685,-0.0280450694453506,0.00841600598080782,-0.821626249492094,-0.2545857330081364,-0.6676990659107895
2023-08-25,0.36473554430134913,0.1875254937255445,0.3220184139867222,0.34360057735994476,-0.057632302724406025,-0.13975716566369786,0.03814678731580757,-0.11719563877985421,-0.03463140597609107,-0.013009780376288886,-0.7795172672640827,-0.26762834611424813,-0.6305906334456975
2023-09-01,0.3503455710503768,0.16127788724008985,0.32147643223400674,0.25791411109462037,-0.11815179310173908,-0.1506053932155241,0.02610992466863112,-0.10222001724562056,0.013742118338785336,0.0701459898211283,-0.7976619645794039,-0.33435596200997464,-0.6888811783657894
2023-09-08,0.32334418687471445,0.1340448475976544,0.3146153378007509,0.22498985377984107,-0.14376027256870758,-0.16877604680372416,0.016324649869352465,0.002529770132070586,0.053959552618795203,0.12975086372920724,-0.8259382729081258,-0.40393715520070556,-0.7388506858684218
2023-09-15,0.28980149699652663,0.08286842464694548,0.30859623818139387,0.17234137185214105,-0.1810766080281118,-0.19425947305841024,0.009249724438779944,0.117310602716906,0.08539045195531068,0.20439527938469526,-0.8260268407422778,-0.4528544498123127,-0.7557232972998112
2023-09-22,0.25995970547107106,0.04573846118606991,0.3068210374286658,0.1102226994157678,-0.23796338732091607,-0.23425540659291988,-0.01062876576095608,0.19915302793413914,0.11700113435855948,0.26710512429703887,-0.815599627870796,-0.49347891569162194,-0.7305645015708186
2023-09-29,0.2327236521722267,-0.023680607210466356,0.3121111627502075,0.09883442763488387,-0.27023986428839325,-0.2633666499497257,-0.02164221931639348,0.19071901868891522,0.1406624794640295,0.35284988163909226,-0.833907732060898,-0.5748246811565192,-0.6337932816709324
2023-10-06,0.2075164635054127,-0.07069420336897464,0.3133229416441269,0.09151191374807637,-0.28337500776333496,-0.2791804022690616,-0.05432502583417591,0.3593694649501315,0.1452231504672646,0.41686829951649335,-0.8517695438453738,-0.6389814551660878,-0.5954282115680123
2023-10-13,0.2275348130582845,-0.11886174716678108,0.3074302185806688,0.08683866586714624,-0.30463336817669195,-0.30574077480071543,-0.09462641481282724,0.40082042447801186,0.1349477033561818,0.5487200963417067,-0.794143427652002,-0.7301837088868333,-0.5961496478583541
2023-10-20,0.2510296078046463,-0.11168672411674012,0.30761877702737633,-0.0246061560198228,-0.33356558636843947,-0.3123808260336161,-0.08297095034347997,0.4735520129641291,0.11233722624769836,0.5837622906470613,-0.7350586335836561,-0.6931646845502485,-0.6801306370795945
2023-10-27,0.23976821561962552,-0.11474259409006829,0.2947318254205898,0.01248983016907849,-0.31563717555010856,-0.30026951637984584,-0.06890750652631823,0.4803750182357134,0.02783622185847654,0.5637255717452004,-0.5950078374846056,-0.5454369386449276,-0.6557872887472783
2023-11-03,0.21970030239559576,-0.08474419425634906,0.2562567829234082,0.07874203130294395,-0.2175912585703053,-0.2058472316808986,-0.030457447834712922,0.433007255678016,-0.03615193227283992,0.47421560663523843,-0.5531332254622111,-0.4384230293438018,-0.5991297969015752
2023-11-10,0.20658839002508955,-0.07461257854792051,0.23859559078685216,0.1591982364328737,-0.13189482242307515,-0.11531209852892997,0.002458368481449933,0.3860198171682681,-0.060004372341214716,0.44851655489088665,-0.6094267352557174,-0.42482811634476947,-0.6198521266319991
2023-11-17,0.21595304392238518,-0.05576237768642169,0.23108567091557428,0.21060706764336848,-0.07224493779667739,-0.034085520893873504,0.034781793396097466,0.30608231548794396,-0.07134080561743318,0.42595876318826464,-0.6878515759386794,-0.4383831045555278,-0.6466081672081054
2023-11-24,0.24389061225297318,-0.0285470916673861,0.21213532456010406,0.27553608355319487,0.003589129816053585,0.023166448894348275,0.05629563736189994,0.2356148296493569,-0.08992982187881188,0.39872307214752983,-0.7381095729512346,-0.4552276385649381,-0.6677934219319924
2023-12-01,0.2686715677848093,0.023305499477607704,0.17100443094790327,0.290908252532424,0.05519920529953835,0.07208437702918062,0.062330419611810586,0.1595140916476047,-0.0878818069128371,0.34874157885981016,-0.7105417482730886,-0.4434661177070522,-0.7000113470388313
2023-12-08,0.26334161863049593,0.04538723005541866,0.1364605400114638,0.3059841242017126,0.11112359216976571,0.11407649519465339,0.06327274057137813,0.019130227546335057,-0.09305532890323356,0.27943467033198444,-0.6179713523516884,-0.3826007412919372,-0.6290859843568439
2023-12-15,0.17969741419253007,0.017225279893011782,0.09699631608064643,0.24065914150599982,0.11692342708581231,0.11536719204620964,0.05510083641448117,-0.062490513290569115,-0.0861245403276094,0.17652938159326267,-0.3696303036900893,-0.2265017797782479,-0.4258559977211159
2023-12-22,0.12368968138305769,-0.01514047135661972,0.08405159776365896,0.2382251105352868,0.14665470063161684,0.13365189085696458,0.04432862594452704,-0.10355807854565507,-0.08895316576274026,0.12475453520761341,-0.2536755956268146,-0.1510261716358134,-0.2961706058138419
2023-12-29,0.06742766901200256,-0.0574436575391691,0.08510092035869904,0.27369656001934695,0.21214765381491024,0.19262127702027101,0.0652600293890289,-0.12300591555542058,-0.10749268285297801,0.10881447978791028,-0.20133852558412368,-0.14855668661462246,-0.21467595079117954
2024-01-05,0.019644310660526756,-0.08288832691743749,0.06589071723937168,0.2835076608906617,0.24962135771192057,0.2322371195409312,0.07962498311285705,-0.15353889717613467,-0.1092524364166449,0.091888821082755,-0.13689289507861402,-0.1497325668186452,-0.11882523930582327
2024-01-12,-0.014861420635405357,-0.09664987967692146,0.04456960401729206,0.2666404417425958,0.25677600191643724,0.2486905008769389,0.09314223634435993,-0.18922794906762036,-0.11012866486172325,0.07179264356856796,-0.048049803179965773,-0.12398168303671549,-0.03531805460280058
2024-01-19,-0.04010814859539155,-0.11094082232035576,0.03169541937822536,0.23663126360087475,0.2498754158982565,0.2557339884736433,0.10201024123603608,-0.24870089175371432,-0.10981836555105777,0.06421427500349017,0.03499111572539209,-0.09423184406547051,0.03225847728678201
2024-01-26,-0.062030793422966954,-0.12812004089911416,0.020998508191876975,0.24877115736495195,0.27903412005092804,0.27913765264256574,0.10804409982696256,-0.2983808289748658,-0.1135757611604882,0.05760347439442522,0.07786868703729873,-0.06156276126121505,0.08074592994776011
2024-02-02,-0.11523214549082134,-0.16091594060364697,0.015558147054521998,0.2841120287147696,0.33227657958832557,0.33114039528697464,0.1334048387902534,-0.3222095724374472,-0.12998253908888627,0.054252750143547,0.12439036257644673,-0.0008960815175977225,0.1319417043760654
2024-02-09,-0.13988029453076864,-0.185594434906984,0.001074020427742195,0.3324362105452201,0.3883340086615236,0.3960802453333366,0.16110470492597137,-0.40068399930052595,-0.1517561109383786,0.058485467421778604,0.14280622001786328,0.04999055418736107,0.1880743487298296
2024-02-16,-0.16514850311138396,-0.2189819276727766,-0.02959468150182339,0.36685372972592517,0.40975079242780726,0.4230792183151442,0.1576047691179043,-0.29617346054746996,-0.171996253445951,0.06725628508003018,0.2049858458703016,0.1430594904700025,0.22240027432991133
2024-02-23,-0.19621585156167484,-0.24886611857650268,-0.039702554376423185,0.46062997878551354,0.4447095459889037,0.4408291421402208,0.14236709368075215,-0.1941342505569261,-0.20809573182231828,0.10217307186043728,0.2209948204022986,0.19677321869638967,0.24656210436108456
2024-03-01,-0.21618850234915632,-0.2854799918319151,-0.03457073514700149,0.4680515174639517,0.41161994777161404,0.39927036202499117,0.11947662378984641,-0.05132224730313863,-0.22597904546892256,0.18459244961018698,0.17219650724477653,0.21284792432584446,0.2718821051944294
2024-03-08,-0.21798073261836193,-0.2995595056935308,-0.030127459722240967,0.455631053080842,0.36123100137768444,0.3268867205822256,0.07166091722812568,0.07162203762240961,-0.2278356202630016,0.2541263202687702,0.10744887991849321,0.22505496295280553,0.2972680730672087
2024-03-15,-0.18397304522594854,-0.29116467097638676,-0.015096509494940942,0.4295501162248812,0.31213546616746335,0.2762522066873952,0.03150543328994355,0.01720889855213952,-0.23698473030467904,0.3453209715922542,0.008015923410820823,0.23341063706998033,0.311322877660771
2024-03-22,-0.150157406886475,-0.27077344868481684,-0.006815295291120518,0.3961281016746586,0.2572357924369019,0.20030160239691028,-0.007944616432412144,0.0053654840467441105,-0.23439958421758128,0.4264047572748492,-0.09160995036143495,0.202462120614524,0.3190258232769741
2024-03-29,-0.1402601095911078,-0.25485690847762904,0.008263552267271719,0.3389692804183792,0.18158855305678445,0.11897315166243048,-0.03947385885950692,0.10943141677041002,-0.22583222449372517,0.4589872832533972,-0.11953593652029484,0.1652282124936529,0.3159579546181969
2024-04-05,-0.11751213411668858,-0.2295331310885646,0.018693353442482148,0.2792251729562914,0.11279539323355219,0.053276499566248574,-0.0559630309970235,0.21284616109941987,-0.2195350546139588,0.4707148232596918,-0.17994914736490294,0.11683441904472203,0.31648685010125926
2024-04-12,-0.08678022000759678,-0.19134787213241944,0.03985490936374426,0.22303986373348522,0.051314527535887895,-0.009186959058785782,-0.0695081283453676,0.2915771402863725,-0.19968721323767444,0.42533695764746343,-0.22764570628899172,0.05217706060043833,0.29712669244787454
2024-04-19,-0.03656647810466964,-0.13608774815085548,0.04411779705601354,0.14536979924564372,-0.0049119024107368734,-0.04947307244801257,-0.07509479258327087,0.3285636145176092,-0.16405362514093458,0.35964324011731486,-0.2426009336936552,-0.007700129864185089,0.24726543385836824
2024-04-26,0.01131258528575799,-0.0930883535715987,0.05463905158664109,0.0852473572758787,-0.04432698656383751,-0.07648589390643636,-0.06846274931087662,0.3617271728555321,-0.140312811392971,0.28954273036889816,-0.2659365216341357,-0.07149748874514943,0.2140096897705125
2024-05-03,0.037474043737550096,-0.0377422294046946,0.05249133359893384,0.03682215661012878,-0.04220039846675182,-0.05087729221692264,-0.039415514695911015,0.2729886034474797,-0.09167791495294927,0.1559249645987463,-0.21734162608657764,-0.09687004557239122,0.13498601487815273
2024-05-10,0.061165942450984064,-0.009118345954435352,0.07891445980976727,0.013345918880100205,-0.07798841121243329,-0.08355475521921756,-0.056348253603883534,0.35915560551657966,-0.08597571996255772,0.13135551404162996,-0.27225338361393703,-0.16210535356874842,0.12081179246435793
2024-05-17,0.0484411121229305,0.0012689311524441244,0.13941484527259612,-0.00422496606350893,-0.12145261705463795,-0.1306530311656777,-0.08007629368267986,0.4821509136627059,-0.08489980693656678,0.10874092825011522,-0.32566091470690034,-0.22959304173470577,0.12005626113493506
2024-05-24,0.06371135224549081,0.034770644179333565,0.16720128145768257,0.005268387888195874,-0.1669757164825292,-0.2041605072830186,-0.11927445153456728,0.5935421422752252,-0.07637523007011413,0.08730487316303259,-0.3725202691682324,-0.2860370535855475,0.11287961891204591
2024-05-31,0.06706895358148884,0.07147688474095013,0.17703578588545363,0.04413180220029566,-0.20764866408518598,-0.2652852595609606,-0.1696309240247981,0.6687130234114593,-0.04963021207680437,0.07425127760382934,-0.42408984890902496,-0.37164327581730566,0.11883954501969969
2024-06-07,0.03970844953160879,0.08866060244468983,0.17238334644510614,0.08123382854475934,-0.24336748981859685,-0.33238027917919816,-0.21666637565147134,0.7354206869830957,5.2439298002810414e-05,0.08598790459206612,-0.4862986831507259,-0.4364816841863977,0.12733189253062663
2024-06-14,-0.00241341291249098,0.07891473917314576,0.17806511424775057,0.05276370973904344,-0.28230277586861235,-0.36274007407544423,-0.2586129099190967,0.8671591768195567,0.05127049547489372,0.09472656368574095,-0.5158538648679262,-0.5032906992929453,0.14197189539318356
2024-06-21,0.01038003221327596,0.1015222670417464,0.1943978968156436,0.03548763061927333,-0.33646852142971073,-0.45141066561579773,-0.3219926873447559,0.9730603680077986,0.06583076461610778,0.13249544719543577,-0.521070140438875,-0.56083228321486,0.1381938814487304
2024-06-28,-0.0018926923449956764,0.10846989555658025,0.20529685721521582,0.08932473074829969,-0.3274797821714851,-0.4611968786748819,-0.36218526988430727,0.944363103652661,0.08050239854510356,0.21034764742174164,-0.6030293856266083,-0.6853538213161517,0.1675673718671533
2024-07-05,-0.0011494404697668709,0.12807385334244606,0.16636504016207637,0.02039873197032949,-0.3681359911268846,-0.48735006370459316,-0.36075929000661544,1.0278471169589327,0.07897526283654546,0.30218734139403103,-0.6562485937936506,-0.7281024559177307,0.19830805474498805
2024-07-12,-0.014872126480633565,0.191789793428958,0.1721844263381823,-0.00410264612234307,-0.39217688436093495,-0.490038621037257,-0.3661163131522382,0.9991039002925943,0.023063056859020777,0.3710327564880725,-0.7004288585705836,-0.8018540808440315,0.28702942823814515
2024-07-19,-0.02807955726361073,0.20767135056802408,0.13942436836141056,0.019945332387617233,-0.3912688328240922,-0.49258279606544986,-0.381704977447945,1.1058614065906593,-0.03317330302243744,0.4302401231396228,-0.7347853088907312,-0.8305957185570569,0.3967921828166483
2024-07-26,-0.08271045963126536,0.17794443712564822,0.12953019833362117,0.12303555367877655,-0.2939813437988335,-0.40531692369030603,-0.34448120236058005,1.1052053475876362,-0.055669597128047595,0.4145108158557257,-0.7416072014306822,-0.8180449460923548,0.41941851470974384
2024-08-02,-0.12946699126166203,0.13492249787664493,0.10851562306217596,0.1688150558602733,-0.24058588645152454,-0.35509763481411777,-0.3187012005347502,1.067821655048977,-0.07156732100937004,0.41509986232579665,-0.6638570926136615,-0.75128053220576,0.43506623290682
2024-08-09,-0.16855263824667543,0.09709671698631508,0.07676862784209144,0.20282770667229,-0.1891921826333572,-0.304316954295452,-0.29372746906973607,1.0204521282457584,-0.08247248493146737,0.41754187985660457,-0.5804625499947856,-0.6721713354177498,0.4420265955588657
2024-08-16,-0.20529910300040163,0.05885382449802845,0.04663568297463769,0.2308386474029365,-0.13679842106511006,-0.24904941158270597,-0.2655453572897729,0.9712905766632436,-0.08948276088966092,0.41281153015913036,-0.49728033720880205,-0.5878717534703359,0.4446659646913055
2024-08-23,-0.2336255823076731,0.024845821149199462,0.008279531915795028,0.26971007394781044,-0.08393502216696257,-0.1997656552511594,-0.24683767739787646,0.9178501091313657,-0.09445649913531577,0.41822755108955895,-0.412928641677625,-0.4980015547645769,0.4431349810168797
2024-08-30,-0.24368988913290046,-0.0009152872713242453,-0.017785020542154865,0.3098163658613626,-0.026632225853179387,-0.13970300074756062,-0.21591059548073646,0.8662770069689223,-0.09632516660015392,0.38502174110223963,-0.3398446552877836,-0.4210913822714524,0.43006551186535574
2024-09-06,-0.250168817876691,-0.030018588771728093,-0.04855897703206814,0.3156434082486336,0.012887691751614928,-0.099012247165905,-0.18989890245599736,0.8087595301593885,-0.0944720056688524,0.3671425972439673,-0.21508838214455558,-0.30999380853762226,0.4385562900570191
2024-09-13,-0.2515002848760572,-0.054763351859322414,-0.07170716795966839,0.34997428501056516,0.08101979265039387,-0.042753271821869894,-0.1699613662240591,0.754145751714363,-0.07832807396622124,0.33936386873044916,-0.15285939189266817,-0.23054650686093792,0.40665293089746174
2024-09-20,-0.25613075103194577,-0.08308969387292973,-0.10227918490181068,0.33855895944547676,0.12513175222501544,-0.0006707798205554754,-0.14520795018165167,0.7060248273207315,-0.0783020675130312,0.31519076319723205,-0.040311298439674285,-0.11231120293490676,0.4176574788436302
2024-09-27,-0.24507007642243805,-0.09302379343279092,-0.1194200605309699,0.32963193477889163,0.16245642044351655,0.05023421800315049,-0.13159754430755552,0.6293914852106279,-0.09522113998567362,0.2727402763422137,0.06066778902919605,-0.007481024750264666,0.4269425653711813
2024-10-04,-0.24568398671031874,-0.1117371387429615,-0.14674109011345662,0.2860068348796514,0.18544259163407154,0.04521434662529032,-0.12378031096392518,0.5720597877634636,-0.10459504682288168,0.26048375958222525,0.20945828007460915,0.1168005005145733,0.44881176702463244
2024-10-11,-0.23956979503380446,-0.11172086831340398,-0.16722690954526206,0.18580274379272949,0.16913034609841784,0.035690252115152456,-0.13745347287215873,0.5917991079917666,-0.10071169345596441,0.22506717372540133,0.3091308724379052,0.26197720807566277,0.4785933330690255
2024-10-18,-0.22091059821796233,-0.10366436281356048,-0.17214694354151863,0.08746186934975718,0.12795316824166067,-0.008620737143738004,-0.1621390313279415,0.6302340516163704,-0.10905841747152817,0.2012016358936277,0.3753368354071828,0.3564935976653187,0.5070734387111713
2024-10-25,-0.20428568853605233,-0.09388547089976752,-0.1744314978162468,0.013039450979765787,0.08587727293628562,-0.04879337984060733,-0.19455571096693183,0.6683630288129404,-0.11958279090984669,0.16850019856417003,0.45357627008386076,0.4599143864029137,0.5262824354500596
2024-11-01,-0.18901510763461044,-0.08305227136819524,-0.17292541538040332,-0.0821195442825169,0.015482633263398576,-0.11020670699822323,-0.218404527399702,0.7019615736698845,-0.10295839524006617,0.13522069354212254,0.5009345740598645,0.53762222077403,0.5132766607407424
2024-11-08,-0.1827881351134236,-0.07813795427080629,-0.17792956124924156,-0.19240000537627372,-0.06309488744582815,-0.17163358904156809,-0.2489112242979653,0.7056086284581895,-0.06325600710669146,0.1312080928969311,0.5549119526381509,0.6024634524689538,0.47639431081354633
2024-11-15,-0.17235539982373738,-0.0677343256210573,-0.17425866413749322,-0.2767986970783266,-0.12300574676314587,-0.20202970698434558,-0.2714113431013657,0.5762453241529055,-0.019987176798904323,0.11852407003460157,0.6088515811105532,0.604837003460202,0.4397366965695375
2024-11-22,-0.1657740126766596,-0.059081480624533965,-0.1879498233816975,-0.2873531478462021,-0.12543135645925577,-0.2043313051337411,-0.30801670954094806,0.729268475671554,0.0009223334725398978,0.055064437289117786,0.7204613447031953,0.6067634108936383,0.37147757857297276
2024-11-29,-0.16842063061416349,-0.051107774272140576,-0.19573680689103373,-0.20460783846059766,-0.015734493980478267,-0.17639011786243375,-0.36234431467035094,0.6783093442180089,0.03463332292633049,0.032507034881838016,0.6747726005901905,0.5723908639100946,0.3518846650476607
2024-12-06,-0.14979938492058878,-0.03264317322388334,-0.17921620571668437,-0.2262186806755038,-0.01336822182987841,-0.22714653787773953,-0.40172600574868544,0.6056929457061441,0.07387746661577646,0.04523266172381873,0.5891733636737796,0.49698594672882074,0.3051966615634033
2024-12-13,-0.12324205774112665,0.0011746662313733768,-0.1529045118334867,-0.2678684932959016,-0.02028355329201014,-0.236118523621176,-0.49926953696996235,0.653743237366348,0.09238967344612783,0.04986474407007587,0.506585771724961,0.4313195236412962,0.266412779001855
2024-12-20,-0.10474287420869559,0.012053391517856773,-0.13641429993801138,-0.2493619643668293,0.024704206148549342,-0.28981295139156704,-0.5187058096731502,0.7640074724119691,0.09653409683183355,0.034611821032729854,0.4301518957848187,0.36275792812509583,0.22356294148453673
2024-12-27,-0.09608737976387219,0.020231942613835884,-0.1197473073481961,-0.34030291395007745,0.005658383082542278,-0.22253281426398877,-0.548315941236806,0.8529623071162675,0.10740176364457839,0.04301652285139544,0.36854783316818224,0.30750293895676395,0.18902727607656325
2025-01-03,-0.06693448838403054,0.062193093534419784,-0.11854809452813347,-0.4029395675161297,0.0322301005388193,-0.17922602838346252,-0.5725853722874057,0.7289108272622078,0.10816174578655115,0.05615574421974117,0.3160276998289867,0.2583165764151069,0.1577822983954999
2025-01-10,-0.028256725309598014,0.10316546292258354,-0.10876687750557548,-0.47636346895262305,0.018518211936588855,-0.13225471263687286,-0.5618486862649038,0.609541648612778,0.09966306738461939,0.04867359632331643,0.26483353021037115,0.2099801444333735,0.12693804623595015
2025-01-17,0.0056211655982223805,0.1335304239455754,-0.09755995063403276,-0.5484134724547631,-0.026297722123070334,-0.010121381867687159,-0.5689904257130681,0.6129782641044307,0.08995583300069304,0.044746457438133595,0.2029204271121412,0.14957373512030595,0.08791933399000075
2025-01-24,0.02202125331544755,0.14762777217403744,-0.08912947491852354,-0.5940201930190186,-0.04147165783495277,0.13948133524743705,-0.5619181189209123,0.5834736410960397,0.0682753442831049,0.08779696001130864,0.14708486340277135,0.0930568106053407,0.05089102835787918
2025-01-31,0.042743792894942026,0.164688696091168,-0.07726381838159134,-0.6067450641438659,-0.030761047403391036,0.27795569845441176,-0.5635245515427437,0.47419687204352756,0.04751377772506862,0.11832928194849772,0.09926565362802808,0.04565736474837367,0.01984573895649281
2025-02-07,0.06626565904566248,0.18404373055813314,-0.06819171319759443,-0.5338612968880088,0.008296096350510762,0.4046590561395524,-0.5605180056034961,0.3349117872951682,0.023801125550217357,0.14179864125591884,0.08725688098211729,0.04013391436210804,0.01744487865478493
2025-02-14,0.08068957274802104,0.19240608135890064,-0.05567506306155065,-0.4349913501794307,0.08433595759028946,0.45463815242462213,-0.5178205593645238,0.19811743430570047,9.849366328686313e-05,0.16255043348637901,0.07770077561050708,0.03573857143553603,0.015534369171249257
2025-02-21,0.08942753750502286,0.19316294205753312,-0.043166025862290874,-0.3533438879959772,0.14913429626882355,0.4497103026136454,-0.4506047770795543,0.030300805382481494,-0.013832619227818671,0.22410886812583858,0.06800094261446293,0.03127712080369682,0.013595124865435165
2025-02-28,0.10771044245746063,0.19588158494124208,-0.023345005523682676,-0.29629035827774586,0.15821455590475036,0.48526984347318874,-0.3582557767821134,-0.10813079438734316,-0.05579202907376798,0.29074947489887115,0.057094419477926366,0.026260651493502055,0.01141463238712302
2025-03-07,0.12036823958349292,0.19645677732621553,0.0006381349464974245,-0.2626807968244639,0.14071955173793382,0.505239113399006,-0.2531849292221328,-0.25728238429903344,-0.0980848020134086,0.3680975312313857,0.04634255673150568,0.02131531842817712,0.009265060470122552
2025-03-14,0.12217797013302505,0.18704327219142824,0.02479413809038728,-0.16393620087221847,0.20828560033051594,0.48756577487509273,-0.13956810843041914,-0.3553313798597177,-0.1382533510807498,0.38269149916039846,0.03778261746634531,0.01737816338039127,0.007553710028847266
2025-03-21,0.12277002458776214,0.17890379727741934,0.038047574082701305,-0.04927804857520861,0.2969857169829361,0.47454272242070683,-0.015674460488843918,-0.39037651940110624,-0.15550653989650895,0.30913162994111576,0.03062433464406513,0.0140857020118945,0.00612258650247573
2025-03-28,0.13948402998882448,0.18069862616355445,0.05752092814697,0.02547980642352125,0.35853317801268797,0.4568552591900391,0.10379774369652929,-0.4442360743803262,-0.17230225973285604,0.20336463601324478,0.02331622640080524,0.010724328248785562,0.004661509048586102
