,ES_FRONT_CALENDAR_2D,NQ_FRONT_CALENDAR_2D,RTY_FRONT_CALENDAR_2D,ZT_FRONT_VOLUME,ZF_FRONT_VOLUME,ZN_FRONT_VOLUME,UB_FRONT_VOLUME,SR3_FRONT_CALENDAR,CL_FRONT_VOLUME,GC_FRONT_VOLUME,6E_FRONT_CALENDAR,6B_FRONT_CALENDAR,6J_FRONT_CALENDAR
2020-03-20,0.18971929089153822,0.14369340022454946,0.15555666101844154,-0.24271025589873296,-0.28320226597443404,-0.24935246337843425,-0.16611144321790194,0.0026049568867860637,0.11769039155686221,0.022229655202751053,0.1004487769797803,0.11267642653303236,0.09675686917576207
2020-03-27,0.1417983369690798,0.08322002170199636,0.21798191986783713,-0.2602680203754064,-0.3237948295632625,-0.2943094728201317,-0.17302405399086024,0.040930386774239415,0.09955746133913271,0.008776866145649726,0.11703991870797538,0.15028964400398703,0.19180182123976347
2020-04-03,0.08151166166241496,0.02975236088184422,0.16795310478845904,-0.25510161876136733,-0.296396240686475,-0.27219661706371584,-0.14010332422841915,0.01547615270192746,0.03879484661763969,0.022671518217268545,0.1319568181719042,0.20512984279481314,0.2705514949037061
2020-04-10,0.17343724727724558,0.04174133094749398,0.1830922906871596,-0.4180109064425408,-0.3079437271246817,-0.26075539755505966,-0.12093695099569023,0.014587748579944446,0.082993263166942,-0.05198330354136826,0.15230112219554817,0.225974783150884,0.28550249965412294
2020-04-17,0.1909729802655818,0.02522575667519345,0.18517063745601686,-0.38324100221763635,-0.2656587694989679,-0.2105301859500788,-0.04756282092396065,0.01784038112143163,0.10947234734093261,-0.16755865331768344,0.12881675993689068,0.21994346316898072,0.19710910594329942
2020-04-24,0.21188490382492983,0.053102958602955525,0.14714566805912302,-0.2899616024672796,-0.22349513051616948,-0.1755406460052703,-0.03654843310603802,0.013219465338337332,0.12923625535793618,-0.21416184190010978,0.09468110506600852,0.1767987106488085,0.11363858709676822
2020-05-01,0.1698535941260737,0.11089717158323843,0.1335230389058762,-0.18453202258919182,-0.1596844391467851,-0.19481777480518395,-0.10494038927066726,-0.011477139052053059,0.1392478260059652,-0.2246715130108782,0.1076350501902245,0.15021903525088492,0.06874756181249644
2020-05-08,0.14265927674366782,0.10992293057996895,0.16069124328231738,-0.09936039583477593,-0.06797227616914148,-0.22938846566770238,-0.1617680159607047,-0.04846488705602754,0.14093334350515868,-0.22182023006133617,0.14904625563298834,0.05820667220219097,0.06731454880339596
2020-05-15,0.10961669266444286,0.10042384027951329,0.22683749978941714,-0.007112568955126006,-0.032193925364641655,-0.24740233930374653,-0.21792281847499206,-0.049072785207492906,0.14058914262130057,-0.1659926642525856,0.13133821119341052,-0.0032828969170840966,0.014174611927584568
2020-05-22,0.06322302935647439,0.05615430000282373,0.2884771390794102,0.031992556341247105,0.04486932473502416,-0.21130230896209823,-0.1991201745480349,-0.05879926833512993,0.08703890902005217,-0.14870335320722317,0.07992552050963317,-0.02358970400127626,-0.010165969990902392
2020-05-29,0.01867845103475247,0.013366062604142331,0.31566213733838966,0.12217993001077897,0.12181663329657091,-0.18763659629970705,-0.17521755037389103,-0.07302541964726274,0.03657688755138792,-0.14059137053381632,0.031230936258788387,-0.04656424496423617,-0.036475856275897334
2020-06-05,0.04521279836456586,0.06547668897309544,0.32986383029238703,0.0807195838375028,-0.013115217624913494,-0.17840313951158643,-0.20872640207240648,-0.06620834099995167,0.09777090902633966,-0.1099497933713807,-0.005666596077059043,0.0027029543101808884,-0.03967727514677393
2020-06-12,0.06788034824445538,0.05489318024934552,0.36089544663784845,0.0022068260338324874,-0.11943990277763848,-0.19742946009864146,-0.19952872906578087,-0.004578271064375299,0.1409534608583641,-0.09639280300666508,-0.041219323809858786,0.06384959568628595,-0.03209036788717196
2020-06-19,0.06190302861976844,0.020022123113401007,0.4379014170755086,0.00656765600274593,-0.1388943787042399,-0.16970241078873474,-0.21290128295581373,0.08546742241930783,0.1463916207200624,-0.14414232282115794,-0.15578929948867612,0.1092718926244243,-0.04609546581659596
2020-06-26,-0.04227614411810989,-0.04192404086034269,0.4515527613164833,0.06512858230661776,-0.08907975864349665,-0.12683033863367096,-0.213523477468151,0.1137180989435783,0.14721087438552205,-0.12768252213754194,-0.1647340326308335,0.14884319899042464,-0.12040320145047935
2020-07-03,-0.049494010147666016,-0.03036757554656445,0.381464177870509,0.18859670953614313,-0.02347414631833457,-0.11507017681385373,-0.19434438515841773,0.12219578525851045,0.1571637290725737,-0.15421311401625654,-0.2077287648375282,0.1481738343503054,-0.2229020632494204
2020-07-10,-0.001467179787365741,0.03189681472435148,0.2944071885399011,0.2297836090757792,-0.03045612103589124,-0.11801626938117647,-0.22274600617198853,0.10362091667264918,0.22051318826313449,-0.13073975302372112,-0.19962753176447043,0.1517716609232991,-0.32894051703450106
2020-07-17,0.02285707671497625,0.04719529878362277,0.311028174918892,0.22221450561476058,-0.10073178720182012,-0.17829772690040233,-0.27329618163698643,0.11438170703357811,0.24970262899315931,-0.1688498882535312,-0.13043326332274915,0.2363834344500199,-0.3521539791935197
2020-07-24,0.025234671921001917,-0.01306990448927299,0.30088729640895084,0.18310978501733322,-0.13258701458658956,-0.20005169796923636,-0.2772449974838353,0.18778462855606895,0.31045164504728523,-0.1910670431058482,-0.08734632726806503,0.3067669656126934,-0.41286800766048604
2020-07-31,0.021176502313883332,-0.10872924911070692,0.3264124667025087,0.11338003963847607,-0.17112246911243006,-0.21837845650099774,-0.21209937143917088,0.21819622139466563,0.3611855963485313,-0.18943631212911038,-0.06410895109673045,0.28307643827770507,-0.35955245528662355
2020-08-07,0.10144169921922996,-0.12374798449627276,0.2693440415903239,0.062373327478050765,-0.1927598614614879,-0.24234086265864233,-0.18230713179628683,0.2581798994308624,0.4034337739113416,-0.13172560427634816,-0.06936567726902394,0.24083300280299566,-0.3933586224747423
2020-08-14,0.13871340470693694,-0.1383782567160298,0.3165641565742085,0.028295870396868684,-0.22611154407284215,-0.27490956752163764,-0.19659634075739882,0.35050988888574763,0.36087975574523784,-0.058547414202824846,-0.08051566916975894,0.23264509808192863,-0.4525493819504357
2020-08-21,0.17136042913593474,-0.12069109196542514,0.34494763330503475,0.04656311757974141,-0.2652951428571943,-0.3210278539984055,-0.16402366804344748,0.4224858702759062,0.31287473673069904,-0.01008098140023618,-0.12489032658957722,0.18128706425768604,-0.473509786430716
2020-08-28,0.2297246086925237,-0.05387220932670858,0.29066562421411113,0.013589455998680638,-0.2601938576356291,-0.30281560086309434,-0.10875178055897372,0.41722382463430085,0.3038285364943578,0.03615053056310814,-0.18339000299719554,0.11383212300667472,-0.49599125222215545
2020-09-04,0.24897358406489872,-0.00705165102535741,0.21987906911909996,-0.0032744869640383284,-0.23635559182736554,-0.2659607062106507,-0.06801907793916538,0.39294545305300416,0.2164695134368798,0.07956805122028918,-0.17909663502679765,0.0631200157031796,-0.4611975376039761
2020-09-11,0.2643609082033922,0.02420356985836343,0.1378921866377369,-0.03133457616615248,-0.21047891855341616,-0.21967915061208754,-0.019404574705793515,0.3522660526675028,0.16192745179809934,0.08882100550827461,-0.16809088152627868,0.018388449410938576,-0.3988715225205792
2020-09-18,0.2830226326228277,0.05833823353671057,0.03703200345130031,-0.05167275141780056,-0.18246449392427208,-0.1719453404021081,0.013041594840979526,0.32288441231494486,0.1096633932718879,0.08957948851912866,-0.14386234297951994,-0.028767493272207414,-0.3348493365618712
2020-09-25,0.2936827528157805,0.06331032811733096,-0.01125261303531095,-0.06687495899794738,-0.13677042891583557,-0.11328648541926302,0.052909912219666906,0.24611618981045275,0.05157712982737577,0.10578336927765128,-0.09823310310407389,-0.08042618325644509,-0.306535909339382
2020-10-02,0.26619311237786225,-0.0005993969561790269,-0.10279557040739584,-0.0573988304195953,-0.09183601913191494,-0.056028721631026006,0.06168823333451974,0.1897245389965225,0.040911103524819185,0.12708985196727374,-0.04068576341945941,-0.07607924706134177,-0.26018329117408484
2020-10-09,0.2039897121870979,-0.06652086060805634,-0.16675241712381417,-0.018482423167243127,-0.04254647191371874,-0.009197965483637896,0.05399298762716665,0.15201290117324334,0.028399697614511353,0.18440555758409066,-0.017708265094886152,-0.05923659475694537,-0.2423558580378079
2020-10-16,0.1310092555069009,-0.1281701711670059,-0.2298774765458343,0.0008213230396198791,-0.01424281903770085,0.02656595504593385,0.03965155821510574,0.13237057733785884,0.010138277523123455,0.24550062889419255,0.014195523652120606,-0.021373210032525902,-0.2065894224317887
2020-10-23,0.060892385026515644,-0.15902804279945815,-0.299176079293929,0.046899158252373854,0.024032976373858237,0.0734861980297086,0.05836515581636919,0.10522922039031553,-0.02166708242429974,0.314199653128547,0.01711057835095682,0.007025239824932156,-0.22736936067588998
2020-10-30,0.03457305087530113,-0.13203522603529155,-0.3583617804484285,-0.041549315785389604,-0.02151823001546337,0.05445107430980155,0.08379635137444659,0.09376905984302164,-0.01610980816002413,0.4158277835068862,0.045019456124602175,0.0577886203680341,-0.21565103595749616
2020-11-06,0.06569180249513838,-0.07914874982625654,-0.36261919551006117,-0.10219540054306134,-0.021701071391988815,0.09925477291835075,0.1755006807091984,0.05509892239754356,0.013376936067802589,0.39086629012250224,0.0025311830079624356,-0.0196135167974779,-0.21704265364965256
2020-11-13,0.05107456968590585,-0.02733097599043815,-0.32799749351072033,-0.13153646971160676,-0.03163164931361839,0.12022848811615612,0.22673023942826165,0.015856895075615926,0.07756428544289193,0.31729071592502933,-0.038595803715954904,-0.06178004865475248,-0.18987275277676977
2020-11-20,0.04726901745099956,0.017300289614312327,-0.25393942083890203,-0.17742583314879545,-0.05649793477936364,0.12319029547079936,0.25868266991612454,-0.009895144406739102,0.1426431691767363,0.23455482730012722,-0.06914329849656332,-0.09818342462904667,-0.1585552126296891
2020-11-27,0.0649435440751171,0.08086526728036333,-0.18813636274042445,-0.19640815049663343,-0.06621537571237948,0.15162663482660033,0.2890772747158491,-0.04485517587011258,0.18239817145973541,0.1461955204899735,-0.11962931315568084,-0.14567831341554816,-0.1541837214568599
2020-12-04,0.09050666171654606,0.17568044359839358,-0.1964179811512285,-0.1807563485473155,-0.05855182236447022,0.20001505455471433,0.32620741107732426,-0.10462282630150943,0.16862942247726648,0.07936768415457636,-0.18355598806307094,-0.18310578434809105,-0.1333959268031354
2020-12-11,0.08909010066594666,0.20421575343310408,-0.22095731143872865,-0.1435874644661455,0.0016094883945973054,0.2623951134767862,0.3506422963906467,-0.1329325991049264,0.08757833926963308,0.06537113666757285,-0.2251776137107165,-0.24217086386429204,-0.09607637571347769
2020-12-18,0.06556611033756304,0.19378082614889997,-0.26696344011094564,-0.06684320253343722,0.07121381884073957,0.31611419744984026,0.3619000299920837,-0.16853464634467713,0.00016548101666002957,0.07691149331909587,-0.2721976619331881,-0.2402186373437042,-0.0708943688389301
2020-12-25,0.05188822705535363,0.17505853448976377,-0.3225124444861553,-0.0004410883566160484,0.14181852108422843,0.3676060955864729,0.3675285155617944,-0.27333888590893896,-0.04563452659168666,0.07184031930154124,-0.2591598103790395,-0.24659403683698577,-0.028059420519731954
2021-01-01,0.06230391554301691,0.1694149657496069,-0.33770786536763814,0.06719705427347575,0.17783816452961432,0.37851204218275425,0.3468042272435395,-0.38597297091508426,-0.11629535338349084,0.04669850903938533,-0.24292498976346633,-0.1915819866555925,0.025714287523879317
2021-01-08,0.09474905499874728,0.14760054384161211,-0.29972963994514307,0.06994073009333167,0.1564582213147898,0.3378621755763247,0.31663001461101337,-0.32508649732488926,-0.20889398403998607,0.003315584057655474,-0.21565538551885202,-0.14524608781336623,0.06805527014876231
2021-01-15,0.09483726168479337,0.13650561134306946,-0.23546484909739984,0.0498738368089581,0.11165393815904248,0.29580673275412506,0.3334980244221747,-0.20236443536555626,-0.2990636461856217,0.020219807772942487,-0.2179844964165289,-0.18472576300919055,0.09720797712919164
2021-01-22,0.10047673050532777,0.13998880373507155,-0.29037496367723764,0.035273816228168636,0.057940141005919536,0.2365169210995514,0.3336647565418115,-0.15439910321850395,-0.34177370388678546,0.08250413775761115,-0.15810518539257137,-0.2095019613397029,0.16778961064133985
2021-01-29,0.13984573620269578,0.1793705072531539,-0.271853328923393,-0.0036199421195089038,0.0004895543728389851,0.1720865702056192,0.28769369953356105,-0.1976533503355632,-0.31695268026373713,0.13341751069456123,-0.11858924085045527,-0.2017760855217969,0.1975410497520243
2021-02-05,0.10871881986048249,0.225678635720473,-0.25160204709309825,-0.06814493472012947,-0.04808302657772395,0.13022233951418727,0.2734419151375609,-0.24731284535473436,-0.30818506283038777,0.16063267050545377,-0.03634446080843884,-0.17809551948868602,0.2390735161350412
2021-02-12,0.060376059893765786,0.27699582099893993,-0.19909961279569713,-0.11495523308751221,-0.09294012438272281,0.07332959513967166,0.2629147549315637,-0.2558837619449717,-0.21647621170669307,0.12663364781530223,-0.012569979732316758,-0.15981727744721977,0.25149232231789015
2021-02-19,-0.01756216682947106,0.2212069659497559,-0.119093245159611,-0.1795838997404388,-0.10913007266919704,0.06827047672809938,0.2681384571214973,-0.2607915495112699,-0.09189179242729242,0.1011462505049944,-0.00221227049116517,-0.1440929386076741,0.26559578513177245
2021-02-26,-0.08947423542960561,0.10942710218506481,-0.09333083824024409,-0.17083798951035645,-0.0964270461984805,0.06276329154966312,0.24236931674453158,-0.21602009037943992,0.048114113976281486,0.08309615943695826,-0.002912612372185479,-0.12608164776324376,0.2493144760010566
2021-03-05,-0.1301011721616741,0.034601406709341795,-0.06436675487778551,-0.16116260300065546,-0.09034125004642271,0.04581926309002035,0.2059926615751157,-0.127677514449422,0.14233517365466591,0.08971895179936983,-0.04707591387128379,-0.10999334175827508,0.21225109333700512
2021-03-12,-0.1183682688981262,0.0030144485910329685,-0.03493684039439367,-0.19206024576571012,-0.11688091283935723,0.0035434550688342864,0.15843640369759163,-0.0692069503772561,0.23382575593538363,0.0987845326883832,-0.06252706006908193,-0.06018288674711181,0.1565585691098113
2021-03-19,-0.07306562284229641,0.011744386326543161,-0.02594541215833048,-0.23836399915916612,-0.15545312764783153,-0.04093892528047951,0.12715005752669878,-0.0343132869441559,0.28856092534878897,0.12844231138675494,-0.037406589694694806,-0.017613980693779376,0.06720326383194823
2021-03-26,-0.0023604617869723288,0.051700702442608305,-0.029066084403925312,-0.30079907548895635,-0.20643549172173314,-0.06521466811112168,0.14591165390646219,0.013265696163713467,0.31318597527108627,0.15813698378255733,-0.04455373336494492,0.0010642403290988776,-0.03483573701787278
2021-04-02,0.11967237076243617,0.1437289617636013,-0.03558563143658119,-0.31771743557670945,-0.20897674062494848,-0.060367694712655545,0.17639243835155613,-0.0018446984425886173,0.2074079788533742,0.15874813406859578,-0.046983632283112566,-0.021483079071313003,-0.11299097165165478
2021-04-09,0.201872381683755,0.19552262484798724,-0.00010326583682333801,-0.2928731124106525,-0.19062195105299645,-0.054040705962910426,0.1704675461098711,0.018163100472911958,0.1043494005701982,0.16973819405987856,-0.07476341839838363,-0.092325534506495,-0.1553852595763407
2021-04-16,0.2348124171808768,0.2244902255728437,0.08264865174032163,-0.25325209232599,-0.1736446149206246,-0.04084365095944135,0.17229498330493676,0.004803985039954167,-0.023949965672781737,0.20345579184518614,-0.11848320251391808,-0.15523645089238014,-0.15709607739898335
2021-04-23,0.17244589774932478,0.19400261867852453,0.12103574253953639,-0.19170549606096823,-0.1338455663183193,-0.015332674135049303,0.17379071097032098,0.016038712856019315,-0.08890470470283865,0.17467062488759136,-0.14263497703272512,-0.19449064406005023,-0.08507024537136662
2021-04-30,0.09932665674445858,0.132140470928397,0.1258632241511639,-0.15158519010353658,-0.0872516133681158,0.03540738138904113,0.20352132059598027,0.004617845358736057,-0.12844776646349929,0.1463695888372297,-0.14120254290132234,-0.23024428999675095,-0.008515085171781706
2021-05-07,0.08004104989009253,0.10489827052797329,0.09580629423817244,-0.1313745647183467,-0.054516448696676656,0.07996620329844731,0.2312367743603208,0.0038271670842859474,-0.1644484281526838,0.0735828278743215,-0.11827194157796063,-0.2940814519024269,0.09333424777448074
2021-05-14,0.04794561409402733,0.04236104546855478,0.029255772973919167,-0.11766874261753144,-0.01689837491997232,0.13753456507196474,0.24245555672741484,-0.017559777807685778,-0.1814340376012644,0.037537195737981484,-0.07016017270741373,-0.3084800833057975,0.17511143888580274
2021-05-21,0.057152295515984705,0.052526952188294646,-0.15008037740656316,-0.15395735524602616,0.03520005916688558,0.1313531307873913,0.22834745096145598,0.0028983418662212462,-0.13282829432534995,0.04853166398226984,-0.04066722279952441,-0.23805246099214322,0.16247566758952073
2021-05-28,0.0559247544984965,0.03690091639292596,-0.20911275481886415,-0.1603742490559969,0.0278973478952802,0.10346387613209149,0.16432166539698426,-0.022826675196516346,-0.09462773186645969,0.09893903114144309,0.030643485102530857,-0.14813916607901906,0.11955321661200677
2021-06-04,0.045784950577951455,-0.0002470539095840371,-0.23272100462737594,-0.14371927388947978,0.024848567679655417,0.0672294917539688,0.11191550412170195,-0.04815647918540536,-0.037015726862122976,0.11193166062821587,0.08667760364082218,-0.041590017748234676,0.05731124702819463
2021-06-11,0.015014375223590361,-0.03447142186572661,-0.2309700203123152,-0.15368128637986894,-0.01660182883816165,0.00278100142570685,0.042629796233682335,-0.03173997338536445,0.022489772139184246,0.12286481333705,0.13411877176225612,0.058869624050559025,0.07066274474773251
2021-06-18,-0.023476500657029737,-0.07336105857367119,-0.22406816160307014,-0.1771473047577658,-0.05591958864462703,-0.05025004120828494,-0.014314070636313209,-0.01293816161240206,0.09054011958810113,0.1422721201756807,0.15375306663998825,0.13379573535316563,0.11280181352072448
2021-06-25,-0.12474918042510846,-0.16249312482958161,-0.2288452977362665,-0.16215786381845915,-0.0650789955055944,-0.06433358036304593,-0.019763976182912417,0.056787772460068914,0.1702029425922757,0.1297321130120987,0.14000318627628516,0.18951052048910602,0.14254420912203367
2021-07-02,-0.19514105781674218,-0.21385302387707789,-0.2620931229789377,-0.1568585167536555,-0.06880966842047188,-0.07462768959040457,-0.05134004023318819,0.11236763936114669,0.3070397289993365,0.08122407875551985,0.18432506076335814,0.1972456527240613,0.14142569834789606
2021-07-09,-0.23829434597020688,-0.25955625084908707,-0.29831086335242557,-0.13951543133805158,-0.08140141715885128,-0.09765553554444892,-0.14078609861095776,0.14670622128198624,0.35136753068302773,0.1270830907723457,0.24722992320594928,0.22882780131375857,0.15493029770949207
2021-07-16,-0.31548011341242976,-0.3267343185693192,-0.26609017632199355,-0.14228586297672605,-0.0805746803829973,-0.09525872401043235,-0.20600556953650143,0.1411817500389771,0.3444461276499896,0.24321256809264286,0.2817988579781089,0.29258528376209114,0.12963003959330446
2021-07-23,-0.3313714790317461,-0.33717865095416494,-0.24908652482462096,-0.12804391593606734,-0.07030677754676569,-0.08356957949354335,-0.2657360553759494,0.2055071753947917,0.3039772195862125,0.37564496067699527,0.2657549073826965,0.2273573520406329,0.08739747764888117
2021-07-30,-0.35248630489232025,-0.3510221757971634,-0.27092127220714746,-0.09789633908688672,-0.00519032106148698,-0.01839416863658279,-0.21711991344980797,0.20129475017412934,0.27598603823818774,0.39798194611972826,0.19254790990256324,0.1395250582842733,0.10596891019730767
2021-08-06,-0.3582687231016992,-0.35992924087842826,-0.20495558845759843,-0.07531594193253972,0.038935695149013926,0.02841720602428291,-0.16622213782003775,0.211215140168486,0.2547964364502752,0.40765362571015923,0.08391231899177087,0.04845076376646586,0.09153119769428444
2021-08-13,-0.3070278148129422,-0.32997358865822973,-0.14146410939637338,-0.09804028906183625,0.061627694051928986,0.05216318260136375,-0.1515315650974359,0.20075693016990434,0.2430840880817131,0.45182614073720756,0.07344251689294222,-0.03252621215120355,-0.022138015992950524
2021-08-20,-0.2083595409316628,-0.23311434989388363,-0.1006171682125283,-0.12911868134645374,0.036143064416641335,0.02807181240645424,-0.1520456762743905,0.15270027015882903,0.2278987943382173,0.41640437361882726,0.08692294182847392,-0.03239371700216306,-0.09231841791418713
2021-08-27,-0.13532131209129072,-0.16116584024635172,-0.046676168306027985,-0.16680495678047802,-0.018901374491796782,-0.01970608224520745,-0.1422267519966653,0.12964726954188888,0.19921934461851337,0.39592701908059935,0.12015714026223166,-0.024384594994197026,-0.12961002093133783
2021-09-03,-0.057781051820825935,-0.09569512975021584,0.0006788127897444096,-0.16891273593341186,-0.04239633237991497,-0.04401518124756032,-0.12562413191219202,0.03054946057810004,0.1552421189547064,0.3772059750494094,0.1360540558792722,0.0027402619656385803,-0.16791176170542477
2021-09-10,-0.029478731959371517,-0.061619220851156516,0.04534308324146207,-0.1305992551966696,-0.09697926916757396,-0.01780914022962447,-0.27717871831265684,0.045400732545887015,0.1511050835498664,0.339268088976921,0.13483899554742537,0.0218263430867038,-0.12283864075848558
2021-09-17,-0.05827182880314327,-0.0894771124568921,0.12428924621654691,-0.04729664499539886,-0.06258996493445984,-0.04027092665485989,-0.3206675011086744,0.01358646656430864,0.1286756901744339,0.3660800650921433,0.11387004599136541,0.04828451111677676,-0.1751162526198894
2021-09-24,-0.11990252477028757,-0.14964951693615366,0.14067291098437462,0.039618091937254185,-0.010194287302129491,-0.01916866910043241,-0.3351343206370644,-0.0012417363301435533,0.1383623072585092,0.3112747559302915,0.06967666024413033,0.07865665727411458,-0.14206817052687587
2021-10-01,-0.14178638137887492,-0.16997674255742345,0.1147517289770257,0.10639931472084645,0.03411655374345506,-0.013259602194186215,-0.3009197225685948,0.053128977845206336,0.174804989687036,0.2386809287753897,0.002437661938255148,0.03654134271268294,-0.13417770019405992
2021-10-08,-0.15649167947155607,-0.174387260501917,0.05650786839431036,0.173098370260819,0.07936829038725673,0.02519052483729579,-0.28711516309114943,0.08052014013093593,0.19860925485827313,0.1492957501528565,-0.031730630805439405,-0.012603487231984574,-0.09963658427451345
2021-10-15,-0.18664922777421608,-0.19528579563167137,-0.0018015085569961578,0.22798088259475616,0.14105700831929502,0.07427334579483473,-0.24716201600989723,0.08224686640950653,0.17795240647829003,0.06527404946572518,-0.04371680911162417,-0.0366197968669751,-0.05701700624986126
2021-10-22,-0.2028258348034074,-0.21279330029824553,-0.080629099975938,0.2712170050992577,0.1913356892128105,0.1190091544989287,-0.19908817457513245,0.058590936371966724,0.14299102839752256,-0.002364663968146219,-0.026184445484212206,-0.04789772645307033,-0.010919477667130278
2021-10-29,-0.20140046730018413,-0.21549907420657158,-0.19359569085782738,0.25818873390322084,0.206716466609992,0.14568986715819038,-0.16093441962765848,0.019523294292916223,0.13373528717933186,-0.07538454467931739,0.08822147241292691,-0.012208992697374951,0.007301358178230192
2021-11-05,-0.19704740299515047,-0.19900306404206297,-0.1617763272153553,0.2153575876392994,0.14687384082100857,0.08592300299846278,-0.18957741096654412,0.0701914098573297,0.20370783628470285,-0.03646433500366879,0.12434374087104094,-0.010607002867379702,-0.051661443524694914
2021-11-12,-0.21222322730732687,-0.19965272755385957,-0.022545717469406368,0.18105588397827058,0.09870305508102749,0.050103673196281305,-0.17828794013869564,0.0696347992574363,0.1392030153292092,0.017922972532531015,0.14326048945492603,0.015545179940950732,-0.10250638543993079
2021-11-19,-0.18822160347734393,-0.11745928336364218,0.019123112807415195,0.18804797703990533,0.1223448306931337,0.06260180729104493,-0.16039737795811457,0.04615483080437714,-0.0201321389805941,-0.011567154110662458,0.1348071140911824,0.0566280841824937,-0.13177839318248066
2021-11-26,-0.179693413617411,-0.11170219962669663,0.019523058986857418,0.23246402783329034,0.18523754395011466,0.11945959069835005,-0.08926618469656325,0.011113645577596414,-0.09654548100825089,-0.05505734087689322,0.08655024868715876,0.011164941187588942,-0.13313071026734086
2021-12-03,-0.1521662565831165,-0.08413210511464209,-0.0027790324374594444,0.2633093427574919,0.2378621847702427,0.1684939804064276,-0.03790994831488233,-0.09323837032605067,-0.12930592755399153,-0.09713589210111268,0.04990189572970609,-0.0007026201297413957,-0.122097563020485
2021-12-10,-0.1056342850480972,-0.035812300177249144,-0.02190388657817339,0.2554627487363023,0.2602870808279051,0.2041071207654954,0.034581602365002365,-0.08439035399653347,-0.16803686849919058,-0.17272441363291957,-0.008084448131478253,-0.05143670567911922,-0.10633828296850098
2021-12-17,-0.052011435273354764,0.014227077514109343,-0.03198675634593364,0.24145187001350382,0.2690150916173765,0.2252267936906561,0.10109796262851396,-0.08427234246733406,-0.21128299634531728,-0.24012190347062262,-0.07949117915860231,-0.09530451471513048,-0.056494472179468874
2021-12-24,-0.00718125322928586,0.051621192023568074,-0.08540004237699345,0.20780064144607896,0.24649403620911775,0.21983746895357972,0.14320488632893724,-0.0672489686222907,-0.29570302343485366,-0.262286735275595,-0.10794829708426025,-0.07125344209467055,0.028082989537090403
2021-12-31,0.039141446026594494,0.0865054792662779,-0.06359639772163606,0.14199893881187628,0.19145882339808706,0.1741786057734743,0.10544944059605318,-0.044789202864321434,-0.32807516714631696,-0.17052277732329102,-0.11813146606761374,-0.07445044192935636,0.06084509778514412
2022-01-07,0.07046159546988578,0.1090101764412968,0.011244808141484972,0.08182960167978279,0.13126557431126468,0.1183441466518835,0.04980462791514499,-0.05289310986339683,-0.3381311774773558,-0.10575774114344484,-0.07942200803607981,-0.06232177521503708,0.06657410902648446
2022-01-14,0.09781085822636051,0.10780123408973413,0.13154396043341848,0.0513245004495235,0.07317214187189831,0.05877835343218569,-0.011321109444395815,-0.07551048340582378,-0.3434691509927933,-0.03275856695185862,-0.0547090275865962,-0.07386919795486457,0.07121176293888756
2022-01-21,0.07461151662158107,0.08530456431418432,0.29150641295495855,0.02855181166046719,0.010676697236328123,0.00044439223838271813,-0.03053327020323074,-0.05044775716346617,-0.2841395737095056,-0.03392370610487419,-0.08557548387055844,-0.08702466894622234,0.07315967370577305
2022-01-28,0.044432879878346584,0.04554161960784704,0.38296397459079934,0.06236050900123255,-0.009118042313550616,-0.023886015033118768,-0.03690989571101256,0.003063642616216375,-0.21201376603280264,-0.03927150575791971,-0.10574406570906857,-0.14744384443021258,0.030442050893044324
2022-02-04,0.038534370759797786,0.03046207771819632,0.42928987138494584,0.1046959610294403,-0.026622380162439237,-0.06375310149035074,-0.06771847096291728,0.07887108961328525,-0.16489350921060597,-0.09261754032014691,-0.06676050437108776,-0.2148519034099306,0.01092680898081512
2022-02-11,0.014520839940966906,0.01551621996020583,0.41638241564913975,0.11549787454672264,-0.04662055420191347,-0.12870445701267846,-0.12088500592841261,0.1614849737507174,-0.14487818853854426,-0.10594549353961404,0.07009105205379855,-0.2207775556384335,-0.029554001979627646
2022-02-18,-0.01961126698440763,-0.010308101213636331,0.368331304064784,0.05730681413597804,-0.06203292254985153,-0.1333202109991968,-0.08312056377451155,0.2031209677811015,-0.18224798950057935,-0.1319743711933797,0.1332180850023328,-0.15572396120211482,0.013239533406660106
2022-02-25,-0.06152834384467423,-0.029429968512728107,0.3488514330956109,-0.04049249327030476,-0.09485269006048813,-0.13878600469864494,-0.08818711938555894,0.2769341835399165,-0.21028571269013946,-0.10369804324076823,0.1532654936172612,-0.06541861691168403,0.05108927424436797
2022-03-04,-0.07336584525440693,-0.04275942037170695,0.27970778987872974,-0.05497695307522021,-0.08234237704973534,-0.11598986469404118,-0.08576226102285059,0.13591789042670718,-0.13140237908551852,-0.05699372238101487,0.16397216050270857,-0.011259386686062176,0.0730930618871421
2022-03-11,-0.11054015304163814,-0.09111349144636208,0.1664130377646291,-0.05235057981594139,-0.06992430000729366,-0.10019757179975655,-0.12146653847422356,0.1575363112478484,-0.05043929454467734,-0.019763375798399152,0.15864269497826142,0.06832687647588956,0.06318479414150412
2022-03-18,-0.05064249770469911,-0.05354677474796831,0.08025138522455465,-0.02575421818234797,-0.07173259780925119,-0.11910695514272708,-0.24118436807959748,0.15054628202855316,-0.02805875241926231,-0.020019003307278165,0.18497457133809422,0.1457218394888004,0.0471957293271397
2022-03-25,0.005410444549066404,-0.01286367142677939,0.06296481021264483,-0.01761281717972023,-0.07040552367258215,-0.13271831421899913,-0.3169606195956629,0.08180827228443352,-0.048187087553545144,-0.06692580084052148,0.23981454193563256,0.23483668553334408,0.039802394699366
2022-04-01,0.028215343902830956,-0.05735740405680009,0.08531931056283915,-0.05205127078772838,-0.09113213617398654,-0.16266402390881968,-0.37384175271993036,0.033829771731877414,-0.027828987822199263,-0.08238324949589494,0.3126963813057678,0.2779374453742173,0.10838070529160201
2022-04-08,0.04589842496955361,-0.05246254871684041,0.03046111054211456,-0.05525344823330005,-0.047202494561776207,-0.11957009940360618,-0.3247558949393034,-0.07312059192024985,-0.09809462942993447,-0.0657089596867037,0.3493570585630837,0.2633128510885517,0.1464574009085375
2022-04-15,0.031734168025069245,-0.051278843972663815,0.004206065712268576,-0.048018217949997985,-0.009586630482251349,-0.06607577524475378,-0.2234807075423458,-0.1494499318464067,-0.17678864571146483,-0.026901913998132646,0.32277067124347025,0.23543660962403296,0.1569407577910031
2022-04-22,0.009881324318834248,-0.04780024158386786,-0.0001831271454584317,-0.04958630001667243,0.016466127173888727,-0.010621615644265753,-0.0815365575366524,-0.1762826481602678,-0.2593719084715624,-0.012424438415612653,0.25777111146752174,0.1877646306306584,0.16563597608344735
2022-04-29,-0.0037012118405733777,-0.03695854231837711,-0.02044048952259185,-0.00673330865005238,0.041752890418675734,0.03308349431976157,0.022347566450205844,-0.1956765658878984,-0.3159802836347141,0.011073005463945641,0.1875836339522925,0.14713294675416436,0.1363654606098357
2022-05-06,-0.08255733655449313,-0.07431037453408494,-0.0802187228110243,0.04650595976560807,0.05422875658752521,0.0537025887679867,0.13955217575462192,-0.2183477353827143,-0.34975073033670956,0.022341236015310892,0.1700764689185347,0.1723584922481227,0.14639787477873184
2022-05-13,-0.12753885535842374,-0.1208952942407045,-0.09971368277922052,0.10328760848436433,0.08722098192717823,0.07700850075910894,0.15689414598646578,-0.11698304242876172,-0.33705617036836083,0.027866241434437042,0.1388939776195407,0.11068391673767339,0.10032235468972445
2022-05-20,-0.190007733821831,-0.18681926956104095,-0.07099855209473052,0.15675347542138446,0.08814744519541105,0.05967722567404923,0.12190807819430209,-0.14418554561374425,-0.2695995978146376,0.04565582738994402,0.1851540672209038,0.0685978566755594,0.13570988578132454
2022-05-27,-0.20304209895886444,-0.20767295873675115,-0.13867384937804245,0.14837801084421665,0.06525300689156796,0.027454694169310727,0.07547844827944976,-0.15694665025549046,-0.18585570984878547,0.09450274667205066,0.2568240073347341,0.04284514702194077,0.1814499082275134
2022-06-03,-0.21255218491382946,-0.2626142939543609,-0.2013961437863963,0.14582693892177753,0.06871931612484823,0.03181850194401539,0.005578196762268742,-0.13074565813385416,-0.14899131892835804,0.19487130761767976,0.2499144422394476,-0.0006192038612116008,0.260186892232848
2022-06-10,-0.20602379542397659,-0.2776264335561222,-0.23891692669663514,0.14109311061988034,0.08641544706142767,0.05928034050952094,0.017896188374748188,-0.2103010321779406,-0.10816213756129016,0.29383014153255793,0.18526419572922218,-0.04914632288121413,0.30639503595827294
2022-06-17,-0.17342921596669958,-0.21934412768966166,-0.2495925004638462,0.09704062952160608,0.058895492565988736,0.03692103112602513,-0.0014618120203644946,-0.31326074706863016,-0.05747830688579361,0.3767063332476623,0.17315700173643925,-0.06011388766819327,0.33195833543395015
2022-06-24,-0.13448567982370035,-0.10764751615806215,-0.2280806866608011,0.05442171595758867,0.04495418164393904,0.030691240984785338,0.02858701446963128,-0.40110485426994613,-0.08217980805261224,0.3742953176201411,0.1547109164260127,-0.012314518250898278,0.27815121675227394
2022-07-01,-0.07323383161091362,-0.02824783197316287,-0.16358331642608262,0.02516622376131138,0.02032387115331066,0.008390388819328989,0.04065878054916131,-0.37231612143115317,-0.07818910004849915,0.2939080531688364,0.120618874211736,-0.02784873521158015,0.2343515047857398
2022-07-08,-0.026477108898717322,0.027643363293361096,-0.06770758357870778,-0.015792247112033152,-0.010834703194589075,-0.01719255716686363,0.027099511457663414,-0.323319326072601,-0.0757094463869308,0.22264644641527057,0.0980532388750382,-0.042926504106958654,0.20451587591653228
2022-07-15,0.013126293911185832,0.07304392255935058,0.02312827458570209,-0.05700502527575184,-0.05210989384322774,-0.053564996789746036,-0.00493893838467617,-0.29378548925776954,-0.045722896743245714,0.16849304466907875,0.08540196127942089,-0.02828661474112694,0.17221950960057159
2022-07-22,0.040238588581382115,0.11407264783664295,0.10774994907191203,-0.10008912407218716,-0.09148819944025106,-0.08644160304909101,-0.021961038287022155,-0.24469142144719574,-0.006157158316958011,0.10673805732878174,0.07247093121864871,-0.019709028751599987,0.12926672421687746
2022-07-29,0.04282660599161198,0.11663559068917907,0.13978844323455109,-0.1490426628284415,-0.1359803399184223,-0.10889594836129037,-0.005915442764100581,-0.17894790198981042,0.09755448094643196,0.045815968940935675,0.052931731053660336,0.007600850681450621,0.07562812541848934
2022-08-05,-0.023375526422647452,0.0605613490430206,0.10602655954411383,-0.0861229077527452,-0.10148468122506542,-0.07995284038712532,0.030281497144673583,-0.2027500501526848,0.12015254764695447,0.07110598842367573,0.028308137489499296,0.04715733635318353,0.030092158403367708
2022-08-12,-0.08644424335132735,0.02491065239177994,0.045434072545865824,-0.01878866822940317,-0.04571802042548266,-0.02990851327199457,0.05566880565720671,-0.18732862673366746,0.04713394135092956,0.0839071544017106,0.010638685241251795,0.06078299051418866,0.039711419772280786
2022-08-19,-0.09741297588908919,0.04642633579158215,-0.06129759096886423,0.044263572288862255,0.011300270525296967,0.023408567293873347,0.0748382319306538,-0.18265975016753808,-0.05949557930121843,0.09635553822400021,-0.005491813449714916,0.051243452926760275,0.05852148469266451
2022-08-26,-0.07253934623486462,0.1011704652145666,-0.2440694538309209,0.08832626848990197,0.0525133442490312,0.06072720236689856,0.07798405697443606,-0.20021680250202925,-0.10471583736080509,0.10460377134920394,-0.009942597780564107,0.08003178387492607,0.06612697391352097
2022-09-02,-0.013157607018252526,0.1455100755041921,-0.347953395551742,0.10163014107735424,0.08229273577801828,0.08703953063083719,0.08702092686880927,-0.2102031355595019,-0.13059700497025062,0.01781861993986722,0.035528016693496575,0.10240738253735408,0.04266359262807451
2022-09-09,0.05392898501094244,0.1410933550902721,-0.3476799001479406,0.04103441558285511,0.03970879132203359,0.04434082703871844,0.03574365477911024,-0.1903371174945989,-0.015935063284502865,0.021435127617483053,0.054763776837801204,0.127667082630691,-0.005764026226799342
2022-09-16,0.10398769804303376,0.11947368918780837,-0.2961018930808659,0.006250805231478071,0.005852396915982688,0.006427042939298841,-0.00884644506563289,-0.16544100459636338,0.08333929509470976,0.011187104522463827,0.07895659621613649,0.09124720258219483,-0.03633255772428009
2022-09-23,0.13882216858597718,0.12074073102637187,-0.3875799684440834,-0.005539257403103952,0.022109581033062153,0.010795559785049248,-0.019650865480685304,-0.1668447985384486,0.115950169130309,-0.031136292955155062,0.12739058751217758,0.2034751334101107,-0.12853279838783097
2022-09-30,0.1016328852054473,0.16196751845000934,-0.3864499563534082,0.004046640527133667,0.039056881922694006,0.01783120713820474,-0.07217426442403788,-0.15303614467478127,-0.023211052850071773,-0.05226238225472855,0.18291131546537912,0.2973735582562049,-0.11768624434196837
2022-10-07,0.07264324372795715,0.21092509085861144,-0.31590334864026365,0.04360332626489395,0.07789091620746025,0.046253073408415515,-0.08555584756293572,-0.12935290689074833,-0.13042380363424882,-0.05941738302617505,0.11713191198261526,0.27486079174127087,-0.122655093973742
2022-10-14,0.09337976819937192,0.3016685437123368,-0.2960979429783944,0.08096215149862483,0.10242781295113806,0.06210944808380107,-0.08968269394517403,-0.09214640627687526,-0.16692520688311613,-0.08705794359697894,-0.02029364629876572,0.230555163390866,-0.11889907106111412
2022-10-21,0.13525058904151582,0.3319506201156645,-0.21750945629730178,0.03603013554303205,0.05784584550869423,0.021269357735492003,-0.11102112298819955,-0.059943187058338586,-0.1041522138582814,-0.09482406058403171,-0.06384492111269771,0.18356506017500038,-0.1146166650372713
2022-10-28,0.171247873320931,0.3601674104442299,-0.1523013992703975,0.020683115917725065,0.01340484402474397,-0.008289571652344174,-0.10766435779626031,-0.03765797165453799,-0.00921632360493993,-0.11806066220844214,-0.12637530131524127,0.12892797321571994,-0.1348656432699773
2022-11-04,0.24701335475358732,0.40845184168812154,-0.10390022258049517,0.02479557241860785,-0.023522491562601014,-0.021357315553387712,-0.06020900462618864,-0.0377555521683778,0.016764779523334595,-0.1285373738422681,-0.23152095180710267,0.09183593838335122,-0.18205858414401363
2022-11-11,0.31140223316809534,0.42044113739474304,-0.07553380337803606,-0.024301867676077567,-0.08473044291332654,-0.06214314231780032,-0.03296857713188846,0.01470821561393814,-0.01729199519674209,-0.1402439423462999,-0.1933415895813108,0.11920778887466355,-0.23520402139277272
2022-11-18,0.3591326569892292,0.4054301753206679,-0.010471589666575853,-0.06954168611603982,-0.11566641160556122,-0.08215187713225758,0.011244781041797679,-0.021460934351724817,-0.05778946320750099,-0.17260149931968236,-0.13400696600570366,0.1528671703870374,-0.26498436162797784
2022-11-25,0.3846686863203573,0.3699138247922342,0.0747495084527452,-0.14738917666196372,-0.141904699077409,-0.10570362031584739,0.02298537957386576,-0.028233540832081183,-0.018186124793264487,-0.21771721702323274,-0.06557809900055006,0.17233723968006542,-0.2999421650193406
2022-12-02,0.3764998706935903,0.3461705074477806,0.157619171508594,-0.22111254694315763,-0.19194561213098896,-0.14520680657814436,-0.003948367109982094,-0.023436354104802642,0.029973055545430685,-0.24560386721178357,-0.006390791346447815,0.20105705700409196,-0.2736753195599821
2022-12-09,0.3263855729644724,0.27093933272031834,0.17337078420561802,-0.21585001967053227,-0.19375668621068237,-0.1688018493171772,-0.07686008147443446,-0.04977305012944207,0.11937094186317587,-0.23425652696297963,0.04235791911618694,0.22193923937681978,-0.21506557859594141
2022-12-16,0.3077376117023679,0.20446448222327496,0.25925723646822,-0.22002983525313888,-0.18572170705909455,-0.17292394583829407,-0.12138315847366665,-0.10695448643175257,0.1755409674771644,-0.20640581950601647,0.06340512284423547,0.16706847677644585,-0.16405494657391934
2022-12-23,0.28081327838186443,0.14847678607672188,0.2883874824817446,-0.21939750871758612,-0.17787342451870808,-0.1749606757101499,-0.15694035284800184,-0.10296551639372921,0.2668860828851183,-0.14233067578883513,0.02728083598288577,0.07369871758494469,-0.11107503059264018
2022-12-30,0.2056310863675019,0.07751633629396583,0.30107233082583923,-0.1777204672769797,-0.14387488645465007,-0.15436171527444345,-0.17041219881839917,-0.10041625625391877,0.33347921001470576,-0.10889410861311548,-0.003982120461427027,0.014576161923727814,-0.07261337319526881
2023-01-06,0.11129756876439004,0.006047190317910428,0.31672539468942995,-0.13700661631664107,-0.11590631980756191,-0.13534384320568893,-0.1689235507436242,-0.04456284188802031,0.39839051442678086,-0.0845008288820794,-0.05350043469962102,-0.019178652646053347,-0.07353758068456978
2023-01-13,0.02489733296982785,-0.07220929886594296,0.3238454536275845,-0.08927671024231085,-0.10098540264792855,-0.12920558517521802,-0.17344527897413736,0.04318559525311654,0.4470334897601939,-0.06658061877041915,-0.09433792648457356,-0.059162707554281734,-0.05375834337547879
2023-01-20,-0.0509026135816517,-0.10469072725734463,0.2957684292157309,-0.03827624585217328,-0.07884660952677838,-0.11009260247935752,-0.1446108697490562,0.13710328066233765,0.4715685919915487,-0.08397037706975789,-0.15905336593718752,-0.09069911039870221,-0.04329778039939212
2023-01-27,-0.046061502983193905,-0.08646802492829067,0.17110694852674774,0.029985979219468495,-0.037634823151248595,-0.07711662113178028,-0.09789218283107706,0.14314838202337696,0.4738501137947272,-0.05452949283869035,-0.1914167576915101,-0.14363873455063791,-0.08333328376862575
2023-02-03,-0.03818568316527076,-0.057258004458144024,0.06552113194278135,0.09951811171614272,-0.0025523011402524276,-0.05551338224563541,-0.05146577275340289,0.13577895249709757,0.4777083127067196,-0.01811783547813245,-0.2340145553479297,-0.20075327906303628,-0.12066569545745251
2023-02-10,-0.02158816669590222,-0.009071774372539025,-0.04369700412098873,0.13370395698607176,0.019973370168912544,-0.051963758432615546,-0.050152032343281756,0.19895873942596115,0.5250619558442704,-0.00500989284330129,-0.2527114347623875,-0.30338907041282004,-0.14011488857098675
2023-02-17,-0.053752894233669316,-0.07428000881642785,-0.08113437517003905,0.14307270710067266,0.05131189755294337,-0.018021304385106816,-0.033774433418110573,0.14256964140988615,0.5913629529191188,0.029941164887245256,-0.20105113041518652,-0.362189639320727,-0.13405457814958258
2023-02-24,-0.13892504941714595,-0.13283571668902341,-0.08796302199515692,0.19755601008785195,0.059321969650947284,-0.04181712841545643,-0.06667376813964579,0.19376440568574596,0.5965922426174768,-0.012807166470045858,-0.16148576503529874,-0.33440375243047354,-0.07032325946949086
2023-03-03,-0.14561830415441143,-0.11218656450740014,-0.09483690321032649,0.23882907674826787,0.06443707015721584,-0.06908947220956048,-0.12786718026747418,0.27719429529465656,0.5640569726763378,-0.0948469292836531,-0.1087289386684529,-0.36779582779997594,-0.023547294792171145
2023-03-10,-0.17506006028536616,-0.1152761602567335,-0.187650669968703,0.2906256351947738,0.11545138748335182,-0.04870120506930607,-0.1502488622495507,0.32179751490209324,0.4990779236379254,-0.01773722535282808,-0.1274024002902899,-0.3864165165178667,-0.018459361242210398
2023-03-17,-0.231199305313794,-0.1667011835477478,-0.2152443383642627,0.3453043936432635,0.1298670456504225,-0.042981097423350094,-0.18273429009463407,0.3193583295531124,0.4291539540971518,0.08863904168025723,-0.07743126788979746,-0.36757844021178593,-0.028452841791195817
2023-03-24,-0.25839629444130024,-0.2085276683375985,-0.25576375017903596,0.3584546892493917,0.13116464556695792,-0.03703116792735601,-0.17541988357984162,0.29142322382885405,0.31663194555464735,0.1979751606067413,-0.023172709631804997,-0.3234280781364904,-0.013910112583310971
2023-03-31,-0.2551120802948073,-0.22544367754010192,-0.3010353482502306,0.3393992402190492,0.14247041109697348,-0.0021678213312240346,-0.1364792206822934,0.2328755822401504,0.2064226434482605,0.24148790120238664,0.006039293299739554,-0.26089163409060206,0.01243471067429111
2023-04-07,-0.22081370600284855,-0.21204103333476748,-0.29414959195068585,0.30537333377495757,0.15531236333337392,0.037712665376935954,-0.08027210380115223,0.1741363292415339,0.06978400155009348,0.23666723030798353,0.04898793404835572,-0.21735660546095983,-0.0033408170896327208
2023-04-14,-0.18597240659704484,-0.17611582195003708,-0.26568564776845943,0.2746080240355328,0.16377302869835264,0.07043680482017618,-0.02196955123820791,0.12097480418166848,-0.03135670325354274,0.17173476991148426,0.058225435367041736,-0.18522241559685976,0.006569679384231732
2023-04-21,-0.12152990742624885,-0.1193077978531942,-0.25504171802239495,0.22565042213559341,0.15928200694459016,0.09015278389201978,0.03043732591291464,0.060976682155382114,-0.12151390035494695,0.12620300027108683,0.06450810516265074,-0.1455223946286423,0.0057053918065176155
2023-04-28,-0.0665283910859045,-0.08611096085800503,-0.22000601825795546,0.18504103395323296,0.14345730686715646,0.09667607350289202,0.07439059318644978,-0.0020606663315388407,-0.2145327202835649,0.0979792383320234,0.05522212377754064,-0.08704152200104613,0.02351390919503442
2023-05-05,-0.0049124194616094255,-0.07885456758997514,-0.1793296496661036,0.18855948945277193,0.15884206620950153,0.11990620055904821,0.11512000744160156,-0.04724514343612762,-0.29712722896722754,0.05110366351605642,-0.020123315617763163,-0.07564802573271887,0.06970892328981604
2023-05-12,-0.0035604252160128334,-0.08572253368918745,-0.09160761871358004,0.17008206860835032,0.16071362465312597,0.14259679819259946,0.17552182814703599,-0.0431136335772775,-0.3576529134832786,-0.03011037958056193,-0.09262620624494132,-0.08606002054881594,0.14153941145065724
2023-05-19,-0.005485911232526554,-0.07164834006283491,-0.043914873230351294,0.18730045182815114,0.1964328518604948,0.18884676584746118,0.2221542306375578,-0.13622136178913152,-0.39902601490177847,-0.10776453389485663,-0.1059090781268249,-0.1087166787054507,0.183952491768842
2023-05-26,0.005602071217918346,-0.03625126250165592,0.0903755187808633,0.22247912782933912,0.20355725758764345,0.19241487707399488,0.22005047448088771,-0.20801820647002722,-0.44772906122055084,-0.13382667790708663,-0.1352345249948037,-0.18072544066858365,0.20730584679145325
2023-06-02,-0.03612032108191056,-0.13519282220394943,0.2147866497693633,0.2079649577584673,0.1895071364576921,0.1880581489991697,0.19295462978536515,-0.17304023101688495,-0.44716844213434653,-0.16963993110798528,-0.11216107184443659,-0.19423137149426978,0.27428266811336144
2023-06-09,-0.06694158272620329,-0.1997538795231644,0.2245857413963035,0.28906284470187127,0.23748305107642417,0.19890963988862398,0.11222923730852773,-0.14691459636902787,-0.44679681922802916,-0.1486629484520128,-0.10973572405900257,-0.14385534356834756,0.20039037955374045
2023-06-16,-0.03529873941125452,-0.1753899972058234,0.292992933666346,0.30499071955032314,0.20653590035269304,0.15486807078090284,0.01766498469791629,-0.12483005565592514,-0.4015319299676918,-0.15364796294328734,-0.1194237763870003,-0.10154656629255565,0.13461641881509262
2023-06-23,0.006762486193510067,-0.11713288923353171,0.3010805598489664,0.26690653919008084,0.17082677510147148,0.12031337249778914,-0.02329571645423737,-0.09303910710543574,-0.3285819771448596,-0.17173364312355116,-0.1471911650195109,-0.06469342742554034,0.07977819267461198
2023-06-30,0.046085371378958406,-0.058928989760515596,0.3421000846532339,0.21228958294224515,0.13540803882997784,0.09732981359960054,-0.03679660854479043,-0.043020894337851945,-0.28785554009961806,-0.1510246023990964,-0.18002564098916396,-0.09086812486145952,0.015307509588267154
2023-07-07,0.09961431250942815,-0.00045643385306880224,0.3154231964486108,0.15188354564365703,0.09152185605160044,0.06662618710002165,-0.03729356399045617,-0.00865767179814022,-0.23632313743942032,-0.09892172463691239,-0.22884861594398548,-0.09516770969517074,-0.019400240396356856
2023-07-14,0.1493597252280163,0.04316912379795402,0.30433156771453435,0.07461137814091758,0.03804424990418277,0.02772830401635582,-0.04691826342326951,0.0014176223870922943,-0.12399415837429374,-0.06469696825686719,-0.23377688353268575,-0.13153901981466345,-0.03773667778743589
2023-07-21,0.17323583038934692,0.037043329790600835,0.3230787876551791,-0.02464511828524539,-0.032324617169475295,-0.021193940694447397,-0.044404708462052744,0.09257177666828073,-0.07573666639605614,-0.03040190890374854,-0.20846310626097875,-0.12569638276210005,-0.06306327556945124
2023-07-28,0.21014854282323436,0.053657005682489205,0.29378506431663054,-0.06299322558577457,-0.0925082579961164,-0.06573949337513299,-0.03933381157417625,0.1608330231149507,-0.04050501258378892,-0.0007752147241430717,-0.15736473680914823,-0.1185116318661194,-0.1406922514230406
2023-08-04,0.13980189136856153,-0.04248976758022107,0.24080723524071038,-0.03391328342033076,-0.09210384997939874,-0.0546508256471213,-0.007973342224674919,0.13995832776350545,-0.048940920986213346,0.09660373203551956,-0.10159152865182494,-0.09359727404277196,-0.14191039387585977
2023-08-11,0.06655202710265941,-0.13970087545418733,0.1950140746061884,-0.03750717078803456,-0.10365433111295179,-0.05533641666447193,-0.008457631776623871,0.1293664444919128,-0.055780655869666185,0.18981527443609564,-0.05273845041264054,-0.041875099209387784,-0.08569718934899673
2023-08-18,0.07247903786345916,-0.1622052107251228,0.22263763626231534,-0.02839086648361749,-0.12454140744458443,-0.056971672385281946,0.0008468882315346392,0.18119829668888793,-0.0290933111101593,0.30932468075011643,-0.12501805852670445,-0.14545734011376676,-0.1148086730071707
2023-08-25,0.03387214464246019,-0.16917016532843246,0.31778907393233147,0.07332790666630057,-0.0890325196291742,-0.078125023443391,0.018467789596196563,0.1279330353200308,-0.05400543763587813,0.23878443307879502,-0.13699687151337672,-0.15468037167387527,-0.1281639940120685
2023-09-01,0.03534961220973225,-0.16358017244294965,0.29002802464068017,-0.014404917666390404,-0.128260705072444,-0.09728607827367086,-0.0374917707843544,0.14063744252522903,0.08154003385515286,0.3284233423598567,-0.13195311994341416,-0.15979094933331395,-0.14321074207417864
2023-09-08,-0.007677535103081057,-0.15629053382099883,0.25048100863672423,-0.04765832927585619,-0.1297101329539618,-0.1222863944823291,-0.05611490775063534,0.18634452044535582,0.21885754602445417,0.3881091136484858,-0.13222427346804452,-0.1692867487977653,-0.22254333310239693
2023-09-15,-0.06234586497035829,-0.1838748854581228,0.21778475598990438,-0.09884219270420874,-0.14791197275376908,-0.11622510441017865,-0.04619609592095417,0.25591285429889715,0.23265264767715887,0.5387655762404115,-0.15730677026626316,-0.1787280673406128,-0.2536848803819465
2023-09-22,-0.10804141058401762,-0.22029758412314543,0.195076752698725,-0.1511585992450843,-0.19036952022937428,-0.1393975203695229,-0.07167817974375758,0.31222348767727026,0.23090734904565136,0.637834670742347,-0.13292462398891403,-0.14093770093619193,-0.22123712094402237
2023-09-29,-0.12812011021445574,-0.22468254678460853,0.1546075120034328,-0.17264930586539148,-0.18077576405488477,-0.10957564355843666,-0.056561048494606164,0.3142676484181547,0.13745036483202644,0.5677152645634745,-0.07870771249824751,-0.08312774762283766,-0.13984091072365268
2023-10-06,-0.12212754155887788,-0.20474257521616934,0.13214482688127666,-0.129000074749893,-0.13106310293228962,-0.07097138837946709,-0.040404885690151895,0.27683720173545023,0.0344519813282778,0.4806067798720858,-0.0421529579830007,-0.0723798457328639,-0.11119841757440581
2023-10-13,-0.09274890114218846,-0.17152268901875956,0.09397877559848936,-0.1168024536604778,-0.10148510161188946,-0.04474586981907556,-0.019745743473406276,0.21499725378915532,-0.05118300185810798,0.41624776228755556,0.010202523634924063,-0.04636716411230629,-0.09082539061393824
2023-10-20,-0.05880147383534679,-0.10588699632806195,0.06999488202806932,-0.13750508901187852,-0.09110258717499987,-0.03172240624521209,0.001007328627535331,0.15741859595392205,-0.117762702064329,0.3430358941949225,0.05408031378558391,0.01601287562780141,-0.09876863555802862
2023-10-27,-0.039852441968282686,-0.04843405727233963,0.10423697012095925,-0.11852209490718328,-0.07752332155291904,-0.02569007617025432,-2.747163240615332e-05,0.09881517475850368,-0.18295327407233244,0.24029509407808125,0.09114722038734899,0.07970732020862759,-0.12119904197782266
2023-11-03,-0.02394209400905877,-0.011531293773486141,0.1306785983296347,-0.0700493967156873,-0.03952179378570035,-0.004680179983098939,0.011486562491208439,0.055996040181798,-0.24078431578202622,0.12809335889424195,0.08894626724527159,0.13145442427239146,-0.15614617736550515
2023-11-10,-0.012128720318031869,0.03125486186659211,0.1332928394571805,-0.010654803465442828,0.010172961371992008,0.03814200453322053,0.05073040228881387,0.039200988043055815,-0.23915345896253812,0.05024373440284348,0.013315300460999921,0.10219416305963827,-0.2066102727383389
2023-11-17,0.0003558085783319648,0.06641552727912181,0.095689058404866,0.04074396320207068,0.05768090363457454,0.08053426864266962,0.08255022053560748,0.021819253587721944,-0.2099174445577699,-0.008903067554957463,-0.05213825009814155,0.05121350127995506,-0.22604374293406435
2023-11-24,0.055968660569067984,0.11320132115549864,0.03157880284140015,0.08749938122239886,0.09303494971760543,0.10589834145449688,0.08488676034751962,0.007648757792093425,-0.1721261671519806,-0.05082094020733509,-0.09878566436245838,0.005682140093849104,-0.26366634347216894
2023-12-01,0.10312108624013622,0.1607404679963929,-0.035555268723211214,0.08658511703885133,0.08354708008233996,0.08150217228686299,0.030038140932514272,0.005750840003417398,-0.01981897328559093,-0.059226084565053495,-0.09578443074080932,-8.620010440174748e-05,-0.3408139471614588
2023-12-08,0.12190733426754845,0.13498038898095557,-0.09480099057082816,0.13548478482247608,0.11242433005666208,0.09659763625075869,-0.017465905655608467,-0.11173931254540495,0.033585192724425186,-0.05501374596854464,-0.04917237372490427,0.030390080150726785,-0.33717741878827157
2023-12-15,0.065949278687497,0.044924236711256574,-0.07491912019389191,0.16915704785173594,0.12493258778882979,0.09370085036429189,-0.04310357906888145,-0.1402757057607305,-0.01219668064869723,-0.056146812230606,0.022450558214129834,0.08404920149172349,-0.2785218632066658
2023-12-22,-0.01056270508135286,-0.04711932939911956,-0.022883419725800734,0.19209664502617058,0.1454661212311096,0.10700632475011289,-0.055498968646449306,-0.1411093261738845,-0.06416373769237615,-0.07239519531697872,0.06571739516818285,0.0983761761980868,-0.19492998033770823
2023-12-29,-0.09575052463095865,-0.14026706986497753,0.021788014362845907,0.19472610439800409,0.1582998792212881,0.123650904761144,-0.027165900126395092,-0.1175952500279375,-0.11292194007854134,-0.061442693448765365,0.06298158084639686,0.07820575292150238,-0.08450885833361195
2024-01-05,-0.1709602965470033,-0.21712744714899695,0.00731006977752262,0.20924964597524187,0.18038789203616415,0.14991400853787776,0.013485954042488677,-0.10443600973132044,-0.1383706384458637,-0.041398782968678056,0.06339572144595075,0.020202545074212694,0.02834733795239909
2024-01-12,-0.23602857351567225,-0.26490824954785,-0.04862302952243261,0.2031298986874729,0.1857375999243382,0.1684369622307811,0.06434421661113916,-0.10014713113007717,-0.1603314295902341,-0.027149965333173834,0.08041094424175316,-0.03293473782617015,0.1680634947701219
2024-01-19,-0.2519242604352371,-0.2764971963994501,-0.11235187506579151,0.16370824188892547,0.16391257383719313,0.16583864490955771,0.10669837649151506,-0.14266117840754353,-0.21275890279132767,0.04821642374783096,0.13372034695077772,-0.02358720371423676,0.23768600898778364
2024-01-26,-0.25956305427922277,-0.30266929258193515,-0.21705915914156418,0.16877174394065303,0.18262655082445883,0.171194991029298,0.10157554907911648,-0.17502088427714518,-0.277502285970776,0.03896051431152339,0.1883719775474772,0.09778188280497521,0.2825314667131391
2024-02-02,-0.2819571034854448,-0.32845873178335006,-0.20873175051716233,0.18281322753516885,0.17241901303337928,0.1534376655340135,0.11081562318318974,-0.13496863960182892,-0.3618226277538111,0.08052168770424972,0.12993755850151814,0.2345594984139421,0.2514345792361346
2024-02-09,-0.29191363621771893,-0.34345977369776476,-0.1673667429815919,0.2460727473322356,0.2232148955702274,0.19554363478459874,0.13643523605965271,-0.13565940979704857,-0.3984398581251681,0.07862531117341529,0.03483124233814819,0.14382776632141225,0.2782885872396013
2024-02-16,-0.31357899213895385,-0.35281093740078745,-0.2822655642185459,0.30510600708834984,0.2603744186021195,0.20955952538576042,0.08824239105682949,-0.03904855237700729,-0.3924004327657649,0.11576635500480296,0.009528113364914003,0.13254709002149512,0.2589805783767875
2024-02-23,-0.27200663704379563,-0.3048489961840578,-0.2970137754480153,0.35660563653211313,0.2384926673765922,0.16848257608831615,0.007675914103886364,0.006704821218292953,-0.4442775128248928,0.17779773031491336,0.0009237418875422312,0.13372841536043334,0.2277354186186714
2024-03-01,-0.2106905503334328,-0.24297156233483558,-0.26559720039535367,0.30315906453080194,0.18877732945930153,0.12290046141451957,-0.02962044483935196,0.028578852326662983,-0.39874474534357945,0.20578083611298326,-0.01362713790321593,0.11601386603360356,0.19604123127189615
2024-03-08,-0.15991914268950208,-0.1915363054371106,-0.2259521561422877,0.2482973542164868,0.13743909740040813,0.07360909172675739,-0.06794752142902322,0.054139820172943734,-0.329538140009035,0.2191615541374364,-0.027252845680051034,0.09962230257700075,0.16987689115597598
2024-03-15,-0.1036870304454181,-0.13752378313439262,-0.17787756246325914,0.1993551421017183,0.09159697445454812,0.02876045188113302,-0.1001874677201573,0.06924120237305434,-0.2800864916897036,0.24628929539216396,-0.05791325868115953,0.07134925068463772,0.15068327724683453
2024-03-22,-0.06494700221492875,-0.09412849808489562,-0.1223098748143483,0.14991779578330006,0.04996464678408421,-0.00959622936104769,-0.11814434111377231,0.0951098167260552,-0.23398979524512337,0.28662098366568567,-0.10068980537804362,0.023981421686238798,0.13821088156679545
2024-03-29,-0.04945904044930803,-0.06435039425068981,-0.04568234540776678,0.0824067238972544,-0.008539461259379773,-0.05909208737546572,-0.13222611834064824,0.15457434096271325,-0.1948721234326683,0.31614519261016455,-0.10279218310544498,-0.023950607130650448,0.12783810328188963
2024-04-05,-0.04638338124957085,-0.03458712547235633,0.008745464099865825,0.0003405044285669928,-0.07061775062111497,-0.10153918399478189,-0.12551940486885482,0.2555354615575915,-0.1552074458728384,0.2998316330280672,-0.10962934807332515,-0.06420827713093413,0.14323885416968496
2024-04-12,-0.010699545979498279,0.009016742041906903,0.07424333418359613,-0.05789465490525985,-0.1137650162094512,-0.1318490348222194,-0.12832097208590998,0.3269467121688655,-0.1360745426544028,0.2142714636927753,-0.11595833573816836,-0.08782527716414323,0.1579091274719093
2024-04-19,0.018533294177227443,0.03490331491169493,0.1593020314571516,-0.10568236449744611,-0.13530781255448232,-0.13185857902923848,-0.1195871978142548,0.3864529890734634,-0.09449270413072514,0.1312548481494646,-0.1428612073127232,-0.1446540223081809,0.14399740987804893
2024-04-26,0.08781327511262695,0.03646296769183174,0.1676171559848419,-0.10445886361799123,-0.11709292259229448,-0.1006018952940396,-0.08168666927219863,0.4197087912258275,-0.08774387947670129,0.04083216577792795,-0.23147105568861973,-0.2156214915607477,0.18624242170953667
2024-05-03,0.0789831837254872,0.020207704744529154,0.1423933810144719,-0.06503773738625415,-0.05930586211437951,-0.02710470533403582,-0.012741440115794686,0.3739658817304785,-0.1453085686868168,-0.03047544578556176,-0.24482487280432924,-0.22734333487127165,0.19659181588347685
2024-05-10,0.04680264264878236,0.04512932871558992,0.18213031486706172,-0.043598312962934586,-0.05003617449929452,-0.024443473672417938,-0.024874225155042284,0.5088395167537786,-0.13372693576705735,-0.1106652350248449,-0.27427247843410196,-0.2926557060295826,0.1603390774935285
2024-05-17,-0.024185754415244266,0.026948944187682514,0.3056724842842394,-0.03490385357221692,-0.06092299143983015,-0.044500043101980885,-0.06004372111618224,0.47470763649009357,-0.06130403472660406,-0.15466572513323917,-0.24944973837421974,-0.2712360210133265,0.14465506671326728
2024-05-24,-0.014323755191390224,0.07046343694286614,0.24954382004410364,-0.025813546880696644,-0.08598458519294622,-0.08620463974525708,-0.13501781583298073,0.4703034405334743,0.03252600212638922,-0.15836869127015854,-0.2067898262184317,-0.2194088546324792,0.10141509222031897
2024-05-31,-0.017343497817514847,0.0729510688366232,0.16351148515783515,-0.022204639713386803,-0.09335547401338043,-0.10402823420052018,-0.18637782265923863,0.4229096668489677,0.16812410889269958,-0.14458240573068315,-0.14732623427568836,-0.18350572199766363,0.06526308946358525
2024-06-07,-0.03721522445099233,0.04670403840809429,0.05316208002402742,-0.017216365761220005,-0.08870374068638417,-0.11017895906124306,-0.21394584666863584,0.3759111607173836,0.31720730654690754,-0.10890050822700706,-0.11988622268303117,-0.1544864417540498,0.053312900934421696
2024-06-14,-0.06852287734086462,-0.0015900575529753866,-0.044092294847868155,0.0008020256240350125,-0.06646970551985047,-0.0920141999753104,-0.2002994714431816,0.3409053775435689,0.3851204102977182,-0.0032364335869809746,-0.11506980392855555,-0.18965245224694863,0.0507979763324606
2024-06-21,-0.08703957112795684,-0.03981416217782449,-0.1652886573661376,0.01351685970301619,-0.0518647362123568,-0.07744581068553935,-0.18844377235260798,0.30255751852498747,0.3987704430542635,0.0968552970250258,-0.07205544780521547,-0.22305061713171323,0.09061478024019204
2024-06-28,-0.11750815724877385,-0.1053195704220597,-0.20332166975617544,0.022755799100395945,-0.028774045593803473,-0.05133761922927284,-0.14379967674812516,0.24710529620298785,0.33839972029511745,0.17418226919791702,-0.05201592336281742,-0.209157177931102,0.12644297551137337
2024-07-05,-0.1158039936578351,-0.11557966304833579,-0.26955027654698205,-0.022743752817586876,-0.026993021228977374,-0.02865848313258551,-0.07758965518196571,0.22505597837321065,0.259440862828172,0.27348728330729205,-0.07885498595865743,-0.19480895095610434,0.17057989958076086
2024-07-12,-0.11280827596534283,-0.10250934053269255,-0.24363222393705325,-0.046850427262818115,-0.02115946922227454,-0.010058317342978594,-0.031366514869276295,0.16940670306295413,0.08937287225662713,0.2821751568571024,-0.04492799921606322,-0.12405052255640092,0.1947417196345567
2024-07-19,-0.08538398360218845,-0.09165594789393074,-0.2476038392531278,-0.04902823085533628,-0.010155075612378382,0.002263730701031445,-0.010240619060207568,0.12261841215144242,-0.10749840026493265,0.2846396080498409,-0.008379822306899862,-0.04223923632635944,0.2413788004960581
2024-07-26,-0.13148704449256357,-0.12184560613887097,-0.2341385642499524,-0.025007327286763296,0.023635276082539715,0.04184490217593829,0.04875539385650183,0.10528554497706188,-0.17358818180185787,0.20515414673914356,-0.019055846611502347,0.006595398470927119,0.2728135975785678
2024-08-02,-0.2044016605114734,-0.1840242222064227,-0.2570515734175458,0.03482228850819048,0.06323858303771501,0.07051434911060536,0.06579920747623592,0.10152042202967347,-0.18585681271115562,0.129297655679376,0.03346271772915893,0.05677915953675182,0.2750686026970429
2024-08-09,-0.2848890552164314,-0.2482610192658683,-0.29047019879445435,0.07158443633557807,0.09437473974109314,0.09516297287873421,0.07564979337200753,0.0879071637615777,-0.19750136514676248,0.09377608577752872,0.11157186687617021,0.12637658271049068,0.26409488695932126
2024-08-16,-0.3673142415999032,-0.33016997284256855,-0.32720081622716546,0.10369713047219128,0.12344610187856828,0.11196543068944434,0.07940759370861697,0.10424793084161521,-0.17641009621998477,0.09206128103399125,0.18641044717446564,0.18246063825543837,0.21697343536720815
2024-08-23,-0.3851289860158636,-0.3579057428524038,-0.4213880328501432,0.11592625243084806,0.13607103887869426,0.11349681826611727,0.0414843038108401,0.1052437573135957,-0.10279184180657498,0.1409674690653427,0.2527355256509707,0.21628582240974814,0.14469043439677065
2024-08-30,-0.3802657673338879,-0.37072961620629924,-0.44394323476430386,0.15429811891467365,0.17706648674562436,0.1644070070267101,0.11166031299827558,0.07296908410084607,-0.05801818422403457,0.12313128360714776,0.17291734062533515,0.174858259857712,0.10151650447674312
2024-09-06,-0.35887300265878114,-0.3417327442095057,-0.4091693327528275,0.1156644858227448,0.13280840375503944,0.12512764592536918,0.0933816644364174,0.023846880505802033,-0.11268871690949742,0.11740093493635685,0.24720373611014745,0.18228898113903771,0.18466303833021777
2024-09-13,-0.3686576592586084,-0.3194554881326427,-0.398863373500858,0.08251247100810427,0.07915805513677042,0.14246308143069336,-0.010066401561980562,0.08442859587942877,0.0061928803158038115,0.13803562972855604,0.2124134126967983,0.17521686907049078,0.17657721806853258
2024-09-20,-0.36499386199350947,-0.3029201059574931,-0.3791926471650458,0.041199074008185975,0.06098567317303387,0.09214147658821148,-0.046550362222471706,0.03604638072704708,-0.04912711046458469,0.17240774047154106,0.29721608283286094,0.23230791385986482,0.21044793622465213
2024-09-27,-0.31411560787803244,-0.2497281749568236,-0.30690768455546225,0.0037522828650665557,0.04163711239687691,0.08852914281739971,-0.07291116291618857,0.02630168889483507,-0.13483901013553395,0.12095677132014548,0.3295245218884245,0.27364707112335696,0.19412672730779978
2024-10-04,-0.2659240686976065,-0.1824424746126746,-0.2452313283870266,-0.04666805055654405,0.010691717391955503,0.014199776917043494,-0.09403477669708232,0.026845376189938635,-0.1593611958031132,0.12216461945350579,0.34767525644653563,0.3265928426847284,0.14546925832411794
2024-10-11,-0.20529540219644515,-0.11040577839672473,-0.17754709970112742,-0.07422970858400604,-0.01471312334010294,-0.0024791504390484463,-0.10546248088471058,0.025360343485209543,-0.10970929253861994,0.0629101985215898,0.2831313489692715,0.3223370093647608,0.10608307772873905
2024-10-18,-0.12285243558388655,-0.0364264320550821,-0.10568059669784294,-0.09619376930090423,-0.03762316844655196,-0.025381606190293296,-0.11872769050425122,0.014957153134654047,-0.08799657179061347,0.02010449609304766,0.22352287635194668,0.2896017512692165,0.08267900912033072
2024-10-25,-0.04724861487831332,0.046962652396638244,-0.04526664257598896,-0.10572822419742708,-0.06570156031787114,-0.05580334289229144,-0.1433603018144767,0.0041778327654340905,-0.0574019232107493,-0.01961198540441037,0.1817925564017403,0.2514211878199102,0.055754397025598756
2024-11-01,0.030476674500346815,0.11286871309408632,0.006396493387598283,-0.1099602503660575,-0.09026493836075898,-0.08080727895121047,-0.14376789657335423,-0.01679643369138652,-0.0026950465327924902,-0.07180882179242562,0.14167140877850942,0.20904494576394028,0.015631187296602518
2024-11-08,0.1036611910956378,0.19312677269469675,0.045474375262667927,-0.11014337446335655,-0.10518843151488827,-0.1013313610787204,-0.14451394743204046,-0.0755661762965179,0.05478592122679702,-0.08690901936333696,0.12386201020122933,0.16748979838936356,-0.06475615050731279
2024-11-15,0.1326231442754488,0.22481518445053156,0.04012856731770992,-0.08611400374851096,-0.09025093712520009,-0.06989666377748469,-0.13329140736744935,-0.10191452609244135,0.16251255489177296,-0.10211335489587228,0.10009907379930491,0.0670667273745261,-0.1436705487461517
2024-11-22,0.1300671572956947,0.2318560890666551,0.04053818025642048,-0.03939260467229955,-0.054572514156367984,-0.02561385213062528,-0.07654099281102392,-0.13539395308164343,0.14848625684991135,-0.22963669783828916,0.1592158981051438,0.04041920745188128,-0.18943758376127087
2024-11-29,0.13508826309432592,0.23511999267999883,0.06595738205003861,-0.009263404406341637,-0.0007075582636031016,0.012684307994661144,-0.00841724872500875,-0.12736532180578478,0.09680661438014226,-0.3585098513954609,0.11369631277910235,0.016492080412839293,-0.17158599500477123
2024-12-06,0.20359625254132818,0.28863090452734974,0.10940661981488836,-0.05346788418029197,-0.023172331992615387,-0.008353160531522259,0.020111297348446817,-0.13556372538054268,0.029911178621350815,-0.32708504426109225,0.056096494259196585,-0.013106902193347123,-0.1470068497605859
2024-12-13,0.2359794912066443,0.32100396468121384,0.1798708735481426,-0.042295887878237376,-0.008802682256738444,-0.017608874659712247,-0.016204837857452133,-0.15938704995096936,-0.10096429158842268,-0.2897871637234993,0.01546032959658799,-0.022199375242993875,-0.09506621071508939
2024-12-20,0.2883113274722173,0.34519640484685155,0.26257888180424765,-0.032087644217206834,0.021528152842071824,-0.07975269191849028,-0.070059127058134,-0.23581404188423621,-0.1174768782683332,-0.30541062350073317,-0.009977940545608247,-0.021942864167246917,-0.04509350023006037
2024-12-27,0.2096826985864435,0.3143364351756974,0.32860243916092313,-0.0679658937937773,0.07692061227821392,0.02106853015851365,-0.049251813396920405,-0.29649179897606076,-0.1277198747139128,-0.33831575348801335,-0.010785159300937007,-0.020572139848811743,-0.03950872749304209
2025-01-03,0.20445580932484625,0.3264813087505977,0.24587936531487492,-0.039615626334043016,0.08205053583038739,0.09019718961737143,0.009430175154581222,-0.31962281902816786,-0.20636133106930904,-0.2617514144100208,-0.03385463407319139,-0.041371932697482294,-0.055916968681808316
2025-01-10,0.1860243489707759,0.2904817808371011,0.12239198938297718,0.011055718041448843,0.11356992199291938,0.13732981811374348,0.0793364665302935,-0.3140860345267366,-0.2784429270992235,-0.2268204835945259,-0.032711568586669564,-0.03848205773635984,-0.049647235085866166
2025-01-17,0.15007683604199762,0.20174918370696887,0.10833553663898784,0.07563363026944309,0.16196702572747768,0.17380062378655342,0.16670848236787508,-0.34946377354776376,-0.33890151940988045,-0.2422475513331479,-0.03051396112931667,-0.03460984113484978,-0.04253485849087907
2025-01-24,0.11198387699885465,0.1154889855000383,0.10383537123955296,0.09064750929984701,0.1731007089083844,0.24593703044470216,0.1905255941321145,-0.3719741110391931,-0.3996683979442949,-0.11434860808635722,-0.04451284617242768,-0.04755984475395462,-0.053455407272821595
2025-01-31,0.10356994970642475,0.04120587525894798,0.13783933866715287,0.0904949643579695,0.20967198253824482,0.2966595405565899,0.16609729675366772,-0.46475073960824514,-0.41955141896626863,0.014353653379872877,-0.05526159279115053,-0.05775361015236877,-0.06257535317523606
2025-02-07,0.0871385088167893,0.019324633096247313,0.1413511638991179,0.1327644035093311,0.2527498025437297,0.3236303925713214,0.0843892080977034,-0.5234923558819475,-0.42943877454382645,0.17871734573170997,-0.045456026307764234,-0.04750586238757193,-0.05147203973836
2025-02-14,0.09993347952667818,0.021264959328260148,0.15361648571671843,0.20255408045114898,0.33283861737833287,0.2614965627432514,0.04230395832332819,-0.48383489035814753,-0.4566051547048847,0.29467439201489753,-0.034088105959428926,-0.035625306528058696,-0.038599598052622905
2025-02-21,0.11843790670009074,0.03679210742006234,0.18201790029633724,0.2151620270578889,0.35146864483125523,0.0900980772709794,0.08686493686008098,-0.46590068776625315,-0.3996707941983564,0.39076796679530157,-0.027980227779585323,-0.029241994042115728,-0.03168335451075676
2025-02-28,0.15005741319646398,0.07749645246160983,0.19676378288235863,0.18291057510916983,0.27597305343929485,-0.02881267699299167,0.1622448721245203,-0.3984581359710651,-0.39429321262742967,0.4094689379277171,-0.021883681258642745,-0.02287052421537773,-0.024779942349999605
2025-03-07,0.1574428659397103,0.12340410841596453,0.2369713344951331,0.11880832673274082,0.150531854697296,-0.08512323638601355,0.193903082922536,-0.30744717921764,-0.3994001305504502,0.3981230152609433,-0.015109893134761507,-0.015791272626668,-0.017109657025651044
2025-03-14,0.11899717466756049,0.10564373678047015,0.24696519294392918,0.09109785521064412,0.08347023155045742,-0.08200630223174786,0.26383519400626565,-0.19163020975526818,-0.4556980230483219,0.3231536474369652,-0.009163379067518223,-0.009576600955819203,-0.010376133811335623
2025-03-21,0.0709573995128981,0.06948815904285945,0.2193816459986753,0.10223267437433378,0.0712705327601239,-0.057454185048206236,0.3881848460619902,-0.11098851684995184,-0.4416500437744478,0.208298851309678,-0.0071364835894698,-0.007458302778978496,-0.008080982803518856
2025-03-28,0.07644672159024386,0.0833858122198582,0.24073718325091373,0.0873775407573961,0.04332612285371627,-0.11270367530619249,0.4789907850418048,-0.11120316236828176,-0.3367383165952035,0.047199814601426276,-0.005821871353492682,-0.00608440820331736,-0.006592384288712236
