,ES_FRONT_CALENDAR_2D,NQ_FRONT_CALENDAR_2D,RTY_FRONT_CALENDAR_2D,ZT_FRONT_VOLUME,ZF_FRONT_VOLUME,ZN_FRONT_VOLUME,UB_FRONT_VOLUME,SR3_FRONT_CALENDAR,CL_FRONT_VOLUME,GC_FRONT_VOLUME,6E_FRONT_CALENDAR,6B_FRONT_CALENDAR,6J_FRONT_CALENDAR
2020-03-20,0.08897575918376571,0.03149731819186527,0.07259847611940459,-0.43879533927917713,-0.6429113549690196,-0.6739842772356515,-0.14760436233325686,0.05180369059380742,0.019131366935826358,-0.018292951518267063,0.26031867698841543,0.14789338795079968,0.2723793924257508
2020-03-27,0.052343548531034685,0.0026913668964483155,0.08067710795327243,-0.34504878414739265,-0.6209401111855893,-0.6982650094380153,-0.15562002103867184,0.15446326898114351,0.007440050591389427,-0.029929012446033663,0.23667989820141694,0.17891625433036645,0.37019980799463664
2020-04-03,0.05501261316498466,0.012443325367618278,0.05110023658231025,-0.42560244329969094,-0.5956116833009574,-0.6312825155240768,-0.13863076491676926,0.050640267339814304,0.00590804174923538,-0.00360860568246996,0.24155651530703862,0.20736155581210505,0.47335074061137605
2020-04-10,0.08676480963330067,0.019968154971314326,0.05856403700984342,-0.5286657353655373,-0.5871921101194565,-0.5879734903598072,-0.1356180696635169,0.06990746408633022,0.028299633142968197,-0.0649945256800795,0.15851457617218556,0.20234902899519108,0.3689953268654158
2020-04-17,0.09684496755583061,0.018245711953105165,0.06239883397050721,-0.513384532572679,-0.5628047149468762,-0.5762198815632061,-0.08914425706432008,-0.12072398708754056,0.04401366033267325,-0.14798517074951845,0.12662266408385411,0.23743425089457518,0.39914865218204637
2020-04-24,0.12377538056198673,0.04711099450120447,0.06143756626330577,-0.3881160380355415,-0.5327655595548866,-0.5791203540782902,-0.13546029105281313,-0.14587641614323188,0.04946816542335019,-0.21496808913722049,0.1885303121257652,0.24182729602187203,0.333606939466584
2020-05-01,0.11133823366264547,0.058997102433314505,0.06467030422041997,-0.3187498800337537,-0.40656688771152616,-0.6758538429445435,-0.1794096672893026,-0.1437737430137234,0.04878344033071122,-0.1826333103258751,0.20801873558291623,0.24402827365837396,0.25422220533018625
2020-05-08,0.10565067865024626,0.05243867773998383,0.070355777345652,-0.1816762577906664,-0.25635212435610977,-0.7507959948047562,-0.20634275525601992,-0.1383719947765109,0.05126819753797093,-0.19027437837117986,0.2199043903070531,0.18707583961032642,0.26276146481182927
2020-05-15,0.08462761032353835,0.04957358402780641,0.09722782419276312,-0.07356112224834056,-0.24417065241277527,-0.7981265497676799,-0.26192208527343774,-0.1540471707769645,0.0483116846338287,-0.11736390494657616,0.21159077432682866,0.11541470182513883,0.28718837131926506
2020-05-22,0.07168562104282915,0.04264000734678764,0.1471698707036337,-0.13073041372328997,-0.21184340898368806,-0.6586343286820974,-0.3189197729264852,-0.1384214798797724,0.04147484872232595,-0.09557701972873683,0.1772280047147548,0.09732825369469648,0.2396910572035806
2020-05-29,0.05752314055680161,0.03401683375362903,0.18353763694388187,-0.06168030851236511,-0.12798441006369138,-0.5587785499700657,-0.3740346384591118,-0.13959700406168407,0.034589650106000715,-0.08186009869229521,0.13759506220772036,0.07519495786876394,0.19026810806624006
2020-06-05,0.07677309719518752,0.04769903715244389,0.1553253314525444,-0.16317404949585387,-0.28534086297024724,-0.5958003934371441,-0.3322501273974582,-0.09151107280906802,0.042582544747033726,-0.08582465146732658,0.14225647970806896,0.1067040706826829,0.19525318513597734
2020-06-12,0.09515478914441214,0.049335166094705986,0.14691726407212868,-0.2521929775076034,-0.407841188320227,-0.629129316092188,-0.30197089552852985,-0.030131653857014724,0.049231441594024275,-0.09587541013406119,0.08577843461894687,0.14781958901470496,0.21602725109145082
2020-06-19,0.12567444514120515,0.061546939198636755,0.1436480055912629,-0.18675591642604078,-0.4832921281530141,-0.7351473410013176,-0.3078767451761415,0.014804410600083806,0.057355772268337414,-0.13021741089638572,0.040646932050736405,0.19380871072450034,0.19336283431587342
2020-06-26,0.09403486248657689,0.043474593906365086,0.15654439519235747,-0.06225217507477335,-0.42775263697366456,-0.7466277656933031,-0.321019656850765,0.06711988126880333,0.06538273866333569,-0.15247033780481126,0.012508518586734397,0.23986317589611678,0.11742596336885573
2020-07-03,0.09557458608518449,0.05281954421851627,0.14577116322327202,0.06461925047478245,-0.3914848041699362,-0.7292523946332686,-0.3145093769560437,0.09332980554098246,0.06938495613369872,-0.16546049745898173,-0.06362991368338429,0.272008234031308,-0.022405429641237554
2020-07-10,0.11575176353596706,0.0761802531602815,0.15331181762133478,0.08735140288578122,-0.4573034951439473,-0.7805251585870782,-0.34915236790570847,0.07985161846765484,0.08463678638979735,-0.18073255072632574,-0.09353955191063251,0.333486386294531,-0.1614704294749013
2020-07-17,0.13177135484594493,0.08452952039373611,0.16200133301950886,0.11368401118246392,-0.5702571851397131,-0.8440425149433857,-0.37146608751052745,0.14492386628534537,0.09257550782394824,-0.20008822593209466,-0.07596980962316881,0.3879683437291095,-0.23887633710006712
2020-07-24,0.13376060100386586,0.07015572163463973,0.17360353149303645,0.01272990579713075,-0.6286961942903485,-0.8415667201564393,-0.3655024488006088,0.24892708176655698,0.10367106719409609,-0.21651815925218817,-0.04247474309037625,0.4374675062894911,-0.32855560841206144
2020-07-31,0.13503927842671498,0.0445454381706379,0.1956525990426905,-0.0904036342832895,-0.6860410377058187,-0.8257894626780751,-0.3567102320737019,0.3555488115852452,0.11598036353235006,-0.22479340159184183,-0.06253484129433917,0.47865216683017264,-0.4061186950331546
2020-08-07,0.15542836170343313,0.028733543900867985,0.20550472787034363,-0.19915554123134355,-0.7312308862074518,-0.8171475438545895,-0.3434455618641864,0.4536346885878576,0.12533953084839114,-0.21749552834159414,-0.08285479212397304,0.5060534486675243,-0.5217530939404386
2020-08-14,0.1662831560491772,0.013941691218247829,0.21630183777896697,-0.28544242553787985,-0.7698921883062123,-0.8072121513180932,-0.3300031146223844,0.5970209263329918,0.12576740887702714,-0.19659270527496775,-0.1349891446384263,0.5206417226456603,-0.60554374548687
2020-08-21,0.18618831916547654,0.006778531193773113,0.231200072346993,-0.320334375061914,-0.7969226190519308,-0.797267941340191,-0.3048162505607479,0.7199937223951519,0.12253240031294108,-0.1798286247668,-0.24447635968748954,0.5074391112802378,-0.7008620219198788
2020-08-28,0.19886113165366937,0.012343348576292178,0.22083381723366563,-0.3950666155323199,-0.7896033409697994,-0.7509937102253157,-0.26976224123127046,0.758937478913455,0.11277565649280115,-0.11463616679537496,-0.35070920227560054,0.47225182187032505,-0.7535652876310577
2020-09-04,0.2262828173518468,0.03646378602402556,0.21637145065723473,-0.46765733699024004,-0.7742372301673041,-0.700613276274088,-0.23904359553830606,0.8167230822236663,0.1024020438715292,-0.1011499092759513,-0.4344627294897787,0.40768966549453367,-0.7985437289632319
2020-09-11,0.2621605923275094,0.062068183038537915,0.1964939346908585,-0.6160039544978717,-0.789459972725515,-0.6067896680270408,-0.21419413729326098,0.7923928444154431,0.09500286713493848,-0.09184366278861511,-0.4478770100643425,0.35741877878339867,-0.7668666717955669
2020-09-18,0.3284922551647006,0.07843103034400502,0.17677627996211492,-0.759133081162461,-0.8330044609659241,-0.6127463655363548,-0.20152996118393526,0.856621509302402,0.09304267589906104,-0.12338746695049926,-0.4033569168272928,0.33405616667152704,-0.7401886908242487
2020-09-25,0.39676708400531535,0.08289509860200123,0.1738265188584357,-0.8548159948349001,-0.7924648576367189,-0.5715335811143736,-0.16967589406404035,0.7891696368462575,0.0878838367350253,-0.13857487034954608,-0.3688263956518557,0.27068608035896013,-0.7695119415712071
2020-10-02,0.4528306180364916,0.0496614143634463,0.16214192070429465,-0.9102071220414046,-0.8053501419690389,-0.5736884093777366,-0.18788727446902753,0.7001811895940988,0.09643715688726082,-0.13508137093585684,-0.2709446493750847,0.34301650147525087,-0.808640070729015
2020-10-09,0.4547808284771194,-0.014797195675153224,0.14985336895652646,-0.8886213426911409,-0.8110793764290366,-0.6027657952908304,-0.23517228487061753,0.787692439570845,0.10914714101328796,-0.0940853808143881,-0.2123415955257162,0.43713454409027436,-0.8323269676884401
2020-10-16,0.45205059147254656,-0.059432760564141686,0.11356667200272905,-0.8753798790927235,-0.8124423510850077,-0.6320384525083113,-0.27202907529083276,0.7588250576779721,0.11121422667541275,-0.02068906053983874,-0.12839927296650822,0.5448495398258029,-0.7927014585521667
2020-10-23,0.43620298837887556,-0.08497832389552418,0.07522417092598148,-0.7887282116501313,-0.7870991350219602,-0.6307924572149414,-0.2900026527078672,0.7903547950453742,0.11212213917527038,0.06334122781669073,-0.1452863165266777,0.6269570937857749,-0.8662887990903908
2020-10-30,0.4312873163337678,-0.0781488004433562,0.042829942678522186,-0.9206274351064226,-0.8026239648038764,-0.6289076376199441,-0.2770030338312569,0.6713214418660883,0.11707837686454244,0.15983564468410616,-0.1308874391078335,0.642970946499831,-0.8236334524138146
2020-11-06,0.4230677840693395,-0.05703416386894966,0.03257704155408086,-0.9478736615515808,-0.7603859452108541,-0.5638487505457164,-0.23620316077115786,0.5306960369380257,0.11801445112054171,0.17592363895129395,-0.15205659031165641,0.5725325111411419,-0.7878205885633597
2020-11-13,0.407001769527258,-0.038897616250543325,0.031916513437778016,-0.9430873936032745,-0.7220080802488554,-0.493844863981131,-0.1908829981053323,0.43022814039520685,0.12297757612850006,0.16125364165465753,-0.20758735061286193,0.4935433760963169,-0.7357927751743105
2020-11-20,0.391574307747224,-0.016971675404474324,0.03649681225847704,-0.9297536598447309,-0.6876854867212183,-0.43528782659857357,-0.148894278045144,0.33043042892078867,0.1263845037801422,0.1365889847191329,-0.2618146600109108,0.42087952485346036,-0.6806890180525292
2020-11-27,0.3791571522357095,0.0037180906294630965,0.0380667254665435,-0.9062776778485897,-0.6501868243588215,-0.3620082053660916,-0.10403849523093975,0.24289109330035416,0.1292356039458981,0.11891783734405145,-0.3361039675947603,0.3485517476124027,-0.6491545691974508
2020-12-04,0.3780870066672455,0.02731077694357137,0.028483478585977426,-0.8818150047945928,-0.6113453615801571,-0.2823792362492021,-0.055673245188974374,0.1505252856988905,0.1307641814529204,0.10163858211029023,-0.42308016856863595,0.2950834078693557,-0.6263171840112752
2020-12-11,0.36820523849410486,0.04202240293635909,0.019699079428197354,-0.8479182056791332,-0.555951340746172,-0.18804833869768747,-0.013001466594559037,0.08577185905276977,0.12723337120119582,0.09591634730611462,-0.4913721110900334,0.22413321643320527,-0.5992370790899271
2020-12-18,0.3586649812771391,0.057350570367335124,0.007256134439681698,-0.7952622293392941,-0.4827687947705153,-0.10103144723593453,0.02173033188790821,0.027115068051269495,0.12073012979545654,0.08831103447877811,-0.5574674712994127,0.16943173915731188,-0.5776978437059492
2020-12-25,0.35095088383374834,0.07089388961831382,-0.008627074795611266,-0.7408016419456772,-0.40834511262252227,-0.017226421387650154,0.053983540335992605,-0.06094677627177374,0.1152988677251638,0.08123189423995252,-0.6007410380024945,0.12273529351287135,-0.5503232324532743
2021-01-01,0.3566572462036409,0.09929012790196381,-0.020848358978310267,-0.6836971099331476,-0.35151541351783466,0.049913739464924584,0.08163439537039073,-0.14445757138444534,0.10467901102763864,0.06369981469469851,-0.6543159637209265,0.07919253617622163,-0.5141527787042385
2021-01-08,0.36967135561545733,0.12787868967533356,-0.031836767094644766,-0.6334825798983128,-0.3004842338073406,0.12103778292339291,0.11685615064355583,-0.18518108197668204,0.08714540484934549,0.047068734193331616,-0.7141541561645315,0.01724459530459705,-0.47100969706984785
2021-01-15,0.3627149742963419,0.15277415748961928,-0.036598421933289826,-0.5940229939638786,-0.26059042403560095,0.1846481569241401,0.16081317950417412,-0.14236938420965103,0.06532024577090088,0.035411764868095066,-0.769319175353788,-0.0728432176640067,-0.41609065793800576
2021-01-22,0.36634449441811656,0.1887159051450688,-0.05672051675513573,-0.5465162507086049,-0.22879317244028385,0.24769414893397806,0.20825016135315283,-0.19656626770926738,0.04808019228215876,0.03948874738212478,-0.8084107869897112,-0.15656528834745265,-0.36389859106824063
2021-01-29,0.41189510976263655,0.2590408236253642,-0.06667632867895494,-0.5588589551942876,-0.2424586784831255,0.2678821667479204,0.24827587534719958,-0.3084873839566518,0.025814178487203594,0.03752052016576915,-0.8172988319098942,-0.24399477181648382,-0.3084247648012982
2021-02-05,0.38944850079123966,0.3184866244313182,-0.06293342594295616,-0.5740147010120071,-0.2436778313489951,0.32071537626800356,0.3035656794765675,-0.39475493863361527,0.01037798770856985,0.028250678839712672,-0.8259277670638856,-0.34260240005711556,-0.23676813982396494
2021-02-12,0.3669967727668528,0.3809535529430437,-0.04963490534600939,-0.6003159613255199,-0.2601670604663594,0.3260865793297304,0.3597133544185782,-0.4592786611747923,0.010728458364220842,-0.0033714934818882304,-0.8537524363143055,-0.448621415263902,-0.1696347343672741
2021-02-19,0.29855348342895793,0.38028662074390734,-0.03841046290081588,-0.6455061641939148,-0.2494290731367642,0.37645648709271323,0.4381334484115568,-0.4974196314863997,0.028810813118303462,-0.02042100837954765,-0.895381708694954,-0.5277598333613863,-0.1287281207449327
2021-02-26,0.20640214956991795,0.3330207545705331,-0.028571098452401023,-0.6161120045372958,-0.21200796596069987,0.4271599309129122,0.4768231699756109,-0.4877463608809132,0.05425728619432875,-0.014663006641455267,-0.9365568463452106,-0.5825336109576148,-0.07101977810878762
2021-03-05,0.11976044449967019,0.2816533060716464,-0.014807911498572517,-0.6158918749159414,-0.2191152404513046,0.41105164456704923,0.501524371374549,-0.3554859514267741,0.09079173033287732,0.008138930640705363,-1.0058289263093267,-0.6147220317477964,-0.06398630211765656
2021-03-12,0.04009503999054062,0.21681142693266692,-0.005271702642867622,-0.6285066970816977,-0.2574961068399571,0.354032634709736,0.5302796850874846,-0.3192517715304817,0.129728421622569,0.05233977422833885,-1.0233256138716742,-0.5696971011347963,-0.09127946454021997
2021-03-19,0.030530166214435144,0.1855739709652531,0.003714764312306945,-0.6638486800022896,-0.32544188191644435,0.2794993431352191,0.5074757816167113,-0.29261774811727304,0.14578533907416955,0.07937020668103162,-0.9419229814721236,-0.5106975518846188,-0.13074215983192683
2021-03-26,0.03792424781435418,0.175287439664764,0.018448767523823947,-0.6926258518069057,-0.4046794719479211,0.20809597201161226,0.4959206125118834,-0.23220717244368896,0.15031537020497257,0.09746054272295318,-0.8638595610462007,-0.4801513431977038,-0.2157136696963275
2021-04-02,0.07680289830904374,0.17653358608786138,0.022823867900310817,-0.6835113587559203,-0.4761583995852736,0.17742611041049422,0.494321616734024,-0.16926787298030407,0.14575174458652618,0.1509545945135902,-0.8303325302313525,-0.5221444165077387,-0.3618344133373869
2021-04-09,0.11945945583254683,0.17769143385391264,0.06090458147706006,-0.6757830600622934,-0.5000469312915442,0.10334789419806496,0.4679030917049423,-0.1678553983347248,0.11782618245750485,0.23021885200741615,-0.7809965903078966,-0.5800616891946135,-0.43197021595091756
2021-04-16,0.17184859741902778,0.21031754058739824,0.098755243729368,-0.6723519694916944,-0.5643934703171715,0.07078333789738045,0.49385757876727493,-0.20769897724833716,0.06452523556924449,0.30603927517368257,-0.7960004124962644,-0.6420669923099492,-0.436833558147557
2021-04-23,0.11468548316983299,0.18974030666102448,0.10431424369832878,-0.6057839429623059,-0.49665860087138847,0.14518429940444283,0.5246229190472387,-0.18268535977938413,0.032194814980218305,0.3139252866675437,-0.791965245839819,-0.6798292703232746,-0.36662959827589514
2021-04-30,0.06231167666600881,0.15918020617428408,0.09508977812962967,-0.53681170051074,-0.4255720185111492,0.22557665943022215,0.5432275897520407,-0.162879316506107,0.010485533212646479,0.3099460801204675,-0.7687458403030294,-0.6983999874891496,-0.285128480668135
2021-05-07,0.06721553435541816,0.15543301311494037,0.05556262533276119,-0.46016844505195365,-0.38709689109139783,0.28577613643211197,0.5742105725027712,-0.1465044066363253,-0.01607418564284115,0.3111643185147487,-0.7455346266054191,-0.7665674055487054,-0.17513902572163123
2021-05-14,0.039320536768907254,0.11639564484937837,0.022203607087104005,-0.41924726918523525,-0.3291863633732355,0.3805426356466092,0.594997240937619,-0.12979451907604356,-0.03489879256231121,0.3090824954125151,-0.6920079045654624,-0.762655014355282,-0.08487071186895262
2021-05-21,0.0491880789507285,0.11662250493590628,-0.030028980838419275,-0.5110728980514585,-0.39266215467231336,0.3776900561265696,0.6156628707735906,-0.0976958863127032,-0.027005704248864473,0.29663751138420125,-0.6064626601147325,-0.675200958223825,-0.05145333727142529
2021-05-28,0.038395132494601615,0.0998495296048868,-0.0683113251338072,-0.5445910371117668,-0.3772504786532326,0.46392908207468275,0.636219295379861,-0.13354927202439085,-0.03922877704692506,0.3661268233285379,-0.5325474171729588,-0.6310545699983814,-0.09425240393381626
2021-06-04,0.011859698241764707,0.05215480377598917,-0.0997534736888972,-0.57406569866863,-0.3801663954986386,0.5291756012528586,0.6356090302952624,-0.13965604258279526,-0.040290106974066875,0.4443635557965844,-0.4528127199941292,-0.5553059362315748,-0.14944456873271908
2021-06-11,-0.024834016951996267,0.015247545378280235,-0.12407407825419356,-0.6143877283857638,-0.3930466788275042,0.5412990383326785,0.5991418248570551,-0.11782483818002917,-0.03580459523522063,0.4912757014650153,-0.38701055868576706,-0.46127191211804486,-0.08222414968544729
2021-06-18,-0.07934833445733708,-0.023215591084035078,-0.14115813153601517,-0.6399256393199984,-0.37556436359082895,0.5535691346004482,0.5570593208305435,-0.08480428550529372,-0.029126496760648397,0.5418021607097252,-0.3370774063366333,-0.388390374071906,-0.0026982841894064163
2021-06-25,-0.15028009574526247,-0.06974937661385672,-0.15950749565980027,-0.6279623191759371,-0.3348350452758807,0.5971580809637904,0.5367212153127312,0.016488016249964377,-0.016717627265225417,0.5586277957728389,-0.30674018965887095,-0.32260865959446194,0.01822137705989631
2021-07-02,-0.21745022256161597,-0.1113137653322305,-0.1738239926185939,-0.6164280851492828,-0.3163630904864089,0.6089381958183488,0.4932275735467996,0.0728040752158009,0.0003034600059844163,0.5858830693148831,-0.2085520592437214,-0.2607202028249618,0.04922141216601894
2021-07-09,-0.26204457511705737,-0.1401833440731263,-0.1834439690249125,-0.6453767870106825,-0.3356562791034451,0.5754163796036276,0.4421680221538069,0.12946428297676313,0.020806416098271403,0.6304564118722898,-0.13541289140321836,-0.1903617000525334,0.06808006935362604
2021-07-16,-0.3129973183226445,-0.17480328874163698,-0.1858143825560846,-0.6369532471186442,-0.32968108922170114,0.5423279029705206,0.3734564066076367,0.18717089027170783,0.035323245657056135,0.6803120142180923,-0.06142786842565487,-0.1184944088134986,0.09600679257916639
2021-07-23,-0.34262607444782894,-0.19332871913834068,-0.18505524948813454,-0.6638692270286829,-0.35838049293513985,0.5040706630014793,0.3065621758207306,0.2907824154530259,0.0584090289335968,0.7456868726975548,-0.006796629668506769,-0.10431263877438837,0.06657214228200892
2021-07-30,-0.3578437973440484,-0.20881644365777927,-0.18945672427561167,-0.5808414613680697,-0.23303871858761196,0.5620955113285436,0.25954874480235995,0.292250165980297,0.07130111019954999,0.7395286932537216,-0.004961240076523065,-0.16310415354315452,0.13691248512749032
2021-08-06,-0.3748278413618101,-0.22816012256491275,-0.17127496699391756,-0.5323987127591296,-0.13401708627607556,0.5566008482670308,0.20315752081246008,0.4383000273086593,0.058840095848051804,0.7345695915362059,-0.008614504093588623,-0.2201527270476367,0.14888092203008813
2021-08-13,-0.3552360518555024,-0.22209099112138594,-0.19022409460554415,-0.6028567934176589,-0.12567002667845742,0.5743279669036809,0.15608228165248833,0.33852870037985305,0.06191368683992868,0.7791120807308511,0.1009557055791174,-0.23432456551777547,0.10822792390249153
2021-08-20,-0.32438193223566053,-0.20302321412996124,-0.1972758440616557,-0.685298356180968,-0.121514870380621,0.5477215693800089,0.11551150141894345,0.25505040870248635,0.06913314281611135,0.8288400796790183,0.15105867857681743,-0.25621084252221654,0.03139046339208976
2021-08-27,-0.2981984136363858,-0.18624483565405484,-0.186776909999448,-0.7916904213463326,-0.20441788170395914,0.4882014135888644,0.10286879713946355,0.19546168495001323,0.06645325739429274,0.8695181437728005,0.21447496882054878,-0.2595665997165049,0.016027951794899423
2021-09-03,-0.27090861382370457,-0.1721180426271997,-0.18048818876791306,-0.8334851238576232,-0.25269400654533186,0.4481181581612475,0.08389340651501216,0.1095034687425462,0.06258559975583713,0.8974475901254746,0.2264436909739599,-0.16377852668907528,-0.061625145349860036
2021-09-10,-0.2317653245678681,-0.14706767315548055,-0.19114337859662528,-0.8900424234919395,-0.34167811578221086,0.45485655125315894,0.034633515826186415,0.16010844632819035,0.06382790419232649,0.844028702157568,0.24461685795900404,-0.10748630916625272,-0.0177452410559671
2021-09-17,-0.24306789071339935,-0.15221906541581626,-0.16679672749466729,-0.8023942634506217,-0.31536473852339225,0.3858687050368086,-0.0027864658940677176,0.13878556165593683,0.06143138553207739,0.9123672729622214,0.23405094927750314,-0.07983970553542108,-0.12630477986191266
2021-09-24,-0.2698126501920647,-0.16241947866964776,-0.1697624524885804,-0.6584902607561829,-0.2555165545906136,0.3326515911317003,-0.04627976564831913,0.1332085422615368,0.06247892238525911,0.9348407828535962,0.18505201845265878,-0.03534497280872951,-0.08927000756539212
2021-10-01,-0.2732162058640888,-0.16350144393766528,-0.16945314673161305,-0.5212638543103457,-0.1827869236990426,0.28988705747200827,-0.07141550100396113,0.21058326596542784,0.0688156770054525,0.9298029406514857,0.11260112192530501,-0.07440763476470975,-0.10635599550611187
2021-10-08,-0.27182337967917247,-0.16042389270379073,-0.176022857339953,-0.3872118628278285,-0.10655984605793085,0.30206965090278204,-0.08992356398491044,0.26670521326778407,0.07471758054504739,0.8790736708972898,0.06083144735836516,-0.13995774056025692,-0.08843871002722888
2021-10-15,-0.28037631224097376,-0.16497485882708102,-0.18088604660214092,-0.22958716288524575,0.014653358018687265,0.3419384031946081,-0.09656138500577399,0.2749735655075987,0.07272904103667327,0.8035904691617308,0.059883632330798915,-0.1785098331518803,-0.05699027640933612
2021-10-22,-0.2784334038059237,-0.16807668773911774,-0.19033982545761696,-0.07286312188069621,0.12373456285544233,0.33816774289541746,-0.1076315078726923,0.24832013034432274,0.0770158047151849,0.7367916545483081,0.09383086990668409,-0.22533345722324166,-0.03064469672176937
2021-10-29,-0.27347788059325595,-0.16776265936476067,-0.2167312252760308,0.05949547366988961,0.14150279557513123,0.31179471294378064,-0.1439527386114925,0.24041807683504432,0.09477473786359578,0.6746586626339927,0.21728898042913225,-0.2467720154372263,-0.053472009047181475
2021-11-05,-0.26607035404245316,-0.16349513653214998,-0.20232395374656603,0.12550289824831642,0.0800647258707039,0.1887216239063015,-0.18797741620548492,0.28242056969955387,0.12107726603232784,0.6371538348164846,0.25288929783141406,-0.260951566363936,-0.07725671004023635
2021-11-12,-0.28784775165362986,-0.17619448723555703,-0.17340266014288847,0.29883977897434344,0.0773564093089464,0.14190933317645812,-0.23562638139608733,0.31048275232312417,0.13126797309749313,0.5865064437077803,0.319840238760912,-0.25462397129545145,-0.08117339811832235
2021-11-19,-0.2775438873981219,-0.1654078318353754,-0.16858624096343933,0.4578391262829426,0.1962088273622864,0.11908722909745238,-0.25296181674664847,0.2894963638354244,0.11963813896948858,0.5022661339659922,0.34492745333126124,-0.24583270445949332,-0.07582465550876681
2021-11-26,-0.2668495781462051,-0.16026176895316052,-0.1604217220559207,0.5723592023605968,0.31103353641162446,0.1674865540130585,-0.24040400767807343,0.23004777801340584,0.10632934255157915,0.43818956567959194,0.3172712016114842,-0.26003922902756793,-0.08282111854176313
2021-12-03,-0.25629464134069235,-0.1521767290307949,-0.15195413032165128,0.6588809732708665,0.4219293532454327,0.20884792650802722,-0.23435500676231222,0.13107165166654344,0.09752514628294737,0.3671168626828103,0.2895784155348077,-0.2589061962385347,-0.1032067444468221
2021-12-10,-0.23914955245811173,-0.1404738494718878,-0.1426050971899083,0.7224603722668897,0.5253704143475223,0.28196818092626086,-0.20485323130530267,0.11786362721683125,0.07906895308588367,0.2834437787794975,0.23584420257127292,-0.27277932352445183,-0.11242261110069471
2021-12-17,-0.22090376723844932,-0.12856183535772872,-0.13197018175103298,0.7858133967212478,0.6287251963888425,0.35051726377585835,-0.17648581925869822,0.09546630961694186,0.06028622482905085,0.19795340075782825,0.18064947837672646,-0.27987076435501407,-0.11904900603261744
2021-12-24,-0.19690225936996075,-0.11452498648984556,-0.12283879027978728,0.8179469044751334,0.7213970706125509,0.42255745145543555,-0.14873974391189965,0.1197026763653798,0.03490614305830492,0.10209967340554767,0.1175633321049712,-0.26962460712054465,-0.10961287862189381
2021-12-31,-0.17071292934866122,-0.09702998575673565,-0.11028383363435784,0.8166537420078422,0.8244343335693484,0.49991976698431484,-0.12638263894434293,0.13869944168321188,0.0010387382718010651,0.038363391810808986,0.04142837923088638,-0.28922942399512086,-0.08224223338999298
2022-01-07,-0.1435213033345425,-0.08042089750023938,-0.08849765193028712,0.7825376795674805,0.9184794778384462,0.5675879185685053,-0.11963425204462308,0.14892048388552095,-0.032104995027917055,-0.007217607569822808,-0.0331314907231645,-0.3158347212788712,-0.040517816678508733
2022-01-14,-0.10881300953681965,-0.06255491891931436,-0.05481897963870476,0.7869190164666763,0.9775372793256119,0.609787974122461,-0.10432358772302719,0.08372966900085753,-0.05937719176043439,-0.04928153090490183,-0.11921693229213913,-0.3631931469930541,-0.015691421846069222
2022-01-21,-0.08140302940474017,-0.04636907430938027,-0.0055480716042523096,0.7193782672235516,1.002110899530706,0.6384448759074727,-0.08829653908320989,0.06261271013633224,-0.08013283897936044,-0.09473890682239197,-0.2186143006931003,-0.41364381115305604,0.017465510942512464
2022-01-28,-0.05747594118731485,-0.033367172095923256,0.04723921150020209,0.6884662311435041,1.0133813933146132,0.6253152705701484,-0.06526692129361757,0.1680989397979169,-0.10186316663827957,-0.13945092529040495,-0.310388721958884,-0.4558102119253256,-0.00860706470470941
2022-02-04,-0.021510557152217565,-0.006467161214269764,0.08871463467295822,0.5727089031453451,0.9903071324070973,0.604847917951366,-0.06621318059069088,0.19450971900138853,-0.12723930241341494,-0.20837781718867468,-0.24171464219469463,-0.4989634855424776,-0.011479885535453782
2022-02-11,-0.008609872586895244,0.005215892831362937,0.10945781709434543,0.5427292171366169,0.9354066487871835,0.5332947608557135,-0.06658925236042858,0.2951015976483601,-0.14024244783704132,-0.25735078190652744,-0.14625191679757127,-0.5359934333636256,-0.008676867068550356
2022-02-18,-0.011553328361647857,0.004598752980277089,0.12298336965241308,0.4581188969245499,0.8444826203868983,0.4762239822481288,-0.05745190676654496,0.4081474441707928,-0.14823948411148027,-0.28555632250379914,-0.12046460186790497,-0.49484673200062784,0.016312072246915534
2022-02-25,-0.02037698553296134,0.0009179316190510889,0.12901431756211346,0.385725886246588,0.8065867952156256,0.44486065459325796,-0.04864548402247136,0.536376296552703,-0.1585573270235885,-0.3283271519048994,-0.07251408011983745,-0.41698894265637043,-0.007568079275221965
2022-03-04,-0.029516502081741135,-0.004569991841945401,0.13895913912755523,0.25458980969135875,0.8025914313566888,0.4313782902419287,-0.05089275846358021,0.42510279340420715,-0.15418262834782648,-0.36420422082496823,0.003996567220727165,-0.32434886577703986,-0.011458743529177872
2022-03-11,-0.04056281911673788,-0.013180324666767081,0.13916801585684466,0.17832908411980716,0.7057052328709593,0.3734147101638127,-0.06611832991765766,0.5170757293213282,-0.1499961586373298,-0.36412358296806774,0.040444765620735776,-0.23854378308299934,-0.026763816772028208
2022-03-18,-0.030886078285807153,-0.007372247732525177,0.1328697784432774,0.13504882641868282,0.5813611806649581,0.28492157065216867,-0.0942714336095558,0.5902665911840603,-0.14059543439498914,-0.35194958854158354,0.07506838529669249,-0.18023355602093158,-0.033010781213039006
2022-03-25,-0.018251153270332283,-0.004393299769148344,0.12868012571864135,0.07539055022171293,0.4712746320078665,0.20565287457205428,-0.12416786075431374,0.5948907543972324,-0.1353324965245424,-0.3455754485045776,0.15254899301913377,-0.09814350444138326,-0.058465407008002984
2022-04-01,-0.012787202984308414,-0.009874887315553395,0.13001321891822626,-0.005129938838456416,0.3431396995016759,0.11718017235080307,-0.14704708838836011,0.601215907705181,-0.1240109452725431,-0.32791928028571027,0.2306687697175181,-0.04996538254598086,-0.05235216083427632
2022-04-08,-0.00783099371238304,-0.013323733194011995,0.1141221429714851,-0.05320927448787404,0.2739731650205142,0.06030366526692447,-0.16460672655767572,0.5244713286698839,-0.12847287890176104,-0.3183569324976939,0.3142931909253166,-0.003693170617750409,0.011004199096264794
2022-04-15,-0.005580773859687339,-0.017369829571672893,0.11169508622485061,-0.10625524153087224,0.23370722350233103,0.029190813951401502,-0.1628894248001145,0.33279695743116955,-0.1333109688582879,-0.3016432726443815,0.3761929865165386,0.04172715078542899,0.055592526442053036
2022-04-22,-0.0030719000353715315,-0.02220511297743862,0.10200272581533944,-0.16497590012441077,0.20461412824234854,0.020695008937841534,-0.14316222244902418,0.13524720434916884,-0.14300869948492417,-0.2824922709805321,0.42788467223257604,0.08586148248399159,0.10029474479720263
2022-04-29,-0.005808219265942093,-0.03015519147017225,0.09042242800104804,-0.1317023390133914,0.21986652477198673,0.02998727106999219,-0.10972219648701934,-0.10031426665393839,-0.1548941281348138,-0.24859608302023806,0.4578648145609279,0.12623594085460335,0.13507211521253953
2022-05-06,-0.012954710876796853,-0.03898604568734822,0.07501119420847355,-0.10453027593998931,0.2235782577654827,0.03357384361348804,-0.07593401115960895,-0.3342111363805539,-0.1693815239952145,-0.20832032170786063,0.4863902449939688,0.16732169626763033,0.17715376890866852
2022-05-13,-0.02769508036640543,-0.053071879465974525,0.057805500476333364,-0.02389055912672594,0.24453060646197045,0.04325324779699692,-0.039996551463073675,-0.5131142989352144,-0.1841609465291074,-0.1760021286466247,0.5114189527466213,0.19057734496349643,0.2096278079201902
2022-05-20,-0.05198626818050271,-0.08341375377386703,0.038491156582059954,0.05340147584758727,0.22991850562835195,0.008378828114563933,-0.02705004933993567,-0.5711579139005852,-0.20305022196262484,-0.14163681255546076,0.5806284555391852,0.2188714374006909,0.2871535425706137
2022-05-27,-0.07631173298811786,-0.11233027914566822,-0.007241453262207563,0.10047145081156442,0.230929869469283,-0.027139004175668342,-0.028778199795386712,-0.6290202397796183,-0.2097673760245308,-0.09027227601123658,0.6663961924959615,0.25485738570085337,0.36515391925423635
2022-06-03,-0.09339880391144745,-0.1424870663364999,-0.041994202248427016,0.19634651009879453,0.3046816789813075,0.03336545212315896,-0.0012354354576081111,-0.618835941843062,-0.22962362906714157,-0.03653866850603412,0.6409975271435258,0.2392897300810385,0.40074274326137505
2022-06-10,-0.08913790875516188,-0.15374320846811312,-0.052466697693878704,0.23390951213957809,0.39155807414114424,0.09372597227680234,0.02030548502974942,-0.7720882569246745,-0.23859807261134405,0.01195860156408099,0.6344298054012038,0.2059990845030517,0.4178299766701646
2022-06-17,-0.07631888539316868,-0.13906924288086772,-0.08232734249958114,0.2934150249597052,0.4353388426280219,0.1476516947871372,0.03234107396889754,-0.9120720500008195,-0.2453902479044361,0.048160891974246035,0.5712279549336257,0.20015130428903355,0.4392008606977375
2022-06-24,-0.026542537183109276,-0.07737070866743964,-0.07821712949335644,0.21422199689825686,0.45097574556503633,0.13238103431843928,0.06972939220523221,-1.0478698327941918,-0.264382891538312,0.023358577419418654,0.53895250472794,0.2032818543889741,0.41727360711864675
2022-07-01,0.017551919356242333,-0.011262316184755206,-0.07861902321176423,0.21540481046339555,0.49608184980207337,0.17053683294203492,0.09644535248154427,-1.082012673055379,-0.2703862540419323,-0.009942390491527304,0.43642696284398613,0.14217720241123255,0.37611639109862294
2022-07-08,0.0348633826203503,0.03118835532500256,-0.025829294337536064,0.10902770408928703,0.533825445381286,0.18298469117030583,0.10378380579334812,-1.1776525174463846,-0.27966663033786826,-0.025248896961337045,0.4216795911721797,0.06647678687111791,0.3889829995884608
2022-07-15,0.04393314275457336,0.05250637716517091,0.005797592148363076,-0.01349131527496622,0.44433695759712144,0.13848185892074416,0.07796364820216357,-1.2567408521394683,-0.28014032415603524,-0.013109529442615139,0.4656214374727541,0.08275076498508474,0.39272061369449224
2022-07-22,0.050171703413874086,0.07551738308595807,0.0379755928239051,-0.17548569254548968,0.3408640873262769,0.10851111762835774,0.08031337486568575,-1.3117148983805313,-0.2748705706244961,-0.02108918652656696,0.5129922850517818,0.09939230524132195,0.38417174113921787
2022-07-29,0.07338468172014614,0.11104973375186503,0.02270342412946196,-0.34899535513415314,0.22072024874368304,0.07422217254347353,0.1048862937320907,-1.3359473170039948,-0.25716406041580264,-0.035364783627689994,0.5271202981060562,0.09843424623367329,0.38633828035484624
2022-08-05,0.05129019924628611,0.11712501149106616,-0.011327761602366041,-0.16643430983413865,0.23115331189926297,0.119899552762672,0.13729489944911666,-1.3739266918863362,-0.24706885500043693,-0.035084522909120584,0.46614976043943757,0.12022938001106201,0.3507398331518381
2022-08-12,0.026833838920080597,0.11673281487889163,-0.019731115121095183,0.04669652519503503,0.2854367999411372,0.16363423360470625,0.1341231060052219,-1.3718484299153622,-0.2442762629865825,-0.025859004897054998,0.38286993652940465,0.10853592350210943,0.3073821933818036
2022-08-19,0.012928294742623225,0.12331469148389328,-0.050325656807502554,0.21764465083917622,0.32692577619319474,0.20625365656315675,0.13307489599923764,-1.3235568329738212,-0.23938639798911773,-0.016908621599163644,0.31016017307570565,0.08731232420067409,0.27063409870333505
2022-08-26,0.03522818268219659,0.15548660619799776,-0.0799848739121457,0.3828858198247835,0.3283275836470631,0.21702940096805498,0.1222210889028581,-1.3714856062360528,-0.2329492714830339,0.004079439024521715,0.23642646019213137,0.06499864368078956,0.21443900019786907
2022-09-02,0.07146705398786252,0.18836456508773078,-0.13336911200737003,0.5034230948733383,0.36351213659074383,0.25120592720173773,0.11977865512375904,-1.3887607342313568,-0.20792176626340012,-0.07960926579013441,0.21944802886224143,0.04834555614911007,0.18890371338467288
2022-09-09,0.11959819494262884,0.22708949604295542,-0.20188274300847858,0.4962603815576542,0.3097398208351696,0.21640073329775023,0.08321574575884502,-1.4243657911847414,-0.17893276035928626,-0.0163080098984094,0.23397367483288498,0.05866876523187859,0.1293207224385678
2022-09-16,0.1773744459475655,0.24968207971337067,-0.24546214993176826,0.5087331758168191,0.2960162980582942,0.22132826819550935,0.06124284271642049,-1.45450308296322,-0.14606980721590435,0.04336466524351637,0.271979238293877,-0.07751932070476167,0.103232288474852
2022-09-23,0.21283631560795235,0.24189693221530567,-0.31027185905825616,0.4768768736896848,0.33079231987514573,0.2502938396736024,0.06142048807819676,-1.4749789891916667,-0.12288498112797426,0.055112662346464156,0.26364278860199375,0.039813378625000256,-0.011857566015383278
2022-09-30,0.20648517829680713,0.24479549178931137,-0.3387875705146255,0.49488986206621355,0.3642444009302151,0.2768897539403942,0.044972479186382246,-1.2982526696232073,-0.15160467198157737,0.06254585231480923,0.24662321508924445,0.1444082128258,-0.04508955697970193
2022-10-07,0.19433143452287932,0.25048829841356157,-0.2821711585701697,0.515978184193209,0.3910541180118192,0.2812721152245064,0.023718340027963438,-1.392603712799073,-0.1711283230684349,0.09230755042132797,0.1630422833323767,0.23714251766415428,-0.07714042602147395
2022-10-14,0.23474405125734407,0.2930362820491843,-0.24636473625228855,0.4697463917958236,0.32604224918114055,0.22288863711499346,-0.011940234659624033,-1.431836737960444,-0.17177399190607323,0.09850383146136117,0.09639533718942263,0.2799771311860081,-0.09753115460449038
2022-10-21,0.266343016129731,0.3190182084712555,-0.22168119470427708,0.34979154390279976,0.24378696398651306,0.1672853162251552,-0.038887444650330116,-1.4352368110903824,-0.15236621758268992,0.1115629951493424,0.04648549414001251,0.30342785372256337,-0.12127848106655671
2022-10-28,0.3148698947901807,0.3631523324496555,-0.20440385668649305,0.3173824431916744,0.17339825999495967,0.12077815107260936,-0.07297021732845739,-1.4083733459621517,-0.1274046577852102,0.11219306053695802,-0.05587282216450073,0.2952459178220545,-0.16495705535822303
2022-11-04,0.3686440764019754,0.39576191004545924,-0.19259961128537065,0.2570704850394424,0.08755839209662124,0.08380073135144754,-0.07460387888602382,-1.3334318980208448,-0.12696592167957169,0.1311452037737792,-0.12725914528739565,0.28666127470896097,-0.20770284990044852
2022-11-11,0.38957323028339774,0.3963134010800642,-0.15664823587443952,0.1545871538305072,0.00022692946538775682,0.03782496250613416,-0.07220423539064318,-1.2566419364276415,-0.13039585532676137,0.11866623524284296,-0.08677438482510794,0.3200204781158565,-0.2455377957521149
2022-11-18,0.40364017264308494,0.3892839084673074,-0.1211309807708901,0.07356577451296498,-0.05446120996087906,0.024635882402169823,-0.04350259162822536,-1.2204672393166107,-0.1411422583888694,0.0658438538975944,-0.005146445909521027,0.36230637349139255,-0.28766654725642005
2022-11-25,0.4123217570282808,0.37772010406229695,-0.08893504775995088,-0.04752321090421367,-0.12312758010831809,-0.014980758977354229,-0.03708217081619794,-1.1205184663688559,-0.13307500510805084,0.037694106078099164,0.04294926445315304,0.37161223716403796,-0.3058654596157171
2022-12-02,0.40633151060928774,0.36160735296111496,-0.058997679424912304,-0.1449246287933009,-0.20509208694526593,-0.0757112474106579,-0.047187338804057025,-1.0234724505057522,-0.11257267428869178,0.01362760540382402,0.074695346091596,0.3866493630552827,-0.29650546150455426
2022-12-09,0.41068605828904226,0.3344886203733053,-0.01569089626197029,-0.2507090848306537,-0.2681377780933877,-0.12707567663771135,-0.07140085128202497,-0.9654822001697969,-0.08500919188544226,-0.02109806570027879,0.11396709508630815,0.4053862184800447,-0.2939816220883381
2022-12-16,0.42359459821881706,0.2983474308582511,0.035496224450564544,-0.37981378490848117,-0.3481949194107352,-0.17414565279467892,-0.08622405026972207,-0.9343064027463681,-0.05059784936011819,-0.029198439880876354,0.14522469049790696,0.40843393932051514,-0.3146969250097149
2022-12-23,0.4184717658012393,0.27214669078962894,0.09147295601023872,-0.4702101566371318,-0.41008611267769,-0.22109647727154064,-0.10978925973411229,-0.8683952180847192,-0.012403926358132387,-0.033348947554232074,0.11981708756140932,0.36205156314106507,-0.30484642244538446
2022-12-30,0.39528249747478833,0.23111704589823795,0.16494802824803712,-0.5055926465719391,-0.4499595704347596,-0.2719500984576234,-0.15135105623407838,-0.8338068134778842,0.04430509497935632,-0.035749038728250845,0.08308777604324774,0.2983551404918439,-0.30433502456467576
2023-01-06,0.3647789475745984,0.2055445127685783,0.20773871804033744,-0.5397426776121161,-0.4761989908412747,-0.31922543811164195,-0.17670012654127543,-0.743616306737669,0.10275208246911272,-0.042790739954158816,0.0414870569231869,0.23217567861669225,-0.3089950138835261
2023-01-13,0.32253209358536694,0.1781983188454408,0.24453102485859035,-0.5388011808028654,-0.5140136809110037,-0.36783913596406104,-0.20280527548807759,-0.6299820080791267,0.1450943814006863,-0.053615472175535715,-0.005086749842644962,0.19078728253425575,-0.28361893495211
2023-01-20,0.29712279970672495,0.17353782245258478,0.2509780498283877,-0.5784279923368566,-0.562744202542896,-0.40231610158400005,-0.19237996156559853,-0.5020184726492855,0.18317038010912268,-0.06612872105607616,-0.10133688550237088,0.15804021116742767,-0.26094535294707893
2023-01-27,0.29750768854835774,0.17588637899418058,0.24449407511952945,-0.43582621764946783,-0.5069443788210178,-0.3947097083649418,-0.19751588067129544,-0.5132298914170459,0.2205160838084061,-0.06547222275927869,-0.21128527193899288,0.08169444632133165,-0.30507625007441064
2023-02-03,0.26851106145337095,0.17016857822459203,0.2544712009635499,-0.3329533909892821,-0.46982030828922783,-0.39552954883122743,-0.17105827615296423,-0.5309303197817192,0.2583399277321761,-0.052761234848901016,-0.2867184516667088,-0.007159081495796846,-0.36058838644555685
2023-02-10,0.24157834991641586,0.1648659685244179,0.2557562042242368,-0.24651459168581816,-0.4370139832852004,-0.41187372341847867,-0.1842812580296219,-0.42502379856561,0.2902338753153825,-0.044281754736737775,-0.36201482154480863,-0.09383057308359512,-0.3700079707989636
2023-02-17,0.19463061113620309,0.15141265469810802,0.2246021590733375,-0.1672841681752961,-0.4064379286627522,-0.40575224840555824,-0.1829218287712279,-0.3347863908033054,0.33867745987171954,-0.021727980912068557,-0.3925069125664959,-0.18650507538228384,-0.3767641311735701
2023-02-24,0.1444399229882938,0.1367939051302023,0.2111835207757045,-0.08534580066066329,-0.3796617801615778,-0.40986882488735393,-0.18802434597716522,-0.18333926536946749,0.3564829377073379,-0.08428619667143622,-0.40368805278106523,-0.21954111368500662,-0.3489538144366744
2023-03-03,0.11190398461360115,0.13760124485511951,0.179614402567404,-0.005072918800862095,-0.36431868139830137,-0.42452671868591474,-0.20431959577932082,-0.019715277259695213,0.3549456181358233,-0.151891814769873,-0.41044065477349595,-0.2298837631405646,-0.2902975121960911
2023-03-10,0.0659743805066102,0.13669209804642798,0.149088907074661,0.08477266739327809,-0.3321440827770189,-0.4324051127376158,-0.2064431915394633,0.13080404767524423,0.3618817886884174,-0.14185301940448386,-0.46766218707877205,-0.2889695031800287,-0.28348549642944565
2023-03-17,-0.0008615966305050154,0.10995010860134713,0.13912611207195408,0.19471221862331498,-0.32658075675687254,-0.46506612246453954,-0.2440263989417092,0.22616908948703526,0.37227834632861856,-0.07739938851980596,-0.4787684986126845,-0.30391366265472136,-0.2690390537389767
2023-03-24,-0.0661443060546085,0.0795490430108228,0.11041336194079228,0.28870510290839013,-0.31375858299378934,-0.4815068767408389,-0.2605565364307512,0.3180716546375898,0.38201281805988774,0.015496536477242959,-0.5093831022373443,-0.3041566047030508,-0.2794660712278255
2023-03-31,-0.08726785838065289,0.06897274472319702,0.07356907016957127,0.4008479394576746,-0.26609943516341206,-0.45845886165294314,-0.2676387504973671,0.38663104997760334,0.38239593087398754,0.08239697103500138,-0.5403828726668216,-0.30309094907820805,-0.35308134654256906
2023-04-07,-0.0687850592742017,0.10015237520593684,0.050963517837760916,0.441953830445467,-0.22263067214987034,-0.4153505228818702,-0.23910119557649576,0.4408730697522017,0.3627122841836743,0.10003444912066076,-0.5532110060035087,-0.3210575862397534,-0.502234901879486
2023-04-14,-0.046017532823974305,0.12735335940760767,0.014615793159140578,0.5234276864487655,-0.1324448244769269,-0.3504755837062382,-0.21136760589998863,0.4196658790313715,0.3313528951203073,0.08765231751270751,-0.5457222093486584,-0.32642563587608964,-0.5738448763372496
2023-04-21,0.011427654699882155,0.16823477632743433,-0.0021405060662606085,0.5008218475241623,-0.10384919527176822,-0.3138075872752392,-0.17541310596029236,0.3195276525617725,0.29682287568253996,0.09586456314555954,-0.5230503817839404,-0.3055782058979907,-0.6485382590846727
2023-04-28,0.033159424648276314,0.1712957206005752,-0.02282426333644182,0.5813671729296077,-0.01772160539221984,-0.2541782645723245,-0.14573922483343907,0.19332555781444097,0.2602784420117849,0.10446014673329636,-0.519258052409131,-0.289230801573805,-0.6556038227733763
2023-05-05,0.061367233342433686,0.1750257104574884,-0.039178287516041466,0.6470422630428145,0.06842259101192796,-0.19138822128426997,-0.11122743052281853,0.09756335392590548,0.2255072112422507,0.08000004107645071,-0.5379095824734113,-0.2854941774663165,-0.6303984641067603
2023-05-12,0.06500047474085513,0.16380039951483474,-0.03912240468348561,0.6989576968583077,0.15363669953563852,-0.12194246719259086,-0.07577847464062915,-0.014030142804943108,0.19044132870257902,0.05149908242787346,-0.541144213986558,-0.290344242720898,-0.5705821862802891
2023-05-19,0.060120720988060754,0.14729375544147202,-0.04650162276955942,0.7660944480026297,0.24099484873028065,-0.04984595287529939,-0.04382858307610051,-0.08685666411277528,0.1550616216776003,0.024051003338822527,-0.5270386296679626,-0.2969922630351199,-0.5142970204679835
2023-05-26,0.05896239366586572,0.13431308868142305,-0.03298460912212999,0.8267501840748849,0.3090559117171207,0.0048929198731704135,-0.018408637770271918,-0.22705823951761434,0.12094689986860696,0.00893207282375569,-0.5093112280736519,-0.29473807578599304,-0.46024546188338744
2023-06-02,0.051687053235380004,0.10077181314807436,-0.02001771085887715,0.9088756216976224,0.4016490613788907,0.07614198002683081,0.016820483468590348,-0.27292681989181533,0.07943030126168149,-0.016403870470823742,-0.5226687748262208,-0.29695854290706175,-0.42352488093684837
2023-06-09,0.06140264310596983,0.09072039664318259,-0.01563504900212995,0.9809745373635053,0.5114334833371544,0.15370506226239003,0.040958006886767775,-0.3717372109599391,0.040238230926949926,-0.04495166695312512,-0.5274888604846821,-0.29420313050790614,-0.40538424838973414
2023-06-16,0.09514510393717532,0.09869912775071758,0.0013015184422450268,1.0558538165222122,0.5999385381340946,0.2260106827846109,0.05806219219959556,-0.4526739171453387,-0.0024654499643667685,-0.08245616614719457,-0.537961796388757,-0.3035526633126569,-0.4129649942363115
2023-06-23,0.17637355890947487,0.13188565212034825,0.04142348578884178,1.0694074855012161,0.6319068194733937,0.26020040556748864,0.06340063316745907,-0.5302481994715832,-0.0302524274807961,-0.13796724050566517,-0.5981323817275985,-0.325205006016897,-0.43068267123451454
2023-06-30,0.2501259066085439,0.15734189501701457,0.1073067969195986,0.9892403114859663,0.6149215049727075,0.268090709431371,0.07788049641710657,-0.520750421879862,-0.05678272926549804,-0.18197514934706782,-0.6611853260139605,-0.39409662147529784,-0.43408756591596803
2023-07-07,0.3176362598270951,0.18774163094535604,0.12720782655281168,0.8946233249322029,0.5594841012384966,0.24321538361754536,0.08296442147509536,-0.4415020466357847,-0.06222903511694065,-0.22114217563808589,-0.7313198945588982,-0.40112905919509506,-0.43523409232480054
2023-07-14,0.3871294589734461,0.20677233666909683,0.1689326151848778,0.7873432282869055,0.4994017559433446,0.2180324133345276,0.086988054173801,-0.44770058748269564,-0.05106991213338885,-0.2589840265478233,-0.8002297753335916,-0.43888716681576273,-0.4465488507649088
2023-07-21,0.40677702509331154,0.20853509035861512,0.18988030017433802,0.6810075468324246,0.4145281767410122,0.17255632136948332,0.08723888768907147,-0.3108000368013659,-0.052723309688801796,-0.265821822803149,-0.8056489288747224,-0.4047073298133962,-0.4822639247933712
2023-07-28,0.427272369073947,0.2097564428395682,0.19567750045618992,0.6761972754689312,0.3558205413174575,0.13861099995170156,0.09673888283792786,-0.16470292890426566,-0.05940097307691711,-0.2307515051126341,-0.8606378195324976,-0.3843616652887644,-0.584607160538107
2023-08-04,0.42066999875263844,0.17078963787615814,0.21628789213110836,0.7032319668887937,0.32642058337640845,0.11825856265192979,0.1093620193169435,-0.08329961844313599,-0.06910973919709401,-0.163302933080895,-0.9292159180570236,-0.3366759811009692,-0.6541929391134043
2023-08-11,0.4077625263305609,0.12193104898320414,0.25439864621984004,0.6691721346176713,0.24486991516963513,0.06858678113465379,0.10844932926384124,-0.08224895029438141,-0.0623783856522734,-0.06824226951598394,-0.9832578612831374,-0.2972446453144114,-0.6918051873902091
2023-08-18,0.4128174259967371,0.1268593105667719,0.2794936624963769,0.5764373854558287,0.14674575530957673,0.014788672597033585,0.10754111219499823,-0.05424261006727675,-0.03667802569680016,-0.021389908908327815,-1.0221701675478703,-0.3441891646821616,-0.724745888812847
2023-08-25,0.34358025604172726,0.09394208766548548,0.3333756179300282,0.612023222303789,0.11772086751428563,-0.037500276320669476,0.14497256302567596,-0.1181183215724198,-0.04367372661044759,-0.04169268522666831,-0.9685472315100617,-0.35309407621166267,-0.6888153977988674
2023-09-01,0.32315413632895973,0.06734679123878198,0.33614947617443613,0.5190852717530975,0.05045293293110531,-0.047671899876606735,0.1319291523536441,-0.08365043505993813,-0.0022329206595786133,0.03640331560460213,-0.9775206805644985,-0.40794734699232993,-0.7377677909234223
2023-09-08,0.28911711567129456,0.04102830307687345,0.3285753387979319,0.4652563501173692,0.013476604997636685,-0.06791999915960663,0.11901338090915423,0.030381110319566737,0.03462810307646731,0.09401760434962261,-0.9840131036257076,-0.464651437024021,-0.774165653477186
2023-09-15,0.2526301485837987,-0.005469205219772066,0.3221656520995574,0.40134160313414546,-0.028900648785870224,-0.09254433413743872,0.10989239191246883,0.14714025546571086,0.060996150361553605,0.1613942687259493,-0.9665537460075144,-0.5004706696493456,-0.7809517196023472
2023-09-22,0.22275214871869883,-0.03799440907164348,0.3211076414786518,0.3305792367147071,-0.09043926666038234,-0.13214215000307977,0.08928895372926346,0.22597241966401177,0.08880978986481716,0.21762851080086265,-0.9432416009554265,-0.53035986095838,-0.7529965544206211
2023-09-29,0.18037974016392785,-0.11717032326452578,0.32492475173379787,0.31064176966629403,-0.12323857313150119,-0.15417631859686737,0.08224139717242286,0.22258530435394056,0.11043905111800889,0.28945116727324416,-0.9346610153696636,-0.595101085537652,-0.63034132929426
2023-10-06,0.15159703442390168,-0.16474679501484651,0.329204119583804,0.28334162139238617,-0.14656833244077017,-0.16908236661633835,0.05652522526654124,0.39061066655488463,0.11223020434519511,0.3420042322303018,-0.9338822442073893,-0.6515068393886889,-0.5817861075416417
2023-10-13,0.1448014886903911,-0.23267628670450385,0.33467821936616654,0.263459387096711,-0.17167493014086974,-0.1846892539891946,0.03788172632607875,0.4552926048148045,0.10301575402936076,0.4366389477635308,-0.8646634878547754,-0.7246852802190391,-0.5521527643482129
2023-10-20,0.14892505005975643,-0.24684055638338198,0.34235773490908206,0.14267066343467733,-0.1999800106111394,-0.18200403687138442,0.0597883298409512,0.5429648916837316,0.08339780717211602,0.45903204493586464,-0.792275730366161,-0.6873937667273474,-0.6131371911132559
2023-10-27,0.1344873500928019,-0.287332489682153,0.36014742642224673,0.17691042969255177,-0.21016408133820882,-0.19257441123928234,0.0666871756660368,0.6031132805245405,0.02118233384747338,0.47827218361052015,-0.6900535625457247,-0.5845116925265232,-0.631816566295071
2023-11-03,0.1237569340135927,-0.2894388767534225,0.3537548578728467,0.26063095713291895,-0.136151216196847,-0.12197787446711474,0.09481572572884442,0.649350990524227,-0.04050500069844465,0.44661868318547077,-0.7045535623277497,-0.5223714993163584,-0.6399099772156442
2023-11-10,0.10879990891049998,-0.278120815320419,0.3318872391627102,0.3401823704854007,-0.050874952031178436,-0.032048240792251534,0.12147607156882828,0.6112251706184826,-0.06311543178620062,0.42276002223878706,-0.7560419830574981,-0.5055599628675872,-0.6574547458177104
2023-11-17,0.11248216722603016,-0.2565445364252592,0.3107412348243998,0.39056939049322237,0.01750080873975421,0.05950267715320064,0.1530478763331746,0.5128532061995649,-0.07176316958236334,0.39220607625410403,-0.8181424519985824,-0.5075527682759586,-0.667497778230938
2023-11-24,0.13994893691301089,-0.22219167960533692,0.2823616265473943,0.45113685315676577,0.09446043162708645,0.1167120244293895,0.16790341004721973,0.4271638690434295,-0.08210667859638698,0.36116689879949515,-0.8618211706536854,-0.5208101831612956,-0.683698419740712
2023-12-01,0.1799208935503474,-0.16521175917432135,0.24543592366373532,0.48395928002079464,0.15299634994297917,0.1736959855222967,0.17284227973208094,0.3575352258404177,-0.07892987557895233,0.33072840736363207,-0.876202041919702,-0.5385938204291949,-0.7611312176407855
2023-12-08,0.2061541660759919,-0.13916978565175242,0.22298262945615474,0.5467334358790304,0.2309032242787592,0.23587100042404732,0.17614427765224486,0.21956326313095342,-0.09131814130147659,0.2982205684824781,-0.861458392709006,-0.5284708616198326,-0.7725099590358604
2023-12-15,0.19599763268218962,-0.15671625114712925,0.22063570238344155,0.581736300675012,0.2843426163469542,0.2823405658851941,0.18200945649131006,0.10914338663215682,-0.11235089727280216,0.27195284360254907,-0.7717512839984698,-0.4720506382199473,-0.7471845756226139
2023-12-22,0.16658431443204982,-0.18186083669003728,0.2166710236797603,0.6159134443013469,0.3361703931969616,0.320887705589993,0.17478950001571192,0.042761640333772014,-0.12894005211521609,0.24417568654431626,-0.6971938872598192,-0.4221325583405197,-0.672702709593192
2023-12-29,0.1100125173344219,-0.20671185876713166,0.20365953065102027,0.6194098203272751,0.38279786944690775,0.36029912776504797,0.18052142308781596,0.007538679705835959,-0.14117033158209638,0.21598160264386088,-0.6048656556068859,-0.3909024628719018,-0.5616098704365108
2024-01-05,0.058558442905719155,-0.2229265131159108,0.17546510066311946,0.61733540432667,0.42143758071166,0.39761219129342756,0.18455636274351434,-0.04646599215278944,-0.14429112208948086,0.19196030785376766,-0.505354593655327,-0.37222090098351535,-0.4388745406473773
2024-01-12,0.017974077707743764,-0.23379690704145623,0.1469328035972771,0.6034203748358946,0.44346560352034325,0.4245814468423138,0.192734930228306,-0.10891861242013234,-0.1501644830496851,0.16972972480274517,-0.3895529865295957,-0.3367125881318531,-0.3318189564258401
2024-01-19,-0.017128747964751702,-0.24580373003861333,0.12265329057669702,0.5761451079600706,0.45344783015212564,0.4452886177339979,0.19931826047795412,-0.1947129158171393,-0.1552662271251348,0.1563113725544245,-0.2707877740834838,-0.2950445065208133,-0.2325038065429404
2024-01-26,-0.05312594974153052,-0.25839528316576765,0.09441889314140824,0.5725019499647191,0.48720550102702864,0.4736652217369606,0.2010377724238518,-0.26662444447652695,-0.16101126390006143,0.13606971747972063,-0.16845717664489285,-0.23549011536143818,-0.13660711280826132
2024-02-02,-0.10998008527979189,-0.26866514257727914,0.07200159442260182,0.557602085911986,0.5079710260051272,0.4928067892334743,0.20579361344884872,-0.294427288048306,-0.16578865584054217,0.10940704241231683,-0.0660220028326632,-0.13993687212596995,-0.04294253165654445
2024-02-09,-0.14425133328849704,-0.2734691073911792,0.04225094653638278,0.5534468887184607,0.5307316669874196,0.5241314874762831,0.21336483605946285,-0.37132296225553474,-0.1725544158267377,0.08856713505710256,0.0072637138651513306,-0.05151471363724576,0.05621063187021336
2024-02-16,-0.17294223753377605,-0.28469560650677306,0.00309638752086093,0.5402755043836235,0.5203094763448057,0.5186754620524248,0.19549272340326224,-0.2631032735658777,-0.17614272818017204,0.07544976828671512,0.09625471365608525,0.05073132836270042,0.11405454683194968
2024-02-23,-0.2104482899290683,-0.29399327131390135,-0.027223048305699365,0.5805714218893518,0.5228840750697218,0.5072047602020694,0.17036139869793024,-0.13717737258904417,-0.19536085297637482,0.08237262032908378,0.15207424544284692,0.13019606030901712,0.17010770946815362
2024-03-01,-0.24250394278692783,-0.32650422101556587,-0.036708862941737426,0.5813080124895537,0.48867931908362383,0.4627453535146329,0.14239895584815856,0.025276814876127096,-0.20190718501514307,0.13595037927961137,0.13442987048970598,0.1630641715723521,0.21560133147814065
2024-03-08,-0.2571740394361531,-0.3445185343609462,-0.03872935028716053,0.5726307021018381,0.4428666605826911,0.3935505588593429,0.09530938852523055,0.15580937268116501,-0.19879276212474142,0.18746246513318116,0.08499686951798555,0.18479137309563448,0.25380283422723343
2024-03-15,-0.23466467480058584,-0.3448979644681596,-0.020671907834040663,0.5539721412788051,0.3990448623945962,0.34812810177393405,0.05619263862111841,0.09054431338154416,-0.2104410611940637,0.2756046966336949,-0.010097211027813885,0.20196771359470056,0.2885110201163617
2024-03-22,-0.20872927080029083,-0.33171257645256474,-0.014522134312455456,0.5285966709861188,0.3471752874540553,0.26973539254187695,0.011759560755538384,0.07447370237314672,-0.20844905384206433,0.3629935593509786,-0.11065138645585137,0.17857048099187572,0.31376673313947956
2024-03-29,-0.20353026191726833,-0.31755099594861524,0.00019429433989981773,0.4669272097197406,0.26654319632795787,0.1832914620256118,-0.021582105664561736,0.1743027101035636,-0.2016556194316021,0.39713105762593637,-0.132775342255685,0.14424175166200098,0.32038994022576606
2024-04-05,-0.18459494654908953,-0.2923222821825128,0.007766384549310923,0.4044388291010907,0.19495970294902398,0.11504567369970752,-0.038795831258209124,0.2718456713564325,-0.19569480077791848,0.40568753573805444,-0.19212415251689294,0.09768319162629724,0.3311548046493561
2024-04-12,-0.1622826255392003,-0.26777477765533325,0.030588688115816234,0.3618824698692867,0.1362894362953891,0.05163917656932904,-0.056562585124490423,0.36347620283171767,-0.1892045638209356,0.38458140129142226,-0.25341879006831886,0.03866945326184871,0.33953751986890857
2024-04-19,-0.11762430557478548,-0.2327691818942088,0.041273596020725556,0.30195465424428036,0.07709256290407931,0.003483707635968711,-0.07261729275189839,0.4446081809112555,-0.17899440056899224,0.370088367601722,-0.30505018181607696,-0.022669809634230285,0.3320270387414601
2024-04-26,-0.06626502296334172,-0.2019417679807985,0.058793026603034114,0.25244391746773337,0.03092408126420903,-0.033518978317177164,-0.07533450703298411,0.5269060669256588,-0.17611452691989232,0.33698493576733907,-0.3696978879466294,-0.09929327944569233,0.33736942554374805
2024-05-03,-0.01643155626666798,-0.1683709509348563,0.08909294793792763,0.2202660584661962,0.004973741102059569,-0.03760387380626436,-0.06821300220708022,0.6101800895835239,-0.1805003635007239,0.2898296183795138,-0.4555994671186292,-0.18847459607716066,0.3444325485575709
2024-05-10,0.011883206660760905,-0.13149663615122784,0.11647712179978179,0.1852109358932878,-0.0386480181603555,-0.07474256917075295,-0.08477823158765341,0.6926507599680649,-0.17050904683989312,0.252752189844913,-0.5102635308993043,-0.2607600959102199,0.32587558590457455
2024-05-17,-0.0054985041449581995,-0.11206882348897715,0.17358924505435203,0.1517470176287274,-0.08481523407665811,-0.12084184507373648,-0.10314440425411174,0.7878578716129319,-0.15458587985683456,0.20454318234617982,-0.5355134806135537,-0.32003505359902995,0.30775800890713767
2024-05-24,0.006950730144273784,-0.06803712278222676,0.1964764794909306,0.15164111951442946,-0.13492971091105077,-0.1998469393088625,-0.1405453621704072,0.876794008707333,-0.13082097659133948,0.15636809494113496,-0.5553789609292431,-0.3702011591379884,0.2846603190593996
2024-05-31,0.0034888039826412613,-0.02242405959603918,0.1962060634811757,0.18863237986243134,-0.17745534910036098,-0.2628496992672942,-0.19160377266420608,0.9311140184870129,-0.07894363097034848,0.11213034487220407,-0.5738791799428109,-0.45292414007895454,0.27924209883065293
2024-06-07,-0.034140292583378196,0.0016156252255225961,0.17765750661453872,0.22138823821774284,-0.2140229380654613,-0.33173282051673025,-0.23495323262217765,0.9725959221669669,0.0004360853212969501,0.09841619762257321,-0.6086110606881439,-0.5151682198803752,0.2725671933806747
2024-06-14,-0.07300379602745521,0.006504970692111352,0.17124164247839488,0.16679630314084135,-0.25838850907137,-0.37242262189392966,-0.27030891034011245,1.0801979692520307,0.0636357327765659,0.10668256598645423,-0.6244625390112232,-0.5859671521953612,0.2634573651477078
2024-06-21,-0.06647451161598825,0.026936073072362617,0.17837511109205917,0.1306849752089596,-0.3177586930002355,-0.45988067021616597,-0.32627908933437927,1.1665015948970736,0.09504560135192289,0.12788754440858222,-0.5938056724088526,-0.6288110556931777,0.24888020247305537
2024-06-28,-0.09779559009978087,0.02093517664604197,0.18345556803995394,0.18568959153967213,-0.30189873794425626,-0.4570006502386672,-0.3526908087774096,1.1188645662045094,0.1240307986856862,0.19466453877356454,-0.6541482464286211,-0.7491798804470455,0.2822108406428802
2024-07-05,-0.11091933859758946,0.03155589498565531,0.1305270305893299,0.10154919272101268,-0.34219866776476765,-0.47294809906524476,-0.3368640296257627,1.183901817568613,0.12474521964885982,0.29332486750578807,-0.6901632278216855,-0.7800637690961065,0.318012408635813
2024-07-12,-0.1697361918635787,0.08722484710742684,0.12766348705139619,0.09682545409874996,-0.35618667626169886,-0.4590315753441782,-0.33559580204167605,1.1670469145120432,0.07709641755304819,0.35128991915660523,-0.7137900864202076,-0.8572359380141917,0.4434987769659656
2024-07-19,-0.2041791326719506,0.08919725037876519,0.0800613943180773,0.14243500043555668,-0.3336971298418168,-0.4378809480933322,-0.34082790348115016,1.2456182797548956,0.014502601898053594,0.3898033500453013,-0.7153233133950432,-0.8609290827082358,0.5800945352505048
2024-07-26,-0.2450609319885214,0.06197884369083932,0.07036385822743606,0.2254406109055759,-0.24276664732197983,-0.35230475937801997,-0.3002013807193522,1.2253172681073818,-0.001971953726834067,0.35838679355245767,-0.6965357663702147,-0.8264153282126191,0.5795245070982992
2024-08-02,-0.2802695740432128,0.02484402098711974,0.052073346339569185,0.2627802521731247,-0.18956353503459006,-0.30048389413525267,-0.2722723559501301,1.1708010155036441,-0.01719806562808086,0.35144251703323637,-0.6125286343456002,-0.7496913567733013,0.5778688717996431
2024-08-09,-0.3089318741823639,-0.007166442667168295,0.024460048008904597,0.29013352794743924,-0.13829847614565727,-0.24863714540476853,-0.24588775460137074,1.1124324830245034,-0.02899258294718996,0.3480462541010253,-0.525523652648325,-0.6636704682224026,0.5695898016448725
2024-08-16,-0.335381217246663,-0.03954273431779943,-0.001557556546239531,0.31244428641933814,-0.086958362604453,-0.19448108165289374,-0.21934777932318944,1.0550521837852485,-0.03643461721629624,0.33984525096455953,-0.44012356614163334,-0.5737753156790708,0.5570985276529565
2024-08-23,-0.35334363327702994,-0.06617324869174149,-0.03672401528972516,0.34548797760147104,-0.035188220176218324,-0.14609180248319925,-0.20108121999901596,0.9931014955043327,-0.04141852168726718,0.3380690602630974,-0.3525146117531041,-0.47793518410558405,0.5404874583203516
2024-08-30,-0.3514411689282295,-0.08289788596824174,-0.05941118578820356,0.3799237548417173,0.021031828548029055,-0.08658822193630404,-0.17000204478426534,0.9297168695511839,-0.044942443045935865,0.3040550835922208,-0.2820496054596117,-0.399006727954723,0.5133562985973178
2024-09-06,-0.34191932842738043,-0.10056304880595712,-0.08593639920385153,0.3774916346551466,0.05894196070857987,-0.04773584756537758,-0.14504531978824783,0.8560683653823465,-0.04435841273284067,0.28351806936374907,-0.15700746999605603,-0.283779551520465,0.5062587276738136
2024-09-13,-0.3343017502705302,-0.11536988059872239,-0.10807593417661751,0.3998145723770636,0.12197627210555487,0.00921929877985335,-0.11967028337098051,0.7904439623664818,-0.03269645811867941,0.26465889325654696,-0.09585313092093863,-0.19837524847127938,0.46121428033911627
2024-09-20,-0.32273754958453266,-0.1312597847052886,-0.1325004143814984,0.3788673428193277,0.16273476573644396,0.04608675288106355,-0.09962384342183157,0.730779776932725,-0.03388192074471755,0.23463503471856417,0.016778887458628253,-0.0763351852680284,0.45725807075614056
2024-09-27,-0.30026145724044184,-0.13244626773886295,-0.14493196390833996,0.35804276416562814,0.19312623235857557,0.09101304223058189,-0.09252467223009708,0.6456946094723727,-0.053951214996197504,0.1932650918258175,0.11823071455568467,0.03390864450345736,0.45970237856142854
2024-10-04,-0.29230629518232704,-0.1446596333279805,-0.16304314888029486,0.30548840474221906,0.21183881381159045,0.07664007371657035,-0.08925674443447511,0.5842856971466661,-0.06466094906199804,0.17870873495492223,0.2660855442623238,0.1580035798092333,0.4738900604813662
2024-10-11,-0.2804316681467072,-0.13926956097985366,-0.17446054641148814,0.20309722647024483,0.19201568527234333,0.06315538194198572,-0.10478432165182423,0.615466372219434,-0.0617121836827462,0.13301506675064623,0.3509515642072708,0.29128341805348684,0.496012420917775
2024-10-18,-0.2600606679472898,-0.1308117407884027,-0.17438038083481344,0.10116871146293079,0.15018968770332414,0.018610544790825245,-0.12817696746734414,0.6606981692707968,-0.06853213287398899,0.10233442302688929,0.4103493846542912,0.3797996395988942,0.5247650074484279
2024-10-25,-0.2420028291886205,-0.1208377307154545,-0.17560799924690051,0.025586742658474146,0.10914259686919035,-0.020402649462422644,-0.158040412807962,0.707066558968523,-0.07497035539233235,0.06164513340815146,0.48343730570540866,0.4778468716868847,0.5453687859983518
2024-11-01,-0.22544843830521133,-0.10963963780507083,-0.17312044909426566,-0.07309970603424555,0.038521855234308275,-0.07985338480601936,-0.1756775944574858,0.7434243494123407,-0.056198169732472186,0.021999835914437063,0.5270984698079785,0.5501228848757577,0.5327163781543368
2024-11-08,-0.21845479717741395,-0.1061638624853467,-0.1780131672251366,-0.18813815657127236,-0.03972169549520792,-0.13719577023467,-0.19613530222277664,0.7450516488383364,-0.013261219507515923,0.008486085451215175,0.579840773971792,0.6152442243492178,0.49510225094466126
2024-11-15,-0.20636178712592618,-0.09625034430419255,-0.17352648979813023,-0.2731936188545469,-0.09860075058005224,-0.165402882339235,-0.21431078350810803,0.615019766000836,0.03190656257784674,-0.009534144243243172,0.6306988924839194,0.6144845652496249,0.4567502395913667
2024-11-22,-0.20155349020586508,-0.09353235609444745,-0.18186004841972525,-0.27530507388029174,-0.0883634968548449,-0.15250989855268474,-0.23631567280232443,0.7779285506883716,0.04805826147342468,-0.08694982000479627,0.7435016766366306,0.6135217496301826,0.39009842429130703
2024-11-29,-0.2064533362105476,-0.09236335220417982,-0.18154170310565057,-0.19384212930782355,0.023174423935536273,-0.10785671744064165,-0.2599597029017166,0.7251977856793093,0.07884231680472047,-0.13141566547679373,0.6960152279900218,0.5782059858708481,0.36856657429291523
2024-12-06,-0.18812276632589772,-0.0741764768371993,-0.1671489894958506,-0.20959949754218143,0.048988111836836365,-0.15071220599122642,-0.29619860204571796,0.6650143414648885,0.12317801984188616,-0.14037737638292577,0.6076722847649583,0.5010687945629435,0.31910316967527647
2024-12-13,-0.16394196235879105,-0.04417829095068999,-0.14198095417579173,-0.2517450026269332,0.05401163212923321,-0.14636891901371502,-0.38306784957877427,0.7318461725010692,0.14568931348645814,-0.16949661015255096,0.5343266538146879,0.4451193861771503,0.2845891525231091
2024-12-20,-0.1458160740305971,-0.03528077504222343,-0.12515864431679696,-0.22843535287374564,0.09801681205371171,-0.20052611158759917,-0.40133469235633595,0.8319071506403567,0.15170339458565466,-0.18344652099924758,0.4540145167986745,0.3744956541720005,0.23913457075422012
2024-12-27,-0.13677953042291086,-0.02790602595564464,-0.10944399698347157,-0.3174670548809869,0.07867314557421272,-0.1326754967115219,-0.4327175909467753,0.9111363797715915,0.1629515972750191,-0.17012246766952027,0.3901033092257497,0.31820024056749135,0.2028774990628278
2025-01-03,-0.10973098117574459,0.011397632596537283,-0.10585283695657685,-0.383217332451199,0.11505723834100953,-0.07683607354736077,-0.45378468769842883,0.7940826642991301,0.16579836138228368,-0.16971873550593541,0.3387925933251797,0.2701797760926625,0.17149714926060394
2025-01-10,-0.07140475708980043,0.05187585680547881,-0.09628196492805226,-0.45717222588606243,0.10337192413099153,-0.028580400501766766,-0.4434207674302658,0.6756071890874158,0.15997410225778902,-0.18046561965781804,0.28688793025051834,0.22156650020365537,0.1396968279944128
2025-01-17,-0.04104503057417781,0.07866172565121038,-0.08465197202286132,-0.5196677994947599,0.0647386063346258,0.09468270649122074,-0.45124148162502026,0.700996717866054,0.14797845625160738,-0.18208338976476976,0.22546921809489057,0.16214789528860418,0.10052539081621356
2025-01-24,-0.021697911406448042,0.09526206171021923,-0.0768598248743871,-0.5657809406046286,0.04670421829507755,0.22825690414093222,-0.4474438592074007,0.6701448186752377,0.12556747489770198,-0.13662841804065667,0.16698045540078021,0.10356936189760393,0.061569490762119844
2025-01-31,0.0004315886706621058,0.11289487170592069,-0.061716573373135325,-0.5768339236992224,0.053115080768478075,0.35390563809659537,-0.4571642914307601,0.5611564647034424,0.1034084062150087,-0.10181856021928408,0.11890446322270865,0.05657252623399992,0.030338172400736944
2025-02-07,0.025219922087457217,0.13340566260999492,-0.0517072597943625,-0.5097942752941861,0.08323800250771578,0.4738867424458799,-0.46419305173759734,0.4210367819564027,0.0798702436124227,-0.0679666967182468,0.1056113582585778,0.050247914786017,0.026946470363551574
2025-02-14,0.04199924157810139,0.14385085480756293,-0.03984396726432804,-0.4128474038406501,0.1534380700519251,0.520572285725666,-0.42512415967184947,0.2855765752101773,0.05368468679851871,-0.040740961904686,0.0945541022482534,0.04498707857544939,0.024125239519659756
2025-02-21,0.05364373134853373,0.14856410098185005,-0.027174069618680914,-0.3320474080803121,0.21392201967122826,0.5164419690723953,-0.3619998984999212,0.12266718343897731,0.03564447437150636,0.021671665493675704,0.08353596480589158,0.039744854250023165,0.021313989679228634
2025-02-28,0.0749967520419074,0.15630410761549965,-0.007517994011714147,-0.27542083749749585,0.21836512801206298,0.5482553687416344,-0.2801047102020873,-0.015858429197287582,-0.00748334107587284,0.0949182745175202,0.07107294907906656,0.03381518378138842,0.01813408280689096
2025-03-07,0.08889837261126461,0.16047933380064386,0.01666711487312691,-0.23875881690480674,0.20080414497305243,0.5672877855045997,-0.1879115305221412,-0.1577136489227185,-0.05229722301429453,0.17975763332180636,0.05906726541704568,0.02810310338071708,0.015070863051675426
2025-03-14,0.09343735063395488,0.15444197284382943,0.03942043089631048,-0.136217132815116,0.2640974842918513,0.5474410043093941,-0.08544120947680803,-0.25252212735139157,-0.09379417602537715,0.20419062631973603,0.04879544214136883,0.023215961418301158,0.012450033379170151
2025-03-21,0.0964727378570083,0.14845345604088814,0.0498338088803655,-0.015906922944414426,0.34866754536305855,0.5292784022328615,0.030853788221107875,-0.3029441083570002,-0.11131541171033943,0.14694565577448954,0.039530670603315214,0.01880795589283276,0.010086150404916661
2025-03-28,0.11540537788599788,0.15254643023830058,0.06435657799095823,0.0648392712714527,0.40846656963510597,0.5071411697921782,0.14240328425374704,-0.3737656315973728,-0.12838346139074674,0.06263648221180491,0.030274990611556068,0.01440427595554929,0.007724587115655601
