,ES_FRONT_CALENDAR_2D,NQ_FRONT_CALENDAR_2D,RTY_FRONT_CALENDAR_2D,ZT_FRONT_VOLUME,ZF_FRONT_VOLUME,ZN_FRONT_VOLUME,UB_FRONT_VOLUME,SR3_FRONT_CALENDAR,CL_FRONT_VOLUME,GC_FRONT_VOLUME,6E_FRONT_CALENDAR,6B_FRONT_CALENDAR,6J_FRONT_CALENDAR
2021-01-01,0.010395120796405647,0.010395120796405647,0.4919159575501562,-0.06269981783733014,-0.011763082500722227,0.010395120796405647,-0.5110091443797546,0.05586626136312087,0.006440862188322578,0.017353117347496914,0.054036221438679935,0.05668634974960552,-0.2408951298120456
2021-01-08,0.03502479497530413,0.028436628353928645,0.38374697695213733,-0.08101106454484497,-0.04997822328091757,-0.03846934711828315,-0.41201887454867897,0.05507619686469871,0.06977188519690838,-0.004254005751160639,0.05683433963371051,0.05852000152167124,-0.18647639795272236
2021-01-15,0.05551430957388974,0.03881020962156126,0.32674887446563683,-0.09825970905245109,-0.082805777258382,-0.07928448309864658,-0.3560630509847491,0.06218740716168851,0.10234575583545918,-0.041174931448090694,0.08245685914527295,0.10650225272255116,-0.07139553167971789
2021-01-22,0.08005855219554141,0.060331761257075345,0.2291230270959856,-0.07530033342392299,-0.10315405244398033,-0.13222717755985844,-0.27579045696511056,0.0661969200686748,0.16170458923310477,-0.08461964256921173,0.05066387444125514,0.1155888734699222,-0.039302775478653476
2021-01-29,0.050849253516893775,0.03353674170649734,0.17017487918487392,-0.007521050504478946,-0.08781499393455787,-0.15602116885202535,-0.21856280338579254,0.11118469571252546,0.2105092379218747,-0.12991230058915304,0.026330911967186368,0.12245441209025157,0.011321188633697667
2021-02-05,0.08234202244911074,0.072049763025828,0.12509511956192,0.024153525350715736,-0.11232219960795986,-0.16241705141622062,-0.17926174948500864,0.18034128924824572,0.2313737145506332,-0.135814446903809,-0.07379637837643917,0.09767046852159444,-0.050880093106807446
2021-02-12,0.10688288380804797,0.09620193364905286,0.1486520396320271,-0.00246225480150385,-0.1502946763550667,-0.18917314572112673,-0.19824393815280228,0.21349910777704156,0.27795173544734647,-0.1439015410240149,-0.22859132368163976,0.037618047881726124,-0.06563330169172829
2021-02-19,0.11759099958581007,0.09872045509907008,0.17508243406982474,0.009624031018748445,-0.19550283518543263,-0.22040928511750446,-0.22626369016572195,0.29133123739342615,0.3085713230112441,-0.2047483771031009,-0.146666301847917,0.09934904356263818,-0.034795240191223875
2021-02-26,0.11222546945560502,0.05299929645347962,0.19687747689315563,-0.09294180290556733,-0.21111419820534044,-0.19313298990751196,-0.19237057227949,0.35662316192946525,0.380556730519665,-0.20918290328271424,-0.0802784777787993,0.0802757255382608,-0.05539389823408111
2021-03-05,0.11692898129762931,-0.007959941205033363,0.22426395011846523,-0.1508439958496546,-0.18843300544474975,-0.14444733368390716,-0.14366841645470138,0.37780626445179993,0.4402953878957365,-0.19567085504459414,-0.041913044583629225,0.08265690546293213,-0.14919305649879516
2021-03-12,0.14860026989664493,-0.01303376990515235,0.23463333123503305,-0.18041979756013177,-0.2001997943906242,-0.14382399149993721,-0.14298737667104758,0.40723943294005893,0.42602734562099975,-0.17215108666880843,-0.15801712045334793,0.10372954460544002,-0.35503389130810925
2021-03-19,0.16165992586271533,-0.03525199764396597,0.24267236303423398,-0.21131103651548275,-0.21100359509990235,-0.1369612187974658,-0.13471745196279622,0.502293685809337,0.4389727349885026,-0.1452255723821284,-0.1372079328373748,-0.0923672335227803,-0.3070096661552005
2021-03-26,0.1994276013550613,-0.0336366352154977,0.28330946334879814,-0.22005252686150853,-0.2071862973509167,-0.13119176394989518,-0.12783829637256047,0.5601911755389543,0.41013376043857014,-0.19144387205767754,-0.12651811946869157,0.10937215429116041,-0.35639816424928145
2021-04-02,0.2327318027904146,-0.018699660723650664,0.3087635343087322,-0.26228451017046855,-0.2368681433276507,-0.15102753230558777,-0.1422449278606629,0.6308924503586166,0.3744364598460102,-0.1297303542265031,-0.17399460106948322,0.1938019613436073,-0.37652830633602274
2021-04-09,0.27721392997715116,0.07537541512921409,0.31332041333615746,-0.31538479048355916,-0.23636560501535087,-0.16100310608411184,-0.1505451757051253,0.6601575741049936,0.3585159352326174,-0.1814721925498367,-0.22030214890022276,0.2338915202734071,-0.274845622095069
2021-04-16,0.3061738188608646,0.1293573864376076,0.30313936666287344,-0.3844526680543262,-0.28528289773554105,-0.14305032649932564,-0.19453775410863647,0.640126596432683,0.3581399367056251,-0.18004419215808795,-0.13345542108239472,0.31515548528592413,-0.23784472666111142
2021-04-23,0.3090806190687739,0.10672841548076492,0.2716337822863103,-0.3591184517575469,-0.27012941915472066,-0.1624735678787239,-0.18421891247966235,0.5867162443021589,0.39074743561845693,-0.20566763337359362,-0.042953814517869074,0.18848371173032155,-0.28175892085483434
2021-04-30,0.3323181224652462,0.09070627393484312,0.25985103483800737,-0.3150145943984957,-0.24764397646293154,-0.18997722401532152,-0.17542294458209667,0.5020611585481908,0.42264350558481895,-0.23669375294867057,0.031689691711615814,0.21136919817694277,-0.1807965053020481
2021-05-07,0.37854403720222096,0.05311650612834399,0.2668233814462229,-0.29403987016851635,-0.24501616142012425,-0.21659876404124584,-0.19811887531802747,0.36760381965028754,0.42081084611734393,-0.28013099980783895,0.06859131704774543,0.28373099155466575,-0.2280978021773177
2021-05-14,0.3665468924548495,-0.04784314437225772,0.2500166549848158,-0.2559789962055023,-0.24140397218915405,-0.2438053979189614,-0.2439723019367391,0.42681288857518734,0.4428553324119939,-0.3034919375278877,0.013040739483708562,0.21066459940519688,-0.2058259102302137
2021-05-21,0.3527643642235293,-0.03168800762294941,0.19221415918608062,-0.22248683951031648,-0.21963475341535102,-0.24170605164768125,-0.23836074864887447,0.3239016437760843,0.4665132587683461,-0.22614049324238766,0.005036537019212205,0.12567948073576027,-0.15344828261259924
2021-05-28,0.3391344503884046,-0.029050954590176783,0.1502586451899755,-0.1665063103544476,-0.1902971249518943,-0.23110712779810477,-0.24205124060997046,0.3229784247875817,0.4772654338239908,-0.07920927569052627,-0.10093841445646502,0.19346752432003064,-0.16324862166264242
2021-06-04,0.3425409400531764,0.022460391136265082,0.13029017957971775,-0.24433578577557827,-0.173666218691699,-0.18767988162952562,-0.23846696417436633,0.15552449408473787,0.475936049222469,-0.09524102219893563,-0.057781108658771896,0.24911730912520486,-0.16322897936526543
2021-06-11,0.31783984866044346,0.06430394767299442,0.1389073173696747,-0.21884129523389664,-0.15222806999075517,-0.16207969987920914,-0.22053390642012086,0.03272949824276786,0.47280661861043766,-0.04440654845192616,-0.03912436610787364,0.23298930962942474,-0.040400286079561254
2021-06-18,0.2891340014036864,0.08408181041708634,0.14893971358603553,-0.19920549539816715,-0.13695360027011455,-0.12636259700143307,-0.15903280949683854,0.03810994289959736,0.48432465072137587,-0.10520915391711921,-0.21119122108099223,0.18636325994925512,-0.05336172361867396
2021-06-25,0.24726279038659094,0.08565237934877579,0.1532491037861815,-0.16206503610890913,-0.11866135909368397,-0.10237231386003068,-0.09745074115589539,0.045142940644144314,0.5091953798869088,-0.15127310273142094,-0.20348805305053322,0.1268566777738152,0.11270462835408053
2021-07-02,0.20764572252964572,0.09258850533606651,0.13560112880776842,-0.11841950125484255,-0.09386229561699659,-0.064917372496677,-0.0377201483217126,0.033527603067295665,0.536163102893169,-0.1173166294278632,-0.2489223912959011,0.08199878064490274,0.00536769896596688
2021-07-09,0.20567674648620313,0.10940753980228912,0.11329748714553958,-0.09230960806966847,-0.0739530951069939,-0.04106019281976876,0.010835921176565018,0.007291120757510445,0.5376869318513584,-0.14688757444921496,-0.3428941260048694,0.09950926038542826,-0.16629483525295624
2021-07-16,0.20631064532322313,0.12964497081991194,0.13325082580579348,-0.09749610636839645,-0.07209885540466035,0.00730906523383925,0.0989921734728515,0.011246188503167436,0.5210455925781745,-0.1765316196110979,-0.3818635078366542,0.112175927121538,-0.38002741763848513
2021-07-23,0.2241370755018765,0.20897749936807666,0.09894103578079103,-0.07389303696890272,-0.05196982459568463,0.013637737937805077,0.11513435947975362,-0.015373180976125854,0.5173231893688341,-0.20496648107101298,-0.3468520582269205,0.1272459645759218,-0.18655724652230932
2021-07-30,0.25908999709827146,0.2506051001963094,0.04658602854277055,-0.06993214484889573,-0.05572842691867777,0.011768459366530844,0.10447567184357362,-0.065752471332458,0.5115077227622163,-0.1804452793114872,-0.23694295614343344,-0.0053131611181551075,-0.1589244233354515
2021-08-06,0.30708585500252583,0.32571359088674895,0.052979962726665594,-0.084250084828759,-0.06726649795000007,0.012595628593817009,0.11366273360807674,-0.054233177387017585,0.44721534295109205,-0.0443530023934878,-0.31862079883342564,-0.033250839436468546,-0.14581241979988516
2021-08-13,0.3503154606939242,0.3727057162819367,0.054306043602337144,-0.09786473192126671,-0.0747233448719237,0.019366973955763898,0.13264600990962516,-0.039290692749223116,0.3936814308113858,0.05722740838341678,-0.3526699745041044,-0.07414129007937707,-0.26244205829170814
2021-08-20,0.3478432052520671,0.3819554480404749,0.05516686681299949,-0.10254908354560331,-0.07423196162742919,0.027969073364350273,0.15871435884558965,0.01725650061689271,0.21035439678649168,0.13250351868080334,-0.38080126668580866,-0.11344930895645333,-0.19746070066332475
2021-08-27,0.36915379264531795,0.4285038110278145,0.017327016623379383,-0.1043464767484665,-0.07479367750734647,0.05425291938348658,0.20965737248358504,-0.00815923335206968,0.2160813144348083,0.23408116503462295,-0.441851799536527,-0.1874213628588367,-0.15048835469764785
2021-09-03,0.4312005581823083,0.48494265801428543,0.024954038235941202,-0.1369269143801135,-0.09657778560808473,0.04837194587000152,0.22992191865064782,-0.03204418160361784,0.17971254278675658,0.2646536844140034,-0.5013805011389342,-0.3254861951739488,-0.15544588195219214
2021-09-10,0.42070197829797257,0.5465700945249304,0.06513028545106883,-0.16375216053203379,-0.10860644660953293,0.07932107824052795,0.28588421442855355,-0.038360887256419375,0.16862921711022255,0.28077911242576004,-0.5572645999599488,-0.40007721212452096,-0.25337770792760406
2021-09-17,0.42059691880425987,0.6256910330090198,0.08362531182258316,-0.1864714627322508,-0.1270294079071641,0.06768742806729479,0.3439105197574479,0.0034165325057136584,0.10270393055023717,0.2817384989611366,-0.6338121234347085,-0.35703776106123386,-0.19015001867243803
2021-09-24,0.3593566205002431,0.5647408974012389,0.07735462293978965,-0.1921456088407553,-0.11688612484210964,0.07695074124555515,0.42483649869145457,0.03898240415865037,0.206776865106617,0.27132037767160216,-0.5669344395955354,-0.37485432554275006,-0.22093099877248068
2021-10-01,0.27044933598549314,0.46897794670811066,0.08650565745052498,-0.16928297930760353,-0.10219955971227554,0.09240118773694064,0.44192238975742,0.048840035403958815,0.2991608911639885,0.3116725115137886,-0.5762695533856994,-0.43202843726348467,-0.24792118017776538
2021-10-08,0.18197953462810396,0.368107120281037,0.09776188471596108,-0.15868794035339556,-0.09602309917718065,0.07643253206116624,0.4376028441039559,0.10773183340369155,0.3856075813438486,0.22861146272682173,-0.5750325806889321,-0.4230568851307767,-0.22418579784224055
2021-10-15,0.11093356163020246,0.28144097773744503,0.09592862073753675,-0.15095679076627191,-0.10137732562888452,0.06056103760943368,0.47203010003003903,0.15784048330971878,0.45359571658043274,0.17578144254322983,-0.5109256955051372,-0.4082620144178402,-0.19694386500173625
2021-10-22,0.07894883196248778,0.19802259335669814,0.09511595331268151,-0.13291035201356735,-0.10905352698587564,0.037806955081311266,0.41617439062279254,0.1837002285852726,0.5146909991154118,0.11275357369524969,-0.4402578293197704,-0.37152889060546135,-0.17487596517637644
2021-10-29,0.046312374766121496,0.14607668107601612,0.1027535126207362,-0.11350550589016668,-0.11503981998104129,0.02320726887727525,0.3814881591700922,0.22655400374808912,0.5762879618105794,0.058846122075406536,-0.37136120839558084,-0.30289059987223166,-0.13766605187202863
2021-11-05,-0.03067599067575378,0.053138668351711785,0.08948696069560917,-0.1015773063619465,-0.13299640720925418,0.06330278767760053,0.40995446947537184,0.27228298446780624,0.646531191231785,0.04030728649284481,-0.30875748334671904,-0.30318354178044926,-0.1167133105059373
2021-11-12,0.009599814408722866,0.06655911688884183,0.13905770691032485,-0.13289324636104796,-0.15512590092816828,0.02295914827206546,0.4004795018882926,0.33952394424004473,0.6395134225224731,0.09332143333064538,-0.22383560597341282,-0.35156364483126784,-0.1496074142155093
2021-11-19,0.025171169443854478,0.08079633409252743,0.14608457176790599,-0.14271497953044512,-0.16640763856200985,0.02154495050708489,0.4222741252678779,0.3560045185511992,0.4313510879334811,0.11091836232070708,-0.30596389738110696,-0.41386853783372873,-0.18178666287094308
2021-11-26,-0.005610373273241105,0.0755125347520316,0.142797934995912,-0.13712254762198658,-0.146950161892872,0.06164044788466809,0.48759362659331074,0.37784721623125345,0.3264622005989401,0.1323099807951076,-0.371920665465905,-0.44162893387034535,-0.27012940915033473
2021-12-03,-0.04157497925345454,0.054560520362149596,0.11469571001504442,-0.12260879920895394,-0.12175731509841244,0.10816292445161615,0.5327978595226508,0.3958584269985773,0.20978857740940632,0.14426910505538407,-0.3846200650075975,-0.4173375173993958,-0.3700424848658153
2021-12-10,-0.00937985566325368,0.06683583239525429,0.034311315567349385,-0.10357565018883855,-0.12234486141238299,0.12073294347548466,0.5670811884930371,0.43909913890505475,0.07028458432042736,0.15917268077182617,-0.4222302884929242,-0.4218646672540482,-0.30115701231703434
2021-12-17,-0.01527812709298889,0.03293529247481302,-0.02165857036405166,-0.08231321664598978,-0.1027721217809292,0.16661698600084365,0.6042297864657901,0.44430219132894166,-0.03706313453451267,0.15101077000862745,-0.36652649737166104,-0.41869799422332177,-0.20037666946504157
2021-12-24,-0.000836569993444676,0.04065007650847578,-0.11756389155418848,-0.14499867715971554,-0.1599619867580431,0.15568039820746307,0.65376342996174,0.48776034298496657,0.0044960333733629135,0.13399193532870501,-0.3650516062580034,-0.3396755050378706,-0.1813174231114872
2021-12-31,-0.019757760486531332,0.023727223657803522,-0.1592918601080867,-0.162492567007116,-0.15299887216356367,0.23016462664782283,0.71702467458805,0.5248658489922655,-0.036343401999930275,0.20795664773320455,-0.3755625629981572,-0.4278910990691424,-0.19090672914876308
2022-01-07,-0.055522174622464726,-0.03356326932601708,-0.1967326898451041,-0.17476181166646013,-0.1508407704991022,0.29882820084129424,0.7433956050313549,0.5891273513390889,-0.0796620966848337,0.2690049198917676,-0.3423513280712203,-0.3780034217865131,-0.18259169836597247
2022-01-14,-0.08223342193509069,-0.06171781233968647,-0.21151845707609046,-0.17707716707696125,-0.13278796382389552,0.32310726788529,0.70128212663784,0.5851188168589532,-0.08098428572700249,0.27868384593195167,-0.23225429558469235,-0.29703889916375636,-0.04507516811824602
2022-01-21,-0.14299914062831798,-0.1050005771218254,-0.25438233843688063,-0.18634202074343822,-0.10168139614693518,0.37440274733050516,0.6798437428747076,0.6164893446482005,-0.029841134631124575,0.3548358664861417,-0.2701033857323623,-0.25797534271926226,-0.040671163537666644
2022-01-28,-0.2120980841458156,-0.15557782290097247,-0.2886535187528746,-0.17648803803958668,-0.06885610916551303,0.41257247790474016,0.6522998993153984,0.6469244554354048,0.08849705670896593,0.3895045687463319,-0.28335869307898026,-0.23501343589865092,-0.05867173155149595
2022-02-04,-0.23711180237592372,-0.18124690243283317,-0.2877478492699875,-0.16687319340021026,-0.06545694891504682,0.38781865577004737,0.5698520932868931,0.6161801151796111,0.21985756204343992,0.3929796206942097,-0.17549891283685048,-0.19599277873661955,-0.07440729631129255
2022-02-11,-0.24709367510278696,-0.19315046566321942,-0.26492154624313563,-0.1707349154713406,-0.07763975414214379,0.3307496584399678,0.47603047526563097,0.581429113009912,0.324077715797363,0.38459990331546035,-0.1211642286950765,-0.19147981470965822,0.007747300583930111
2022-02-18,-0.300173900798786,-0.248983493760247,-0.2571789975481097,-0.16875198810906558,-0.08000239485632851,0.30597195758652657,0.3931733719249716,0.5727403963086019,0.3659610131066642,0.46165521868820597,-0.21235768286844986,-0.1712005877520026,0.04001111531093125
2022-02-25,-0.2911635967427181,-0.24357205080244365,-0.22731396721802655,-0.1628740094061286,-0.08335010603662012,0.2672730487440959,0.3213046380805087,0.5362539940788966,0.43721810144292605,0.4282930849978522,-0.06942874148916531,-0.1902173148329352,0.007142517941545835
2022-03-04,-0.26439652663235597,-0.2263238465758911,-0.20779206986296714,-0.1383690615388859,-0.06254841276245866,0.23491020844406987,0.2564663384411895,0.43895216068422366,0.4584570267111655,0.3800269302737192,-0.0665325354513788,-0.19373773556744134,-0.11358898912639279
2022-03-11,-0.2669449807921325,-0.23452339844623038,-0.20395412895096562,-0.1307681967425472,-0.045249064149796,0.17523456889797973,0.15738516635592326,0.4410835567216105,0.41125305094269804,0.32134719973304116,-0.0775925490729832,-0.013788803471940086,-0.11632196908027966
2022-03-18,-0.2991460813653143,-0.26247446948535935,-0.28063246633495637,-0.1589395063520742,-0.0411719088622845,0.22529328623312816,0.16545631265572303,0.4431588447724497,0.3142179345131746,0.38664727962799267,-0.12773068805735216,-0.010297326054705727,-0.061570907385485346
2022-03-25,-0.25843064488475376,-0.22574121393717433,-0.27477711257927817,-0.14630048543260057,0.007714563764281694,0.22902049675690955,0.1461649957837291,0.432978158853268,0.3362024741345562,0.332281510053387,-0.08651322232788092,0.15450467488309763,-0.1011723788768028
2022-04-01,-0.2463369109282879,-0.21535249282526395,-0.25980469123606026,-0.15874080973536314,0.0017521024612024436,0.21963766524685277,0.14625178536856717,0.44279758347979614,0.2703978311011479,0.4997401937105207,-0.04722398209393529,0.057211873711868116,-0.04616445471137889
2022-04-08,-0.2628443164059347,-0.23867662675437856,-0.3054390804688677,-0.21298036236927423,-0.039379813333939764,0.23557906405225024,0.13870259902632853,0.5341913487381047,0.16142347683079272,0.49174101499028416,-0.02024977720085384,0.10652965242734563,-0.03515171878509632
2022-04-15,-0.20447051279576575,-0.18328754341170286,-0.34829148751411076,-0.26454208156621867,-0.08640685508463157,0.23239736165854882,0.09869065022824076,0.5776674914596367,0.160151408982979,0.3846695780730627,-0.009275940033147526,0.13092205210867813,-0.020735309258215616
2022-04-22,-0.24392725205699758,-0.20345038604206175,-0.3330842513760881,-0.274580545014392,-0.09338357800826318,0.21840287808620698,0.10823244435290318,0.6524392107909315,0.16034736301512945,0.4341579454192227,-0.049126255133280214,0.00023758305117463352,-0.11036620229255156
2022-04-29,-0.2762277552708449,-0.20927266497773903,-0.3323535257040898,-0.2786629474029776,-0.12250938675967202,0.16646430840805315,0.08426070408977371,0.6621572913318082,0.20020703239977894,0.4210145836558092,-0.048718767139988364,0.19675473454267792,-0.017983982369087048
2022-05-06,-0.2774847654910455,-0.21782078858238102,-0.2948947754981332,-0.19949665640198078,-0.0847305011467108,0.08586324522018364,-0.0202717508318105,0.6688464138381514,0.2455593883657537,0.41709939784469335,-0.014625153595330932,0.18934343156262115,-0.07117982280672815
2022-05-13,-0.2478642541936239,-0.1991122410567797,-0.2765852075141833,-0.1612304213225909,-0.07265550024491599,0.06792634358674318,-0.0601444089435324,0.5906195601815378,0.26623964220633023,0.39801394900620757,-0.05127006563093886,0.03730564254841817,-0.05264450272553477
2022-05-20,-0.24066530960673593,-0.19868886577262923,-0.24669763610041875,-0.1290969159758861,-0.05110509683769908,0.0747697517349215,-0.06924561984418849,0.4907071557732131,0.060998970491882215,0.3732310889294736,-0.024005152845073683,0.038483744065333274,-0.018161872315380932
2022-05-27,-0.20390430124259887,-0.17793583766705276,-0.21332182852478013,-0.09079911951304748,-0.034905390185370845,0.03056424633987742,-0.08482838868867151,0.4042959656247922,0.16117331005385271,0.3257542775080095,0.006778837062796507,0.04843725622896471,-0.03818640771197758
2022-06-03,-0.16967913713220406,-0.1510336127656779,-0.1802458247192834,-0.0631600081048438,-0.04500953132786697,0.011518376629432673,-0.10301801110108236,0.3572458046963038,0.23678390371298394,0.21803549203949915,-0.002656964447384143,-0.028506862007946436,-0.05224481041793404
2022-06-10,-0.14384206812939437,-0.12745470544810814,-0.14002435724622722,-0.028891771861835586,-0.05532328427014399,-0.03098892654289533,-0.1232938258842434,0.34387110684384087,0.3078328557259777,0.1038220537458036,-0.0696181898518691,-0.05399571174867733,-0.06415509617935602
2022-06-17,-0.17650499512947773,-0.15950562336522534,-0.14897888580222357,0.028383742537308528,-0.032188531440771884,-0.0120367820664554,-0.15589231601005177,0.24156518892010925,0.3253770774209508,0.009362747705908947,-0.06143254453695368,-0.08216340802500662,-0.02044715873316154
2022-06-24,-0.15934242173009167,-0.14741731820417792,-0.16569804840682367,0.078048541893495,0.024488525704383826,-0.011901362586664405,-0.15811120105968138,0.13019030006671806,0.3589723613580704,-0.06451705987394009,0.004930697738302528,-0.12747649300289884,-0.005639668552466125
2022-07-01,-0.15100878178350233,-0.14219772280446824,-0.16620958304022648,0.13840351025729009,0.07689903917496035,0.03891959034643318,-0.16944878062010915,-0.013311836974639196,0.38262338093603354,-0.10947522214404107,-0.05411211725650664,-0.11983940754277242,-0.037859664900510306
2022-07-08,-0.11235301232304046,-0.09640141341232994,-0.08784680937727779,0.10345591350716807,0.01820154520123872,-0.02657036315630322,-0.17795646172124943,0.00132761081109661,0.41204913040755986,-0.15933160150354342,-0.053409219161462476,-0.06988664701272976,-0.06282485181538983
2022-07-15,-0.15571040140802608,-0.12866440442551072,-0.10941074660012005,0.16509449712560287,0.08891269977648106,0.08520719121178176,-0.1873500092774601,-0.00399322147965405,0.3992057891291494,-0.21388057623519668,-0.040868901780020124,-0.09656501400407702,-0.10018786170280432
2022-07-22,-0.17263189018045222,-0.14777444229864106,-0.114852475146453,0.20153658906912558,0.14428109387620422,0.13554353229073876,-0.1857683707738129,-0.039851627876602576,0.3724677837755304,-0.26526056357992633,-0.11930319798562525,-0.15760074904368782,-0.16153971054455174
2022-07-29,-0.18482416582305666,-0.16591997230389893,-0.13382837505814763,0.23272412422259264,0.19780036680506136,0.1877064177463677,-0.19661649216642013,0.004091403147751513,0.3271093512263837,-0.34268979118257875,-0.1631926868224614,-0.19472261736769791,-0.21676614171743488
2022-08-05,-0.1838050395774548,-0.1691991702969244,-0.13951660223404552,0.24512505009166988,0.2581067926184507,0.2432492231692962,-0.1978490412361932,0.05852777987818999,0.22924820821912806,-0.21746861908483703,-0.22044912377222226,-0.20873332340759412,-0.22851104930264868
2022-08-12,-0.17203496113535002,-0.16389598951302045,-0.14468168929299127,0.2324285694033079,0.30741558223571,0.28324047396241037,-0.18565419042296188,0.13024737325781405,0.13450803491535157,-0.1275411489378821,-0.27453414219555594,-0.21122850791328537,-0.279113891346347
2022-08-19,-0.13890928471472677,-0.13800545848988305,-0.12576560590765073,0.23066770950536003,0.33377474437825705,0.30554571913380546,-0.15387398512323835,0.09551582124404123,0.03530227881654274,-0.049520147906491424,-0.30887930386657053,-0.27443448137670784,-0.24876109896547105
2022-08-26,-0.12134978072382005,-0.11973449347777354,-0.10621500276063552,0.20797052856271522,0.38177504496060594,0.3576098391520466,-0.13328066880395228,0.08756463755269558,-0.011637277838421264,0.029777911214003333,-0.39162335278309285,-0.35822709874467207,-0.24929964320162776
2022-09-02,-0.08797727027172528,-0.08564700111348063,-0.05556025786670003,0.16525611062747364,0.41032705417705534,0.37241253826226717,-0.08699533673288512,0.10149911277116634,-0.11259085455420627,0.10150091163909337,-0.38325451958640644,-0.3093590513720292,-0.24361678217360477
2022-09-09,-0.044525101800153316,-0.04708433056529025,-0.011106353210992945,0.10359047821847951,0.37215831979532416,0.34823339369540574,-0.06987882333581676,0.07900472798945743,-0.18296186884773175,0.11588006957667549,-0.31985293211722665,-0.27898193059820137,-0.2122388158595534
2022-09-16,-0.017037349419809902,-0.019924243734314433,0.03272060221439609,0.0780380494558351,0.32097130829580645,0.2984748189327096,-0.06002599075991448,0.1059665615286353,-0.21077231067975233,0.022500094579063393,-0.24680406428408988,-0.2688287102707736,-0.17841879662639726
2022-09-23,-0.02058068501228121,-0.02335236866859877,0.0815649826054882,0.031578774874210715,0.24353495382049312,0.2356748500510334,-0.0538274655378959,0.20001588038081328,-0.23571965847213702,0.02853631369225752,-0.21356540428954407,-0.332535218148437,-0.14910681433484357
2022-09-30,-0.031018344140416168,-0.03300374488982752,0.11345062868679448,0.00849024986851753,0.22093702331892096,0.2057197615315963,-0.04227987020882357,0.26408858446466577,-0.2587936263809794,-0.016893695507941824,-0.1720814123066729,-0.2066534607079368,-0.2100005629321332
2022-10-07,-0.030348957856794888,-0.03965335225034532,0.14219043113394558,-0.050627621757762586,0.214270066543871,0.19260848586251436,-0.03884236109748844,0.27644643587889506,-0.236113159493477,-0.15757945886463484,-0.0927537263175422,-0.14205915639220512,-0.2719620816958087
2022-10-14,-0.029838045469132057,-0.03941487162269563,0.15005716331352256,-0.08360600818198957,0.15918930384701463,0.14822818252512182,-0.0521670016879511,0.3480633513732759,-0.22914289357641604,-0.23040254352037143,-0.03097786730947303,-0.02817069181355958,-0.25341688959352987
2022-10-21,-0.010064996779605387,-0.019819920511167346,0.15381923098542405,-0.10413554982456094,0.08875713039129714,0.07888242037837945,-0.0763853419179917,0.423644842939409,-0.19178456275861194,-0.289856534364387,0.0005255395359088713,0.01332091208286968,-0.28037218067573766
2022-10-28,-0.004719473991481707,-0.02462486310170848,0.1431553135367798,-0.13163096873147564,0.04557749612172748,0.03445977914953734,-0.11046578525336027,0.4669348337976363,-0.1671019798812636,-0.3455916528703518,0.06586924865670868,0.0827251806465591,-0.35192399018170384
2022-11-04,-0.009943592487592287,-0.037899791487721775,0.15552831280839788,-0.15892734427777783,-0.016419823919571398,-0.027671974854952555,-0.13135573217968174,0.515656933026454,-0.11549054936446698,-0.37706953832573425,0.14658460722511424,0.09003177066417252,-0.42890318372253383
2022-11-11,-0.016760165437806746,-0.047899124626094754,0.09432976829387638,-0.14427381026551597,-0.030196287832587536,-0.056307177335644804,-0.1501341065772443,0.4042895832521919,-0.16008072504286522,-0.39874641535909305,0.18584299583031624,0.13670905928923038,-0.3463312888454546
2022-11-18,-0.012517491950739548,-0.04192029611335464,0.07202603230683427,-0.126717302679542,-0.022172562196885987,-0.0543354271972362,-0.12044480447722405,0.19213557752068997,-0.21511911483827834,-0.3682154485772581,0.18702104997007066,0.14919627048847942,-0.24748643994016184
2022-11-25,-0.007577696036908994,-0.04113178173980938,0.04636377948275481,-0.12830582826473697,-0.016270903737105144,-0.0380145402203861,-0.07398488960728478,0.013334420919857037,-0.26252502432400043,-0.33577532064686166,0.2066795589798525,0.16500586442992257,-0.14326328591155862
2022-12-02,-0.017407040181738036,-0.05046712631793224,0.01824336117240179,-0.07122563309769153,0.01850004926086197,-0.01734050483173453,-0.03510483905035786,-0.10876860298291258,-0.2963426680721549,-0.2960520352385669,0.22404126326488727,0.17770368804007605,-0.06765710800986167
2022-12-09,-0.02072287411668988,-0.04605274954697557,-0.01441848101102201,-0.02893771811434484,0.04084985122187984,-0.003104399712480768,-0.008833589869380213,-0.21512334644223358,-0.3305520749627848,-0.237186140906537,0.213864406546722,0.14184272501302558,0.041337903429013514
2022-12-16,-0.026078524218082197,-0.04985455462708705,-0.01827342004218812,0.027254993441121596,0.04361228647022265,-0.001884274026362272,0.02456699955412852,-0.2795675535385197,-0.36051085688585016,-0.15799067568500158,0.19186344501013197,0.11065011922270214,0.09067771395279847
2022-12-23,-0.04925864524127557,-0.087044589515197,-0.02763021919732553,0.02269183336904091,0.033362231999748464,-0.019073847594683432,0.0046490528969768685,-0.20931539767643761,-0.37450312388847307,-0.15260784559766577,0.341205547917411,0.1967552450825527,0.14395554239915964
2022-12-30,-0.050488320961593745,-0.08857291498573237,-0.0772722383953814,0.03077912561668884,0.06030564584143163,-0.008527547619103128,0.004419412847733277,-0.1812125675968758,-0.39975780700476643,-0.16632722456012852,0.2996981074245649,0.30667934643980527,0.17855778844725492
2023-01-06,-0.05900256423733424,-0.09681408629163375,-0.03989144700135443,0.040008571261252054,0.0708342653201811,0.0303015452175383,0.03087735677517656,-0.1476238371803701,-0.400810655072041,-0.12635876842980204,0.1459727661199819,0.37141882707955454,0.11081395286876025
2023-01-13,-0.059849470821964575,-0.10175816931699727,-0.02327016377204786,0.039090041796534976,0.07765526472659508,0.03428305926396065,0.02792520015841478,-0.16396954252917528,-0.3963811769391885,-0.1368588001426271,0.22365433638796658,0.10633065117769641,0.02194438660670138
2023-01-20,-0.06388547236201902,-0.10495712247151943,-0.02723904725885911,0.05598817634084458,0.07039113299297096,0.03606994841651632,0.00771669068643724,-0.18443109782505931,-0.40051282766461904,-0.1455404371320102,0.22031137199593054,0.03449010468730321,0.10374703918678685
2023-01-27,-0.040953166398039156,-0.07685579357173339,-0.00958655741296546,0.03866439327383241,0.0806182769436161,0.017196272329538943,0.036380047751534174,-0.17606274897364546,-0.4131141504361388,-0.1610375280197137,0.15445651522225196,0.07034030566913616,0.09036892389525636
2023-02-03,-0.025956746026460628,-0.022363470733009923,-0.0734774072721502,0.06480814879145615,0.12117041818679401,0.0668098357810482,0.047074627697570565,-0.15433021827460572,-0.42892024565684767,-0.12579969802292584,0.17414559682915104,0.0698477292327947,0.12210162408644848
2023-02-10,-0.03891105390105104,-0.030257612929661223,-0.07792670652911554,0.06645981332824812,0.1607381437499951,0.08784050253326403,0.04491775680882935,-0.19976886448328948,-0.4158788949183747,-0.13403607863482186,0.18353913713972234,0.03560200874985165,0.2570854527358801
2023-02-17,-0.03418280411211067,-0.016542794937625296,-0.037170775823493596,0.018588666891615833,0.13430321232276168,0.07529271455403867,0.025962370379407167,-0.29351303485632974,-0.42849488462395774,-0.11681987677214034,0.25916118368125496,0.11220199076740289,0.19789209399538016
2023-02-24,-0.028953321772217877,0.012782244833508118,-0.06667128371753846,-0.041311979068338,0.1054197481225014,0.08206822188122842,0.06868213857714361,-0.3186392872861977,-0.43384907132527495,-0.13821403309728644,0.31250154409543707,0.09379843533632651,0.02384502098718136
2023-03-03,0.03946990516797626,0.10571809733517809,-0.13795354340069077,-0.07990633266885816,0.07347547670259648,0.06762198902624857,0.10243860831659335,-0.301621150884575,-0.41981093660560154,-0.15788971972648425,0.33110707406006185,0.16544339644347167,0.03147990542504631
2023-03-10,0.05536981176185288,0.14156668874764733,-0.19333581902146205,0.0005990846030871355,0.07706226260672075,0.0787390172788123,0.12155116992037562,-0.33991601894163714,-0.41667879550199044,-0.16479638357486362,0.22460513356868445,0.17543842388030909,-0.08223688697815348
2023-03-17,0.03982508895192667,0.13298814396855652,-0.15689562080072994,0.07184058347930838,0.09563669857977522,0.08716565502502258,0.10027561868568527,-0.37347050862995645,-0.42284317386771464,-0.14813740128485842,0.09087838299255077,0.20236816424760157,0.0206471820944462
2023-03-24,0.03077218878002265,0.15892968980946842,-0.16912343715557737,0.17608979854014375,0.1338468897581698,0.12441130588767112,0.10191351505205311,-0.41867909715749363,-0.4191469919091104,-0.15233004179783885,0.07988788916424358,0.06570717679527713,-0.05003870978989057
2023-03-31,0.05250030970258528,0.1714174278951376,-0.12339470577629535,0.1677187050458249,0.11503501806861362,0.10570976318338834,0.09344391305881983,-0.4184520877267163,-0.4290688987903097,0.009216129780444005,0.11548574004784719,-0.04183808621239943,-0.10090180773944611
2023-04-07,0.08854447556743619,0.22639680715185473,-0.18461501318814574,0.20327698901471603,0.13720267763958327,0.12463791780429853,0.10254030731912954,-0.4779240643145182,-0.38870006356866377,-0.09891425469674789,0.12793684123947538,-0.06753764252037193,-0.08501800648018562
2023-04-14,0.05704313645425748,0.21497117421629577,-0.17376496282945206,0.17070739902459775,0.10126345314534906,0.08442792348374627,0.058185757650585916,-0.40891879590670926,-0.442005946499783,-0.06613614360594286,0.12465971859194525,0.01257823544073472,-0.030350650399435422
2023-04-21,0.07625512861021973,0.22137900016388895,-0.19801568771423528,0.16843694129959305,0.11133974755012331,0.09941761846802069,0.06305115525958242,-0.4458421596623669,-0.42265300871991573,-0.048928551379398555,-0.08769690336433145,-0.08885854073165836,-0.0610009707973079
2023-04-28,0.12437097187024246,0.23045378485560544,-0.2711231298761787,0.1640962616029853,0.12596879116134255,0.11748631509574196,0.07188108054104655,-0.4888535685168235,-0.4020432718720628,-0.06832372638801662,0.064316561230773,-0.008710125315967335,-0.06965635474488992
2023-05-05,0.1678696211641819,0.2332988099279898,-0.3699981467099645,0.1388051304698798,0.1269906318604842,0.12276654457053032,0.06528712378632102,-0.43810258784481987,-0.4088881495175251,-0.08518978283332246,0.1369631424817894,0.13891140853365785,-0.04779223387017386
2023-05-12,0.18483464811854747,0.23413103075126748,-0.2852477656672798,0.12475392797177982,0.11586678795417704,0.10946639398864937,0.046441275250879446,-0.5470939380475538,-0.43274628211466754,-0.06696104462038066,0.17541217819097046,0.23051801031647245,-0.10678970102330224
2023-05-19,0.20005190890707794,0.24376127141761095,-0.1755973261734411,0.08528310267163414,0.07046591313021378,0.06310908744368168,0.01524703070878827,-0.5371775742034036,-0.4545315993955782,-0.05284711530745241,0.21921933943161515,0.24538789678776174,-0.00820355133310563
2023-05-26,0.22093095227147796,0.25127524830518705,-0.1494898915782239,0.029144555157865064,0.034555874605480874,0.039692005473913924,-0.0016841619954910993,-0.5663667447419958,-0.46579060846210646,-6.933414185748832e-06,0.15673862722100518,0.3096343496902586,-0.1012907091618693
2023-06-02,0.21924503556147695,0.23676212940009714,-0.17148764306973668,0.03591314907780512,0.034330636545309365,0.034800280159303205,-0.02710723329413406,-0.5271084318591672,-0.43536512782319364,0.2639957556935919,0.11277832072404922,0.26343844946699985,-0.10063881421157185
2023-06-09,0.24452650993589564,0.26082024018314165,-0.20146626167191115,0.030626792393976563,0.029094856146921567,0.028299892367881798,-0.05435038192124259,-0.5125198100265391,-0.45156657026938324,-0.000728369543797236,0.17352749527799743,0.2690523028629134,-0.08609990893802436
2023-06-16,0.2369614434097198,0.2710354879210694,-0.14687960627920227,0.005381059452845456,0.0003840290282434884,0.006001862873702173,-0.06236034439607473,-0.4937204827058951,-0.4667047347804501,-0.08668115016082627,0.24064483590498964,0.23624733519492802,0.03745598863262484
2023-06-23,0.2219472484487377,0.27670180790008253,-0.13516728216664137,-0.000757078397107043,-0.010814379267211627,0.0153497906931743,-0.02234133007979685,-0.49206285430658264,-0.4692244525744963,-0.2287583761205949,0.2842561625405515,0.3367085328655293,-0.07312058757437097
2023-06-30,0.20932041749369246,0.27577423392498346,-0.05687252737597172,-0.06195246014612946,-0.06011228453559967,-0.00960409132842831,0.012844424287220095,-0.4227017792948803,-0.4771667407448775,-0.25622522028026673,0.3350095010107977,0.4081982647294934,-0.08362522677156142
2023-07-07,0.2497947849688683,0.31569703582426734,-0.00390862992997263,-0.11509631531713194,-0.12688407963454587,-0.07397309936401204,-0.013304525817072362,-0.4188939955486882,-0.41856505768583796,-0.29320879661984545,0.3554522176373919,0.43556811243504734,-0.09262494406431915
2023-07-14,0.31473684342422464,0.32882427052818647,0.08173155189820719,-0.15703663676107535,-0.1422653595545384,-0.08307473532732201,-0.05243978336584401,-0.43528755204183495,-0.34731493082719067,-0.36144192628898825,0.34393473053522533,0.4554723857127303,-0.13605840080006001
2023-07-21,0.37888309308245516,0.33069044736326514,0.10768319169607364,-0.2014081676315904,-0.1651216382727636,-0.0888410321920313,-0.04107167050534989,-0.4672771126032937,-0.22545474103705576,-0.36002180941358153,0.2902270610810516,0.45993493402596397,-0.24629203020053303
2023-07-28,0.36243854275637677,0.30230728934311674,0.19742987167690224,-0.22329175589732253,-0.18257765109218949,-0.10728043744704355,-0.05027392464326448,-0.44280957583550845,-0.08810294110013012,-0.35165300857891124,0.25631486317165697,0.3990561144987779,-0.27975722641943096
2023-08-04,0.3518192336840269,0.2833681522277595,0.23420089954430506,-0.21963864371288544,-0.18284440871055843,-0.11750216493141366,-0.07917982315815862,-0.4307333288987339,-0.007375792428906611,-0.17047681273852341,0.22613051550828264,0.3420421507637126,-0.30920235371542515
2023-08-11,0.3346793855171989,0.2684455714205378,0.2517125361790983,-0.21347965643848638,-0.17360253641517964,-0.1231434194658224,-0.10387517129539535,-0.4159702956375784,0.09149343394849742,0.005426082579583713,0.1909721350586991,0.2802751138859337,-0.32743025358112976
2023-08-18,0.2989248946990829,0.23772752448618648,0.2646615271947723,-0.20434121677469094,-0.17029253621225027,-0.13131520671337757,-0.1215862909307925,-0.3823495919993313,0.19807426987220422,0.1373344192987822,0.15334360718776402,0.23367989403220335,-0.3015167531047661
2023-08-25,0.2878712227415719,0.2248965103703885,0.2959046358307489,-0.22243222267469762,-0.18333764367371783,-0.15049020966389437,-0.1387825095156826,-0.3742983617711468,0.2754029193554726,0.28692018683223885,0.05855983379929362,0.20656859111822812,-0.281012606258288
2023-09-01,0.23505484852631045,0.18120893293254925,0.2685937562291271,-0.16577095095284264,-0.14340959730911063,-0.12638782007226734,-0.13337398904344877,-0.33766635462782923,0.36754568632946466,0.283548773286304,0.02248040830310006,0.15347414247305977,-0.25224772746793983
2023-09-08,0.1477895188363446,0.12847884997729314,0.2867187776189555,-0.12427547206639786,-0.12971277147085597,-0.12682412559717487,-0.10550888403881535,-0.29827687194682106,0.4800824991583873,0.33288070491470334,-0.005371606597627105,0.14703917584416396,-0.275088369510696
2023-09-15,0.09938493595375078,0.13046727308759362,0.3217307040881457,-0.08458471404557916,-0.1345550018839931,-0.14981439351210796,-0.14958481758080988,-0.1923811161767042,0.5415162889804706,0.3353699051535777,-0.03702030463785609,0.08121965405388282,-0.23937945752524853
2023-09-22,0.08460442437716872,0.12721495059632784,0.16500653206359103,-0.05043993662545223,-0.09561197085767326,-0.10588129788109588,-0.10303585696143688,-0.1830114527628427,0.575219929832213,0.2648123456449222,-0.03625604958510504,0.05620736249997327,-0.21711373869540296
2023-09-29,0.05586042639938678,0.10938550911843672,0.12016165570153628,-0.022777240685707877,-0.08005196767751308,-0.09622640104248223,-0.08854058422353886,-0.1062134094234149,0.5946491153536154,0.123056341231609,-0.06712662629475062,0.04379648589374862,-0.15716960979956063
2023-10-06,0.04669622239955279,0.10436983376854843,0.059744838870772796,-0.007277497320517077,-0.07465078045680602,-0.0932551702131793,-0.08623638985364646,-0.03836394289538274,0.5772699407226691,-0.05035991055355174,-0.034262135464889584,0.009704528095755713,-0.08354400333713269
2023-10-13,0.024406029425148645,0.09669049878693423,0.07680573834830216,-0.009411069127234932,-0.08666617326361878,-0.10477072809166231,-0.08281011140456374,-0.0017818344265157153,0.5603534407367121,-0.1714297546587766,-0.11496056040223897,-0.006794666370604147,-0.08418644937090793
2023-10-20,-0.0004617420195984636,0.09729082763750865,0.10714185496666331,0.0014983923271399153,-0.10000250329864502,-0.12830930778461955,-0.15191268538887004,-0.04256978034980508,0.5571906843673662,-0.11653094956894325,-0.18508141580624476,0.007771290945553417,-0.126010076900919
2023-10-27,-0.022918447438752237,0.10443480369597609,0.05489508679523864,0.020820464960953262,-0.08854527246064998,-0.12674143094593615,-0.15173477522398413,-0.03078182994019058,0.5537335761340256,-0.10410546550776682,-0.13487017477134644,0.03082082951005439,-0.21935859900377055
2023-11-03,0.03233811170073405,0.15738694097408937,0.04225013457571869,0.04743998041285566,-0.07185260180196847,-0.11357105687048834,-0.1607004448360406,-0.0008916450416077068,0.5167080629318181,-0.14476102731387835,-0.1918843121047855,0.012549726529519283,-0.35020022034768683
2023-11-10,0.0905224287874617,0.24272152376027906,0.03198135873791786,0.030890588410339256,-0.08525090081860888,-0.115222337481447,-0.12387672520249592,0.031258984251278016,0.4618153557470495,-0.19696563266786382,-0.20006546765433128,0.03894968174038018,-0.4541608007812619
2023-11-17,0.13036314815669706,0.3178352663560835,-0.012382697104837574,0.05264581580105293,-0.07722594141008411,-0.11373950155310707,-0.1196886850806243,-0.030870870300317224,0.3982892521084511,-0.23098829391974607,-0.13755303289364576,0.06250303842635056,-0.5136468092352849
2023-11-24,0.18727316614664705,0.3862949728191578,0.017971836782496274,0.03443884934609514,-0.10915406652086944,-0.14922159556375258,-0.13203390249950953,-0.13882343960208432,0.3617950336792484,-0.2190204820863633,-0.10022170149236208,0.10369210017204607,-0.5022684632822487
2023-12-01,0.2046620810953622,0.4065208495988651,-0.01289790256455594,0.08907646675596695,-0.07835704775447623,-0.1260913442396377,-0.11278950005552782,-0.24399355725717814,0.33691619289308916,-0.13028231864512635,-0.12106770725533889,0.09247787760954798,-0.5551272920544476
2023-12-08,0.23336270088909045,0.4283817737241583,-0.053827455703549736,0.14207871298295716,-0.03829661026941105,-0.09098164702843119,-0.07296293263115387,-0.3160466525458265,0.26226013805365256,-0.20106805780480735,-0.12622919430389448,0.09805087685869626,-0.5674078710633267
2023-12-15,0.2351246613909652,0.4235043106027037,-0.05001093882401413,0.1908056370330558,0.006475667644421743,-0.05071613198174181,-0.03162921251208771,-0.42772771275446164,0.18875086197117438,-0.24905689093955402,-0.12333210647825424,0.05775556790230136,-0.5293338149037738
2023-12-22,0.21448321691831804,0.39593741297567153,-0.07783824994754768,0.2645087571003241,0.06175106620471175,-0.0074032867500695085,-0.0011411496057669862,-0.4694465566303358,0.13571093223117137,-0.28769185071115355,-0.15542461660646692,0.034435428718341654,-0.5617123522153604
2023-12-29,0.19377894489095585,0.3600124019443878,-0.04343885592117263,0.3117894613166864,0.10123032694407673,0.024375137279527483,0.023021899175386367,-0.5678186823704724,0.06829376777435174,-0.2964244349149434,-0.21234772279813413,0.01572030439445337,-0.5456025719831605
2024-01-05,0.1736502612618142,0.3100762533310497,-0.0139254504319359,0.3802786975349306,0.15279145884384931,0.06451009285781938,0.0624371571278898,-0.5733699404281422,0.00606109544736802,-0.32915587162004645,-0.26021389720569027,-0.020469750650108268,-0.5618521560607577
2024-01-12,0.17001151522340924,0.29125847042765046,-0.009779721510048123,0.40546183738980457,0.18994542832978817,0.09669724469004955,0.08540608738194963,-0.6038108763828643,-0.05308206166857161,-0.34777745199807475,-0.1705160842751958,0.032156458777258444,-0.4564773011581038
2024-01-19,0.17572915095756017,0.2724232569112841,0.0168193469815712,0.44550363541734217,0.24188579978853866,0.1420839310554055,0.1035616228361718,-0.6128868792727528,-0.16962203253029634,-0.39172217596980585,-0.15911711126860778,-0.02572118001480493,-0.4019909197281023
2024-01-26,0.2434562850920851,0.305369212999244,0.09463074951561633,0.4710847704705729,0.26900008564308453,0.15790254673678764,0.10323950437825716,-0.6593810225038247,-0.1855263394479299,-0.46168550538156644,-0.20762084073276804,-0.08461439166998244,-0.3890702882115094
2024-02-02,0.3145487024253768,0.3180075440047322,0.2326837408101487,0.4317412929405563,0.25362632397560186,0.1428856566331162,0.10929597234664806,-0.6775016742690559,-0.19136052500637704,-0.5238965661922003,-0.2052087380533358,-0.11903078326466594,-0.30963901752281103
2024-02-09,0.3599490419731179,0.339241603881337,0.3039821910014888,0.39547452875419936,0.22259892810499632,0.10915172568879047,0.08655253885074046,-0.5843181468497047,-0.14982127403959236,-0.5864793693193995,-0.23315422343679884,-0.1260230214446925,-0.31569133833310464
2024-02-16,0.3432073891798277,0.3134429449335517,0.3096805297109594,0.362492091713534,0.201217797890526,0.09560279307528124,0.07338666463498036,-0.5130380772589568,-0.07447874850276186,-0.5565938520831107,-0.3271487774838251,-0.1975900774568184,-0.34430459137513414
2024-02-23,0.36448570277630565,0.319467636192645,0.37901808417901905,0.3181636357350909,0.16309015147118072,0.0665315992160783,0.06459376110417565,-0.3975381913506433,-0.026413107327949138,-0.569906934950546,-0.35886476325607647,-0.17977995519889195,-0.40093911428296786
2024-03-01,0.39493857312775116,0.3404527301863226,0.4102216574047313,0.35944509408709807,0.16254406791597223,0.05915029748384931,0.08799044097633239,-0.31551392261252675,0.06014087090245122,-0.525026502851252,-0.3635606087022595,-0.16713849107486964,-0.5148960645625147
2024-03-08,0.41766007339468897,0.31408620066289833,0.46936059760159327,0.3736956643195785,0.14953575126351926,0.03392011158456724,0.09431846235429021,-0.267429766958459,0.09465730420769806,-0.479732107978204,-0.4741111323804831,-0.11835713470088549,-0.560625136528547
2024-03-15,0.4215261640317003,0.26996518662123814,0.5123437132658516,0.33860399327602625,0.0963713953374796,-0.013595153337924978,0.07158296239238761,-0.22208950116211243,0.15675754178193863,-0.39903888173958757,-0.5058961438704912,-0.12644128297949356,-0.5831452349538107
2024-03-22,0.41744043311483764,0.28395031183954317,0.5096553344720223,0.26274863485166716,0.03206194717863496,-0.059301598492429254,0.06873563762999085,-0.2081896977980361,0.25568617540704675,-0.34397659644100964,-0.44752759415229826,-0.09163932043661652,-0.5536842809317446
2024-03-29,0.34587393675938055,0.22687496263044987,0.5543481227350152,0.3003003539231882,0.03324630301180415,-0.07911490993145379,0.12677322486241344,-0.23470804667485706,0.23810483435304106,-0.2673260861855323,-0.4756433585508635,-0.10909864467528899,-0.5099311771589671
2024-04-05,0.3133512065758033,0.16360627421350676,0.5364136560496854,0.28960656849046773,0.03375610636305091,-0.04573352000728804,0.15315129799705374,-0.22961044951155987,0.32175331963085424,-0.17877778874006345,-0.4673824845497909,-0.007301874992909532,-0.5378902164603124
2024-04-12,0.2746535717886214,0.10102166102710025,0.4990028232941152,0.2868292037132775,0.03987002218885408,-0.031000488529531155,0.15239526055611746,-0.1483179033335768,0.37404048976581145,-0.13291334451032571,-0.4797696346031564,-0.12236120674116187,-0.5679261438651715
2024-04-19,0.24888904984480273,-0.0026302717076194665,0.5072169166791963,0.26975234131412584,0.03152409931211762,-0.040768744737150114,0.1560160681640503,-0.07673422804913334,0.2681543292730207,-0.07402583955713041,-0.4897499688368492,-0.16919208100634553,-0.5983151974808061
2024-04-26,0.21022978512241666,-0.06515888834525975,0.47391816546766974,0.2341990485859954,0.014679010883334773,-0.05029914076903996,0.12935500431658598,-0.04596670397191535,0.3475818699622659,-0.026673251466975578,-0.4520437163068496,-0.20867374307219982,-0.5561272385410984
2024-05-03,0.16184636631354982,-0.1864066837685711,0.441056259891533,0.23585344252984783,0.016718222036982942,-0.05212258967647362,0.11556521884144899,-0.04346776505355758,0.3997965180442217,0.026919014703020133,-0.4012645192783574,-0.2581005340690882,-0.4864390390251744
2024-05-10,0.12337042763280319,-0.24728943158496447,0.4180099303270751,0.19839043013661714,-0.01409592826852095,-0.07099687895033914,0.06083807551037278,0.05140564729566771,0.43370855622078197,0.09008312439856105,-0.4204589645693101,-0.2712923420440616,-0.4978196141726477
2024-05-17,0.08940153717333309,-0.31770029051965154,0.38841561842493655,0.20535949338447618,-0.01778841249396499,-0.07545901632297063,0.022841531439838664,0.06639330540727045,0.4671243523504201,0.1455577788691878,-0.4450125418130789,-0.32257230327489383,-0.3646255515718808
2024-05-24,0.060152226523473976,-0.42031330066681477,0.3782584838794933,0.19783066925823442,-0.006488494793501517,-0.04427838477874937,0.04973571686778507,0.13252089922621751,0.481984851962445,0.19049263889538737,-0.44482092507612975,-0.4297878951241635,-0.31687872775660963
2024-05-31,0.05636289166101864,-0.47946530164229306,0.36936844946718994,0.23159990544820452,0.00469962434349595,-0.03903274715454632,0.0686665616932065,0.14723246062536538,0.388444358593896,0.339947599252696,-0.4516417595081239,-0.3627935527917209,-0.28936612767288095
2024-06-07,0.062161755682148934,-0.4974805644643128,0.37504297198742254,0.279229502323953,0.040290006428410644,0.004598607034247915,0.10979376599527174,0.15512787637681072,0.27036277077174886,0.2461204172988734,-0.47693717695581805,-0.3905782676844093,-0.319014622990178
2024-06-14,0.06021365303442248,-0.48742208314698215,0.36173786669245067,0.31451125447762446,0.08514324993900128,0.07690925776732925,0.16531779304440875,0.11466994222836857,0.15581629838721922,0.17253872951863364,-0.5041237089791689,-0.3857291806904378,-0.32511154695313477
2024-06-21,0.06999233460030842,-0.4605862034912481,0.37120971411935705,0.3042713304103868,0.0913179299547153,0.1212667617656589,0.2114081539811121,0.05720518919059874,0.11087023798085577,0.11419894749182885,-0.5393848231800875,-0.39677804227303337,-0.4651020980321715
2024-06-28,0.09602389293115957,-0.42223502295618015,0.3606551924527538,0.3339313412879007,0.13440957894336222,0.15696173304995087,0.26219260597731403,-0.004133936107069976,0.04287408393129988,0.046474573040147876,-0.578740396757621,-0.38470757077956835,-0.4824480554830905
2024-07-05,0.14328451454045063,-0.34931487482595924,0.3426351880588528,0.34376664575748106,0.15781246101538896,0.19015191540293586,0.29286138067316736,-0.06070146331658082,0.01725586183408209,-0.012858327008619115,-0.5982805336936081,-0.33446934374486337,-0.5358531244330444
2024-07-12,0.19386311235974846,-0.28605985549689544,0.3215168806836425,0.36661449929038953,0.19550837275656327,0.22381990666139673,0.31277981370119257,-0.14138067541945792,0.01626746435098573,-0.09882541781295237,-0.6182883314855483,-0.330416331890402,-0.5950755003121955
2024-07-19,0.18447192932283657,-0.2610724001772429,0.29629488882411315,0.32613510398005274,0.18633203363616327,0.2146019826701678,0.29667863160589236,-0.1671980724995868,-0.10021355529984244,-0.11182399277523897,-0.5441113816901048,-0.2904683831151411,-0.4990728613095031
2024-07-26,0.18547230143341517,-0.3262092784641463,0.30378729595819826,0.35485807323305996,0.2288622197057885,0.2543386768295476,0.3072675991066637,-0.2571487752249053,-0.11571916850834069,-0.1639910503472254,-0.492447991485645,-0.2766929035177925,-0.41734357913146525
2024-08-02,0.13059545578005832,-0.3584756830430303,0.2733842410973324,0.3440908518290003,0.24362423093554103,0.26781890863050045,0.30940366220998156,-0.31540799019671817,-0.11667975674366736,-0.021836935768715232,-0.4247738629724274,-0.2595178956720674,-0.3622584659072473
2024-08-09,0.0815195256782188,-0.38222820641050703,0.22637349837623205,0.32797274071226434,0.24967187846774236,0.27753281953833675,0.3066142760891953,-0.3508730825345195,-0.08896639062075447,0.0905489981879703,-0.3488761083678813,-0.25808109654680306,-0.26966566392243396
2024-08-16,0.025726289077679293,-0.41476811504372435,0.1760044778776122,0.3070639929783441,0.2536108488137498,0.28603562266784455,0.3106232899183593,-0.3950830213127987,-0.08358648564809754,0.21249946561911057,-0.29120707491260645,-0.3150648064386516,-0.23192041922260997
2024-08-23,-0.018935924661214028,-0.4399350359730664,0.1513841261084167,0.281898578712953,0.25064545727078497,0.28944842487978256,0.3111946129538904,-0.46791290837437305,-0.0878134600709621,0.3004386201709184,-0.19229105719101175,-0.21731995731694828,-0.22014171959541048
2024-08-30,-0.08354135447209554,-0.4762256475975282,0.11889631383116657,0.27428912545456974,0.2642586858334843,0.296772063891538,0.3039582287773399,-0.5318375782752426,-0.07656048337582282,0.38485612483842097,-0.158612114432232,-0.18498305714526686,-0.114919272511365
2024-09-06,-0.14786985291019017,-0.47395456872026664,0.09030606198539987,0.248236965860762,0.2584776971044892,0.28605691860959936,0.2921960366721413,-0.556343777306706,-0.10903309248128365,0.4125839575174366,-0.08353689039335378,-0.12372830665519072,0.01454379727267785
2024-09-13,-0.17452018713324652,-0.47189863362167367,0.0393257083208074,0.2231103217051236,0.24943626266969496,0.28154704545168613,0.29009488061199484,-0.607713719305853,-0.12492794800235899,0.43151675022197605,0.012338887725851719,-0.049055459664703066,0.13733185114348878
2024-09-20,-0.21562609409521794,-0.5141284048384723,-0.029654821216435027,0.20572349690162467,0.23161650806319534,0.2671934649262957,0.2613859898632435,-0.5966458944811807,-0.15515969019305786,0.4595012013536996,0.07842500643434226,0.06001370995834647,0.11235641602227638
2024-09-27,-0.25345300158287837,-0.5070590014432496,-0.0743010120704243,0.2153349137417419,0.2249043395827793,0.24116267984157558,0.21984655162758787,-0.5215776727599875,-0.27111383739022876,0.4970721572756966,0.038615078950445074,0.03431604052678151,0.07989364815588115
2024-10-04,-0.2943817535393062,-0.5329849195735544,-0.086967490429748,0.22005346736729053,0.21485559229490153,0.22259256756676873,0.2048825012735216,-0.41559759264302804,-0.26505935917135937,0.36311146354160573,0.009456626779539602,0.06717671794469451,0.14405665450878719
2024-10-11,-0.311005596707646,-0.5401924064736953,-0.08338198283339569,0.22051840409792545,0.20331146384689136,0.20182931011139602,0.17071377512144678,-0.34061659689669105,-0.2426181566609612,0.31477067454175006,-0.054289746526881434,0.12768479081527018,0.2796813346242742
2024-10-18,-0.2545367771548821,-0.5067310200719842,-0.05137129825564423,0.2089329826011972,0.17370518925264333,0.18216957110199888,0.09337096415826637,-0.38652663530748477,-0.34611038865718136,0.31582443541467387,-0.046113793484274544,0.14082978309022176,0.34776922143099764
2024-10-25,-0.21306974336806156,-0.48269443693796443,-0.09098971370077666,0.21412095140330523,0.1632983412584507,0.14799876992260957,0.03729355449122287,-0.3941953078839788,-0.38008326301073525,0.36827791036046714,-0.05407943434376128,0.2433037727370127,0.4322695090401726
2024-11-01,-0.22176303965071797,-0.4877424456246285,-0.07938436146537345,0.19283079440058562,0.11142104918841249,0.0865181716870203,-0.0454320873467395,-0.2660919720957982,-0.3922418323119877,0.4193370099897472,-0.05101994120961794,0.2262381397941266,0.478103031893397
2024-11-08,-0.19870413405760018,-0.4558876669264595,-0.06574071865684561,0.1765910113974769,0.08147191597164509,0.05329178246404043,-0.07550187973040347,-0.1562050676071633,-0.42043614876474383,0.4149604919611446,-0.08963743156284985,0.10853878825055757,0.5012860261002677
2024-11-15,-0.17240193226279688,-0.4192303440692337,-0.01887556392159559,0.16988877401668098,0.061350029431209104,0.026493437403287405,-0.10039573180431821,-0.06396878413280756,-0.4323008982503246,0.3717275970718817,-0.17304795564291642,0.04109742870491699,0.5147592141821824
2024-11-22,-0.09871187217396188,-0.36255967168443665,0.00679253804261,0.15691525572589515,0.024217504052038055,-0.006142922107914346,-0.14217113210121368,0.04790977593374551,-0.44004731583713586,0.3753990479966165,-0.22246429295442938,0.07878071910394119,0.5238165199776544
2024-11-29,-0.03441138071478758,-0.31011729464513405,0.04667497747183304,0.12602227327102689,-0.00828566117774339,-0.03516525991593509,-0.13580468844854202,0.15003123876351585,-0.4711802157079943,0.4273305606301999,-0.22911342237702945,0.02812993987338288,0.5259204989172419
2024-12-06,0.02976615701622265,-0.24909622485459748,0.10846898122286344,0.1022231883000106,-0.03195810666171374,-0.0503423509048547,-0.12948027732439127,0.19719906582855587,-0.4861653341888433,0.34189382791204,-0.2553284450135389,0.0030975022491301664,0.4807232812826872
2024-12-13,0.061084608915592524,-0.2042039349047058,0.18015019894653955,0.0846448490079447,-0.0558948957951943,-0.07032363574476895,-0.15157629466935335,0.2721104985128368,-0.4663491622903727,0.28496117933581305,-0.28197653031170095,-0.06608373389857614,0.4596972460708945
2024-12-20,0.035023672332098854,-0.19068429662085706,0.2715695675085813,0.07739172666893669,-0.06502607264290387,-0.08131881912112507,-0.15635404392173863,0.33053517785824627,-0.41544269788422467,0.21688396550249212,-0.2859490842640827,-0.08705635485456398,0.32520795380898565
2024-12-27,0.010033840272779454,-0.15997736664207132,0.3619391092387252,0.12499556847024837,-0.057573672743844374,-0.10216654800277195,-0.16762297667600742,0.3866976241936713,-0.38788220140021507,0.11383425116421025,-0.2593076188436158,-0.13770482401948067,0.3279061549613496
2025-01-03,-0.021778213561560532,-0.1362868888609272,0.4002516522797716,0.18549629046814278,-0.04706270382892123,-0.10049210878240313,-0.18153616457174934,0.39609451818554137,-0.31607821952092185,0.07734436962991582,-0.31834152604429283,-0.1914458357015174,0.2387862239349799
2025-01-10,-0.07874604764657422,-0.11600267229525524,0.4353518916840815,0.22699712405251496,-0.053298012103489306,-0.12340692479888796,-0.2030404892471817,0.39938955228028195,-0.18467830217077114,0.06221065389682145,-0.39743173208598376,-0.25054156779394443,0.23130840185293655
2025-01-17,-0.10795302383258902,-0.09384380627175824,0.4646332418974886,0.1729117813268891,-0.07867810726493601,-0.13728266070358128,-0.21884363379963237,0.4396136944402406,-0.2531037648164768,0.025720205882784675,-0.34490038370793175,-0.2384180012931324,0.3317219233872361
2025-01-24,-0.09528525039582153,-0.06039260719604193,0.5118559042208612,0.15389431264283643,-0.11167117879894256,-0.18357386138335327,-0.27778971243155065,0.4977081243906763,-0.14552130397553562,0.009056181898266916,-0.3334179893791854,-0.26531648306632316,0.36041067814379857
2025-01-31,-0.1054868643604313,-0.04336059655664186,0.5456832860779126,0.16619464644689988,-0.11618378416488133,-0.1939684877428891,-0.3209857686332386,0.4873513878974728,-0.029790540721452888,0.17656816982298262,-0.4010391834773087,-0.2607892926021453,0.36319817771720825
2025-02-07,-0.12933076047740857,-0.028925878389380093,0.5329142106528431,0.1481636876298157,-0.15163872226617275,-0.23315198100962212,-0.36209576727343634,0.5913596031850917,-0.004532596170692033,0.24829615354267062,-0.4389492294243039,-0.3209973564313956,0.37925884584828
2025-02-14,-0.17178372874796038,0.0319487401181063,0.5569220592044998,0.1667645647612571,-0.14846060116756202,-0.22394259595888386,-0.3622700383557952,0.5872403724647117,-0.10769175904922694,0.19277133597131063,-0.43829504087277493,-0.36294105550816663,0.515359657356861
2025-02-21,-0.22923861710496748,0.008807737557799494,0.5145679362084753,0.2044315210593421,-0.13427574422631958,-0.21049483654020482,-0.36018918042668385,0.6891469464891542,-0.19005228089065393,0.14622209379515885,-0.4215737441878141,-0.38896489151584457,0.5514677421217447
2025-02-28,-0.27520694256093137,-0.0312905777046789,0.4691188623893079,0.23812333220161888,-0.08127719430420348,-0.15892974607155524,-0.3029623128825475,0.6691377228372292,-0.2119915413805698,0.09407445117067732,-0.38323834985997085,-0.37697158034816763,0.5228906079983758
2025-03-07,-0.33154544976240646,-0.11017151207174822,0.393421231719916,0.23625396246878652,-0.050490454133680564,-0.12344483588685101,-0.2540930119152553,0.6152535583675004,-0.22902835163024127,0.11424026386833365,-0.3876741666797976,-0.3154491874329767,0.5078629984437381
2025-03-14,-0.3730964016633808,-0.1705624838416866,0.29510202427556237,0.23565238880817285,-0.025217457982458554,-0.09418171659349658,-0.21549759773078847,0.572203075405736,-0.23749453624633426,0.13960753141205354,-0.34082504815765635,-0.23773138057671722,0.5033080933486392
2025-03-21,-0.4165539349822193,-0.23407595242716062,0.20093019856346364,0.23253786107367233,0.000724931082421304,-0.0627691348639951,-0.17759868598571815,0.5275068657572882,-0.23341529468344455,0.14826979402005996,-0.30978459955600723,-0.18280255829862352,0.4462263159380894
2025-03-28,-0.44019730639663507,-0.2642696476671918,0.0918111552205153,0.2522183179512586,0.026785923714064235,-0.03847082454549174,-0.15741973018904193,0.4860495736761331,-0.2551070765719421,0.14870428244166442,-0.2296627609169675,-0.09583049683916105,0.43007860404965287
2025-04-04,-0.43670203002222324,-0.2745124934554736,0.03135611354416471,0.2581845935774743,0.049785907100926965,-0.013637330006638942,-0.12879904770400663,0.4277997407150137,-0.24670252531690032,0.09926793130904124,-0.2523825638048799,0.03856099453433122,0.35989423353585276
2025-04-11,-0.43099452822000156,-0.2913770406575613,-0.056008335330977425,0.21866255818161998,0.0570082292842577,0.003460277438343873,-0.09579934513277899,0.3644099840426297,-0.15825633748875984,0.07321839873114766,-0.1868124630179709,0.027096873874010698,0.3215920975363472
2025-04-18,-0.40838308607047813,-0.2922385236409642,-0.12058505275395973,0.18573893103538475,0.06889528848049721,0.032192414195197284,-0.06541426055995259,0.28848720676951056,-0.20621543038768275,0.06154239092046865,-0.09394849230006708,0.060208613149405,0.2751032357404295
2025-04-25,-0.38771782095279034,-0.29568703864665613,-0.18159248845633144,0.15030687427435332,0.07443994560699274,0.04281536845527396,-0.046935868268171144,0.2396654557944239,-0.06414134255244519,0.017250654276358836,-0.03980643598657315,0.09919418733487725,0.2915887535218928
2025-05-02,-0.362452856003857,-0.2888840033855986,-0.2407633764318662,0.13232996499627697,0.08580204677719787,0.07072073270586592,-0.05115503528065436,0.19578739105845452,-0.07052405880529862,-0.056119735978905204,0.011015100111694827,0.18930534531378534,0.3743224583037476
2025-05-09,-0.34694119699644904,-0.305266699993676,-0.2824045186631942,0.09028847016813407,0.0832726023635423,0.04279574910785665,-0.05582928621513518,0.1853626000667682,-0.0226751864035366,-0.05492846475331718,0.2282163901019242,0.17104959145069118,0.4286948082102857
2025-05-16,-0.34336705929798655,-0.3015118364093281,-0.32366099669551107,0.04298579441250784,0.0704041114908894,0.030065240455002987,-0.0709409315487306,0.25255064038603425,0.02843280660264455,-0.1082308235113825,0.19222717985578774,0.14934618654411985,0.2945846153763615
2025-05-23,-0.33585684635534013,-0.3167770162836743,-0.3519973553261351,-0.0004484308833442932,0.05611887476206863,0.009235187053794159,-0.09126852760846396,0.3258756752318235,0.018910553626790734,-0.15380885151549034,0.2446275988219573,0.2369104430450168,0.37620576115031246
2025-05-30,-0.33071293375707833,-0.31474937887918164,-0.34326974422205114,-0.014139463778998263,0.04568591476088109,0.006048715110464644,-0.10134381127724394,0.34280749364216184,0.09984885278672581,0.02618705562850307,0.17990190382345414,0.17262579273157547,0.3363670407923132
2025-06-06,-0.31799436774798584,-0.29301692216217934,-0.3346215372550345,-0.054809705704782635,0.018239696366195796,-0.017963356671057373,-0.11026287228705917,0.3602297552933827,0.18707587879519755,-0.13050918166688874,0.2169739814484115,0.21193867428435925,0.3544897338545695
2025-06-13,-0.28160301446737357,-0.25759022084538713,-0.30120085035248906,-0.07033318843022103,0.00042036418796673886,-0.02913634923376216,-0.11006980743330219,0.317811161515673,0.2908200994582672,-0.16600139067449338,0.09812824592028611,0.23396829735521937,0.3269677297220181
2025-06-20,-0.23900394009174955,-0.21161319562149594,-0.2563676090137606,-0.0975863161065127,-0.02329579123771952,-0.04297017473466763,-0.11930152882950726,0.24445625615827843,0.38757045556737957,-0.19557387301114648,0.11649084444827233,0.20204896758264235,0.28437157276307345
2025-06-27,-0.21899499521749183,-0.18816625296520817,-0.25902484479974797,-0.09790513369689105,-0.024615880973700623,-0.05684998106148587,-0.18439752724154088,0.2674496657559331,0.46552673495941305,-0.29727755418138113,0.23610855360841215,0.16886094226744253,0.30218463274606683
2025-07-04,-0.19161351199650248,-0.1628561949271578,-0.22579791385945974,-0.05817006627992558,-0.003914979121549686,-0.04977150816613594,-0.1892260733220965,0.21639871250695583,0.508873202152083,-0.21150251874118625,0.1821263855802727,0.13671544577638414,0.2267462135914567
2025-07-11,-0.15770932073014823,-0.13178392353063964,-0.18060562123753982,-0.046042987830002914,-0.0011828432897749083,-0.05156119489484821,-0.17925508828844178,0.17549747996307635,0.535579511197612,-0.08541052138444469,0.12552838140759523,0.09631570846810183,0.15423213534742336
2025-07-18,-0.1342947432293784,-0.09523834756566374,-0.15196974068910363,-0.0709806247378823,-0.016319891273349978,-0.011817438250345126,-0.25550354222130595,0.20254439394640422,0.5667990440633172,-0.005138281282175791,0.0864890871048847,0.07561612991806511,0.09717262463447607
2025-07-25,-0.15272472083162386,-0.12101708499586546,-0.16162092459462418,-0.05241517351228271,0.01888473799301641,-0.03572455021878109,-0.2828684145820771,0.35649819696720275,0.5465901390744363,-0.050269795602915085,0.04586055645209733,0.03968177529159745,0.051931696003290694
2025-08-01,-0.11607662102350955,-0.08367792872146888,-0.11814595461935787,-0.08310953720867871,0.0069757656381143895,-0.022703690400532515,-0.2588689422613392,0.3200487760683228,0.5477406222786722,0.13373484248903444,0.01873871885294234,0.01577150351667233,0.0216542418204978
2025-08-08,-0.09822565169611079,-0.023534040570578327,-0.11342383644318679,-0.13145510315848036,0.021373304391788445,-0.03931935825279741,-0.32935073684436406,0.2721483997156778,0.4875475985006401,0.28653573746175887,0.016552119215654238,0.014252873204068213,0.018811309667017332
2025-08-15,-0.04884581664141157,0.07387585041961363,-0.08637566727220974,-0.2062514040396546,-0.008959327266017052,-0.03069381050434996,-0.3915941052987876,0.23286329611542883,0.42668175245387474,0.3152443145751796,0.009447743721801665,0.007630508892635651,0.011233320190456418
2025-08-22,-0.03074035858906343,0.1115496132659093,-0.08872726940147173,-0.24926950360433045,-0.04631420564639638,0.02108295659283635,-0.45182843757148533,0.2816577077999473,0.36638457387718504,0.4061593980582634,-0.007046836339089448,-0.008559024538076589,-0.005560992230803226
2025-08-29,-0.013294294659668277,0.14592131643695824,-0.0988545147944581,-0.27111828203089405,-0.06009487076909795,0.08821179973842284,-0.4689719388509285,0.265744271750927,0.28210165944869264,0.5496701919550635,-0.03186399631256115,-0.033064795446838983,-0.03068411650653107
2025-09-05,0.019093737073548382,0.1886315048604912,-0.08924707890115989,-0.26066597367673566,-0.057424195410238646,0.1385677715905673,-0.45640129106644584,0.2089705968990675,0.0825005246149978,0.5821615475443495,-0.04865858562559734,-0.049561321366462456,-0.0477715765993384
2025-09-12,0.055767943988196976,0.23974615466910465,-0.10923945578564201,-0.20643856417439552,-0.03534773335068768,0.18891303065954995,-0.4376723372525413,0.15217246186435401,-0.06643049793292338,0.5859879729994953,-0.03623155814956961,-0.03690374214481593,-0.03557108438731567
2025-09-19,0.07053756667680443,0.25654810951067186,-0.11329811940900933,-0.13746622621602725,0.012942706365170455,0.2171210111143954,-0.3713916475756872,0.04523824273829477,-0.1784840189481008,0.5779003438370336,-0.027718161429046144,-0.028232401098600077,-0.02721288041722133
2025-09-26,0.05996499084052936,0.24634223064949073,-0.11681221686435837,-0.09054750757857326,0.062203760231919154,0.24872622982125728,-0.3019680542231877,-0.06313766031376762,-0.1697630516988926,0.7195358048607983,-0.02113002721622903,-0.021522040887162946,-0.020744842882880213
2025-10-03,0.048884782594672105,0.1949529495745393,-0.09427215903977831,-0.06443394354232533,0.0596604832244105,0.27472340427897524,-0.2208332542574939,-0.13956431252674378,-0.31265331212221126,0.756858600455036,-0.013610194313970106,-0.013862696697452388,-0.013362090817939208
2025-10-10,0.03943847397667201,0.14165844470713934,-0.0455090575693942,-0.04254007185328097,0.05684751753878111,0.25128783946922373,-0.11719159937649887,-0.18554570824111521,-0.44858063537202886,0.7219961615289064,-0.006963953651297363,-0.007093152019435856,-0.006837006070151475
2025-10-17,0.042693250236427435,0.11954759726860471,-0.007549112185371409,0.01728573252245673,0.10895341922402656,0.2081086681717086,-0.04598349472402202,-0.2269879170845493,-0.5182234293349348,0.6327036211037027,-0.0036383433779052627,-0.0037058435438584465,-0.0035720191439527313
2025-10-24,0.07862440978303248,0.15507788761847485,0.008231230844979703,0.07740725357561795,0.1885215043040066,0.18726869868566734,0.03285290272995832,-0.2853218536186178,-0.5113870501487091,0.5281739461326054,-0.0024077281888314527,-0.002452397433989355,-0.002363837134276261
2025-10-31,0.1336901189674138,0.1849798628327352,0.02721635815078541,0.1042287680169982,0.21337266887672068,0.1742022149931404,0.10397279580061781,-0.2685068640645275,-0.5098075435182013,0.290698030360639,-0.0009686430415960302,-0.0009866137384945653,-0.0009509854152990051
