,ES_FRONT_CALENDAR_2D,NQ_FRONT_CALENDAR_2D,RTY_FRONT_CALENDAR_2D,ZT_FRONT_VOLUME,ZF_FRONT_VOLUME,ZN_FRONT_VOLUME,UB_FRONT_VOLUME,SR3_FRONT_CALENDAR,CL_FRONT_VOLUME,GC_FRONT_VOLUME,6E_FRONT_CALENDAR,6B_FRONT_CALENDAR,6J_FRONT_CALENDAR
2021-01-01,-0.06923858001162726,-0.03564260907741912,0.3971583697982444,0.18960147978710934,0.1553439926307211,-0.06576443264265763,-0.6187538941355293,-0.16683974383305333,-0.0026685218196004588,0.02530246632123792,-0.03149996606469681,-0.04972117057897037,-0.061722808242771106
2021-01-08,-0.04545839129923547,-0.019277508003965795,0.3602582022358254,0.11335009799788888,0.05168820969667402,-0.14769442794029014,-0.5693390011014124,-0.14745699682353794,0.00796253630952508,0.016513519042170452,-0.01153951777350589,-0.023433716065403655,-0.03507097386851819
2021-01-15,-0.018931259541207782,-0.006879992241062807,0.33069697164723205,0.03439184539869741,-0.049077421127490695,-0.22532220447208912,-0.5175596353604828,-0.1271586395175675,0.022343520372464502,0.00011047047272272348,-0.018284349060556645,0.008915706137775224,-0.0028645211027142972
2021-01-22,0.013864018703341422,0.011388763615295915,0.30168056648476926,-0.010520748345401489,-0.14493533281331342,-0.32631503398572037,-0.47275199402985923,-0.09432470716804958,0.03765283925872747,-0.024748245431868675,-0.024138661721349396,0.042892662745026594,0.017650826951322165
2021-01-29,0.015682750443150466,0.011639698640628408,0.28819857103446156,0.03583131638940392,-0.19185734142741917,-0.41685866368404956,-0.43694431362096287,-0.019695967556952423,0.05711475987716383,-0.07226343986803262,-0.04602242496014765,0.11462371570563658,-0.011951456511986147
2021-02-05,0.03178724611134267,0.029932757984481237,0.24736688843154064,0.09587478058586295,-0.21539767050442452,-0.4629560903039699,-0.40122795607147554,0.01307467696402826,0.07006607782088017,-0.10143933543365334,-0.10310788682861713,0.1530218194801086,-0.10094321778088888
2021-02-12,0.058476060913783934,0.05915716420920168,0.2227527516047379,0.10070445953668566,-0.29392743868386834,-0.5378097698527313,-0.4055087882703337,0.031377964787953294,0.09233135745035635,-0.12715139070728523,-0.13511020801829746,0.20554208985227124,-0.20711868676016215
2021-02-19,0.08020539902800866,0.07211216721805776,0.21456037062375866,0.11252250930481424,-0.4083691368632958,-0.6152861737313077,-0.4143216803859692,0.09882468693120751,0.11253382923780388,-0.15193954261068832,-0.12427048886681659,0.25743063950142725,-0.2765273060795924
2021-02-26,0.08927022199784032,0.06068342302997021,0.21681920853517073,0.018608003403413342,-0.47710386945362004,-0.6349606109101227,-0.40518435101463945,0.1899862935091184,0.13334597439032259,-0.1709898064239547,-0.09117889163421168,0.30577241564534074,-0.34985650704817683
2021-03-05,0.09779511861312257,0.03601276146098363,0.23320586730658383,-0.08399588993195127,-0.5501154237617083,-0.6479840613080694,-0.3916381862095955,0.2903574661864231,0.15286295123518262,-0.18226503501859537,-0.09890997553086528,0.3509055811694231,-0.41406159970851003
2021-03-12,0.12421321366981639,0.019930459447219658,0.23452759191108036,-0.187534166883966,-0.6092867795306874,-0.6676345826945165,-0.3707932180844694,0.38192234870178715,0.1696067251471019,-0.17621758826784278,-0.11024792174308265,0.38288620754151687,-0.5093596800386416
2021-03-19,0.14403509092938543,0.011198984754185426,0.23625579238070984,-0.2713224597422607,-0.6639495414775681,-0.6882235345376811,-0.3570943215932603,0.5210776992641516,0.17192018722546817,-0.15757566734135156,-0.15378229952172298,0.3994918158120857,-0.5860885048604286
2021-03-26,0.1677495998626142,0.009176614365040239,0.24335189222601686,-0.3101210273369843,-0.6976961806887678,-0.6950067617437387,-0.3260922754708577,0.6368273265788641,0.15892285406683873,-0.1396754875005311,-0.2580352118511997,0.37820587302059117,-0.6707390501232304
2021-04-02,0.18740767836254552,0.021623571765837565,0.2316900959757497,-0.3813913233494821,-0.7025611757175836,-0.6700544354068996,-0.2899887307212005,0.6865351700664015,0.1301112505915254,-0.07927403361288773,-0.3564389635511947,0.34819759037389847,-0.7224481206472431
2021-04-09,0.21284534079790915,0.05032068542177004,0.21663383117003193,-0.450847052904766,-0.6911852409472596,-0.632783806602134,-0.25536722303215065,0.7499516580104599,0.10161948125035894,-0.07025535707813753,-0.42993784963755016,0.2807909087548688,-0.7587007774054456
2021-04-16,0.24863294856983945,0.07997452100484148,0.1869992000137326,-0.5767268705703318,-0.7029114691277091,-0.5545839619632299,-0.2240490889876192,0.7020993461204617,0.08288539692298372,-0.06518969802763419,-0.43285633611502977,0.23414049820948687,-0.7221218287369358
2021-04-23,0.3103343429699018,0.09876941549382585,0.15148967168171895,-0.7084827492691065,-0.7370987413774747,-0.5600453508464273,-0.20865853582721555,0.7168543532597579,0.07133016400042197,-0.09789091937646481,-0.36794909719461416,0.20800821533573347,-0.6749737221549951
2021-04-30,0.3585238296812304,0.09575448581924796,0.1379860907720063,-0.7724866484876449,-0.690532367330458,-0.5249399602740624,-0.18418221232522364,0.5931854095048714,0.06473599584733626,-0.11346196628970687,-0.30727833611084165,0.15205310412100181,-0.6776537063997456
2021-05-07,0.39497866798557646,0.0548097624221615,0.12169269954209518,-0.8004974145440357,-0.687922272842209,-0.5265762924907043,-0.20943832582002833,0.4536522071301762,0.07581769038689774,-0.10613716629988493,-0.200778207217078,0.2220961106978948,-0.6919646148375803
2021-05-14,0.3948758718580376,-0.011120928608051653,0.11765109566299224,-0.794425908070407,-0.7085315972457215,-0.5708530963978588,-0.2687208479980405,0.5238443033963849,0.09312330234463663,-0.07162534653168054,-0.15834864910119595,0.3160823252478023,-0.7332240661804762
2021-05-21,0.3890407779355092,-0.06680820254154857,0.0883756361314238,-0.7922546783686722,-0.7288244323506865,-0.6196082059948004,-0.3242697453620961,0.534652791484532,0.10102711458205478,-0.0028247864016693464,-0.09213536712233798,0.4329966383653743,-0.7214304208877734
2021-05-28,0.3740358061722188,-0.09400907885956138,0.0562052614326725,-0.7222728356961777,-0.7192260065702387,-0.6306410512030481,-0.35155736285932804,0.5729642527193756,0.10476830948350854,0.06949437598653509,-0.11771617637828136,0.5157947884112308,-0.8064026891229951
2021-06-04,0.3546282446791569,-0.08120115022897267,0.02089505221961767,-0.8300954600426018,-0.7250556034041911,-0.617842371634879,-0.3266039537672773,0.46033524859450864,0.11277426528029826,0.16265278203230304,-0.1093409459049629,0.5229441781099678,-0.7546506844397769
2021-06-11,0.3479821662749595,-0.053334954985967284,0.012722737646247085,-0.8600533600467956,-0.6862466589963706,-0.5513715931387004,-0.2753679771967887,0.3335323082987999,0.11726624163840899,0.17443433533662278,-0.13549608104907337,0.4555833763965998,-0.7204012789546494
2021-06-18,0.3355075574197899,-0.03055339383363663,0.01883106673781942,-0.8610062695764145,-0.6535283646388688,-0.48262387194976386,-0.2224827138528367,0.2510571376843753,0.12736844338969996,0.1514381766510727,-0.19682752157439132,0.37727549486128265,-0.672282819585632
2021-06-25,0.32492953962006654,-0.004561529103109994,0.031377511645995136,-0.8524748484528307,-0.6242047686665967,-0.4248351764134021,-0.1751857035103215,0.16471732347508927,0.1355536851080295,0.11743681114413256,-0.25478635172598035,0.3076425164864703,-0.6204580999597475
2021-07-02,0.3174197004786899,0.021075965428640733,0.0384269720895533,-0.8333887892753284,-0.5915772189947093,-0.3513582532672833,-0.12453170085839443,0.09428657599141844,0.14201582712543023,0.08964187156300583,-0.3351457744905796,0.23648942767132544,-0.592699769385811
2021-07-09,0.3198255352336673,0.04868725292396811,0.032620671443503696,-0.8080061800735779,-0.5549104533393167,-0.2739949150704395,-0.07338858977452643,0.010542743983802283,0.14508031044959638,0.06385045332404461,-0.42296142487750854,0.1841593892995324,-0.5718244387494857
2021-07-16,0.3151004282017796,0.06649591516817357,0.021633887660877427,-0.7765465678638088,-0.5019855448923287,-0.1784422112496254,-0.02822607715347404,-0.04554583830241616,0.14012146107886927,0.054397837605707,-0.4997971684137917,0.11204175140970307,-0.5498981577082243
2021-07-23,0.30872364231671073,0.08190879937301195,0.005239446590937339,-0.724087752627366,-0.4292583366317796,-0.09054080018993871,0.007441251916969087,-0.09593509418704099,0.13003116115596894,0.045749407495198284,-0.5733323281414102,0.05779761205398216,-0.5337443174965667
2021-07-30,0.3038279277199285,0.09386486588447564,-0.01561768647874942,-0.6699618323532928,-0.35467294489462986,-0.0058103908489420125,0.03948079634076598,-0.17882919794065244,0.12107539391300905,0.03732829569412166,-0.6237296062807253,0.013962628424897101,-0.5114377420165641
2021-08-06,0.31414721139684576,0.12121330072703401,-0.031835443214214165,-0.6136809519324162,-0.3004515327334985,0.059873881272199725,0.06554104471825192,-0.2569460734259592,0.10344244366071402,0.017781194379380097,-0.6833986584669661,-0.02382507662860342,-0.48032371464422474
2021-08-13,0.3398483453072312,0.15246946971694542,-0.04167154067821121,-0.5637679462405235,-0.25585599011955923,0.12520518611910553,0.09486208420196221,-0.28950552302287336,0.07710470516083662,-0.008463778612614055,-0.7517691839359043,-0.07663162936016357,-0.44259724693425073
2021-08-20,0.33921584259522963,0.17388825646578282,-0.03837519636357818,-0.5302198948730391,-0.22765710966813404,0.18121699726006793,0.13761357585811893,-0.2217133509468225,0.04323018337039476,-0.02151787747313995,-0.8100990413398793,-0.16396191334586716,-0.38883604944244865
2021-08-27,0.3591798624862603,0.21847084893870453,-0.050121450088682656,-0.4896355573216577,-0.21598791403554884,0.23265583186412486,0.18484033957104656,-0.2733349213119563,0.015910850506739876,-0.013731360217673252,-0.8552261879411945,-0.25374260471926563,-0.3376833054914258
2021-09-03,0.4188825047272471,0.2944672045412594,-0.05455525610677268,-0.5307631970636331,-0.26084529069621026,0.2193889998900228,0.20648926010027358,-0.3587668308985434,0.00026061117642677684,0.0011437714697587094,-0.8525157465916127,-0.33526006018428134,-0.29890205567795314
2021-09-10,0.406304299274242,0.37010016232638066,-0.03839914240366539,-0.581374151166035,-0.2926518605523135,0.24624625538317144,0.2459445540425081,-0.4474385475182019,0.0005339489673214853,-0.0025693928752905347,-0.8589087742895808,-0.4318290909758715,-0.2476196832582357
2021-09-17,0.37264838448965354,0.42633615602787184,-0.01015280512802099,-0.6185285436760062,-0.32741655027515026,0.2142796787443652,0.28011827901255737,-0.4926576265354279,0.02972134194840027,-0.03421590145086792,-0.8583398978861151,-0.5120802503239983,-0.19069032918709772
2021-09-24,0.27398794521515196,0.3982402611902194,0.0191157192320239,-0.6666441451942157,-0.3208176803851952,0.2404838476477027,0.3502769282795088,-0.5078484462101519,0.07892907589832915,-0.05741651993639929,-0.8734254006454548,-0.5679701283056703,-0.15636703008894617
2021-10-01,0.18449904619434915,0.34566907955842396,0.036159793627907263,-0.646566371868141,-0.29447648629881396,0.2801186902941106,0.38258912545252016,-0.48020517374438354,0.12273030352451905,-0.05554628246747075,-0.9320252753934535,-0.6187579756307102,-0.11653965200322833
2021-10-08,0.110826316446154,0.28739167717793257,0.051927580745656864,-0.6368310696455618,-0.3031908109627502,0.2470248432077117,0.3851295187112453,-0.3394783821774878,0.17184234772368956,-0.0374127481196178,-1.0018537040654598,-0.6283140072572333,-0.12738103511270404
2021-10-15,0.03731432859822051,0.21716837877400744,0.06382709764264502,-0.6511366098225995,-0.3415423577748049,0.21075071243698723,0.4053065640187362,-0.2819536661211066,0.2096740652592697,0.014904163659704962,-1.009009461962364,-0.5739390810052907,-0.15343393937641867
2021-10-22,0.03000706033619993,0.18370126378958324,0.07153570052743682,-0.6867489515303686,-0.40655968042262186,0.15118617856535435,0.38364508091610383,-0.24480458857688664,0.2213335479640106,0.05049181486966581,-0.9273463647312306,-0.5085705384869863,-0.19166742070697132
2021-10-29,0.05029778725975124,0.17845581469371802,0.07508475901141068,-0.7089152328543058,-0.4738775427855046,0.08374926577387079,0.3753690755199517,-0.17746422607769263,0.22224035083868837,0.06887274180317876,-0.8447681717020254,-0.4651244027662218,-0.28473270327177097
2021-11-05,0.10643083097735101,0.19724586434566338,0.06238720651790469,-0.691782310842705,-0.5194642586311232,0.05878064108287835,0.37622273603707046,-0.11865902027072112,0.20417544068882826,0.11308507795589204,-0.8055655165292701,-0.49149151222532167,-0.42191791760198916
2021-11-12,0.1581198071569466,0.2077309823528664,0.09171894977548663,-0.6758626717162234,-0.5311643542331635,-0.001761625362692379,0.3610664790503701,-0.11126223221791479,0.15639507951005188,0.19357481143418523,-0.7616671104700288,-0.5516341603223944,-0.48738588513062553
2021-11-19,0.21194641022964036,0.24405760676727448,0.12331713271818454,-0.6541277391767706,-0.5744498212607847,-0.02621261488838439,0.3860296204421668,-0.14426467570186546,0.08049806519328064,0.26543820730945855,-0.7806214762249853,-0.6138341342738912,-0.4854890194274366
2021-11-26,0.16078682308264397,0.22920437619865291,0.13657857847555885,-0.5920761912371327,-0.5126314278656905,0.048667402054115724,0.4269098621596251,-0.14180055833959873,0.04187486388112084,0.2778061997199267,-0.7938329406742963,-0.6629644577521692,-0.420190581907603
2021-12-03,0.10835375857188648,0.19774408808511088,0.12922687803732977,-0.5286549207832898,-0.44437934509943616,0.1313346730922223,0.45684011498454585,-0.13243555141134591,0.012625253055601672,0.2735305618554556,-0.7772630305829025,-0.684655127046065,-0.3368573470567889
2021-12-10,0.11564622145098247,0.1943814446316819,0.07946445014134988,-0.46656563095684045,-0.4140072991285729,0.1906426124262549,0.49995339457298105,-0.11541493687831485,-0.019896713515416366,0.26478784679548134,-0.7705930177568118,-0.761835519458434,-0.23429313740755714
2021-12-17,0.09058035153383531,0.15555365058763104,0.03291372019697716,-0.4362501631536332,-0.36014978235450146,0.2938266244818208,0.536279638861376,-0.11322367401936696,-0.04004310089419566,0.2632050442123702,-0.7271879421611532,-0.7702009921806159,-0.14411177337304634
2021-12-24,0.0906709244649121,0.14500215911805733,-0.02292402280490169,-0.523103301415365,-0.4179452318787951,0.29876841072701776,0.5622860487423611,-0.08257604370237402,-0.035539632669840546,0.25060771045009694,-0.6402318125754021,-0.6868390952021197,-0.10425482355565169
2021-12-31,0.09366163543825815,0.1393163374818358,-0.08132991747051384,-0.569862423628102,-0.41522313665224037,0.3799408122274312,0.5864134647392231,-0.12794997661509386,-0.040137713486868266,0.32680886842041834,-0.5819775612764772,-0.6509347229592118,-0.16205956610200298
