,ES_FRONT_CALENDAR_2D,NQ_FRONT_CALENDAR_2D,RTY_FRONT_CALENDAR_2D,ZT_FRONT_VOLUME,ZF_FRONT_VOLUME,ZN_FRONT_VOLUME,UB_FRONT_VOLUME,SR3_FRONT_CALENDAR,CL_FRONT_VOLUME,GC_FRONT_VOLUME,6E_FRONT_CALENDAR,6B_FRONT_CALENDAR,6J_FRONT_CALENDAR
2020-03-20,0.09389343631038109,0.05481741805337864,0.06738748945395352,-0.45831967670993135,-0.6511318526546886,-0.6729230447058857,-0.12589657335891166,0.040719042685321706,0.0013374680175340878,0.007027116178358544,0.2817144306672658,0.143295011479903,0.2826597390826637
2020-03-27,0.06032089365118478,0.028884956762388284,0.08017940362208488,-0.3951603277447255,-0.6808878905136577,-0.7539872388338588,-0.14369875038560942,0.1602746312933215,-0.01379024605361365,-0.0032997251276113376,0.28008460829050763,0.1856916042844398,0.4138201152853805
2020-04-03,0.04983364338432934,0.03299966880503339,0.04300091507985042,-0.36905576053966,-0.5172605956974887,-0.5453341204284191,-0.10010319264297675,0.04387386407224961,-0.012276206597529211,0.017618610205598118,0.21936845484426304,0.16438980611109483,0.3968551702314293
2020-04-10,0.08633962011568122,0.04506986789659802,0.050356313810297974,-0.5303152056506555,-0.5716889889578113,-0.5652746043828937,-0.11343204769035989,0.04715772609151551,0.011128795685484107,-0.03544741621815029,0.17034367902784994,0.18152928407994687,0.35754835170699656
2020-04-17,0.08516876015909877,0.04005672359015752,0.04963832112849354,-0.461029908008501,-0.4871745435450846,-0.4931215873778694,-0.0608749430924691,-0.11353571063975103,0.02314169011271872,-0.1051262068993771,0.11968471665969521,0.1909860335362052,0.3461576937751432
2020-04-24,0.10232405013848521,0.05731128724332541,0.04550654804846226,-0.36663561505276276,-0.46154847279396705,-0.4932522164831087,-0.09713267307243854,-0.12933665052003693,0.02644169665932109,-0.14831526374273046,0.173765279685333,0.20137457340070644,0.304943060242676
2020-05-01,0.09287678911247334,0.06699225089038802,0.04816512788127146,-0.2879401164060202,-0.34157474338518906,-0.5608262350133182,-0.13634100247889266,-0.1356324366869601,0.026800163159665442,-0.12572575370858363,0.19289316294002465,0.1987856113587064,0.22134501573352286
2020-05-08,0.11150705069722174,0.08188827473592343,0.06541449255391947,-0.21351188069049323,-0.26635422741000303,-0.7659620281208337,-0.19555619929278809,-0.15577232636701036,0.03226404922294337,-0.16600014510395275,0.2525413549279475,0.18285261845542342,0.2816218811595007
2020-05-15,0.10570653938272342,0.08861517981704943,0.08838538242832211,-0.12679905990137547,-0.2742464285675365,-0.7776705327628302,-0.2520882226352725,-0.22011917539087628,0.04836456200243992,-0.11332106245466403,0.19613829686762618,0.0940875385349913,0.24641013234253545
2020-05-22,0.09721724572785623,0.08182352028966262,0.1538671113243326,-0.1917440600390982,-0.2627856703841075,-0.6970163785455772,-0.3373480322380921,-0.21337948873927787,0.04550467770991484,-0.09986506216453601,0.17893418166624372,0.08687644953746902,0.22402107987619818
2020-05-29,0.08130101601896352,0.0688004149118536,0.2040851718272652,-0.1464650620805765,-0.1984419122018493,-0.6033366310859436,-0.40134661896983165,-0.20999489003635238,0.039414259989598084,-0.08671833661157716,0.14347453636922192,0.06902527754012913,0.1825691332087533
2020-06-05,0.07916431898752406,0.0633729628535236,0.13655866374069103,-0.19460128334115634,-0.2817286000345339,-0.5165740867335373,-0.2861487008165673,-0.1149406483205272,0.04136827948838636,-0.06998358405205705,0.1098845658236827,0.07849596873031346,0.1405153325537648
2020-06-12,0.10037688731052248,0.06695131385840494,0.1379150601616136,-0.2860735793497196,-0.4131143538052017,-0.5837165034707517,-0.2744897682834837,-0.07450402319705657,0.05443690662186269,-0.08404431465406,0.05445308584768714,0.11849132468677825,0.161932536627944
2020-06-19,0.11813172295853977,0.07314568692211117,0.13518578454244665,-0.21820528304119283,-0.44368401168644506,-0.6401708457648823,-0.2703966838355189,-0.016760247518540793,0.056928243858711154,-0.10597484126203117,0.016647864223490936,0.14070974351326881,0.12557559756518583
2020-06-26,0.09301773095392074,0.0544449199300663,0.1652815464515151,-0.10866494988191892,-0.42835144063336134,-0.6980399071454342,-0.3109702798572491,0.039192924399788,0.06731864528168231,-0.13780892256559465,-0.0029571476811237553,0.20704070205027128,0.07484761838667733
2020-07-03,0.08404538946968933,0.05650691398546196,0.1350195582319942,0.021052725012574144,-0.34923204343644865,-0.6133147489983557,-0.2720215990741565,0.042954957856757334,0.06970628833439688,-0.1362513938837433,-0.07492616173089084,0.21213602587961938,-0.06603249139453811
2020-07-10,0.07435879097742047,0.055793802064330704,0.1048385979555074,0.020596559163979178,-0.30253866056793927,-0.4902648836317837,-0.22408190234960057,0.02565893323248819,0.06427143312066672,-0.11119358878246689,-0.07309433084686853,0.1905102799084375,-0.13137761147499624
2020-07-17,0.08487935080633445,0.06189664469797717,0.11017374483748285,0.031296876465600504,-0.37696558771598854,-0.5328201305463803,-0.23858936766174468,0.0681598266579604,0.07101569463776361,-0.12347248315431285,-0.0619605296848052,0.22207864827739054,-0.1799481346159824
2020-07-24,0.07709499219382267,0.046940858105194126,0.10669748113509504,-0.0410485900746825,-0.37414158184491164,-0.47572429217013307,-0.2095171071247993,0.12494859085497155,0.07137115792186449,-0.12013882052688885,-0.03464283953130674,0.22585508326340697,-0.2169814383168661
2020-07-31,0.06598566366876406,0.02692527874374744,0.10129723662538784,-0.09099987684940011,-0.34311248824747836,-0.3914873560188931,-0.17181966281482924,0.1577138092423777,0.06640146975167596,-0.10479592297702826,-0.04003952181402553,0.20838002319623136,-0.22017007724185325
2020-08-07,0.08441065065059404,0.021552252668749383,0.11805440167885242,-0.16113148573851893,-0.399642429340158,-0.42547619740731657,-0.18183885830555413,0.22423180310817312,0.07727936320831774,-0.11035652653568657,-0.055466629768072144,0.24142647547481275,-0.3040437266168307
2020-08-14,0.08112963420838502,0.01266891236233461,0.1125359030266109,-0.1873094205998605,-0.3772019041947079,-0.3788614937048378,-0.15824329678678367,0.2709587802881177,0.06928746896873507,-0.08816612653589329,-0.07684236193842461,0.2226965484510126,-0.31176750818586674
2020-08-21,0.10357975916597731,0.012155730816570036,0.13719194089951983,-0.2271359609591436,-0.4351575905171035,-0.41854840138729316,-0.161755964801997,0.3607465003511171,0.07460895266213387,-0.0876237983026,-0.15768456370741216,0.23598893308859664,-0.4027538843585872
2020-08-28,0.10013975403141408,0.016460166429694233,0.11400559571550785,-0.23702880626249867,-0.37279691621904576,-0.3408605139507655,-0.12339191700841907,0.3258033579869216,0.05578166673565775,-0.0348333837487814,-0.1974489587092372,0.18756515126801201,-0.3773639426269596
2020-09-04,0.11715990005124727,0.03344941914556036,0.11041735110073458,-0.27580530757499777,-0.363025118680405,-0.3175198037686578,-0.11214981023989916,0.35516057031840187,0.05214284533903551,-0.03354888564781657,-0.24012281047550868,0.14924704839424452,-0.3995390692937592
2020-09-11,0.14847347102337222,0.053586330076953154,0.10316171162565174,-0.38760170660196414,-0.3906692250114663,-0.26848555988371076,-0.1063423442674037,0.3284000504381448,0.05007028448989235,-0.036112987506086304,-0.24436782712592134,0.12496955018961581,-0.37989527288911945
2020-09-18,0.17752838608831004,0.058454552036758735,0.09219349971850105,-0.4343018917983033,-0.39639104687003374,-0.2742212516618075,-0.1029529616127691,0.33532025977371516,0.049194721376636094,-0.0592504711748131,-0.19788295242810588,0.11188780367150004,-0.34439009933124864
2020-09-25,0.20051671490891018,0.055948872028574896,0.09590994572437507,-0.44149505245653653,-0.3640864363491067,-0.2640573635442852,-0.09668859527425516,0.2763332550451809,0.048174160333356905,-0.06880689732950256,-0.16920790584768183,0.08713010158020025,-0.3524125492581312
2020-10-02,0.23387771415331518,0.041773596662179356,0.09719307010992749,-0.4712917069293704,-0.38384657564654734,-0.28646885344649153,-0.12085833042087185,0.2199897036116067,0.05773777123385965,-0.07189283666156625,-0.12020881247995356,0.13264272067213537,-0.38513245766717963
2020-10-09,0.2257973112752719,0.012113135110581921,0.09258493914208236,-0.4396529098831892,-0.37829796237965835,-0.3014566892290453,-0.14751881533923844,0.25191736300190554,0.0646351676564244,-0.05410334033614316,-0.09340741615771125,0.17520971255457526,-0.386647808069422
2020-10-16,0.23153418731441447,-0.00950745668003001,0.07943509548269599,-0.4447999596725984,-0.39758370383023434,-0.33646700481158914,-0.17805098016244514,0.2604287875147781,0.07030989127084603,-0.02298702524936801,-0.058182438326888374,0.2378699977928374,-0.38351926253283286
2020-10-23,0.18488713996895506,-0.020034304818679394,0.05104321861531353,-0.3255739702369548,-0.3218564399819868,-0.28483664495565525,-0.16072564441630083,0.2343858710724624,0.061479127941130786,0.016609547688314668,-0.06238121927764447,0.23897679862801338,-0.3614691769160542
2020-10-30,0.2071431516688407,-0.018055754733387972,0.042108763062744387,-0.44620899857692725,-0.3783302174687284,-0.32597250164880914,-0.17491992023832947,0.20068821766156567,0.07427077581974979,0.06829148636440535,-0.06669743630660885,0.2784032328766098,-0.38546854433873196
2020-11-06,0.30053365060292986,0.00262821107279282,0.04775957399433908,-0.7119969719397191,-0.5071294578525802,-0.3875445671075761,-0.19534115401991184,0.10292405920253808,0.1132743672793561,0.1222939946893435,-0.13622713126599412,0.3105686021797992,-0.5304289475320076
2020-11-13,0.29812146381390925,0.02166115422051823,0.051183689055671236,-0.7437052119983957,-0.4954250860023805,-0.32588716784518884,-0.1470856147837245,0.017286755209559797,0.12600597536187572,0.10523646243800583,-0.21851285078253457,0.23440560223997337,-0.5012471307343552
2020-11-20,0.2699208578728102,0.04340094823100236,0.05542559814990605,-0.6944860814714887,-0.4445618195474702,-0.2516836228848386,-0.09134812828785804,-0.07155894656907064,0.12497829228035771,0.06694142144123234,-0.27534853960559513,0.14994617242110483,-0.42243472700490464
2020-11-27,0.2724108569018854,0.06981006455183214,0.059864586818475424,-0.7002587872379017,-0.43084586397369795,-0.1738986775978175,-0.03664321839046134,-0.15073760420125168,0.13577994595058065,0.04557595843848616,-0.39805118509598714,0.0757309466409667,-0.421071605509539
2020-12-04,0.2865399727747475,0.09840819520051558,0.049525281521010225,-0.6937267978257186,-0.408271260415823,-0.09457144833641494,0.01499610230231516,-0.24418759101856996,0.1425634004562643,0.025173319570018712,-0.5161077363797617,0.03196238054345209,-0.42387624889741965
2020-12-11,0.2614430815072217,0.10540678331579603,0.03648535215634417,-0.6139599484968801,-0.3265938538432719,0.011519275047852922,0.057144249432979126,-0.27947933676632286,0.1292500797652591,0.01949383723858769,-0.5577562314782426,-0.04025403289749601,-0.3791765545383007
2020-12-18,0.2397681592885759,0.1132668306159494,0.0193705207968914,-0.5200378989878786,-0.23052383593557718,0.09783690620519053,0.08586421299516622,-0.3058326906895537,0.11414882870097498,0.011251222715635665,-0.5949777213206678,-0.08528334319067761,-0.34617783872486846
2020-12-25,0.24182930839700828,0.1284645942938268,5.83712528123061e-06,-0.4718552153596799,-0.15612068158483658,0.18506853865561676,0.11793107243465578,-0.40062370191639,0.11131296567877491,0.004454565900575001,-0.6505194231205512,-0.12591921628288436,-0.3349923343437149
2021-01-01,0.2627525919653624,0.16319643572712553,-0.01357442162910163,-0.4204447515753735,-0.11061511184396329,0.24183134046680801,0.1400079388708622,-0.48079808622185743,0.10071151443919653,-0.01592748438578983,-0.7136943998209454,-0.15706966272458642,-0.3117177969423854
2021-01-08,0.265048740719873,0.1767307971180524,-0.02195934435156819,-0.3406988158492278,-0.07026890002720687,0.26558713374811105,0.15310937429101562,-0.4345555116858887,0.07100015294301677,-0.031058308524639346,-0.6983416270240982,-0.1904647798135651,-0.2512378382299194
2021-01-15,0.25949684759033526,0.19422274545740792,-0.023935798500627735,-0.3205931690830478,-0.059423379934802324,0.2948703474653453,0.18674276386228275,-0.31422619246961797,0.04779352021499845,-0.037514647243617735,-0.731635263664521,-0.2658657046210993,-0.2082135014909876
2021-01-22,0.24262436783847935,0.20323179968614322,-0.03845435497203249,-0.2626616145182692,-0.05328629344363122,0.29116687637254945,0.20040970531136357,-0.3141832984244894,0.030708012827127252,-0.0221828625626343,-0.672279681202459,-0.29606955877569835,-0.1573842172367911
2021-01-29,0.2894316593322995,0.25149074755216944,-0.03971611020201915,-0.30842000383942864,-0.10117322336109158,0.2629543028823028,0.2092578665463839,-0.36975700076658663,0.02150168754153994,-0.021263745854663188,-0.6606753151379636,-0.3288951879470739,-0.14759511062179156
2021-02-05,0.2453032931666735,0.25862904371920525,-0.025924884964748394,-0.30609822533511577,-0.11398896756095998,0.2395845824514181,0.20591254516222673,-0.3723485297329906,0.015370150154933863,-0.023342903494908026,-0.5784200317947139,-0.335778567524293,-0.1050753145818692
2021-02-12,0.2412304941938071,0.3026439549496721,-0.012612960256541428,-0.3523551772844994,-0.14974698898328156,0.2195758439091689,0.23395144701859077,-0.4092186959191128,0.02251922401198726,-0.040806736706839354,-0.6035478696173401,-0.39370403521096103,-0.08536335038001362
2021-02-19,0.1701992916907557,0.26654029157462067,-0.0007420689698208439,-0.36719515179342666,-0.1427691028244424,0.21362545487562185,0.2585106062607551,-0.3859184089242646,0.04306429971659646,-0.04802937211481379,-0.5735377795921099,-0.3962533189910271,-0.07061547114895116
2021-02-26,0.09712192538096137,0.23162759940068578,0.010703614126917357,-0.36814181177480376,-0.12818970180353798,0.2549564467582095,0.29465900640003256,-0.37506213891996526,0.07546348327603723,-0.04331518996261017,-0.6450742261818065,-0.4528191994331242,-0.038888436158034716
2021-03-05,0.045442354209195915,0.2036080491561436,0.025087859007609414,-0.3979783892537365,-0.15559956238757403,0.23534388898307887,0.31737081835555225,-0.272422393942635,0.11315678127193168,-0.02865891918342346,-0.7521731148645328,-0.48792833348954295,-0.05833615988525708
2021-03-12,-0.01564806801475531,0.15672939158434818,0.041316760915859015,-0.45433092728920366,-0.21636283495860212,0.21192629725843315,0.3613007218460492,-0.25530070979922603,0.14579189709465465,0.018807555875556114,-0.8099516555616953,-0.46666942648315873,-0.08432859811773942
2021-03-19,-0.017415663730361942,0.1331969025980783,0.05415316184671649,-0.5313613813814902,-0.3120759027822269,0.1526698865787056,0.356229997066646,-0.24113432038418048,0.16423789591755011,0.05627648851028036,-0.7634695593585951,-0.42242301683807926,-0.1323770180823822
2021-03-26,0.009358072813833027,0.12476446950976056,0.05495792724053614,-0.5365813917353243,-0.37022291917708505,0.07814396434104211,0.3292914076876211,-0.17612838207696657,0.16101532139241753,0.06680004357867916,-0.6565130333123589,-0.36834622878390316,-0.22023909919058035
2021-04-02,0.048688074349215196,0.10795289066103425,0.03476099054628473,-0.4159480621556616,-0.3291301367902175,0.046113581342544355,0.2578667795801449,-0.10800077505133897,0.12571194586218665,0.08219426839125142,-0.5048001862361837,-0.3165802858104386,-0.2750424644526181
2021-04-09,0.09259189101321522,0.12590442014415912,0.05802412584665398,-0.45873354034647656,-0.3762388813815643,0.005801236248608466,0.2715607483258404,-0.12618428842428142,0.12005688810795043,0.14169844275312113,-0.5339815558851626,-0.39035164002838835,-0.3531386134478353
2021-04-16,0.10111542740344565,0.11586015821063435,0.05837354202217651,-0.35676432877180747,-0.31885339347282915,-0.009362022525216692,0.2221415256715083,-0.12029750816286411,0.0708533010838397,0.14005522319863156,-0.4250111332185414,-0.32966109364426693,-0.27612648566156645
2021-04-23,0.061944803506433006,0.11731053898067009,0.07275574087345126,-0.347356209015691,-0.30143296619103044,0.06858452294756234,0.2964802549545521,-0.11398232248120253,0.044394570988310025,0.17223136941065947,-0.49860792302296164,-0.4320672921240325,-0.24705149875907575
2021-04-30,0.012548465855539625,0.07189695962184252,0.04909696648406085,-0.22973151928021154,-0.1898496633495356,0.11751778243537896,0.2558070373626788,-0.07301121173344162,0.017303250418683667,0.13613957987131511,-0.3860647114544996,-0.3642907346924198,-0.1357448785992186
2021-05-07,0.041644955458428515,0.10070776623316892,0.026037126981282483,-0.2400753039573123,-0.22658478601731102,0.18273238899203612,0.35044451545336924,-0.09083889902512045,0.0025266785018346507,0.1779247909821092,-0.485247287866354,-0.5300589472147648,-0.09560937600623265
2021-05-14,0.02217470172738873,0.05946536730278693,-0.005865144716212335,-0.1896492236003142,-0.15837768981599568,0.2326725822334248,0.32158011993740554,-0.060806873054175536,-0.013730767319776519,0.15442355982665018,-0.38401612944162206,-0.45574384240893073,-0.02001711607324957
2021-05-21,0.040850399442721216,0.07915474755515162,-0.06385532879698369,-0.3718691299532694,-0.3073074580225635,0.2957517567646344,0.45906671021139417,-0.04726253406316103,-0.009368065011122013,0.18995471590780563,-0.4004887043717494,-0.48577768719505987,0.007977192519601854
2021-05-28,0.03238726865128624,0.05662621159916503,-0.06293561621898543,-0.28423644654861446,-0.2090825381268191,0.24410044511798076,0.32905989088002,-0.06699558686202178,-0.013407182884914095,0.17655470202673898,-0.24850515971341058,-0.3169982021393094,-0.04019195081530771
2021-06-04,0.03080845473267647,0.041318012265503974,-0.11056422132575691,-0.40581916925178696,-0.28446949908466557,0.3609068733260355,0.4251326809066706,-0.10064695153291321,-0.01468761256089793,0.3038322970891153,-0.26937640945958674,-0.3493440657741328,-0.1345258915787392
2021-06-11,0.0006608854890859213,0.012291980552472815,-0.12160213244265936,-0.4129039823838676,-0.2779688225310801,0.32629156621125377,0.3517177358278296,-0.07465326712371444,-0.006345525428464111,0.3185853570550368,-0.20077695550745828,-0.24007071929026286,-0.06605423458895272
2021-06-18,-0.052927492736079294,-0.019432628073694353,-0.14659229657971878,-0.4816013000620976,-0.2852202521409951,0.3645520391305572,0.3419809197714579,-0.04623088575354889,-0.002900962968391863,0.40300094364364575,-0.1837415216348891,-0.1970346342620135,0.011241641349646237
2021-06-25,-0.0948095113313916,-0.04801792096747828,-0.12673505695338924,-0.3798581932998374,-0.20293567463777387,0.32137427210709923,0.2633545978523163,0.0422378666083177,0.012399170099004183,0.3331911820558259,-0.14669097891942012,-0.12179209544867343,0.00691556985191749
2021-07-02,-0.16541646906880234,-0.08904479828609274,-0.1520893052969204,-0.41791764053384384,-0.22118550733396167,0.36110356925732306,0.25755619016464937,0.095429769358437,0.036855635296737445,0.39817330063895756,-0.08457611064091221,-0.0949722599956119,0.020096683894671154
2021-07-09,-0.1803949490666449,-0.1003450440893219,-0.14095144748099725,-0.40811343983210857,-0.2259401687167104,0.29304482168105406,0.1971090489039479,0.12665467720570486,0.05338945200689978,0.3968863403586023,-0.03448032647326862,-0.04347312704643091,0.023902667694246576
2021-07-16,-0.1666011381893334,-0.09685081705180293,-0.10980724065427118,-0.30808812635221255,-0.1721325588824554,0.20821238570445877,0.12001565993940401,0.1283367672466777,0.04983255173403121,0.3383940378760984,0.0040094057855592875,-0.003639417630153021,0.033638374235186064
2021-07-23,-0.1951760786288682,-0.11198682598127668,-0.12182631614907831,-0.3615722791557446,-0.21486293575405854,0.20812906372064818,0.10098976603122303,0.20640707570807298,0.07105359106717733,0.41313939586906545,0.02114834690815724,-0.015074906591866144,0.009119098233868939
2021-07-30,-0.14716859176567385,-0.08619006144178792,-0.09212002479352144,-0.23446340093524376,-0.10330885333966527,0.1923686541610368,0.06875136473369216,0.13941191714589088,0.056625820004030866,0.30351553784021085,0.002766567021995382,-0.055181907079189775,0.03939691561460317
2021-08-06,-0.15182786453956243,-0.09217865079495835,-0.0817436240083883,-0.22085830967066022,-0.06816608259437779,0.19361146338716137,0.05498524355552196,0.19897896144800367,0.047611803728051155,0.2999170769918497,-0.009973639952987957,-0.09138962281213563,0.04045377939070623
2021-08-13,-0.12281462255139461,-0.07728840287274817,-0.07953275580593225,-0.22413102587967654,-0.0641105927768873,0.17495683510459084,0.03622792880903353,0.13124004263102498,0.04336562836838911,0.2790519808789394,0.024645155060173337,-0.09189060643256772,0.01653991538488753
2021-08-20,-0.10978287822196944,-0.06917901397882281,-0.09110613678664811,-0.2975011077804452,-0.07005829606381894,0.17007393688903824,0.016583709985023343,0.08139484264922475,0.0536882527453598,0.3322057443536763,0.04907081762032277,-0.12018775698918328,-0.036763970856260035
2021-08-27,-0.08775735327941336,-0.05614190587375328,-0.07691880049103084,-0.35441418959338594,-0.1253554223882366,0.11921739309921059,0.011155822488300477,0.03988386008014756,0.049205035277553495,0.3378641026818699,0.08112011182893315,-0.11686599015661701,-0.04002663494722456
2021-09-03,-0.08218282666319787,-0.05874243213624953,-0.09082556985966933,-0.46388778365670524,-0.2007360130534795,0.1099415183915725,-0.00683690545761706,-0.023885025729309457,0.0578196222128759,0.44687188134557976,0.10031634509606237,-0.04721324611221713,-0.12790647534857377
2021-09-10,-0.05646028932583821,-0.04153692510612996,-0.10998118503652218,-0.5091178828410593,-0.2713872729612953,0.13766125324274903,-0.04737570690496732,0.037212155695857715,0.05691347660975273,0.4117222948517443,0.12258945491523872,-0.0011427026341335454,-0.07575653691056453
2021-09-17,-0.057744538099292426,-0.039485156398667884,-0.06882476326207387,-0.3051718054428975,-0.17514935491423664,0.058169388739610195,-0.05431534330990065,0.028633532065994442,0.04402773114727839,0.3624321544140964,0.07232085938383939,-0.002177848543958567,-0.13244167100428803
2021-09-24,-0.08755050360267046,-0.054860869708604994,-0.07441217829457417,-0.21628265273888805,-0.1412178092813968,0.0321206387197523,-0.07925692159146062,0.050104924327536396,0.05143526074202126,0.3937686479018527,0.025091399397491127,0.00453619027451634,-0.09601245371683381
2021-10-01,-0.0989087668649928,-0.06353224923700825,-0.08127779119732904,-0.13822917839402946,-0.09634852080709524,0.01412872884728061,-0.09986467855546749,0.1258497113696243,0.06208322339818309,0.42026819793683856,-0.026307443132545603,-0.035925298437893834,-0.1138501310389527
2021-10-08,-0.09269236374496119,-0.05954639900538025,-0.08250496953725008,-0.03027172756197844,-0.03112110290800859,0.034609728880074755,-0.10601133613279175,0.1691833088000699,0.06376035339109727,0.35014838456182606,-0.060245347739558905,-0.09279610038742857,-0.0896249392089817
2021-10-15,-0.11611195237550552,-0.07578682907997787,-0.09638952617279198,0.07895592649361065,0.06720407876660989,0.0931435764437296,-0.1121942224297727,0.1918302371636837,0.06678906375114335,0.32723069498598106,-0.048524565275502037,-0.1334160980574824,-0.06585359228359154
2021-10-22,-0.10881184076786013,-0.07608132303562537,-0.0989161655924453,0.17693040355212178,0.13995075880175362,0.0870917315686442,-0.1084118851845894,0.1509844661384509,0.06777011420721427,0.2586630518969056,-0.0022893736594359307,-0.16010174983280062,-0.040149332367367334
2021-10-29,-0.11393198129446999,-0.08430001086946019,-0.12470315322220059,0.24849485662195755,0.128763704288475,0.07112494352549525,-0.1433894462507324,0.16385014832157624,0.08933251172484287,0.23926701513577578,0.10919828949485282,-0.17457598922957665,-0.07165749989088029
2021-11-05,-0.11768008791309824,-0.08723318913867922,-0.11771390590854508,0.2619213888887219,0.05183615113119498,-0.029672603259828113,-0.183477576965793,0.20298217578668598,0.11924482294856445,0.24224009979512479,0.13993308428852927,-0.1821180044960558,-0.09605692596465894
2021-11-12,-0.11618027546514557,-0.08617786675582248,-0.07520997373409534,0.290342012749497,0.03143852995307439,-0.034902941401709825,-0.1711589485238965,0.18468522008266805,0.10305259940138138,0.18113477285367952,0.14862779662306017,-0.13126575141501304,-0.07664228261387476
2021-11-19,-0.1338903548193392,-0.09617489391915289,-0.09368516237637016,0.4503892329752346,0.15518622946780689,-0.04250406695631453,-0.2153102167303527,0.20203105177243194,0.11285789700776547,0.16043869949551007,0.19516566716398215,-0.14633829310364688,-0.08679719818287028
2021-11-26,-0.13424836506897014,-0.09779208045214084,-0.09234042443628229,0.5464534668843245,0.2755157791754453,0.028028193130307497,-0.20299877145684558,0.1453312459521002,0.10143797908926773,0.12807256863492245,0.1705037116499871,-0.16994873520745377,-0.09755025901253714
2021-12-03,-0.13426132040909067,-0.09743200491857441,-0.0892045634312549,0.6214990308821251,0.3888596360582044,0.0816937961336057,-0.20259157346107345,0.053596722457897795,0.09774741330692205,0.08268549128650862,0.14617872078111793,-0.175291980603563,-0.1244991264180226
2021-12-10,-0.1457249807286694,-0.10461987752501173,-0.09705465421217815,0.7708138381948203,0.5588197193507369,0.19743853330248964,-0.1964813404808719,0.06470176681782822,0.09000626302350026,0.032876253283097026,0.11082361409307533,-0.22300393194443413,-0.15375679782580465
2021-12-17,-0.1200790592148298,-0.08555976529619044,-0.08251194482590032,0.7313888246971262,0.5861454661096817,0.2517295024453859,-0.14659346418129876,0.04823878244829599,0.06200942087641188,-0.024092222758742822,0.05286964829683018,-0.20822069937101798,-0.1417338282914018
2021-12-24,-0.10838941571922109,-0.07802949406000968,-0.08288980965542952,0.7476788763142654,0.6660647042537489,0.3353381649018975,-0.12015407041279094,0.09488063577335118,0.036515603370386174,-0.07869135569651273,0.0029423805200909244,-0.20334331839731365,-0.12893998519185124
2021-12-31,-0.08023347381723472,-0.05859548883909875,-0.06725014175687632,0.6285138595710623,0.6420034725259559,0.3537983580331155,-0.09004836724334708,0.11949610130892588,0.004858728937390359,-0.08424054698203204,-0.051227534054795056,-0.19565152848494965,-0.0846864377739508
2022-01-07,-0.06109104029477066,-0.04679481688086027,-0.05270120960454099,0.5571735197527875,0.6697606071506229,0.38826362716131596,-0.08655584904803094,0.1372573201303193,-0.01740995250351133,-0.08863464427566917,-0.09881202744564313,-0.21086945677749727,-0.046774376632134365
2022-01-14,-0.03504877798400675,-0.032492818379821015,-0.02633244444073046,0.45996951061849545,0.5744874281130383,0.34176388072255887,-0.06515146619941924,0.06358927042520435,-0.02712116389719771,-0.07778435739019653,-0.12223499804341047,-0.20134626770209385,-0.02437919703201906
2022-01-21,-0.02309192151257062,-0.027917903998063567,0.0027152006594243975,0.41088771422666487,0.5772019741173525,0.3561383925099354,-0.0618152239133461,0.06922815996463232,-0.03511819520217108,-0.08759034693588809,-0.18341029734307865,-0.2349211435498696,-0.004091105349031491
2022-01-28,-0.014439804272784672,-0.023220693572494736,0.01975614290018384,0.35801546765596304,0.5141399973052759,0.3082748191459687,-0.049547940557957505,0.13157218735562473,-0.03736194564464695,-0.08456895608331988,-0.19592335742916758,-0.22653364102451956,-0.022921389951231004
2022-02-04,0.011501427604793186,-0.012520687067590915,0.05152002945511494,0.3719731821625079,0.6374128773998333,0.3760567032609272,-0.08236522063053853,0.1730707261717885,-0.05981049767055605,-0.14807801975712495,-0.1696220961261651,-0.3270168714505712,-0.04132069838204148
2022-02-11,0.017796083060794096,-0.008186946239781365,0.06786918071375972,0.3630065157000898,0.593404308838445,0.3096879759534847,-0.09848240302908476,0.28935612361621227,-0.060988621678473305,-0.18465369153377476,-0.08428101755288536,-0.37201171770518343,-0.04921288843526599
2022-02-18,0.011499330942796695,-0.0188918194695182,0.11973067166076037,0.3821770700133691,0.6933797412310739,0.346004523796395,-0.13305315905200182,0.5632376487717761,-0.09337918389888943,-0.30484651044642735,-0.07903692025539898,-0.45685552919359107,-0.029672465632752037
2022-02-25,-0.005502153245215744,-0.019329997347998132,0.07708309689322215,0.19761341519802084,0.4101271396871022,0.19722915974363872,-0.07848540663789062,0.41602225685214006,-0.06218697575315296,-0.2091616028912193,-0.013119392339744533,-0.21728848575215187,-0.04373471898868203
2022-03-04,-0.041900500418029826,-0.07077469881935797,0.1746065966710946,0.21121487335314426,0.8939153594213335,0.4005517657118193,-0.21478137727120444,0.7116297544206218,-0.09695019551674071,-0.49081427096248753,0.12589351870187743,-0.2799936738562866,-0.14385766578501996
2022-03-11,-0.030601374158358334,-0.04202783679965573,0.09493923930834977,0.0901274066326845,0.44218740908906135,0.18702037528288892,-0.13013543278466355,0.44694848932243214,-0.05515780672317373,-0.26856515434918665,0.0885620868785527,-0.10120052008827267,-0.08385594235569159
2022-03-18,-0.04189902944178884,-0.06862868212100713,0.16693436646175255,0.12836787277092926,0.5743962744935602,0.17251098426035577,-0.30518708448653037,0.9748126811692722,-0.08562962045402922,-0.45693544095495364,0.22731352785156858,-0.08273411636991418,-0.16089472983375122
2022-03-25,-0.019448381373507708,-0.041433073185530155,0.09931050689837773,0.0567216200252182,0.2982701282391052,0.0660473933022098,-0.208321892724593,0.597935067069773,-0.050873409381803465,-0.27281881356292337,0.18980398512199556,-0.004492883484804953,-0.11732448403604469
2022-04-01,-0.021206138404966404,-0.06452298218699928,0.13075279596984374,-0.014602137040792452,0.22894270196232816,-0.022993339880325814,-0.3021113379402741,0.7755245355128922,-0.05407845335838224,-0.3234976670718525,0.3609647657779301,0.0490395032112276,-0.1397510614830968
2022-04-08,-0.008519217548400742,-0.0406085934408309,0.06882475861784948,-0.024408825453782118,0.10927968653512334,-0.042646290824668656,-0.19958974812465044,0.41446313582855954,-0.0392070705274813,-0.19089720790647452,0.2769020519927967,0.055097969679428295,-0.042058730831682226
2022-04-15,-0.006811579681000198,-0.056010674826675357,0.09002175873338092,-0.08438940715380347,0.1122527612580165,-0.0816736070209337,-0.2609073056829718,0.26686502952515684,-0.06511995485239006,-0.22594577214637618,0.44252294746125803,0.1234769181360225,0.007773880587656948
2022-04-22,-0.003717208534505072,-0.06595815368793358,0.09115378720737295,-0.14539288864006866,0.11435719628442376,-0.08092732376807865,-0.25966233854845416,0.05084781200914869,-0.0907138083632236,-0.22739254120221225,0.5388889337672382,0.17757245816400705,0.06305933091818151
2022-04-29,-0.005960403976934944,-0.07825573414762846,0.09220986443159047,-0.10645583944680184,0.1657512397512573,-0.06151878451039416,-0.2468079404356108,-0.17628280881167496,-0.11896723508287874,-0.21570539935863364,0.6122609520254785,0.22380327656809426,0.10622042672895705
2022-05-06,-0.009452184696695726,-0.06748000634014514,0.0632010888468519,-0.05524395149322013,0.15318191640592824,-0.035167120641732184,-0.16846650500060742,-0.3179663074255769,-0.11578204957590901,-0.14413198171807304,0.5128608649442208,0.205209512686093,0.12255814568712747
2022-05-13,-0.027614006849928055,-0.09915612639882683,0.0626774864888463,0.043066526262722005,0.2395464181099578,-0.0163395962910514,-0.16512550639420323,-0.5714134917709249,-0.17358662781994064,-0.14829713820355442,0.6627045337698076,0.27179105086157945,0.18932783818665141
2022-05-20,-0.03636237703257804,-0.08649367129553345,0.02914231821928841,0.10865235322662486,0.15806838076815774,-0.02896958344044694,-0.09014771382345489,-0.38440885524125284,-0.1456950562136939,-0.07158513386907041,0.48397856925356764,0.19227499338856927,0.19348197728296596
2022-05-27,-0.0502434222668324,-0.10250044708994131,-0.004536973237306957,0.15013038254104413,0.1719976763369206,-0.043033872313245285,-0.08570666012403738,-0.39625488216335825,-0.1601352141222796,-0.0397650623814789,0.5372244642308309,0.2123123674480039,0.24801221117381897
2022-06-03,-0.05331997709727382,-0.10439935176901638,-0.02413249225234854,0.18951220780720845,0.20372574079416525,0.011626108980651183,-0.04993878627758384,-0.3414753405946568,-0.15443780861144607,-0.0027312773280562187,0.4382507314703084,0.16834230691556298,0.2322101064548501
2022-06-10,-0.04882868242459619,-0.10186461493234579,-0.027178165756562702,0.19320100579800767,0.23811742481878073,0.04946421424525555,-0.027324268057834406,-0.3921867729727392,-0.15170615350323577,0.021190928706715254,0.39803614576952145,0.13660268534157632,0.22749434142100822
2022-06-17,-0.041978169721351453,-0.09007743612288828,-0.035049762777257826,0.1997814726620577,0.24129897564324496,0.0728440304194525,-0.017328476601716335,-0.41203109094972334,-0.13936276722160196,0.03571196385439065,0.3347669040575738,0.11371690797963017,0.2190391297925193
2022-06-24,-0.025901464336613618,-0.07361663230079935,-0.039804722842016735,0.18728003458345394,0.27440800385678477,0.0832223868047808,-0.0020344636489728965,-0.5077779887118151,-0.1544098272693441,0.03535151949392549,0.3379267566119229,0.11995203898579927,0.23258785156152517
2022-07-01,0.0011368174881110965,-0.03447869788802058,-0.039781005632140064,0.1851385451044598,0.3083915482300449,0.11060670614611828,0.021296084540522654,-0.5580723809644136,-0.16582145542714755,0.017046728280015664,0.2869009464803999,0.08928403643487956,0.21961933588170068
2022-07-08,0.0075632724531542565,-0.01780571501812125,-0.01605376636797339,0.14367655997350592,0.3370357076943898,0.12278874891722272,0.02611271706399133,-0.6231690241016933,-0.17631298875389012,0.013995001598090903,0.28804050343405413,0.05850569849314797,0.24099764108103994
2022-07-15,0.019153221216593547,0.0011357928421368859,0.006167449800630197,0.06288154594666653,0.3107198382118685,0.10299306362751666,0.0109947793604352,-0.7828445266612263,-0.2026972345771161,0.028237856836341686,0.35412803399455545,0.07443985426578527,0.2723183178111027
2022-07-22,0.02181451669410068,0.017593028802098395,0.028245655213460858,-0.047397578014784066,0.19379171876636123,0.06581807274958759,0.012270426883424388,-0.6836692784088589,-0.16656528411552002,0.01955332314947041,0.31478433540231826,0.06867785045122139,0.218266527028078
2022-07-29,0.05585715925985148,0.06405763351331659,0.026886783200854292,-0.2177263980134278,0.13754341618894395,0.0471965678025009,0.03652135344513187,-0.8867474045040918,-0.20101172074814155,0.01075600321368357,0.40512038484305385,0.08312827713664842,0.27680376931063544
2022-08-05,0.0383991425764322,0.07061078894667794,0.006237458737290931,-0.06366923082004307,0.12552552009009202,0.06953200176903312,0.05798019740912986,-0.8345203928067493,-0.17595638144628292,0.00762876251778216,0.3088381758996593,0.08763457746264461,0.21425852331105116
2022-08-12,0.02020220425928485,0.07437734722540025,0.0011912248860065848,0.10728949264779113,0.17407546882934383,0.10436638173260136,0.05609007671390903,-0.8326747282314287,-0.1759558893317881,0.012355549404177988,0.23934749313593107,0.07620365781667314,0.17903752823941793
2022-08-19,0.0071429269295930605,0.07140189397877855,-0.022015430257926353,0.21417545458708723,0.18720905839578184,0.12414321921747117,0.05170374536082876,-0.6915039645799451,-0.15121293400513594,0.01405828266563652,0.1549485455019071,0.048773628696974124,0.13186972275670145
2022-08-26,0.022017845974266207,0.08405796355855971,-0.03603565790270551,0.2644405732793988,0.16861562609863573,0.11491685715579475,0.0439756522121224,-0.653277616159565,-0.13569040556311182,0.02195553120344342,0.1066959877801775,0.03145054085632001,0.09488966787668719
2022-09-02,0.04939738363634102,0.11427565323656098,-0.06828015324638187,0.3201766366184899,0.19018536998494248,0.1324553579972311,0.037681133557346216,-0.7294324166156507,-0.12411435582460335,-0.02986119553925621,0.11918760743309312,0.025849999554977885,0.091909534964929
2022-09-09,0.07763983190339009,0.1332270002915297,-0.10146440675565829,0.27796668576020145,0.1481385764587459,0.10368142285089524,0.019329877125643193,-0.7165557585924803,-0.10942367224905117,0.01145662526070257,0.12500689873283122,0.03184494443526829,0.061316321448775746
2022-09-16,0.11683957649416205,0.1665025102299334,-0.13654074765182922,0.31941839704427544,0.16801129261812117,0.12333636134005328,0.014237252573420286,-0.879375894155441,-0.1205458230374688,0.04457097978155248,0.17051067594411617,-0.021230604753863052,0.06907309919916929
2022-09-23,0.12189118887883006,0.1490596180501889,-0.15225834264988194,0.26291028666612326,0.1609987123325214,0.11896920329111443,0.012490033792788353,-0.8211011469683053,-0.09810220148780291,0.0549383315286529,0.15879577848497972,0.025609490894640655,0.016363058608416
2022-09-30,0.11917578313276396,0.14546754152151659,-0.1625390047554596,0.24280128140716806,0.16254753754574916,0.11989013784830327,0.0006312848563324503,-0.6920684449749684,-0.10360760038661333,0.06345873873507447,0.15117664332211742,0.07595715674582086,-0.006734707089646225
2022-10-07,0.11973162281609466,0.1512415918988799,-0.14849731902137603,0.2565951965926422,0.18003817573356595,0.12642050385655582,-0.010160184148933726,-0.7728214167714008,-0.1155420446262828,0.08660641146571635,0.129654497570048,0.11931561928485383,-0.020784494508336523
2022-10-14,0.13953412346829985,0.1720398909809286,-0.1276459782198648,0.23239071009816423,0.14708255464412018,0.09424920088281993,-0.03232591324330976,-0.7961717048313639,-0.11867905949104271,0.09755002655275398,0.09629771535608597,0.1503036429049269,-0.034073412811185574
2022-10-21,0.1914378749169235,0.22471840563189827,-0.13313506012709236,0.1771830435410776,0.10974368110805736,0.06651859982921375,-0.0652299967401245,-0.9345768116925338,-0.12518817223028478,0.13249574152437205,0.07878627080332361,0.20804861483014078,-0.06665603750066797
2022-10-28,0.2092566648926064,0.23982288352494818,-0.12500881059450905,0.1691214254851503,0.07547582728944548,0.04330687856383109,-0.0855629841122862,-0.8657549110350746,-0.10391752569382896,0.12951803710105309,0.01548259589031293,0.2011845048001993,-0.09359682626364303
2022-11-04,0.21316751326371347,0.2359451046989448,-0.11400993784146178,0.13449098166305826,0.034999071695547605,0.027804651889087616,-0.07730841085539548,-0.7457616074385625,-0.09867627778288544,0.1304181566230314,-0.014177329860455471,0.1871857961042906,-0.10819655104666197
2022-11-11,0.26730207780773646,0.2790979014262766,-0.1070934512226022,0.06911463094359525,-0.03153493469536983,-0.003795882132660946,-0.08364556057095356,-0.8006227384001376,-0.11992388356449112,0.13705458451745248,0.023337919960347044,0.2509863715989473,-0.15924959334206615
2022-11-18,0.22936961356189361,0.22975050102998099,-0.06664563785111627,0.007296840288799619,-0.05831928686280995,-0.009667460142899067,-0.048020298016624795,-0.6373724133424904,-0.10482417101640011,0.07409336257902886,0.0641579143032556,0.22960675406765063,-0.15661795027319755
2022-11-25,0.2716727429362456,0.2549505211381725,-0.04577585610769624,-0.12181111173683339,-0.14039975123921056,-0.054340085731625465,-0.0478196556823911,-0.6239844829879803,-0.10745902538774271,0.05478275603726498,0.11172186339226749,0.2675310226900884,-0.1943827261194467
2022-12-02,0.22734350364070133,0.20642703227025,-0.014797245592557946,-0.17870903083029638,-0.18624471601632442,-0.09698376490123725,-0.049409609633730166,-0.45841013571519973,-0.07325106241988477,0.02489428688654407,0.11209031622521728,0.2394858770464726,-0.1554427754483805
2022-12-09,0.296390960794525,0.24514598803177015,0.01547354837960781,-0.30206979594460776,-0.27817408448949904,-0.1593697196954105,-0.08432688024137878,-0.5578687151123721,-0.06871824599005792,0.0022029525580469435,0.15924458363318347,0.31600624594402577,-0.1972651427747079
2022-12-16,0.24855010800699198,0.1811824848302904,0.03710814392753249,-0.29916505402421617,-0.25620341877721126,-0.1442025672616712,-0.07150421298323918,-0.4673056839774469,-0.03798345715563368,0.0014228913958115234,0.13499514115473152,0.2548826367899322,-0.17381759608658914
2022-12-23,0.2648672429010721,0.1786984135748947,0.08391039961248052,-0.37841460976369695,-0.3151309682412101,-0.18535782570008555,-0.09227948973159071,-0.45837880537936904,-0.01225728464450124,-0.0019509554888163833,0.10858606117147139,0.2273457668344262,-0.18023190680238083
2022-12-30,0.24123384701498324,0.1527935952976191,0.12051758929643104,-0.3664026237390047,-0.3169263338954158,-0.20294999784746878,-0.1122917193316701,-0.4310328515417843,0.0199542066553409,-0.0033751305073470763,0.07224591083927484,0.17642605537101622,-0.17252724917724255
2023-01-06,0.24056844850729142,0.15552636830202093,0.14646914072081502,-0.40467211954007715,-0.3490435409925627,-0.24076954183733143,-0.1299387344977133,-0.41825199380917916,0.055857021139507496,-0.005850145169812565,0.04409009775761244,0.14628059899635854,-0.18928221080884786
2023-01-13,0.22521307036087876,0.1512020581185403,0.18503939747783074,-0.42592258022702334,-0.4057280302029648,-0.2975742888700523,-0.15725295699571656,-0.3666385145988036,0.09243804899150361,-0.013300699328854663,0.00035071423935117356,0.12291556333853214,-0.18500265605732516
2023-01-20,0.18564910144442381,0.13842049395177516,0.15207411816724103,-0.3916344593416047,-0.3783873534883926,-0.27385184433281684,-0.12623080730041386,-0.2512764899191179,0.09764464748252097,-0.01298894226284201,-0.057176082187654305,0.09071833085087423,-0.15112935889307735
2023-01-27,0.2406564156449024,0.1871786977076699,0.18272336518254603,-0.3760396386861252,-0.4290823195991122,-0.3364200841771625,-0.16320127567715048,-0.34084242485097593,0.14774735906457614,-0.01634304300275263,-0.15819487993517595,0.057867420788854436,-0.2342788389049612
2023-02-03,0.17819837891458862,0.15307888828558813,0.15802242846309525,-0.22935503487554879,-0.3191224146812255,-0.27206013107645355,-0.12008304265404923,-0.3132352700329879,0.1420842738220071,-0.003700155567289377,-0.17130468204116747,-0.006618545209058687,-0.23381074418010775
2023-02-10,0.17287324994747108,0.16457585644017309,0.16659435981977092,-0.17861610283939858,-0.3170833907003928,-0.3067358437231127,-0.1512488611833574,-0.2758359485599741,0.18218201677114101,0.005833051441153407,-0.23462097133361717,-0.06527669676047446,-0.2626694735177881
2023-02-17,0.1278133741833795,0.1463297989546706,0.12588703212626992,-0.1108713443379395,-0.2717472776667066,-0.27742980294811104,-0.14078627028528534,-0.20221271730546986,0.20439004888017437,0.02680921207511046,-0.22839822697452267,-0.12226646751725427,-0.2528318006456651
2023-02-24,0.10284062100910066,0.1513070750004731,0.1296032257513305,-0.053455520880632025,-0.2851248075141899,-0.31965545324366323,-0.17010073617191868,-0.08993951655838078,0.2543186708469667,-0.03942651374704563,-0.27241933447678235,-0.1659043318566665,-0.2637340737826285
2023-03-03,0.07171682143684333,0.13677073003711793,0.09064699890202392,0.006383266083905491,-0.2453949568065046,-0.2964145132886486,-0.16616233897588203,0.046592104676161976,0.22359455987806628,-0.08861239965585563,-0.24812558367846602,-0.1529013566212938,-0.1936052436124264
2023-03-10,0.04415320414604505,0.12831420124868123,0.0657427867582636,0.04888399658088315,-0.20856985785469098,-0.27530770782755537,-0.15150717358361446,0.1288439550714037,0.20679008511248734,-0.06982053458997127,-0.26561435002424955,-0.17382947949817046,-0.18638724590144584
2023-03-17,0.004746632830166612,0.11722710078589181,0.06477519813217823,0.11470986501170087,-0.21357560679538468,-0.3041006374746575,-0.18217118360074544,0.18505636521357066,0.2185836008950375,-0.024995070874060114,-0.2804269540049263,-0.18546097855619448,-0.1915065202747904
2023-03-24,-0.025627558633430608,0.07308228238275219,0.03245029016781768,0.12673066498634217,-0.150119388669926,-0.23013636807582535,-0.14333234032513012,0.1737799349976867,0.16611203919252174,0.0250254398897382,-0.21856574076913968,-0.13230885724897082,-0.14924367923679321
2023-03-31,-0.03298493408918655,0.08334400578862892,0.005662494528038597,0.2162319357987602,-0.12673548168389712,-0.23115259832426946,-0.1657966099695498,0.2300953201131555,0.17853115771697076,0.0710370329957694,-0.2556150357772616,-0.13578291922654803,-0.22806163011689906
2023-04-07,-0.005909144275226921,0.11866868874591231,-0.010168674274335198,0.23537625266830045,-0.09959203567684745,-0.20189725946248668,-0.14783958303504988,0.26056425321744875,0.16270960682048255,0.07776584951128979,-0.26186435065224556,-0.14935230147208603,-0.3505642064248613
2023-04-14,0.024455520562847135,0.1758384194420863,-0.052492843715111676,0.3552555649908051,-0.02228445292347341,-0.16999891378567877,-0.15342862814935904,0.2653587101946152,0.15594903306910649,0.07845656362019607,-0.2871125734118383,-0.17427174246416982,-0.47947777880341985
2023-04-21,0.09324318390760802,0.23839992773884036,-0.07231648858393962,0.34425309233725154,-0.00875876990666352,-0.16046937625462948,-0.14536783423152386,0.14982273696708082,0.14260293371672392,0.1078562660410828,-0.27847397180543476,-0.1513837299559574,-0.5962011783050198
2023-04-28,0.12798669096239937,0.2758151895606958,-0.10444719812472038,0.4858065050652829,0.07707367307948668,-0.1266865567086725,-0.1385597407281902,0.03513066668908843,0.12847321097040298,0.13414582773261705,-0.31865281945470403,-0.15542395386689303,-0.6804887403622265
2023-05-05,0.14628529621589328,0.2637944945564128,-0.11081280627799718,0.5170642828359234,0.14532732634169207,-0.06882902254836672,-0.10092826569210958,-0.05356628074302844,0.09425729582552864,0.09986744860426956,-0.3262185336908466,-0.14604364572709622,-0.6091126564242362
2023-05-12,0.14294512144741137,0.24477631497247976,-0.10442697603138375,0.5512420010812714,0.2132512800828019,-0.010203600940715344,-0.0666316241374385,-0.1567751407366019,0.0656462963100379,0.06863903852721184,-0.3300538638679392,-0.15302369555841727,-0.5276682457718919
2023-05-19,0.14477540322272295,0.24557873831302646,-0.11533376215383553,0.6762050230738177,0.3187195866260148,0.057705274132172406,-0.04101290665484596,-0.23852373483732545,0.03911473628850883,0.04293828406035803,-0.35452938941613127,-0.1816313777862606,-0.5053126615512474
2023-05-26,0.11333426169324269,0.18439762089937883,-0.07489093991168917,0.597602018093634,0.3053368625004128,0.08293376780157471,-0.013664513876520816,-0.299479006168758,0.00873177288482081,0.02248283828965788,-0.28045163538571005,-0.14980612790708944,-0.35796164632543936
2023-06-02,0.12835602092971182,0.18170323108130715,-0.061867799473956174,0.7643844199181877,0.4341003305987345,0.14989837753205384,0.01288664614091647,-0.38712013685244284,-0.021810600830790054,-0.0037137892797462256,-0.36145357142560025,-0.1868854691481962,-0.38649391498137803
2023-06-09,0.09864883753516437,0.12265281290114853,-0.03525550111904058,0.585813880200211,0.36548181635759364,0.14479730182289843,0.021842247679623637,-0.3271079900868734,-0.03410277601947532,-0.02421510283627326,-0.2677417375475564,-0.1354036861950707,-0.26382099473297554
2023-06-16,0.15922047589247687,0.17126202180322142,-0.021476053620543372,0.8070306570714003,0.5129093901060385,0.2214103670022267,0.03451425953708633,-0.4654293046265305,-0.06909180624682584,-0.06205384231364312,-0.3632544213420413,-0.18967415220473122,-0.3539350556977323
2023-06-23,0.1564767250344174,0.1400261528501677,0.017551147331679444,0.5489485381149047,0.3509524923216506,0.15444786240776542,0.020424614822638496,-0.34764070838352323,-0.059479007393355106,-0.0728725192270571,-0.28716495544239634,-0.14590100118193527,-0.25662134361663785
2023-06-30,0.2198761301885697,0.17174242342466156,0.07591961631275645,0.4985496622357562,0.33144785100158486,0.14790430850136677,0.024063763744838835,-0.3362467648305408,-0.07773878873478285,-0.10808382528939219,-0.3511691836837923,-0.2050797302405384,-0.27405596035668583
2023-07-07,0.25620680516455746,0.18894949499151928,0.08702539781779862,0.3930393259228735,0.2588761051559252,0.10932829291136156,0.020617812051725214,-0.24394222600969764,-0.0718615001110109,-0.12888567735598147,-0.386686690593138,-0.19780787363776076,-0.2640053706197782
2023-07-14,0.29003414309205433,0.19869950709660097,0.11018507110888145,0.31669006642746267,0.20511239299368583,0.0797450299718832,0.015384242508071662,-0.23933548139283442,-0.05329962303713697,-0.145878117885981,-0.423227122700581,-0.2186208128140361,-0.27194636271231293
2023-07-21,0.352151671516323,0.23285177337894766,0.1474921857532888,0.2666193175363101,0.14816172627921365,0.03898370381718518,0.01298902525226579,-0.14314080132012186,-0.052892262815950976,-0.17683425559227586,-0.5005312565820548,-0.22335435165646791,-0.3572895096378992
2023-07-28,0.3173591629733664,0.20478978910337978,0.13147499020638873,0.23928528835524682,0.08876029953458459,0.006517275154291094,0.01494558029593154,-0.030112525250309614,-0.04710944955358744,-0.1256752729746053,-0.4742346976669144,-0.185116492753508,-0.3860346844042762
2023-08-04,0.3352146817308033,0.19355647781709953,0.15654171521114196,0.2788292905105234,0.06432130991247996,-0.020712943120607858,0.016314776599846106,0.02385602638157868,-0.051434194608855816,-0.07596101642457795,-0.5803628321033445,-0.1605904788148882,-0.47433478383026095
2023-08-11,0.33408612427130835,0.1624481322389879,0.1944900874831733,0.24901611535794957,-0.009172036943987365,-0.07180396936435697,0.0076924172512032995,0.01068809434228688,-0.04333230815922478,0.002781914810420174,-0.6317093780744805,-0.1357160289163662,-0.5142384158184796
2023-08-18,0.2952299754538162,0.14639319165277082,0.18331114375321364,0.1598864236835596,-0.06706578021981947,-0.09807758980840227,0.0032352230482268368,0.0029897703572771125,-0.012204777692668197,0.02792953659032821,-0.5673877738546598,-0.16004840544002738,-0.46726397297239175
2023-08-25,0.24677054122639655,0.11582570057365646,0.27631933285842697,0.23232107513489697,-0.09849327651239527,-0.14427997319917726,0.03770736444100518,-0.07411954636599877,-0.022171980175304765,0.002923885423445991,-0.5804770035793305,-0.19455112606342834,-0.47423020469921523
2023-09-01,0.19343608324845152,0.07846677279516179,0.2172337355369206,0.12893540831609474,-0.11503104444291536,-0.11807335448004229,0.020093901162598057,-0.051203163711117335,0.01710801366088928,0.061568102002658685,-0.4835130554993915,-0.20757869055776,-0.4262857815709196
2023-09-08,0.19297281114090167,0.06593057412080358,0.22835714746961858,0.11825126853340223,-0.14065106486194134,-0.1409588384931281,0.0121853310687471,0.03756834253838778,0.053946593083730794,0.11854522944789168,-0.5598019674212387,-0.2921547243339201,-0.514632278893195
2023-09-15,0.14893851250556137,0.02264662980228391,0.19516115234533654,0.06926497771375056,-0.14668503422707524,-0.14038084440396983,0.005143538485947692,0.1164635611013092,0.0693729356712519,0.15792612088995986,-0.49562809770198074,-0.29360999330844784,-0.4664781013247987
2023-09-22,0.13218405879043332,-0.0042505788548269086,0.19773271548028115,0.02293192673334554,-0.19443699127220146,-0.17576217159012186,-0.012436730700887026,0.18394379126401653,0.09614734828546714,0.21183901150126316,-0.5021775568079254,-0.3348768068095712,-0.4561437729312318
2023-09-29,0.09642395616121345,-0.048350506023553015,0.16884381695200248,0.018908068591231494,-0.1788312500857552,-0.16367251244658143,-0.017446579718462113,0.13806177815912238,0.09395447906655242,0.23243839108346345,-0.43627214109619583,-0.3357346323362396,-0.31276414066499847
2023-10-06,0.08415203209758651,-0.07161967223789988,0.166854248940601,0.021079583580869064,-0.17770534026163828,-0.16706303141291393,-0.03796652310607275,0.2420174443414751,0.09163156645760952,0.2628236852531862,-0.4442567155997366,-0.3681023511660868,-0.28815635114758664
2023-10-13,0.08553524987540542,-0.07857160290136506,0.13560278036899678,0.02029145822221231,-0.1539017281941652,-0.14944919546072333,-0.05115737850161126,0.21352809358874977,0.06804069145199262,0.2804727221359135,-0.34064775124154,-0.34897245881431865,-0.24542455036280073
2023-10-20,0.12029072882038827,-0.07558749658759648,0.15173881484022597,-0.07522565254152488,-0.19421009412177798,-0.16994004908517524,-0.04448524759406599,0.2971359693333815,0.05354329553638055,0.337156747817476,-0.3288624690078028,-0.3503908323264339,-0.35485103701490034
2023-10-27,0.11740236025814171,-0.07431562155964339,0.14768314548161107,-0.029159991575233433,-0.17837066839616206,-0.16209980005989616,-0.034188716860961095,0.2935895931666983,-0.009193538586207799,0.3189857037706098,-0.24409822486157928,-0.24696011687943834,-0.3436282300709058
2023-11-03,0.15055364183398828,-0.0674871159965432,0.1738149142262502,0.045398178630010305,-0.14564045000191383,-0.13040249191217987,-0.009739301860413108,0.3476959053064965,-0.0674679207253557,0.3493856821041316,-0.33854269944766885,-0.26033214775124347,-0.4305809531597133
2023-11-10,0.1554894388429956,-0.06338780286649247,0.17723284709710097,0.13675051093650553,-0.07484319367233365,-0.05409263523986765,0.02122606980246326,0.33152958937546334,-0.09225701228583688,0.36093303023444073,-0.44727333349773524,-0.2863082177538427,-0.5015367091793619
2023-11-17,0.16635926725840242,-0.04511221904138847,0.1724288673678743,0.1857078904141867,-0.02143646373750674,0.019276724694349538,0.050137188273578576,0.25348549443037127,-0.09836012750741545,0.34063605621329024,-0.5294883582939583,-0.3069689458554703,-0.5288907961674721
2023-11-24,0.18683507618296155,-0.018424726428350628,0.1502472099722852,0.23687681872066502,0.04500710531999338,0.06604921654185367,0.06564815752396713,0.1787006416742713,-0.10735037891442566,0.3034731475165226,-0.5591551840711126,-0.31639417294795186,-0.528238009632542
2023-12-01,0.19408401690095933,0.025886195178384027,0.10706511584193835,0.2275745576178957,0.07698855355524446,0.09306388534657267,0.06159049659245243,0.10199433704976939,-0.09037211318318855,0.23969573628923102,-0.4964545934164894,-0.28971151028984765,-0.5136617268924254
2023-12-08,0.26547792990502955,0.059451647932722076,0.11460561969802173,0.3303653843870536,0.16116477434722853,0.1653989527164431,0.08110399837620885,-0.0214132092052452,-0.12259195838755148,0.25686502578124776,-0.5902696141263301,-0.3441445928790367,-0.631020844378791
2023-12-15,0.18115912681925547,0.025056711095131703,0.08397713222426363,0.2574809147749279,0.1497793401446514,0.14880643406106153,0.06667111459110667,-0.09140168637185446,-0.10544331198160088,0.16215539980633395,-0.3502189971707906,-0.20136935908919187,-0.4272263312765035
2023-12-22,0.24285974932011123,-0.020454969306013218,0.1467585707835036,0.4921715642214634,0.3357066366420828,0.31038152928763096,0.1028161259646116,-0.24593152610725755,-0.20205777610988535,0.22316515516885332,-0.4669118214006299,-0.2588204050022418,-0.5787704784240251
2023-12-29,0.11549870048633573,-0.0456751568957718,0.09730823960994077,0.3448329037258925,0.2642424658503512,0.24287404621337974,0.08151087658747197,-0.1716483740221192,-0.14343994475694613,0.13440595107824943,-0.2660125333835772,-0.1687173270272757,-0.31494423567468405
2024-01-05,0.07079827175430838,-0.09195332563255364,0.0937125315199908,0.4222327498792768,0.36178140589403607,0.33837104294946785,0.11506852770822301,-0.23876327799024685,-0.17100216589945602,0.1391260772193583,-0.23273843800641,-0.20600799678625423,-0.24460725093356148
2024-01-12,0.0216846336441775,-0.10818542194223266,0.06660971712909695,0.3819967969502226,0.3526393899518193,0.34003328204200756,0.12439873423530219,-0.26301706041339673,-0.16144105110972656,0.1096857068024903,-0.1188292465397522,-0.17070712812137545,-0.12832478987914991
2024-01-19,-0.017064855660044093,-0.13555521155618871,0.053140059033706506,0.3597301845581451,0.3599617470585408,0.36350027404843976,0.1410670514808582,-0.34341839025752147,-0.1656781697882884,0.10293323086527857,-0.014039031344369958,-0.14321016936057482,-0.035576308698144786
2024-01-26,-0.03724893657491448,-0.11537726182446188,0.027657211897273777,0.2647456207789202,0.2824120308631325,0.28074227655818385,0.10693712128961015,-0.29048678981326315,-0.12053900046262796,0.0663189442027765,0.03664029138226013,-0.0731685586655821,0.02874708641939327
2024-02-02,-0.08240286297997722,-0.13238208595659326,0.01875050283633163,0.261844856102608,0.29491490823484123,0.29271651983660807,0.11648654193426021,-0.27941736439898324,-0.1195413437577438,0.05445560191279436,0.07927670387091389,-0.011783116695218357,0.0781878496540043
2024-02-09,-0.08522910828035375,-0.12319220418027518,0.004320022567688611,0.2380180274563826,0.2710804198032664,0.27547677319264424,0.11111917024865405,-0.27491760771769297,-0.10851415442014152,0.044864159696580516,0.0805675229164787,0.026561156207988382,0.10624937953793169
2024-02-16,-0.09949985687216441,-0.13902424584211612,-0.017638641616032385,0.24395653314833904,0.26731822068890837,0.2754442208251473,0.10153953959156381,-0.1864033344611288,-0.11434495909712522,0.04686516882279897,0.12178395516472482,0.08994238482855789,0.12815917589941625
2024-02-23,-0.10507731824277512,-0.1374965650959641,-0.02121363210716713,0.2612994067560889,0.25018334192642905,0.24785559568142296,0.07962384462134225,-0.1064315314058281,-0.11815200925330753,0.05900287864086386,0.1169271985272376,0.10812444750994502,0.12813997120240178
2024-03-01,-0.13057664002204664,-0.1793008025168456,-0.017977399683287758,0.2819660312133467,0.23368076139105992,0.22350175772732972,0.06316934180415479,0.01782371947767179,-0.14078130376385994,0.13738659755058694,0.08061193429520964,0.12950269263620673,0.16119410979527254
2024-03-08,-0.13675941462468139,-0.19863993171932295,-0.014466246624139142,0.2789225455188278,0.1924702824996009,0.16004532687703868,0.018070280643059905,0.136399360822577,-0.1468005609622114,0.2089369454635397,0.020867959067007252,0.1460677945505097,0.19268806357548704
2024-03-15,-0.12788905379898635,-0.23704888243784397,0.000529228432213204,0.31807064318778994,0.18419142493859955,0.14327946364112304,-0.02472878078333004,0.08546538700272453,-0.19576146698082061,0.3724072815045553,-0.09465789542823372,0.193640517273782,0.25941316234464123
2024-03-22,-0.08662580021782078,-0.19923713331872578,0.007561131410186004,0.2644571552232819,0.12244424443782793,0.06436335014262101,-0.0577244514872488,0.05990758125683454,-0.1786911145850745,0.4182326110343051,-0.17834146144216037,0.1478959769178118,0.2478429860444621
2024-03-29,-0.10523005959442414,-0.24448626777164506,0.030832990977631317,0.27473183920481875,0.061699352404531865,-0.022644371779632008,-0.11728381236785597,0.22752848946495136,-0.22688788620194814,0.5966644368145448,-0.26595526262443225,0.1438321201650734,0.327171575428805
2024-04-05,-0.06017814379769852,-0.15865805670535446,0.030044218346264594,0.15509687614827367,-0.005429587599558198,-0.06334694168778605,-0.09515243790847726,0.24716300227600685,-0.16113693433544102,0.43921677241267415,-0.23716115001919447,0.06593089180905722,0.23988782279519408
2024-04-12,-0.04954845476246835,-0.18091056700846864,0.07377202835478605,0.15896429848391647,-0.07923304172064738,-0.16359092721168905,-0.14835742329099208,0.4689320128338994,-0.21072674156092394,0.5603844397396686,-0.4006227721058253,0.0026803837226450486,0.32757564506790343
2024-04-19,-0.002118730619900968,-0.11559867395856153,0.06719257640016277,0.0826216041060667,-0.10648322486645943,-0.164634552773419,-0.129749126121575,0.4455492713616988,-0.1598953280175133,0.43339956736855306,-0.3586628304051193,-0.04982273719881821,0.25155641455461386
2024-04-26,0.05478705013844469,-0.0956586739561916,0.09537385697745586,0.04137646456884674,-0.16344653551952742,-0.217326280000717,-0.14266609859937607,0.5914179761131796,-0.1757382176083143,0.4418782258266177,-0.46453527963028635,-0.14274140596876939,0.2789656706602244
2024-05-03,0.08462406458457694,-0.04777968001230027,0.10033521079933108,0.014363888686166856,-0.14173758168609107,-0.16658174299262626,-0.10341964396402004,0.5265645101563368,-0.14541179867330448,0.3073081166187432,-0.43259435865911533,-0.1853585131506048,0.2224053721918288
2024-05-10,0.13225281969449518,-0.01753328609469112,0.15621695471023178,-0.010513802792701315,-0.21120154593154822,-0.23490599395497164,-0.14274931117026432,0.7431431494834256,-0.1661451617375297,0.32439551212717344,-0.5859285327201031,-0.3123813192627907,0.2450233654756807
2024-05-17,0.07645726324333021,-0.0024560046741863373,0.15870442577653449,-0.020694672114342897,-0.17703694263637373,-0.19543768787771273,-0.11500294827356833,0.6055490128629748,-0.11042238557600821,0.1931589393589731,-0.4372045299034735,-0.2699225365120103,0.16292443894949785
2024-05-24,0.08743123556816408,0.03339087310423317,0.18225572863909142,-0.00817687695311182,-0.2143355203702945,-0.2607010110777646,-0.14953149579548505,0.6948002918856393,-0.09590951519866081,0.15588233240909147,-0.4634228071164273,-0.3187161877504805,0.14655006776009197
2024-05-31,0.06303434588758164,0.053087282014778726,0.13724849531999417,0.02615950760348198,-0.18122771467223073,-0.22972678932303084,-0.14404890418482125,0.5483053968009493,-0.045849035820658406,0.09461679741423953,-0.3643847649156688,-0.2932534122589271,0.10655822097423485
2024-06-07,0.038682994069671066,0.0707919211942886,0.13786742098769122,0.061839616598183045,-0.21599764564448753,-0.29368184977417705,-0.1890670608772684,0.6220010743373829,-0.0015106069752062845,0.1018020616705067,-0.42658309379826814,-0.3608051278877905,0.11531504801229298
2024-06-14,0.0008035975277558497,0.04751140875631378,0.10869519395476919,0.028823382747940364,-0.18699751189019495,-0.23958940888752797,-0.169261336443199,0.5552927891395549,0.032711306590038035,0.0785704201055453,-0.3388560282010055,-0.31691711220456953,0.0955017683697669
2024-06-21,0.008656773815817127,0.06360916155752323,0.12216746289211222,0.01906826606769939,-0.22395997550693528,-0.2996255939231744,-0.21246517220084704,0.6331133170327866,0.042735783373328715,0.10071037756118012,-0.3459249961193402,-0.3605533598469484,0.0936274449730152
2024-06-28,-0.000690608256410383,0.05712660695766142,0.1081563309330858,0.049466168415764546,-0.17853948919621968,-0.2524071294793653,-0.19963313471270241,0.5047836765531518,0.044311286847567015,0.12889892010032752,-0.33489728928275514,-0.3748201595797308,0.09479765303815842
2024-07-05,-0.0002939249010004961,0.07144685855814106,0.08673217290903977,0.0066069922737301895,-0.20903599739157638,-0.2753617308849335,-0.203430437039323,0.5727000631473328,0.04439217927661284,0.18829215181967496,-0.3763189218773149,-0.41145000859444564,0.11622645709045969
2024-07-12,-0.00767495552281607,0.09678448913219313,0.08008273112383621,-0.006596579243257785,-0.19546973000393478,-0.24215676640033576,-0.18077148992929193,0.48648441622342115,0.00884603999990645,0.19877865509031445,-0.3518030498416086,-0.3992375680789735,0.14854451561882442
2024-07-19,-0.01373287650656362,0.10368360416398953,0.06582656560253622,0.005481249815668123,-0.19457640678110985,-0.2431672081820415,-0.18790757584362827,0.5371275068932605,-0.016744463619941106,0.2230244126259294,-0.3663612032446805,-0.41169450050203166,0.19803006705398496
2024-07-26,-0.06742057619767289,0.08921096547632207,0.0659002226470098,0.1048638883773165,-0.1282078157026452,-0.19312679395086496,-0.17799645882505355,0.6105452930263225,-0.040260755385703666,0.23599996885928978,-0.42141252633969994,-0.45486489238071126,0.2457116560991956
2024-08-02,-0.14817597337232177,0.049106562933931515,0.05202242573695498,0.18970558961469852,-0.08806647793521834,-0.17268197796831802,-0.18584621186868877,0.7033993282346196,-0.07143456637846643,0.29259024400310374,-0.40556220540179466,-0.4655297631157595,0.32539264947569857
2024-08-09,-0.19947791043224322,0.009838188815391264,0.01749892990450261,0.23473789926065347,-0.039021316807143595,-0.12901699274237288,-0.17066341526371998,0.6922994601772925,-0.08678934319238911,0.31374238492428047,-0.33107545104740244,-0.40059536691743963,0.3515217004396104
2024-08-16,-0.25826573102813366,-0.03267123296781599,-0.016685312072882395,0.2829113754488398,0.013939378252364385,-0.08001137643261842,-0.15558868214286573,0.701616197304855,-0.10081527111211479,0.33709078343397214,-0.26279952914240934,-0.33729138899882166,0.3856353500155879
2024-08-23,-0.23650372150755317,-0.05449619763254283,-0.04921255042169818,0.2683429728059402,0.05373225893420428,-0.02885580913766013,-0.11802712758988865,0.5424410061997507,-0.0866017545437225,0.28919795130403836,-0.14636252110312498,-0.2028029432630333,0.31941701551240476
2024-08-30,-0.2214724985287135,-0.07218261452980435,-0.0711456880739373,0.29188132606715866,0.10689870746887682,0.033297857940598315,-0.07948892277141616,0.4597695402691705,-0.07986853160076175,0.22680982732963106,-0.06581623636381047,-0.11427738567243877,0.28061773299384174
2024-09-06,-0.14050739503243784,-0.06173714534819939,-0.06541621881891142,0.18078331219236526,0.08374081552908608,0.035756118668269644,-0.04037257149372811,0.2721186568170343,-0.04765280490251977,0.13872596568819767,0.04773545472425717,0.0005395936001467767,0.19592120812391087
2024-09-13,-0.1341752366113705,-0.07689033568357667,-0.08036488391736066,0.2149209999314055,0.1453350656485883,0.0796170446155488,-0.03250212229688852,0.2414187143561532,-0.02513890885281818,0.11512998311873698,0.07441862983885962,0.050917926213653084,0.15813087560289496
2024-09-20,-0.11011151881588087,-0.07058993720485601,-0.07669541667910601,0.15338753129434482,0.12250453288257662,0.06867777717225247,-0.021927280834301892,0.19718222272703517,-0.024520204611409357,0.09005122462842163,0.10651985514010581,0.08750201129937832,0.15052776221545364
2024-09-27,-0.10984293675418294,-0.07390610485440936,-0.08942306515755105,0.1566821947894223,0.14656610572467849,0.10164711395436642,-0.026917726043163778,0.1807285260005831,-0.049472866240223595,0.07309203407391454,0.1743295450585255,0.1523263126496883,0.18920078837252643
2024-10-04,-0.09286407545283058,-0.06458089058986041,-0.08209806071982971,0.10096549843506074,0.1159478080656733,0.05838587967849845,-0.027299737291551843,0.14570217054274626,-0.04565738032405947,0.06846534599915619,0.19852587339338837,0.16156121747659613,0.17407469823958194
2024-10-11,-0.10699651817699649,-0.06915368273850839,-0.10509857370859835,0.04382468875468846,0.10883379114331124,0.0466913736445392,-0.05145662747424197,0.21881834918231605,-0.04952630591692611,0.06564378613599589,0.2731777639432411,0.2659942385152524,0.23203113663293415
2024-10-18,-0.09414562282334266,-0.059020925531440886,-0.1030776054875144,-0.023508716067334953,0.06939971459716887,0.004251636869866481,-0.07468490633693652,0.26542195665338175,-0.05592660448041861,0.056950575529073184,0.2958831230572428,0.30750779247823745,0.25433707943496103
2024-10-25,-0.07610707171739457,-0.043983035152569364,-0.08787904264572823,-0.05126579231238668,0.03329641675299675,-0.023445612408631383,-0.08736646376395453,0.26865288496599665,-0.055349857209042334,0.039880977844075294,0.28302872778225596,0.304001293959502,0.2350971309263949
2024-11-01,-0.07521129028032966,-0.03902816111464387,-0.09320228966347792,-0.12100258216502383,-0.020424741378800567,-0.07647568592078492,-0.11613602092208407,0.33213907263071873,-0.046793590547531676,0.025451955976345055,0.33114952649721363,0.37486085709872585,0.24871211793422268
2024-11-08,-0.0645311553636064,-0.030898748866141093,-0.08091010550204228,-0.15080765869828097,-0.05752819102073391,-0.09666231251109972,-0.11537683631173073,0.2891296305318953,-0.017561485986137725,0.028302315697434462,0.2966459608556229,0.33486502771550536,0.19193878365856631
2024-11-15,-0.07013264036387536,-0.026820802254206137,-0.09032174478868153,-0.24112483720625616,-0.11852543751584863,-0.13733286936010963,-0.156122148324547,0.21511644791314408,0.019844865529125236,0.02965462240494124,0.3856611790043556,0.3729694781270757,0.19358836435491153
2024-11-22,-0.06411733965539188,-0.02102623933739422,-0.09009678236971794,-0.20140035754240637,-0.09570508170245114,-0.11796212763525381,-0.15988311011563286,0.3075748272410725,0.02342160001977166,-0.004013523195312875,0.4001558824692251,0.3247054812611553,0.14214913584902436
2024-11-29,-0.09858127372835919,-0.018924016925021218,-0.139082575298907,-0.13467284773190247,0.04907258489759876,-0.11614743367671797,-0.30771435737763936,0.3633070893232954,0.0801293333940917,-0.033110045686183906,0.4754395130469997,0.3929797192519247,0.1786954889472536
2024-12-06,-0.06912408442501419,-0.000682806324337829,-0.10240851821914258,-0.1380445989152438,0.03460971835264608,-0.15079342402785664,-0.29360230643688434,0.25734176052565066,0.09833002841211914,-0.006711107748334117,0.32192824915283763,0.26315790168926584,0.11780313743563414
2024-12-13,-0.05471819354185193,0.02957443686772743,-0.08744837705055766,-0.19685692798369622,0.018809687395881413,-0.17290214067679127,-0.41438656379666905,0.3675919571603673,0.1132617539965295,0.007240497798721525,0.2795110302202911,0.23310544480304712,0.10877297936617278
2024-12-20,-0.042052137620984496,0.03631231298469722,-0.07527195830889505,-0.1789796794876804,0.06194895786659847,-0.234250553031326,-0.431717668938308,0.5154863006715438,0.11039869704975784,-0.0037096978264905306,0.21705667538542897,0.17698834322765247,0.07998225142385579
2024-12-27,-0.03944145447483112,0.04044611643897521,-0.06300205149591523,-0.27544862829118655,0.035396659530913366,-0.16329286855977798,-0.45785460194546196,0.6201979856832996,0.11597752183876021,0.00990253217963446,0.1722681792630967,0.13677493105882127,0.059370791857793995
2025-01-03,-0.014086331400038498,0.099696709970561,-0.07841149576343116,-0.4088410235761934,0.07213802717452028,-0.13805710494981324,-0.5709925675484461,0.5792010190961295,0.13328232460781336,0.033278780277704076,0.1543171378665799,0.11453329885188022,0.04392265399366221
2025-01-10,0.02564456912913808,0.14799032177871482,-0.07428046038829292,-0.5109143898393206,0.052881302079061734,-0.09096590619487885,-0.5774175307952335,0.47293889089796554,0.12428309057369367,0.028226758710769902,0.1179341692550387,0.07800248177211969,0.02243174841344417
2025-01-17,0.05716856556637668,0.17883991426321477,-0.06753294991425628,-0.5966456599675845,-0.0018083251103904296,0.040513093943165976,-0.5931761728236299,0.5035419341724717,0.11199804251507012,0.0270436476834948,0.0697355653332295,0.0287965561666223,-0.007190779803593459
2025-01-24,0.07156537538215747,0.19408530871075833,-0.06277091996484424,-0.6577429416220592,-0.022290655964796263,0.20923625119030645,-0.595828233692326,0.4935288861070429,0.0868661447421896,0.07967844644203877,0.021918355373996355,-0.02218708058465632,-0.039347764138264296
2025-01-31,0.08057976429008258,0.18733236972802858,-0.046991679169303746,-0.5980629733276047,-0.010973237605026536,0.3257082848113847,-0.5340294511908982,0.33955184144609807,0.0543036574721571,0.10463350778157175,-0.01640582961150977,-0.05676527916917986,-0.05785556278791843
2025-02-07,,,,,,,,,,,,,
2025-02-14,0.09393210420393254,0.12355353551994408,0.021872321737750843,0.17504387212328465,0.33337418649563705,0.4085319485804908,-0.08096788353887494,-0.4337455672924361,-0.0913971122665623,0.1571857621663757,0.0,0.0,0.0
2025-02-21,0.14035743288294242,0.18471296241719645,0.03602616891232986,0.23968782705555158,0.5224389862184725,0.5253817512068616,-0.06768732593660749,-0.8076151153680091,-0.12413161770587108,0.3777721967604033,0.0,0.0,0.0
2025-02-28,0.10727427699938731,0.1281427695309931,0.03391670133073151,0.10512151756942692,0.27451551326333745,0.3811766763263217,-0.0012068268336493787,-0.5408437717080825,-0.11649313676518272,0.30957068235709817,0.0,0.0,0.0
2025-03-07,0.13757308916503241,0.16152071236985585,0.05718081659680753,0.05354532162229821,0.24462729328964172,0.4803372541372223,0.055113104327469985,-0.6987238509267133,-0.1748004062360989,0.45226974348998406,0.0,0.0,0.0
2025-03-14,0.08044780365884507,0.09260987654913266,0.052859366477819934,0.08689148807483152,0.21214684908446815,0.269600245276767,0.11004770670874923,-0.44049370831800383,-0.13993978300865026,0.26929155837426877,0.0,0.0,0.0
2025-03-21,0.11382832407319521,0.13098522602917811,0.07869079106162954,0.21899333304829605,0.4088171453357643,0.3811234067124967,0.2633897140199723,-0.577494108199743,-0.20157003806179358,0.24758768069545156,0.0,0.0,0.0
2025-03-28,0.135301935980244,0.1406355561930524,0.08773990149212241,0.21486517141005904,0.4274856705055402,0.3488665259867229,0.3295728774366847,-0.5325826583346646,-0.19050501776566392,0.05914578027454044,0.0,0.0,0.0
