,ES_FRONT_CALENDAR_2D,NQ_FRONT_CALENDAR_2D,RTY_FRONT_CALENDAR_2D,ZT_FRONT_VOLUME,ZF_FRONT_VOLUME,ZN_FRONT_VOLUME,UB_FRONT_VOLUME,SR3_FRONT_CALENDAR,CL_FRONT_VOLUME,GC_FRONT_VOLUME,6E_FRONT_CALENDAR,6B_FRONT_CALENDAR,6J_FRONT_CALENDAR
2021-01-01,-0.015745833392599485,-0.01295470885399594,0.3975122460794267,0.1026215486736451,0.06283545737231687,-0.06275962237853024,-0.6503953178225301,-0.06275962237853024,-0.005585702372467831,-0.018004147144576658,-0.05081388171605617,-0.03245745015432202,-0.046764339516242245
2021-01-08,0.0031047818660678746,0.0007473491723997382,0.35311204894435444,0.03382735430280702,-0.03259262581318627,-0.15133180090594373,-0.5932876392966993,-0.04747010281227858,0.004045870001368859,-0.02832170904788848,-0.026142096594841305,-0.007063556163601593,-0.018923677501298565
2021-01-15,0.023537671852989776,0.01150793824879712,0.31500342386797975,-0.04006982227268391,-0.13042147167123994,-0.2430475026854093,-0.5371354074655119,-0.030975762797884655,0.014549809732882717,-0.04327113370174081,-0.02466904487147053,0.02492433733313561,0.016771612694941936
2021-01-22,0.05016022608214206,0.02760392422809162,0.27600907058396174,-0.07508137805121541,-0.22252057068666414,-0.3651084944981714,-0.4881141825904469,-0.008637054177412624,0.024896454337194153,-0.0664387988405045,-0.017114948035230768,0.05942685115783729,0.03895621869620572
2021-01-29,0.04090967637853114,0.020482337366185856,0.2543767745659112,-0.013420808222169525,-0.26061722056639813,-0.4741809879024497,-0.4564374890133215,0.05482647192556699,0.039398214521964375,-0.1045780963372416,-0.021795516801073826,0.13488680954133053,0.013712168903779867
2021-02-05,0.05542831195929861,0.03536217579491671,0.21875474539600626,0.052182853370747226,-0.2897998409418047,-0.5359761284507584,-0.4185927848346275,0.07381451312446971,0.05333681607168453,-0.12856910852125997,-0.07278954257678483,0.17927501145205044,-0.0745413186024188
2021-02-12,0.08064619781325144,0.059431416236985626,0.20636985041007672,0.04812205192331898,-0.38536745402580397,-0.6377961309112699,-0.4261486086994669,0.07394727582826416,0.07425043285469934,-0.15482975253818673,-0.09663640355398845,0.24143484059558898,-0.17055134283921092
2021-02-19,0.09934754401938843,0.07082130825793227,0.20456540244232752,0.06025484811129297,-0.5076163549627785,-0.7273003657537352,-0.4364051971276628,0.14081029432421996,0.08609839668281873,-0.1798938711103697,-0.0839524554289379,0.29489398510040404,-0.23459494272264458
2021-02-26,0.10453656163372177,0.0615464466352801,0.2104351275464138,-0.042316923303089955,-0.5775114724608946,-0.7467245110814308,-0.42507769854833855,0.23788182204302888,0.09890572215226606,-0.19839935605892464,-0.0570683026565371,0.33962258440867976,-0.3110457153445662
2021-03-05,0.1108710499275935,0.04276005957424242,0.22523643439279728,-0.15334420473279092,-0.6458455147104802,-0.7522300769938228,-0.41121576984422314,0.341179864815278,0.11235162971015378,-0.21053391588086182,-0.07592314306971121,0.38040610107073625,-0.3838778476201747
2021-03-12,0.13372639441406464,0.029997343276950254,0.22953734259706574,-0.2717639567609789,-0.6964608667875593,-0.752443234480502,-0.38760181898334334,0.4373426838461055,0.12133776426483804,-0.20647737829843454,-0.09261542231714809,0.40957552375960793,-0.4960294730750695
2021-03-19,0.14695725934521767,0.017881358990564408,0.2380777665118728,-0.36260201285547833,-0.7437412049260197,-0.7574023828940294,-0.373490169712176,0.5746688343196765,0.12340163011794973,-0.19215605546684664,-0.13890227092725616,0.4315783966693627,-0.5829519473469355
2021-03-26,0.16885968071242824,0.012705193254167059,0.24887670007415538,-0.40058201975258606,-0.7615312210962443,-0.7396836090527473,-0.3349574734856798,0.6732145545881634,0.11808320352801005,-0.17472646168874256,-0.25131963411089814,0.41343790092373395,-0.681201333980133
2021-04-02,0.18653355327730348,0.021319115560484582,0.23471906097314316,-0.4734695711832164,-0.7521207673325682,-0.6981978670144384,-0.2954375380577405,0.6979285381029591,0.10202289834671294,-0.1001528752908244,-0.352211546832356,0.38648021945416944,-0.73425474806234
2021-04-09,0.21774907439851696,0.05109485606770242,0.22225670272994041,-0.544041362184399,-0.7285482942245571,-0.6489245525089784,-0.26382108914728536,0.7497471696134675,0.09424471773034603,-0.09673668381460539,-0.427838616138316,0.31962457440479364,-0.780271382707167
2021-04-16,0.25673058846146596,0.07796982311854261,0.19914920698216673,-0.6718914335288064,-0.7212746240640816,-0.561806384599815,-0.23259397547896013,0.6874190811627193,0.08746352106840144,-0.09597401161981486,-0.4342754076628431,0.2725820105500772,-0.7460556953378285
2021-04-23,0.3344165779052708,0.09771307262561316,0.17199959960129538,-0.8155685042415473,-0.7498632398753541,-0.5614726041056393,-0.21975824685682704,0.7186764425209007,0.08687166954661049,-0.13670288502062417,-0.3698045668988274,0.24450328202126773,-0.7211973928835042
2021-04-30,0.37661522885859117,0.09514585368538217,0.17966956361829994,-0.8328947174371428,-0.669853924092136,-0.5037174745841573,-0.1975477216182122,0.5903009208078828,0.08508225079573127,-0.1449401263883454,-0.3472212736417848,0.18669999214473437,-0.7726716102688433
2021-05-07,0.41186116448395554,0.06188210099749042,0.1696091517510581,-0.8340689863300457,-0.6600796688684774,-0.4974231529431508,-0.22694107073882033,0.4469344381242444,0.09720202321073011,-0.13384830580541168,-0.2594945793800435,0.2681390274843718,-0.8117215099272197
2021-05-14,0.41342824999407685,0.009721629381599553,0.16845538858770356,-0.8152723273589859,-0.6821953303949192,-0.5396516427133934,-0.28371228894866557,0.5315349200907798,0.11497759043612052,-0.10112230272381428,-0.23896215937633364,0.3625268276363436,-0.8669058887310587
2021-05-21,0.4172755571112125,-0.03659345283152051,0.13434805362935245,-0.8130116860750826,-0.7097427581704976,-0.5864215415652442,-0.33825137912606995,0.5423049018750735,0.12515123177399282,-0.02828296546603687,-0.18005849032711158,0.4936268732675711,-0.8660793461687952
2021-05-28,0.40395192857867473,-0.05696683399050114,0.10273199713283604,-0.7332093968538742,-0.7013556455452687,-0.5947282123746984,-0.3606203588978358,0.5777636271793591,0.13130302658000212,0.04335694025541678,-0.1967448431645083,0.5746109643194303,-0.9709803578320986
2021-06-04,0.38664996738731316,-0.044866399195557294,0.07464934128386908,-0.8302356473700864,-0.7015971296210874,-0.5803360135002457,-0.32785016770051584,0.4552971596081049,0.1336119344016668,0.11502667853516078,-0.18079263357545158,0.5616728401737824,-0.8982309817385421
2021-06-11,0.3754020508220091,-0.025138009968586936,0.06500376316669862,-0.8496250793623245,-0.6594397143114603,-0.5134903890004423,-0.28031724637087424,0.32481231703651436,0.13324960858211918,0.12722736956815944,-0.2015929437183034,0.4899494309523107,-0.8503498375677575
2021-06-18,0.3572588793891924,-0.008269236954298733,0.06446852245451233,-0.84254008142051,-0.6247184555711564,-0.44477331505000295,-0.22923821135367256,0.2336184578868984,0.13666789028134907,0.11266331468613007,-0.2522642371108841,0.40720232015918567,-0.7900939882933892
2021-06-25,0.3410201509979881,0.012985112349419809,0.06776356885155056,-0.8265879787424075,-0.5938739675858475,-0.3872221229167872,-0.18319286819238484,0.1378133367730864,0.1386822677722548,0.09071266820814582,-0.2969019787027563,0.3278053716796998,-0.725080073497325
2021-07-02,0.3290169285299445,0.033498795740986104,0.06766450915905534,-0.8034814002075338,-0.5608208014610518,-0.31267238246586093,-0.13391318716865802,0.05844744764492206,0.1407747363314062,0.07252820917926903,-0.36489033315658614,0.24879879266800736,-0.6843229553654674
2021-07-09,0.3274667649951653,0.057226263141396214,0.05709399910752239,-0.7769143745809373,-0.5236666164813819,-0.23494807006763704,-0.08557934607376483,-0.03308396153969943,0.1413853249234435,0.056825165113440504,-0.44228074701689435,0.19053754136003326,-0.6534471674623428
2021-07-16,0.32304954182213513,0.07461909322468825,0.04767397838531129,-0.7551076610395525,-0.47484336536732996,-0.13767446309049114,-0.03956249887776923,-0.10275139013146858,0.13934690607683978,0.053339868838358444,-0.5204749031906588,0.11340273798734707,-0.6291177635293598
2021-07-23,0.31847534622106677,0.09190399453631583,0.0337113221763446,-0.7106554696611319,-0.4044278998876369,-0.04981908865108016,-0.00281197685111214,-0.16354009001392975,0.13389183367366722,0.04780553278888306,-0.594891330089954,0.05436814776527706,-0.6096421954316784
2021-07-30,0.3148809643631996,0.10640963038172421,0.016271382720054503,-0.6622086710050457,-0.3328526684701304,0.03429608420560856,0.03125431112955661,-0.256493724217653,0.12981455201638498,0.0411046607067123,-0.6439474920819682,0.007767269464737603,-0.5827744717379242
2021-08-06,0.3269372193322721,0.1368841784275434,0.0033460853146509532,-0.6122194500571159,-0.28295302253529026,0.09877921293812554,0.06021132995222504,-0.3418804163357566,0.11933576411958582,0.022928340897860285,-0.7045093551239455,-0.0321043388952225,-0.546034857821867
2021-08-13,0.34834703953287144,0.16923042543709824,-0.008633998674141557,-0.5726604245437433,-0.24229539482286336,0.16718565235857727,0.09892503888135767,-0.3750612877561929,0.10165570965695185,0.004474100531730304,-0.7758194283369947,-0.09319160331010089,-0.5008203144733251
2021-08-20,0.34500894664327214,0.19439711397585346,-0.014385609605605379,-0.5472899468033832,-0.21623646434043242,0.22392318602792657,0.14441639649361449,-0.2985389910235634,0.07976320815712637,-0.005997668110127188,-0.8354249529045898,-0.1833324865991992,-0.4473679810685466
2021-08-27,0.35722040239490066,0.23307652118436928,-0.03656450995150062,-0.5097038723069831,-0.19777610986376543,0.2808933493752866,0.1950898565149714,-0.3564971851464298,0.0639682444847896,0.00016845335216076392,-0.8795040753791903,-0.2692590015371576,-0.3940527133864201
2021-09-03,0.41113265890179396,0.3045975410532124,-0.04546320107693496,-0.553304216212085,-0.23785942311715091,0.281086456739177,0.2273529299824078,-0.4539773481063433,0.04527179801709393,0.003978856619454612,-0.8802680033601421,-0.34624654720818,-0.34226300522428227
2021-09-10,0.3947680906334125,0.36774564121749403,-0.036854585393453425,-0.5966273176575264,-0.26218652685589783,0.31491869030603015,0.2767405565500421,-0.5460587227133308,0.0351894218980974,-0.0029774893669346483,-0.8894624112730842,-0.4301887259821632,-0.28351103805840117
2021-09-17,0.35596839688043336,0.42265115360604666,-0.016542823317290043,-0.6277534769004597,-0.2912672487193155,0.29850980299148044,0.3257704538399138,-0.5913926513599019,0.03974273576434567,-0.032999394934834655,-0.8975120735772352,-0.5243449272703851,-0.20528868365996084
2021-09-24,0.2613238370881836,0.40333418826337386,-0.0023437257381291564,-0.6679778599846304,-0.28208334919543865,0.3338486108729924,0.39661526437443445,-0.6038151086966554,0.07069340265705765,-0.051914766722848824,-0.9115673204753874,-0.6086706421118648,-0.1497106651552361
2021-10-01,0.17459021559352328,0.35601414096275874,0.007570780252805333,-0.6465836329871717,-0.250181413652236,0.38184411922820133,0.43257734904468104,-0.5856723517035073,0.10159000541515584,-0.04787984872768343,-0.9667365419797229,-0.6686042904318612,-0.09910974307830664
2021-10-08,0.1003845063887572,0.30209102596651094,0.021446865255470036,-0.6415629793219411,-0.26211216478589683,0.3465875677789969,0.4364425612255812,-0.42429467784393426,0.13719620656443016,-0.031137052852011404,-1.0324990246454933,-0.6868292668773163,-0.10331753544988725
2021-10-15,0.02801656329152405,0.2297548649316046,0.03460428193546206,-0.6544570439281464,-0.3051490197713327,0.2964599087740428,0.4512977548601806,-0.36967531807332255,0.165252558008705,0.016880710124523413,-1.0217212012272274,-0.6226608937732023,-0.11890257169275974
2021-10-22,0.024649627152613384,0.19621464667400826,0.042879834526024854,-0.6862624800524201,-0.368001045899323,0.2280077876392671,0.42380709222751584,-0.33610327655949024,0.17424239869232908,0.04919688994641101,-0.9296829338445898,-0.5580376180203954,-0.15158001353119696
2021-10-29,0.04315524904252434,0.18574808691792785,0.04605810994920983,-0.6987387809873896,-0.4293423061408644,0.14955333807080526,0.40632584889125206,-0.27126904680999164,0.17754218764239824,0.06414910420710775,-0.8436058252136532,-0.5107001159118396,-0.23317545868102724
2021-11-05,0.0917937040580098,0.18998845172600215,0.03339124304128019,-0.663980470748136,-0.4653534033690376,0.11349103193980681,0.3932785554151726,-0.20355613003767373,0.17506605103192183,0.1067652784368151,-0.8044596475948862,-0.5430027842654672,-0.36349669129013673
2021-11-12,0.13772943923964015,0.18839424193966428,0.06061956482127852,-0.6413445129689146,-0.48006803512637214,0.037484264920479904,0.3648837505898676,-0.191326833803856,0.14784708563509474,0.1856206376081199,-0.7511256993898632,-0.5849313937353159,-0.433420084684161
2021-11-19,0.19964214703300248,0.22415093801008856,0.08959631379829958,-0.621984948366079,-0.5366502474770906,-0.005746792732362761,0.38177980875611905,-0.22641739590998367,0.09293469080047284,0.26533643095391046,-0.7578177195144311,-0.6406058551093885,-0.43861980728552463
2021-11-26,0.14863708503606993,0.21239723502981422,0.09787258535472926,-0.5676243807152754,-0.48243667471333196,0.06855245899936696,0.4306549015127516,-0.22235879600883982,0.06267070474571854,0.28190724340900264,-0.7743806994071385,-0.7027257152450677,-0.3709795671614624
2021-12-03,0.0956996094827893,0.18467984431977183,0.08866693133492448,-0.5108330289046351,-0.4199511035400264,0.15749966143690283,0.4670255644621918,-0.20824032568098366,0.04044153967769764,0.2817331758573855,-0.7622621802351424,-0.7332795276809526,-0.2846289103708874
2021-12-10,0.11787393748420971,0.1942895089307009,0.04039153861691172,-0.4564388046171927,-0.4045391198509468,0.21516894058714345,0.5098892962183202,-0.18930973663872153,0.013697946848458233,0.2840187190932484,-0.7603897342093295,-0.8252885917508199,-0.17686874978718528
2021-12-17,0.09525175165927081,0.1606218629346103,0.001848462845276809,-0.4282246859230924,-0.35090442564870494,0.32667149795684963,0.5443937953783955,-0.1930881490564137,-0.006551259900634428,0.2915856926428657,-0.7196569640168081,-0.8335596331228111,-0.08015593108688808
2021-12-24,0.09884213655843184,0.15603257869318107,-0.04697325875471668,-0.514314838856752,-0.4199241262221692,0.32850233986884886,0.5681144418561536,-0.14950771008576647,-0.002107666483408409,0.28049887619183905,-0.636276613967581,-0.7451081102258129,-0.048761385509478304
2021-12-31,0.10704514819334938,0.1587643109708067,-0.09500149710994138,-0.5609141326996995,-0.42687372974066085,0.3895317376282491,0.5949738153096205,-0.20020776945600252,-0.015537868847977143,0.35887825140572854,-0.5793352345695227,-0.7044584281288891,-0.10826003622372792
2022-01-07,0.09672480599363201,0.12707088386135132,-0.1337745612791664,-0.5970435198108031,-0.44704395546157616,0.42384352182877266,0.6045462525406908,-0.2375582904716751,-0.009618161971506143,0.433323729878258,-0.5150013267848104,-0.6254798361517184,-0.16626116235516128
2022-01-14,0.06899429075093848,0.0984475349147969,-0.16193246230885094,-0.6404496360375856,-0.48040789999041233,0.4037618117285073,0.5751085452036683,-0.23016027658851135,0.00037230955315933206,0.47887509825822555,-0.4512481301161829,-0.5312910343511741,-0.09794425802396901
2022-01-21,0.012951728380646094,0.06004806518496609,-0.18130722079364453,-0.6668550202730728,-0.47855415242970245,0.4020515476695584,0.5416355576979034,-0.19984370621404107,0.0070643352862709095,0.5320873975897632,-0.397820543114169,-0.4455247640978542,-0.0046181846642499025
2022-01-28,-0.06847035253225713,0.006013847410675184,-0.20269425543547284,-0.6664896198394924,-0.4595232107619039,0.43106214864781595,0.5284505683258325,-0.09241441661117746,0.031068328088103482,0.5582268004277233,-0.3752110396283973,-0.369130034005035,0.020369630733773018
2022-02-04,-0.13741046405637242,-0.03846573834651576,-0.21752818508398417,-0.6565682140161477,-0.452466135634883,0.4218710014064041,0.48678615342945947,-0.0454536122244074,0.05557868852140119,0.5876311216387708,-0.2708168822974525,-0.29934814551502564,0.049230428863735604
2022-02-11,-0.18714621693547034,-0.07310855012490361,-0.22369516413942384,-0.6704613216407549,-0.46718359973807727,0.3813675234786811,0.43108984576000325,0.0046320704035883314,0.07960730583853792,0.6326695498581995,-0.19543499879920323,-0.2220321324486464,0.06202390309663996
2022-02-18,-0.2379103852847718,-0.11055818329806849,-0.2261665573542313,-0.652178760651566,-0.4557688002541768,0.3454436431270944,0.37046057152619283,0.056615476450679665,0.09440649183685944,0.680339343783507,-0.1245893317155458,-0.146244853173156,0.08400286097101153
2022-02-25,-0.2719717690463014,-0.1327379399366528,-0.22739947877041675,-0.6608373346155434,-0.47255129200218926,0.29818960910149916,0.30018481448520146,0.15463952728607164,0.11876018339763919,0.7473216851485525,-0.06822126545572899,-0.12228120085342023,0.05413958190665727
2022-03-04,-0.29979125192333433,-0.15746975325530027,-0.2308764907330907,-0.5904441635410175,-0.35116423593483503,0.36742627039266235,0.25595735558266125,0.19020465682519147,0.12127880534731149,0.749472573572393,-0.07162487081760183,-0.1716412871110394,0.09986859488059457
2022-03-11,-0.3262489308153486,-0.1831597190134801,-0.20772516326560253,-0.5389817322307818,-0.2536656249349135,0.37790997465122617,0.19999785921084032,0.3129576560476528,0.11306798712408844,0.7604330334506992,-0.07397465006572397,-0.22349307355739825,0.08669765295729022
2022-03-18,-0.31643139342573234,-0.1858028440050973,-0.2164270841029634,-0.5895284326405164,-0.2273506884593279,0.3840816177618712,0.14607873329261353,0.2076207600382612,0.1155162105475145,0.8104604502817175,0.02405784861851333,-0.2406018324382685,0.01776643591902001
2022-03-25,-0.2855845177561292,-0.1690147187343259,-0.21835377899209873,-0.6563796098231659,-0.23170365476279547,0.3385163155030176,0.09863952617356733,0.11752200107120091,0.12166493636491059,0.8551921487834232,0.06804299558628235,-0.25502176031772783,-0.06907895725406273
2022-04-01,-0.26165257245334766,-0.15612091056655872,-0.20410439157656066,-0.7551634764177229,-0.3014187486892463,0.2722293878366175,0.07839901626080409,0.05471526262267992,0.11945834404631821,0.8882192270466822,0.1319194870402851,-0.2578641833403814,-0.09821809476077609
2022-04-08,-0.22944953789682623,-0.142532618349392,-0.19491071702130813,-0.7757613613732103,-0.33706346367349815,0.22132427445967684,0.048139116337584734,-0.02780738099264954,0.11573168416537896,0.9159920525975573,0.1439944098483919,-0.17011863092671536,-0.19198287592301938
2022-04-15,-0.19563306526670357,-0.12054360097337066,-0.21032918148675478,-0.809044726319741,-0.40335273120282633,0.25016427224227605,-0.005885911617558845,0.02714547422639297,0.11199221439974505,0.8652778749639067,0.17042144739123039,-0.11528713458097206,-0.13630952511512057
2022-04-22,-0.2004961234987255,-0.12337567430482933,-0.18635537542246863,-0.7095116678060099,-0.36499783072914244,0.17678501750636072,-0.052588383088204564,0.007247862079056623,0.11245195565748793,0.9228305205559201,0.16155703093095702,-0.09450667299398904,-0.2391160252490289
2022-04-29,-0.22091579112942827,-0.13258813983083925,-0.18005639943053847,-0.5582267164661939,-0.29321723048412585,0.11584067963816608,-0.11191873013854424,0.00798660365723067,0.12002512553593522,0.9466519798169665,0.11594245824346991,-0.06218093557667005,-0.22846105172351241
2022-05-06,-0.22317962660350926,-0.134853619340295,-0.17624473290359813,-0.42208900923964887,-0.22134262634495222,0.07927932721182675,-0.1420640200228043,0.08385337248886049,0.12948379278663327,0.93149939496856,0.05567411903889949,-0.09615210410760293,-0.25068358787047973
2022-05-13,-0.22187285519518352,-0.133614111018126,-0.18002431251015844,-0.2863727078152478,-0.13796196473378092,0.09844789718645441,-0.1633938274712176,0.1355370623560957,0.13715639266909474,0.8752596912357578,0.009315841809346144,-0.1550267098173872,-0.23743366408798472
2022-05-20,-0.23283998124094193,-0.14166148829615025,-0.18354699997404686,-0.13765367499947734,-0.018311610141545004,0.14465905148593064,-0.1697002640314348,0.14986133846666494,0.1369064352625797,0.8045527767984364,0.010913569087670801,-0.1904667265681612,-0.20317672512685997
2022-05-27,-0.23364669386601283,-0.14703787432318835,-0.1925311711109833,0.007730763160683135,0.09275225742063081,0.1600994376114114,-0.1799880497396574,0.12143536141756901,0.1402139967232053,0.7368954831254303,0.046999281805348056,-0.22822994937467658,-0.1737602401788654
2022-06-03,-0.22905030572421145,-0.15043798152916202,-0.21263375751339147,0.1314932776440999,0.12209733358828045,0.14788047409559177,-0.2146141655830445,0.10990111968728977,0.16129191216785455,0.659998537023718,0.17065176045336805,-0.23999083492658643,-0.20078602094183845
2022-06-10,-0.22108621616578128,-0.14660459331854406,-0.19252008920110067,0.19551575251203973,0.06440903357533342,0.03036462381438429,-0.254662403742072,0.14431494106442314,0.19226149727417868,0.5980279202371174,0.2059617590995581,-0.2420415551354372,-0.22488526941427872
2022-06-17,-0.24324196260081976,-0.16241248901997307,-0.16084096107298543,0.3607827135839825,0.08669253127827518,0.004463774692607791,-0.2911857263621935,0.17263609475556474,0.20434077830991262,0.5363638545405884,0.2603984701585982,-0.22977311836922285,-0.2364982203842545
2022-06-24,-0.2382394358751544,-0.15596634245511065,-0.16171403485718677,0.5299507333186096,0.23960769209904748,0.007398011402915065,-0.31141910532609185,0.15624288509169007,0.19528301632161446,0.45171403795522047,0.28619009738008744,-0.22577872175439978,-0.23903886500606725
2022-07-01,-0.2304581005148113,-0.1519563370862097,-0.15458600210375883,0.6355472419124627,0.3606176275091424,0.07080618336390868,-0.2943523081239076,0.10524005669359127,0.17930125825469523,0.3907977131292845,0.25770671346779406,-0.24276009550052827,-0.2396724094068936
2022-07-08,-0.22222730539218927,-0.14613941816783566,-0.14666555189144184,0.7187340496273563,0.47026107701796843,0.12884201213633456,-0.28389580337348597,0.017892121886793025,0.16807016803685756,0.3237757343208369,0.22555267502002382,-0.24701863147589515,-0.2543680761507927
2022-07-15,-0.20816374321786224,-0.13594606353143923,-0.13759571451496336,0.7804161673360139,0.5802630471083691,0.2151233664880855,-0.24978740433056804,0.010851777660583374,0.14544848887078762,0.2452414405082188,0.17315848542350082,-0.2608556580511845,-0.25453994739315344
2022-07-22,-0.19275170277083759,-0.12508477089920003,-0.12941391074162434,0.8400488874854539,0.6842891144898667,0.2954335665581651,-0.21719334689751302,-0.0064444848087409825,0.12186197828405845,0.16535935555077266,0.12325618364923205,-0.26988802667235995,-0.24525765768877236
2022-07-29,-0.17368124914289018,-0.1133380299465668,-0.12421332113259358,0.865110883827674,0.7656766022477566,0.37407528657276995,-0.18347419761513697,0.03166826419260265,0.09283398257069356,0.08226239078994198,0.06616388621673187,-0.2632800322756633,-0.21402379658021053
2022-08-05,-0.15275842611434703,-0.1006505139479189,-0.11497793842663195,0.8617490049672676,0.8586283237466852,0.45614233333637266,-0.15768621685421183,0.06293694348296108,0.057710191555648674,0.02821461361302447,-0.002021514154238166,-0.282745628414242,-0.16912939018909554
2022-08-12,-0.13012159450795666,-0.08736112543934643,-0.10048645183034245,0.8335791765117526,0.9517730146188534,0.5330090009029308,-0.15096860490292774,0.08669858479047371,0.023981129695621925,-0.014529751282148846,-0.0624750414775517,-0.3099077454172112,-0.11229660813486884
2022-08-19,-0.10170763776707267,-0.074153093185081,-0.07271109479243279,0.8533298410600322,1.0184774908656051,0.5870443254619072,-0.13907716965592826,0.015778204900980863,-0.0015038336423004728,-0.0460633622937447,-0.13775841816886908,-0.35383554130999834,-0.08122598159205073
2022-08-26,-0.07615315187069369,-0.062172091203795486,-0.023283221059567524,0.8118674600612642,1.0623519151828404,0.6331428316172183,-0.1284104955887693,0.018960973743609544,-0.02228565870606726,-0.09250701781313489,-0.24374593370628586,-0.41323546004981676,-0.04608701244407469
2022-09-02,-0.054455964834225545,-0.053438329288057494,0.022642850065204237,0.8235493579697913,1.0980832100429285,0.6419417249353561,-0.11436210726101226,0.14266649053992062,-0.04339719631827236,-0.13643930646512745,-0.3361835660312273,-0.4602356917471327,-0.07128231086982065
2022-09-09,-0.010793364048049356,-0.029272358909728152,0.06458134969259224,0.751768714454596,1.122926853682065,0.642179871261018,-0.13425267573245658,0.1645658156366384,-0.06540042639259468,-0.2155982158602785,-0.265409933557993,-0.5292233646250595,-0.08193946820913682
2022-09-16,0.000317542012354911,-0.021513093483156553,0.08767867959132773,0.7394304294338513,1.092187856017462,0.576317991899763,-0.14813460423713953,0.2931302409453539,-0.07251390024085173,-0.26797264219647116,-0.1745398365067352,-0.5853964241980278,-0.08182354226352509
2022-09-23,-0.0038686241535757252,-0.022431099630741684,0.10632477085447295,0.6537031536925675,1.0067936519089014,0.5174511256208297,-0.1412765774481474,0.4046926645854012,-0.080930024931163,-0.3009924901524951,-0.15538721016376497,-0.5444310098460899,-0.05553661573924663
2022-09-30,-0.016899866345472907,-0.029871610139018446,0.11452429086376953,0.5823810672930078,0.9668249700433206,0.48621561070724406,-0.13624777225722523,0.5307525392339169,-0.09054816113927545,-0.3284497229228352,-0.10227744777919716,-0.4606450436281688,-0.0792792824306705
2022-10-07,-0.031200494047263425,-0.042935312268334906,0.12191355397951137,0.47625256386206877,0.9747713644372523,0.4735377672950607,-0.1613760607860644,0.4465652996899241,-0.07606784572362416,-0.34839941283337167,-0.022377255651568076,-0.3687061391740269,-0.10218831826597695
2022-10-14,-0.0424569908775261,-0.04702153865932355,0.12310289076342783,0.41040397896715664,0.880341066799292,0.408590336840739,-0.17834966559409585,0.5401418740923224,-0.0795167719324861,-0.34979585897352994,0.016512701886739825,-0.2719096309397364,-0.10934792794156677
2022-10-21,-0.0351439982700859,-0.04299607552066118,0.12053219572241358,0.3678088126245943,0.7521874096527389,0.318661773687173,-0.20739384532592642,0.6063062276050437,-0.07337241809512185,-0.33487535692668685,0.060893901311965086,-0.2083405639327744,-0.11053773495082196
2022-10-28,-0.023103987322761012,-0.040049739035585175,0.11589092630662229,0.30661049362605275,0.6404208345530056,0.24197934710920477,-0.23266809625962542,0.6005271015535061,-0.07070268398596154,-0.3268425326748637,0.14268212406294467,-0.12316072164809509,-0.13253879704450763
2022-11-04,-0.018805448181501525,-0.04654497590503032,0.11788166566731156,0.2237772161558877,0.5147091898726752,0.15805549829240534,-0.2522255666036716,0.5970806689052532,-0.06257678443944521,-0.30560833202192306,0.22362351642613595,-0.07282635839322077,-0.121431842193018
2022-11-11,-0.012059502958851767,-0.048011747894631064,0.102256619407592,0.18100697845049524,0.45099690408323967,0.10597489836671542,-0.2701800985539812,0.5075840545026983,-0.0693368961396697,-0.29260502145986067,0.30735633832317866,-0.026844844411182754,-0.06076163357973802
2022-11-18,-0.008819360096700826,-0.04966539182093931,0.1009355777261439,0.12284791737324027,0.40860809922124236,0.07677346411381125,-0.2676638572861166,0.3238697121944096,-0.07662005429766865,-0.27446865024396416,0.3694511914162094,0.017581925725336546,-0.014897498421400542
2022-11-25,-0.005502745560172087,-0.052844422805727875,0.09368541995546205,0.05841835293016891,0.3785479938764197,0.06920924908675594,-0.24529983567214275,0.13463277196909695,-0.08837409311629454,-0.2564641395280937,0.4213770305297647,0.06115520828502723,0.032444180424622264
2022-12-02,-0.00899276252662805,-0.05923164253842907,0.08015374227909555,0.09004293772665459,0.3879139671537452,0.07897421670445658,-0.2064493645400343,-0.09336380877774003,-0.1038239751050492,-0.22814848190043807,0.4544213580593863,0.10284621406527553,0.07293181555236106
2022-12-09,-0.01680829735416104,-0.06580668403536044,0.06531879899813117,0.10741782472316619,0.38325266666062613,0.08067957474511782,-0.1661689934821003,-0.3187580482354663,-0.12164966071416072,-0.19506504129022087,0.49024919465733646,0.1468015203038857,0.12359787084509109
2022-12-16,-0.029431682594548376,-0.07813425110256988,0.05277759259832615,0.18129619034554428,0.3989571514128808,0.09071262352917556,-0.12464704555750226,-0.49468191691845814,-0.14143067826450811,-0.16422984030417112,0.5209975186398799,0.1737489345169733,0.16073203963938076
2022-12-23,-0.04918841850054349,-0.10155417321925571,0.03818615721981983,0.24908474308789297,0.3750987208240001,0.05818149410509747,-0.1011490250666988,-0.552933663718156,-0.16846596221246138,-0.1340642044595308,0.5899960478159455,0.20519263421844455,0.23939291752225428
2022-12-30,-0.06696879900521342,-0.12316439027472809,-0.0011130298203952116,0.27467059301374375,0.35589587643837756,0.02233361879303275,-0.08985617443411759,-0.6066407374388396,-0.1867695231951366,-0.08320902134818228,0.6776678592852956,0.24438970780961428,0.3190390097905505
2023-01-06,-0.08092227329065885,-0.14797047141171304,-0.033527056251873084,0.3538614285774919,0.41860348830235433,0.08524492495121902,-0.05000419153190025,-0.6332936326161597,-0.20850438328366555,-0.02166248935406772,0.649292707599237,0.23735091763824143,0.35785546233111865
2023-01-13,-0.07803074809689442,-0.1562785915527617,-0.042193140733238474,0.38535096964991344,0.4920526568790494,0.14944573531659122,-0.014343847793804439,-0.773351903589214,-0.22333416895992808,0.022124043754721226,0.6159316582512967,0.2069177673989499,0.3707210794170181
2023-01-20,-0.07589451130356618,-0.15712762421901663,-0.060994321206477145,0.44086085314338364,0.5515927205506104,0.2139212983711707,0.0006218962014088534,-0.9188538010594856,-0.22646087731006165,0.061528048413284,0.5541752031527829,0.19093191508498772,0.38866845737792854
2023-01-27,-0.029627875005734244,-0.10757691438378084,-0.07016258123101499,0.33933357926723734,0.5494370672215014,0.21529716438694016,0.035922101154385724,-1.0814244806618027,-0.25032783643113005,0.06098106629686976,0.5183514469175412,0.20586036609964692,0.3717498897992364
2023-02-03,0.019534129398211697,-0.038737138611510874,-0.058926184395435,0.2964975001140859,0.5484187321640168,0.23488617785841998,0.07055900658650634,-1.0970590984590627,-0.27228399879872445,0.01862100469494611,0.42790139240788405,0.143303461495005,0.3320262008063457
2023-02-10,0.03814082507179431,-0.007091162350168469,-0.004937136092552724,0.15753833612965423,0.4933538103579874,0.2020062028125636,0.06856667360625342,-1.1636687306731335,-0.29246112559835014,0.013185262918805216,0.4275784303976955,0.09986892717825925,0.36290808963519644
2023-02-17,0.05467986189334382,0.01944673582485024,0.023409328199860444,0.028350507182809098,0.39253195657347034,0.1497735697529926,0.05206793334474502,-1.2331862482268332,-0.29185914067949426,0.025902687065611704,0.45659975751122367,0.11370696002068188,0.35876883155193223
2023-02-24,0.06584986761383795,0.04642659104121032,0.06202473369076748,-0.1289798927169033,0.27730905743066403,0.10048751119265306,0.05239830977379374,-1.2876769675755546,-0.29191238689881055,0.023839253789847754,0.4778899017852681,0.12555275542061486,0.3474471705293795
2023-03-03,0.09024117709801197,0.0858056467135276,0.06421733780250442,-0.30012503160697224,0.14824770038405813,0.04605959800204621,0.0658225097769345,-1.3232103439917287,-0.279755773962568,0.017117812788514635,0.48039700248253053,0.12879389735716218,0.3416284219155897
2023-03-10,0.061790573623352975,0.10369129276324694,0.052643421760181136,-0.10435659018733978,0.14361473823146403,0.07645430696183415,0.10050479606031368,-1.3715154802645229,-0.27856383272518537,0.02124518938351671,0.42385435637722535,0.15328105507246764,0.2996712442234746
2023-03-17,0.0355978699235216,0.10689624185180086,0.0431528571405421,0.09950322399746747,0.20957767214405648,0.12204714532144179,0.09605054415583035,-1.373584381349742,-0.27578899806539936,0.0272400584447414,0.348459003401961,0.13639260400275244,0.26155170884419887
2023-03-24,0.01808045921509056,0.11316303090685523,0.010586069299526046,0.2674038895494948,0.2674486885781015,0.17017690577460912,0.09468225631449766,-1.331332766794566,-0.27010261153450155,0.030710485019041413,0.284413069591812,0.11381335499110795,0.23120603721143984
2023-03-31,0.03576250854455483,0.14203961170231022,-0.03537539369783502,0.43366190366020163,0.2915171994441464,0.19264357996267742,0.08651013090955888,-1.3648429528162425,-0.26069604307442634,0.043594791924879424,0.22013653963701946,0.09416293406171566,0.18441946717525332
2023-04-07,0.07616146652943025,0.1827943308966711,-0.08901145307425087,0.5299970923869022,0.32521460885668135,0.22236931215341535,0.07136099696545098,-1.3985887847794707,-0.23093181266882926,-0.05105434450085216,0.2226930327465722,0.08687412810131404,0.162121165869498
2023-04-14,0.14047517008828853,0.2308137622239057,-0.17017779844745873,0.5059175604944406,0.2763120590855062,0.19303900610823105,0.03809635029304246,-1.4097274444813592,-0.2071373059692126,0.004409805720837316,0.22025516003452986,0.09630716163480739,0.09346590337875862
2023-04-21,0.2082971315455706,0.26038153987981977,-0.20776834512007292,0.5005542658822435,0.26126438750560543,0.19362273357581325,0.015953274675376133,-1.4486155361068198,-0.17978700031447095,0.06493159486661418,0.2562773947127188,-0.04037706519517335,0.07105060637606402
2023-04-28,0.2332199512854579,0.254891617939486,-0.2695240067055567,0.4479787564977815,0.285885981686034,0.21005535619100946,0.015353866789941727,-1.4724173714872892,-0.15132019838439514,0.0908844399127487,0.26170399331106053,0.08405098289556485,-0.03447572724695039
2023-05-05,0.22459954414968203,0.26434163638314273,-0.29993609104536545,0.45593933464615066,0.3117368151121751,0.22574876667218377,-0.012814933366195026,-1.2731178367200229,-0.18424006728010342,0.10759412553398262,0.2669454570515186,0.17209535211873753,-0.06610467286804828
2023-05-12,0.20283532250040728,0.26092357576746755,-0.25000946406459795,0.4754648677031927,0.3516925343739824,0.23937825132082405,-0.033486029800552784,-1.3887550404766025,-0.19988506156837563,0.1485807722706734,0.19277088478633114,0.24467981675439332,-0.07818604853809766
2023-05-19,0.2462988582509663,0.3009679016307637,-0.22875895839495825,0.42609560445647543,0.27995565179631376,0.1741448474768607,-0.07079243546464106,-1.4398257193095363,-0.19823365511606333,0.15526740522509253,0.13595766769535866,0.2896980709792732,-0.08854153636664774
2023-05-26,0.2820570311768191,0.32592169505100366,-0.209092846636178,0.30361457867095154,0.19653069932998035,0.11751505054202256,-0.10006510524237983,-1.4345313806964697,-0.17617047316453674,0.1643522282624199,0.09533063014738996,0.3108614018882814,-0.11812230123844292
2023-06-02,0.33738909517006693,0.3736316444158048,-0.20460385640453704,0.31373517010044477,0.14374735326240257,0.08900986594964143,-0.13072155631239937,-1.3955731922311907,-0.15000224791413083,0.15641840342567775,-0.03193136833383187,0.3036176555877873,-0.1809597411551382
2023-06-09,0.3888403901669617,0.39679134074467953,-0.20630627316379532,0.25562513002956244,0.06431241406612634,0.07140430842043562,-0.10878318000658488,-1.2994767824609488,-0.15742378486809347,0.17628840604892154,-0.09340597845810973,0.31519147732256064,-0.23112103876143206
2023-06-16,0.40556821108016033,0.393069230056151,-0.17874893300244396,0.15007652986693476,-0.010835797333051303,0.03586398348538781,-0.09816903628908341,-1.221058473060152,-0.1609560210583858,0.15785022848389987,-0.03443914768606072,0.3469807349133264,-0.2651176752650733
2023-06-23,0.4191467097670561,0.38762819695762324,-0.13761219242215955,0.05558698981054694,-0.06499742128401462,0.024243902665350838,-0.06367319696324467,-1.1817990529965643,-0.17069230757226142,0.10223402738467638,0.036922881868067144,0.3780844848900365,-0.3031166315386137
2023-06-30,0.42701828085539323,0.3795550711304387,-0.10716316532314493,-0.06727707419540441,-0.1362876334528748,-0.01980453130670436,-0.05907057198488935,-1.0601426198755077,-0.1609648571929708,0.07478634632728888,0.0715924952908998,0.3808997655980238,-0.31760111371030064
2023-07-07,0.4212349766107395,0.36594332712264704,-0.0770187183943003,-0.16149694533540182,-0.21704249213776533,-0.08146597049278728,-0.07003602749043057,-0.952125760606723,-0.14085026367937908,0.04850687635580518,0.0993156138072871,0.3918465351345496,-0.30782304421487594
2023-07-14,0.42224284013780816,0.3447855503079612,-0.03139164170542511,-0.26780580972489,-0.2821900182555953,-0.13585631169886525,-0.09482277556722668,-0.8750543078973968,-0.11348020039556109,0.013179262124373196,0.13025399785463557,0.3974261277464014,-0.30253634791947426
2023-07-21,0.42982802594925085,0.3129713870728582,0.029201307093214404,-0.3969262765766005,-0.3636545563437798,-0.1871084327493378,-0.10937322814631123,-0.8497362456753972,-0.0797279142869805,-0.0024465061357952234,0.15846749445957806,0.3915885870329342,-0.31740931759567864
2023-07-28,0.4251465247341066,0.29214567311885836,0.08061763429013417,-0.4803028947599519,-0.42225612988684125,-0.23422414679312584,-0.13212722420720288,-0.7682351908570652,-0.04518990440107281,-0.012931730526028563,0.13189221947376917,0.34580983920833197,-0.30505907369771923
2023-08-04,0.4006848419422099,0.260700550194123,0.14551690555452151,-0.5171328227735235,-0.4618198684157167,-0.2837094334377646,-0.16877053906011866,-0.7113857564070636,0.005742312121177512,-0.02161405954182912,0.09221780909717578,0.28868184053264123,-0.30165380775907663
2023-08-11,0.367756685081987,0.23711132516004338,0.18466874476732215,-0.5569000108132421,-0.498870902612353,-0.3351003842453769,-0.18841144140006216,-0.6214529922282429,0.06279910190999533,-0.027954074241333546,0.04763761846759901,0.23018717977434794,-0.3017300912130497
2023-08-18,0.32206982569819004,0.21212700575703025,0.2210575112812837,-0.5569198572035045,-0.5428088426720967,-0.3877433919289392,-0.21254845347580764,-0.513779108447402,0.10646636556030012,-0.03837550079632844,-0.0016265169427179052,0.19205933434324082,-0.2786823975506998
2023-08-25,0.29251757426715785,0.21308703554330366,0.216556664483118,-0.596375575535599,-0.5996501699770844,-0.4278995618935617,-0.20285346200356055,-0.3781671441242776,0.14981698436816665,-0.040320500241579176,-0.08814902110407494,0.1510750732905609,-0.26825808043040145
2023-09-01,0.2923523924179353,0.22217308443449504,0.2045898368806859,-0.45427783279151535,-0.5503546192681987,-0.42558940653778743,-0.2095536296867238,-0.37109556852973125,0.18760912753440262,-0.04137150493504747,-0.19068612670304932,0.07285781736749869,-0.31996732061936145
2023-09-08,0.270980688662278,0.2237605304966313,0.21621962921051832,-0.3376241969502878,-0.5073564029921975,-0.4277982607980761,-0.2002741643638574,-0.4052352297708446,0.22330326491183758,-0.032650240339214695,-0.2651593732008941,-0.012281621763990253,-0.37607045792763677
2023-09-15,0.24779915098255154,0.22016210787951052,0.209901460677011,-0.24328529512281333,-0.46440317557791944,-0.4389578802066235,-0.22578684847287342,-0.32035587605038995,0.2580070203358434,-0.021291796167102396,-0.3350044346247622,-0.09054973622842134,-0.3899531671330943
2023-09-22,0.19862046624025143,0.20593819638657873,0.17881041225867722,-0.16613182740523513,-0.4390122642747596,-0.4393971453336744,-0.23147608562031569,-0.22894651315630865,0.3082252063709886,0.0025991461824417215,-0.365509826524972,-0.17994138039542157,-0.4013711138383167
2023-09-29,0.1537698891424617,0.1924573924383182,0.17012909339272292,-0.086395651755659,-0.40464211337659006,-0.4377343420935315,-0.23830509700138486,-0.08591863290519963,0.32994677089053565,-0.06455098481618822,-0.3795467588576242,-0.21744840022778836,-0.3744254828535839
2023-10-06,0.13084692204073678,0.2004478530810383,0.14100381413903082,-0.009282689577033224,-0.3811467483715834,-0.4451909071922403,-0.2544003478698579,0.09094065417413155,0.3259591111466059,-0.13423762139386308,-0.385410002389504,-0.22802130491500616,-0.3255940646225687
2023-10-13,0.10555113926058725,0.21048435051000944,0.10829333645420264,0.06376368887187878,-0.3400545980754388,-0.43582807599607104,-0.2455159427940347,0.22346183185253057,0.3304806055914401,-0.11720610697970577,-0.45775460261286177,-0.2861824580269841,-0.3405856018388445
2023-10-20,0.04737724668747356,0.1936676190825884,0.09503386383923283,0.1814003131798852,-0.321685498053353,-0.4601523939009675,-0.2791748804038524,0.28981325534075547,0.3465417531866973,-0.04289048864597558,-0.47922798167381847,-0.3102888551767754,-0.35603855975057336
2023-10-27,-0.010633858263730186,0.1720309255978985,0.06192618798788939,0.28195754010571367,-0.2961787098322198,-0.4693896827830572,-0.2946466914578182,0.3557273067513007,0.3616993959449957,0.048077420881472,-0.5100786249327083,-0.32261190123614464,-0.3772966773657687
2023-11-03,-0.023010583663849227,0.17536106961266762,0.01107699370245916,0.40288096737865936,-0.23573884394814462,-0.4417346501158758,-0.3054490265632944,0.4153410034650538,0.3603481563396679,0.1069535646914921,-0.5389154065675565,-0.3222372630741574,-0.4418674528098353
2023-11-10,0.006293273403078406,0.21847498989000766,-0.015406880227145103,0.4492483106538441,-0.17787012173230035,-0.39133615529617527,-0.28006675842998746,0.43806026735400483,0.3352950431617654,0.11813097446476337,-0.5402007700660013,-0.34851001468458953,-0.5764410711429253
2023-11-17,0.030041081966750625,0.24624347132478497,-0.05819751231618289,0.5245288063153485,-0.08599009062993704,-0.32582792644511316,-0.2594992380384817,0.39870961399679095,0.306405668619725,0.10866303962966863,-0.5216374500389447,-0.3543662513743002,-0.626770353597886
2023-11-24,0.08219577752674849,0.2820759852989334,-0.08492362162612269,0.5090202505001299,-0.04361823045698372,-0.28448972667377415,-0.23565838240096165,0.3067280371683766,0.2732435564191129,0.1238481768196679,-0.4900092641241084,-0.32848454921136216,-0.6911588490599689
2023-12-01,0.10188370017279727,0.2836959746236758,-0.10813698167231975,0.590802263749773,0.04492214210195068,-0.2243133537335293,-0.20684395513062662,0.18926452787954529,0.23279223686497685,0.13649904496228213,-0.48491364486718064,-0.30816222103009233,-0.6913407466000442
2023-12-08,0.12902880813925252,0.2876240667480451,-0.12299183076101365,0.651236634811898,0.12976873791430193,-0.16289043601231354,-0.17162242002352962,0.10085362026314572,0.19562665756613085,0.11083312128503736,-0.5093254999416748,-0.3048349909780428,-0.6581757112013856
2023-12-15,0.13234657355435409,0.2757109046109513,-0.12281784445796548,0.7015793856263793,0.21406080949460676,-0.09470055409391778,-0.13344859530661443,-0.004397158847807184,0.15865408681348522,0.08131541033636133,-0.5161993325002594,-0.30816388816577306,-0.5965229446453157
2023-12-22,0.12803035833678753,0.25953081258594424,-0.1251354327726414,0.7652144012036413,0.29857827477038146,-0.024432724225867758,-0.09860445021031217,-0.0812496347355304,0.11866858626764802,0.052363222553126955,-0.5018316373660213,-0.3133590286170257,-0.5379542958222397
2023-12-29,0.12865279568574475,0.24561865059483226,-0.10704718879389619,0.8180788140301819,0.360343307549087,0.02652336508759058,-0.07002696649333048,-0.22544574575679377,0.08234437019517901,0.0371240822464035,-0.48485289936140036,-0.3101186810202155,-0.48071871077862743
2024-01-05,0.12960312261110887,0.21363736611810846,-0.08474924553220277,0.8990547753822005,0.44669232641871714,0.08871882687840162,-0.035845307861157256,-0.2726586042522262,0.03944812783746247,0.006854869169165244,-0.5056091419647316,-0.31654764220862625,-0.44721388380917104
2024-01-12,0.14470883838544768,0.20477234356803806,-0.07067973586166323,0.9711402601629203,0.5409812004739885,0.15433169511256584,-0.011749950612140549,-0.38009162845281974,0.0007491759299048037,-0.02520551657176809,-0.5133035188840798,-0.312108158601472,-0.43166293849887905
2024-01-19,0.1925390796079232,0.22306914605601555,-0.04081040153888081,1.038175798842594,0.6044652702775548,0.20768907713446536,0.004050721396129289,-0.4512801807035203,-0.04418170553026246,-0.0677002870300948,-0.532330348504243,-0.3195080711527459,-0.45094795161160284
2024-01-26,0.2812782469035164,0.2596642043920323,0.022938174813067952,1.0289365637414112,0.6158096046410423,0.22950449964133457,0.006748041685306615,-0.5139055385595619,-0.07958073908549829,-0.1347034238796786,-0.5938520670018884,-0.3340489996900327,-0.4756786620715338
2024-02-02,0.3451365962812857,0.28435325496072167,0.09499539636231838,0.9301174135710945,0.5880558494168372,0.23820213638251264,0.023583650353732014,-0.5053025916983998,-0.11520385462767074,-0.16800308810025827,-0.6515138353104434,-0.38493680596391366,-0.47689258856534916
2024-02-09,0.3999791045113819,0.3123388719141739,0.1135660058192063,0.8257779261478275,0.5257023134180921,0.21213551250475052,0.02769720643766344,-0.40393350270950484,-0.1220427489543797,-0.19633529121945073,-0.7083898300478445,-0.39065242047737586,-0.47948885485554765
2024-02-16,0.45626730854618713,0.32742993564938966,0.15352818993748402,0.696434981320328,0.44772054758092666,0.17788073686730918,0.028813322724739073,-0.39884220839194784,-0.10499134541875597,-0.22263916705518494,-0.7612540567418654,-0.4283549009447394,-0.4864385195277676
2024-02-23,0.471673378276764,0.3271719869201621,0.17551701277987208,0.5752476737893059,0.35125210909383286,0.1257735378104465,0.02700855660038675,-0.2737726601717056,-0.09849400301579528,-0.22469682128302182,-0.76429981674,-0.40346099944737257,-0.5156537606797029
2024-03-01,0.49030173250018705,0.32779747275206944,0.1847309054124227,0.5520168452107197,0.2737617103074261,0.08071293008022709,0.033901356849763295,-0.14147530901838334,-0.09935589276745321,-0.17919804329038014,-0.8094593122653625,-0.4024117006196903,-0.6096445793965664
2024-03-08,0.4882779234938905,0.29189211231965617,0.21002439590056216,0.5703639583012762,0.23807434763028335,0.056657677324779686,0.0419073791531325,-0.08013622998577549,-0.10988018317903277,-0.09464598658774853,-0.8965778878183052,-0.3710289417592068,-0.6854094080829561
2024-03-15,0.48080180602205996,0.25162042244882676,0.2504880287883742,0.5193538111181446,0.15468766203212714,0.006551916966624091,0.037686374851861604,-0.11051949438703407,-0.10442118779863507,0.00012592616210826968,-0.9344174599492662,-0.3473079923715415,-0.7162996763616305
2024-03-22,0.4819936180991687,0.25049177613368473,0.27723014423115927,0.42398526860887426,0.06081078474991268,-0.04338948053691015,0.03367245484937629,-0.12531419771765348,-0.07074633221325907,0.05786787530223195,-0.9612569547805885,-0.4042680879102781,-0.7540252668029124
2024-03-29,0.3994547614942907,0.2012819370654484,0.34170419914602185,0.449930609202649,0.04290948427467623,-0.09076789220344493,0.06436584836449002,-0.17160247347554572,-0.07464647767084716,0.027741422445648114,-0.9051925844053758,-0.40426251429126525,-0.7085512817078387
2024-04-05,0.3778337884956841,0.17516430131461816,0.3347345188407581,0.3427716781846079,-0.03084004876644069,-0.11172676847718221,0.04550718587342381,-0.1542250447619843,-0.028302159593512906,0.10487448030428162,-0.8899558069277469,-0.43794671463267804,-0.7433412073606057
2024-04-12,0.3475782982812369,0.1500766818452341,0.32621544684895454,0.2843301418563046,-0.07288258533499878,-0.13483608663973076,0.03223305007678268,-0.03464331302506728,0.007690727088635822,0.15824376667006465,-0.9060036215919957,-0.4827002724852827,-0.7728662215272175
2024-04-19,0.3102539355381202,0.10201912309031644,0.31620378270046884,0.22350022542633807,-0.11676304928189901,-0.158054623162813,0.023163088207414577,0.0908202631631425,0.03558744406255248,0.22800942990560746,-0.9006912791252025,-0.5151446226407903,-0.7795911080914103
2024-04-26,0.27907710615936593,0.06725773252706602,0.3122529221733743,0.1499696372851903,-0.18109820043996422,-0.1973130737072786,0.0033055588614596676,0.1742116699332434,0.06600383301125169,0.28989160971436173,-0.8882033355670377,-0.5390037567682799,-0.7584989609633519
2024-05-03,0.2529329873660037,0.010314384344692624,0.3189961760842262,0.11225550317779923,-0.22815031851896297,-0.2246133835977595,-0.007844438922964886,0.18224102386427818,0.0824442194588418,0.3738086370787823,-0.9119785206131109,-0.6048629630655973,-0.6695674007976707
2024-05-10,0.2305214345114413,-0.029341781415704066,0.31781756081060214,0.08379342288983485,-0.248108183726455,-0.23788603703290048,-0.032939281184555705,0.3685897896769216,0.08087818936313221,0.4334024542881905,-0.9227466701002285,-0.6665880802815004,-0.6396030556992239
2024-05-17,0.25641287293504106,-0.056215964696002645,0.3155930048482743,0.01828019236124502,-0.29258644206737733,-0.2613844793554418,-0.058994655239708926,0.3773215915058893,0.061926610015567034,0.5541309346854143,-0.8565311268461626,-0.7321875457725713,-0.6448407024668975
2024-05-24,0.27738502989349006,-0.04001125150267444,0.3174217063053551,-0.10481289647038136,-0.3349493148169947,-0.2742899074378475,-0.04976960488520553,0.41290850026886616,0.037316550393627954,0.5758891526317392,-0.7825164253843461,-0.6738899295726358,-0.7039811868468937
2024-05-31,0.2877986020933604,-0.046761901110390434,0.334216792255243,-0.09699054869034723,-0.3573727726676402,-0.29101667818166854,-0.04789813490946002,0.43095959777561327,-0.039207874830592224,0.5994306287816421,-0.6647524346257383,-0.5435081978192532,-0.7549151113463128
2024-06-07,0.3042257835471355,-0.022538713505461962,0.33330753548062386,-0.04262776819697098,-0.30056767821129843,-0.22891555338930028,-0.012643177393591776,0.4235327035101213,-0.11715095722142997,0.5677190208253271,-0.6685158156759997,-0.45033588264377844,-0.7908142474166547
2024-06-14,0.29323565072880237,-0.01585227994034037,0.31848748304972846,0.03784750581561329,-0.2188733385271819,-0.14627958137283137,0.01775389772639864,0.3810373466273732,-0.13603120175439443,0.5456178402419285,-0.7361337851104323,-0.43535261640481693,-0.8170369500966392
2024-06-21,0.29716828648377624,0.002031585331174972,0.3013340885838791,0.09862554770012702,-0.14607042541977608,-0.06171858762153322,0.04850257455385696,0.3031010172507044,-0.14093271099404314,0.5124578566910657,-0.8096865502979925,-0.43928696988179133,-0.8356914882019097
2024-06-28,0.32507720992770656,0.03271294508629891,0.27202403721101626,0.16484411803704044,-0.06805658949194786,-0.0024546133981387178,0.06534399384876782,0.23584815904141657,-0.15017848738194534,0.47427689682028723,-0.8661256003869788,-0.4450041780476083,-0.8506175011241738
2024-07-05,0.36153009817575266,0.08740592377260903,0.22983996421345074,0.20482713551155027,-0.008833135870255832,0.04973805508844487,0.06785745389272693,0.1649943573434982,-0.14481439313871095,0.43813707991907375,-0.8725090118659488,-0.4299085374091252,-0.9295381966056884
2024-07-12,0.38665826642841994,0.1121708208955001,0.21020762863491035,0.26190006302329794,0.05731436961018195,0.10272204701275787,0.07150063617452482,0.03305546004483789,-0.15888987510619262,0.40711855055264023,-0.8532873052441445,-0.3945666081296876,-0.9485686439194759
2024-07-19,0.3740986750937592,0.08952646246215296,0.20874947231960705,0.30340774693336625,0.10722800388112036,0.1450487781759708,0.07980530275339276,-0.06070656164902599,-0.18117598532709805,0.3799809249378401,-0.7643460781308393,-0.3279038387633674,-0.9260732199350694
2024-07-26,0.33938412445785937,0.05206060487519956,0.20995416499830136,0.34897922357441996,0.16271232438713928,0.18674762702777314,0.07736819456535358,-0.11267808231036733,-0.19653296112481083,0.350323990265613,-0.702268738630215,-0.2772946581125566,-0.8543220263062472
2024-08-02,0.2755112652038124,0.009273739859517932,0.20170002421140684,0.37360919772779577,0.21533056555163171,0.23062592030911108,0.09056146342212143,-0.12633605823205662,-0.20374277026202497,0.32020039133113604,-0.6278900389016072,-0.2598721666327434,-0.7463482440206458
2024-08-09,0.21556201013581072,-0.02644741040131552,0.17988103376851342,0.39287718886592493,0.2619731820256296,0.272571131098358,0.10371177250550825,-0.1525941993513822,-0.20325906407931965,0.29174898303589825,-0.5468486946220561,-0.25505228742960323,-0.625898246357095
2024-08-16,0.16565899194557548,-0.05566667921755993,0.1561779954698335,0.4004878443679787,0.2951870044165076,0.30776776406419143,0.12017898060448282,-0.19405696174916867,-0.20594220395698148,0.26339616412806355,-0.44562426267039396,-0.23387742023035868,-0.5161099109541839
2024-08-23,0.12121079759997691,-0.08504943637015279,0.13582503531190973,0.39617517489037674,0.31724011890333337,0.3355707747304184,0.13358913833869848,-0.26234286002863855,-0.20882072046783048,0.24275053664542742,-0.3356393083733238,-0.20256948600910035,-0.41097570576645315
2024-08-30,0.07915977305281677,-0.11448767638051535,0.11512645268033758,0.4102443767636088,0.3567674458112498,0.36788753235445554,0.14227975549563104,-0.323888353042793,-0.21137580322543925,0.22026801008597005,-0.24781583142332902,-0.1602478481981448,-0.3144956736098371
2024-09-06,0.010749956596622853,-0.14642428017030784,0.09468497311785373,0.4180425335529663,0.3878903433286752,0.396298651960005,0.1564694687078758,-0.3309143343563707,-0.21122774259594057,0.19230096183732673,-0.15603251526733936,-0.09176601901335307,-0.2122116960753856
2024-09-13,-0.03489472608431326,-0.17096191389946294,0.06886774388669378,0.43763198287655813,0.42310832505375096,0.43428138202354005,0.1723185312089664,-0.37925248908910014,-0.21462837919288022,0.1702623373052634,-0.09214141788415023,-0.038291944686460105,-0.10799305290174446
2024-09-20,-0.07399363738714862,-0.1979273754783631,0.03160210683460339,0.44789983828213775,0.432119586806777,0.4426402346905584,0.16482380050559803,-0.2714016824225286,-0.21832288530446156,0.15365127992642877,-0.00716979497109782,0.037933354516265255,-0.035809055637328085
2024-09-27,-0.11811558381961795,-0.2228279761895994,0.007700931410599604,0.4903618750290489,0.44233607706317546,0.4415870579842325,0.14656877621913836,-0.15595263767178208,-0.23631725465377817,0.1552824169685559,0.0640096012559114,0.09773594013317974,0.03322396081275325
2024-10-04,-0.14476372989067485,-0.2582025517494737,0.005734071484962267,0.48307639035403316,0.40238993925226396,0.3969229873573671,0.12048621619844321,0.01029770209096284,-0.25145220936085755,0.21717117868555125,0.05547734269729681,0.12101995570756345,0.07616579580287908
2024-10-11,-0.1492521982703268,-0.2709885231987884,0.006236644302308726,0.4590440232125591,0.34260744817214256,0.31668755484946864,0.06847358190523846,0.12655426204607845,-0.25099880680274944,0.27787492112047313,0.00927896489498757,0.13088397040556105,0.10884976068541491
2024-10-18,-0.12200549567542751,-0.2658525802224262,0.020473095994259206,0.4355351212012621,0.29320180965298936,0.25991781399033265,0.023850495126893488,0.07988534926117694,-0.2618548562212418,0.37356133344728926,-0.08591731777881696,0.1315642877662039,0.13883532068961427
2024-10-25,-0.09654613160813826,-0.24723449920134757,0.02845719619572847,0.3998552217025309,0.23578891880078312,0.18216312323925338,-0.017640261405054466,0.07803323028345283,-0.25904569117731563,0.4519673438521142,-0.18605887591731973,0.10057416792127183,0.16023656535590244
2024-11-01,-0.0936622471920372,-0.2333711593935428,0.041117783516152015,0.34118518464524367,0.15887974650789086,0.09736823845106846,-0.050215086064071664,0.18554596628539238,-0.2502267197813738,0.481004801093424,-0.21470333731102836,0.06447653946571422,0.16776858052573398
2024-11-08,-0.07495475901778031,-0.20837958488523892,0.047678629793764665,0.27970963457985465,0.08934995227056157,0.029313190697837083,-0.06710668032179658,0.29179884169117126,-0.24289621997525293,0.48499601288058014,-0.2736292590068041,0.01774613432735348,0.17832577141869366
2024-11-15,-0.05697378844191852,-0.18626767179362658,0.06916247099593842,0.2413160071013475,0.03407984773957895,-0.0327609360097558,-0.08453032573569026,0.3919488554659042,-0.23621289693376504,0.45911049300267465,-0.3320105949531878,-0.04307549620348702,0.19166571924671885
2024-11-22,-0.01597220395879008,-0.15313221337427146,0.07757536237005543,0.186252680915367,-0.02192401443890886,-0.08214618673856286,-0.10222494103644728,0.48228065880654075,-0.22377179435388472,0.4415208155130187,-0.38565056784413826,-0.10619463822291281,0.18948440623790083
2024-11-29,0.03231621131964583,-0.12484180835826617,0.09269238523496358,0.14503203677927756,-0.0637736543145127,-0.1180778071365298,-0.10614333952662013,0.5712716484168783,-0.22088256424159813,0.40633977881464256,-0.45583942090242147,-0.18318383471001365,0.2006289542123341
2024-12-06,0.07919221998941856,-0.09061996011266363,0.12104959860942896,0.1241492206646828,-0.08230024025148426,-0.11937087731476469,-0.09953124652627436,0.6624565824160706,-0.22646367902145859,0.3526761177295734,-0.5456947494572257,-0.2739839586576052,0.21277415632582886
2024-12-13,0.1029498166255069,-0.055051180805289535,0.14857288661106569,0.09715664174584288,-0.1208723342262259,-0.15627175026233503,-0.11769550332980261,0.7525338305199695,-0.2130150214429453,0.3078947038232825,-0.6037988138185417,-0.3474203932271806,0.20010144143520273
2024-12-20,0.07797210624719927,-0.03791030079441984,0.20857264318832366,0.07281713579452376,-0.16354528271226326,-0.20206661882747087,-0.13799711971407772,0.8527850823313837,-0.19425640369544384,0.2523335768905247,-0.6290834399577702,-0.40611609187013115,0.19388004906225792
2024-12-27,0.09306851109066908,0.0072957418195834026,0.22757936873632525,0.06380144418033157,-0.21588403625109903,-0.27863476724623965,-0.1759699788838277,0.945097564359027,-0.1673063245682031,0.20074006697501923,-0.6426149965170341,-0.44837891316588685,0.17573512373468844
2025-01-03,0.0953533217912938,0.060711476188483104,0.22370383541678598,0.09228688164081095,-0.2630722398972011,-0.34928841993495274,-0.23142070103944476,0.9787326938179739,-0.10996576152048898,0.1541310946598168,-0.659894042909367,-0.5311616024473923,0.1747356185703655
2025-01-10,0.055713376084618876,0.08975938974038293,0.1943776240248035,0.11491496040675586,-0.3041543206560423,-0.4258301896713186,-0.2813206549302991,1.0052787175128834,-0.022107335810113635,0.14888665059554682,-0.6897175560841622,-0.5914688329667768,0.17679002760406728
2025-01-17,-0.00245926552561692,0.07327409032103775,0.17437832469399658,0.07824370208075507,-0.33363501556548375,-0.44129887095649095,-0.3165596129532093,1.1216505820671347,0.054759586699096044,0.13946756870104435,-0.6800584764385738,-0.6588409321139307,0.18558414694944883
2025-01-24,0.015102463054958395,0.09704733417776383,0.1717866868685145,0.053961525421015136,-0.3845663754179832,-0.5254866742398724,-0.3768499742986756,1.2154446690398177,0.06996794040966148,0.16892486410684948,-0.6414393307140094,-0.6999772071048396,0.16741761515784617
2025-01-31,0.0020975069730409645,0.10022146600932468,0.167769860376731,0.11278162157269304,-0.36629922010892185,-0.5278695088151643,-0.4124164535023178,1.1570796916776132,0.08705048356435924,0.2460963531416886,-0.7015766337681791,-0.8210769788351491,0.19832905117669014
2025-02-07,0.0058912419775381634,0.12260446056567367,0.10604685053386376,0.028968300816532885,-0.3987124749727449,-0.5374889959942936,-0.39638947107960015,1.2206102421664202,0.07872692841192024,0.33623505363323375,-0.7442465319733156,-0.8487455032435246,0.2362250378048433
2025-02-14,-0.0011185397962349937,0.18777209238478132,0.09189657779582502,-0.015170063035184589,-0.42468551648669517,-0.5394490216419292,-0.3961174706561654,1.1672408824043345,0.02767217097629516,0.40082522800665954,-0.7707231000844313,-0.8996870393297596,0.33112152426869845
2025-02-21,0.0010707287312447878,0.2128036029055047,0.03211831187224144,-0.030944683276065005,-0.4356134032332216,-0.5440713118880866,-0.4048789485467988,1.2623781150148325,-0.041990946613471046,0.4675509613182201,-0.7865199663630088,-0.8888479870416316,0.4458742020941838
2025-02-28,-0.057937243581286,0.1811801757941351,0.024238883293697153,0.06438278762717685,-0.34493756402695025,-0.4604602739239021,-0.3687192817370526,1.2793908779300405,-0.05807583371820296,0.44832301648542505,-0.7897080630286917,-0.8692479196201498,0.46647560026839546
2025-03-07,-0.10565543133358965,0.13880656605230168,0.008310020529928786,0.11136929459591212,-0.29099873813772686,-0.40840675100144264,-0.34164841685996294,1.2447405138274807,-0.06858157304370148,0.44157047365070573,-0.7093091112531209,-0.7980099393470576,0.47685964104154177
2025-03-14,-0.14525287372449427,0.10163772765376333,-0.015165327466159742,0.1468420104594388,-0.2379285941115066,-0.3551572267277308,-0.31488167987191534,1.196001112119511,-0.07640880272148298,0.436870901012853,-0.6232928941480533,-0.7162642384968324,0.47903076912560744
2025-03-21,-0.1826436664748247,0.06441433003447677,-0.0381708496064188,0.17747427123792028,-0.18453531438657989,-0.2984174606323814,-0.2866306384752075,1.1492443145613092,-0.08101360804351615,0.4274229153636909,-0.5390586876314666,-0.6316898619962875,0.47528500117747774
2025-03-28,-0.21218083354114187,0.02999541590244771,-0.07071903205479674,0.2137058777155484,-0.13095253790735087,-0.246735634292346,-0.2666784751987818,1.0983945416162142,-0.08407577644885934,0.42966616844063193,-0.4514421821514423,-0.542949080694671,0.4657501186065401
2025-04-04,-0.22196273837702135,0.006476409443298008,-0.08758611636483363,0.2508078576956053,-0.07402381937911767,-0.185410996835304,-0.23396626512016147,1.031006344427781,-0.08479961295510632,0.3994968282976952,-0.3785710743727909,-0.46779459175657423,0.45029263080992354
2025-04-11,-0.22800837630826212,-0.018626925950176277,-0.10454413425310267,0.25920388142052064,-0.034875185679605826,-0.1440920847604245,-0.20648162359226585,0.9514621411533227,-0.08088128909652707,0.38077053587543186,-0.2577800444050633,-0.3601571466565691,0.4552201339467036
2025-04-18,-0.22798692408516266,-0.03908274963394623,-0.11553860456046272,0.2979300661242929,0.03355014263256912,-0.08819924453964725,-0.1840004706318452,0.8830797457472936,-0.06406360105019453,0.3483920414122934,-0.2005788156506368,-0.28593555582787267,0.42121878385670114
2025-04-25,-0.23037489990133328,-0.06273351171624378,-0.13143337410719022,0.29161951900994537,0.07852265321480678,-0.044161011400387355,-0.15624895271118489,0.8125133348382537,-0.06315237716054353,0.3197676700055203,-0.08802484508184114,-0.16727201651073192,0.42489295156359963
2025-05-02,-0.2224671828273673,-0.07243909533192908,-0.14135580785004148,0.2855657029703507,0.11955719822920563,0.004435135737946849,-0.14036242479992814,0.7156599897305589,-0.07829354804128655,0.2835797740803689,0.012416490916440606,-0.061241262417210104,0.4311316790221198
2025-05-09,-0.22424734831514362,-0.08797032915616844,-0.1602865011944531,0.24783514297480394,0.14510604533208388,0.011948494415480343,-0.13143056678132142,0.6321171555488757,-0.0875356054686898,0.27273325639239127,0.1471562437047575,0.06915481177325382,0.4463977262952824
2025-05-16,-0.2203390278799387,-0.08955100239943174,-0.17721009719033054,0.1482783351517992,0.12822508103284636,0.0025539868205062006,-0.14639300332252386,0.6712987809249915,-0.08820138389543254,0.23275908514952198,0.2418945541261161,0.214016478498668,0.4637688681700172
2025-05-23,-0.20394756418438947,-0.08301877050291576,-0.17993783770179042,0.04356211985515128,0.08348793469799944,-0.042491002410698496,-0.1720050124516032,0.7093993640861734,-0.09716816735472729,0.20870309907215429,0.3091170309274569,0.31023243345064766,0.4834452876235484
2025-05-30,-0.1903720398825673,-0.07539551708274823,-0.18274628365944026,-0.02381086730458759,0.048324723181842374,-0.08044974859039122,-0.20530690248955658,0.7517055508087855,-0.11039453936347861,0.1712895194315292,0.3961721453194915,0.4221316280005325,0.49374078173645874
2025-06-06,-0.17667728942801564,-0.06663920139998138,-0.18042246810301993,-0.11550925614365312,-0.02069849745210177,-0.1399103448218534,-0.23001186040085303,0.7807495099126147,-0.09599284554128017,0.13777386052615725,0.4503485912040657,0.5042268448961991,0.4766358016576062
2025-06-13,-0.17269102009104662,-0.06404147402359398,-0.18575868005527266,-0.22102385180926945,-0.09566893560269876,-0.19859951687598001,-0.2620844533532224,0.7790577778277438,-0.05661665603747757,0.13342423405857218,0.5122649180587882,0.5708551662394812,0.43376500540018786
2025-06-20,-0.1664064910350531,-0.05689700722476826,-0.18416870483121406,-0.2892737074227434,-0.14375512490408102,-0.22247577482038003,-0.28594383577058313,0.6299213388068222,-0.009678006789925572,0.11835126877547435,0.5751020712977802,0.5756286436434529,0.3916143459502179
2025-06-27,-0.16447868688536516,-0.05244081440586603,-0.20058139209837564,-0.2691179262306583,-0.12799334800295112,-0.2078668388083107,-0.31798727857023007,0.7629580835896491,0.007028699867800952,0.04875408265395391,0.6816314606629247,0.5856450297144998,0.3328673800891661
2025-07-04,-0.16620671881886334,-0.04514452373005434,-0.20583414288425056,-0.19680920684015546,-0.02222448164293031,-0.16069937189115532,-0.3550798966540411,0.7065052022685253,0.033918779794908434,0.025528838980476466,0.6325279110125849,0.5426910409453233,0.30810786757706604
2025-07-11,-0.14893490086321504,-0.026355724450894732,-0.1895292489137344,-0.21063610901441535,0.0023050801858456246,-0.19247644886597695,-0.3938225990295489,0.6336580947309942,0.0725272599980192,0.029813308372387402,0.5429348321128081,0.45942842984749754,0.2579453692659105
2025-07-18,-0.12648377230683439,0.004438296289534363,-0.16598151055365953,-0.22527243437908295,0.024799082793140702,-0.18816433094252685,-0.48692856622319103,0.6990456452078728,0.08955132495603414,0.027957619245144942,0.45664120010731374,0.3843878120619201,0.2148882243650579
2025-07-25,-0.10747220041193746,0.017831311342386615,-0.14906349715914546,-0.20161305684842445,0.0891678217843039,-0.2216698249903044,-0.5152781182192451,0.7940690475298329,0.09321479248145231,0.008560447787011195,0.38300513443686335,0.31624545988673686,0.17395644642412003
2025-08-01,-0.10111144172235413,0.027670069949981457,-0.13360975483415197,-0.29022761502586647,0.07913044212955382,-0.11707985884777102,-0.5504193402272687,0.851565735419581,0.10325101625291883,0.019275736389051487,0.32237896951875283,0.25950562800483395,0.1396070290923092
2025-08-08,-0.08056913823133938,0.061828025648613935,-0.13963349514735868,-0.29479249791870377,0.1458651445667951,-0.04196958809697848,-0.5612656013948536,0.7259465775977351,0.10015947117491916,0.02928192766488212,0.2678448576395783,0.20508451262193889,0.105259267281365
2025-08-15,-0.0466713077862952,0.09846026024912594,-0.1347469994471325,-0.3345476944055273,0.16756601397006543,0.025013192055265573,-0.5443494787095904,0.6043762550178924,0.08895344700044172,0.018426823639672754,0.2156115806365815,0.15378126310342666,0.07319877405578687
2025-08-22,-0.013207762497999133,0.12880419171320653,-0.12445307024940497,-0.3817665903547977,0.16279871079759556,0.1594273043187029,-0.5460719611401595,0.558619579491377,0.07675231125125201,0.01584455607660032,0.1484473700367217,0.08638799147968021,0.030520534884021656
2025-08-29,0.0033142560054280033,0.140500735905641,-0.11475454508145252,-0.4139530258978511,0.1645977008708867,0.29484999008217927,-0.5330733805373608,0.504258007354422,0.05369732984319417,0.05899826532898881,0.08862585324387592,0.025745358873215017,-0.008121273072832356
2025-09-05,0.02116231835052379,0.15221490009586502,-0.10094843335589242,-0.4109439278794921,0.18838457430814928,0.42155161419525244,-0.5287021268533502,0.3821757482279855,0.030575508223926698,0.09167367944695196,0.04213566554296301,-0.02001374663118944,-0.036755297490262476
2025-09-12,0.04156552656302802,0.16581382693096874,-0.08777726648541537,-0.3291740894821722,0.22886601969692305,0.5344389098031658,-0.5261940369242303,0.2359487463712934,0.004724009367597547,0.1225596600688435,0.03693156330735627,-0.017541883845966763,-0.0322157150872165
2025-09-19,0.05578248041426098,0.1715215416534109,-0.07087863467469896,-0.22190990471125713,0.30279120905787543,0.5707533953669875,-0.4773644353960631,0.10408292513633202,-0.023255947482188427,0.1488309565758311,0.03236197251668466,-0.015371403538744183,-0.028229622385093536
2025-09-26,0.06507059281373083,0.17193374893663646,-0.05602981327323042,-0.13665271219243796,0.3597484819109362,0.5439965355483465,-0.40574031794871235,-0.04634571572973159,-0.03995020144334351,0.20669515781393788,0.028157842689485794,-0.013374511165455528,-0.02456232437294224
2025-10-03,0.08720003248057391,0.17591943554595924,-0.02946961982265829,-0.07104253590955968,0.3559576117763683,0.5425087245612057,-0.2942425554592116,-0.17714687656823982,-0.09334604328103202,0.2751262754178137,0.022913527018072664,-0.010883547661043352,-0.019987663449665877
2025-10-10,0.10174802269488745,0.17784456682754365,-0.0021879457475533458,-0.04387339548879357,0.31251720673737915,0.5422357574466543,-0.18064057364392822,-0.3093901035403188,-0.14163198049569187,0.3551627105298063,0.018144154118783305,-0.008618174145138841,-0.015827299124184076
2025-10-17,0.10013823508379584,0.16238803072974214,0.02695255371888014,0.05697966026743284,0.35747907515735133,0.5157508091099428,-0.03792422121349007,-0.3855819801360691,-0.19061013709868727,0.3587016535496137,0.013854966509207943,-0.006580880727187483,-0.012085804488938683
2025-10-24,0.09667514002701857,0.14863702458654085,0.041698931497408956,0.16891859164479686,0.4226477420257646,0.5029390705313111,0.10928769478423284,-0.3943339563010788,-0.20565078591676644,0.25969259437811437,0.010401376531891039,-0.004940482411808808,-0.009073208736861588
2025-10-31,0.11401132672645908,0.14978583621302188,0.0658647130334235,0.2226565417138885,0.45526612552018686,0.4594523286467129,0.245688890150611,-0.43459518750464926,-0.2172147964739196,0.12784340350715462,0.007235806689937023,-0.00343688891343145,-0.006311855385302754
